<?xml version="1.0"?>
<opencv_storage>
<opencv_ml_svm>
  <format>3</format>
  <svmType>C_SVC</svmType>
  <kernel>
    <type>RBF</type>
    <gamma>2.0000000000000000e-002</gamma></kernel>
  <C>1.</C>
  <term_criteria><epsilon>1.1920928955078125e-007</epsilon>
    <iterations>1000</iterations></term_criteria>
  <var_count>50</var_count>
  <class_count>2</class_count>
  <class_labels type_id="opencv-matrix">
    <rows>2</rows>
    <cols>1</cols>
    <dt>i</dt>
    <data>
      0 1</data></class_labels>
  <sv_total>105</sv_total>
  <support_vectors>
    <_>
      -7.66119242e-001 1.12435175e-002 0. -5.59527993e-001
      1.71344805e+000 -7.55432248e-001 1.92344025e-001 -6.48549438e-001
      -3.82450849e-001 5.15710652e-001 -7.73595273e-001 3.73911321e-001
      1.05352372e-001 1.01817739e+000 -3.75060111e-001 1.21896088e+000
      -4.81976092e-001 -7.90362835e-001 -7.60428607e-002
      -2.21666172e-001 2.59069890e-001 -3.81367236e-001 -6.31777883e-001
      -6.64410710e-001 -7.62430489e-001 -5.24624348e-001 8.06563795e-002
      -2.29220122e-001 -2.82911211e-001 -5.77512741e-001
      -7.76493251e-001 1.72617912e-001 -2.48964831e-001 -6.81410730e-001
      -3.77491653e-001 8.31939504e-002 -5.07184565e-001 1.35218233e-001
      -5.97576916e-001 -7.04818130e-001 -1.04899538e+000 7.85622299e-001
      1.32348120e+000 -5.63743949e-001 -5.76685488e-001 -4.96073902e-001
      -7.55065262e-001 7.81446934e-001 -6.66831374e-001 8.78683984e-001</_>
    <_>
      -7.66119242e-001 8.23586345e-001 -6.44383311e-001 -5.59527993e-001
      -2.73258030e-001 -1.70124143e-001 -8.09231222e-001 3.80102061e-002
      -3.82450849e-001 -6.87614158e-002 -1.19884633e-001 1.18639529e+000
      1.05352372e-001 -6.92597389e-001 -3.75060111e-001 -9.24729049e-001
      2.26884410e-001 3.28847432e+000 -7.60428607e-002 -2.21666172e-001
      7.82644689e-001 -1.52040133e-002 8.40672255e-001 2.88515806e-001
      -7.62430489e-001 -5.24624348e-001 1.49336529e+000 -7.12757409e-001
      -5.42470992e-001 -5.77512741e-001 1.36581278e+000 -7.10330248e-001
      -7.16178060e-001 -8.10214132e-002 -3.77491653e-001 8.31939504e-002
      -5.07184565e-001 1.35218233e-001 -5.97576916e-001 1.96475789e-001
      7.77267694e-001 7.85622299e-001 -8.49735081e-001 -5.63743949e-001
      2.00239243e-003 -4.96073902e-001 -4.65786867e-002 2.09445953e+000
      8.44653010e-001 -7.18420923e-001</_>
    <_>
      -2.80910749e-002 2.44827175e+000 -6.44383311e-001 -5.59527993e-001
      -7.69934535e-001 -7.55432248e-001 -8.09231222e-001
      -6.48549438e-001 -8.46855462e-001 5.15710652e-001 -4.46739972e-001
      1.18639529e+000 -7.52305031e-001 -6.92597389e-001 -9.33783650e-001
      -2.10165709e-001 -4.81976092e-001 1.92886186e+000 -6.86497927e-001
      -2.21666172e-001 -7.88079619e-001 -1.11369371e+000
      -6.31777883e-001 -1.87947437e-001 -7.62430489e-001 1.77303568e-001
      -6.25698149e-001 -2.29220122e-001 -8.02030802e-001
      -5.77512741e-001 -7.76493251e-001 -7.10330248e-001
      -2.48964831e-001 -8.10214132e-002 -9.17566299e-001 2.94546103e+000
      -5.07184565e-001 1.35218233e-001 -5.97576916e-001 -7.04818130e-001
      7.77267694e-001 -5.08080542e-001 -3.06431025e-001 -5.63743949e-001
      2.00239243e-003 -4.96073902e-001 -4.65786867e-002 -5.31565666e-001
      1.60039532e+000 -7.18420923e-001</_>
    <_>
      -2.80910749e-002 -8.01099241e-001 -6.44383311e-001
      -5.59527993e-001 -2.73258030e-001 1.00049210e+000 -8.09231222e-001
      3.80102061e-002 1.47516763e+000 -6.87614158e-002 -4.46739972e-001
      1.18639529e+000 1.05352372e-001 -6.92597389e-001 -9.33783650e-001
      -9.24729049e-001 -1.27545848e-001 5.69249511e-001 -7.60428607e-002
      -2.21666172e-001 -7.88079619e-001 -3.81367236e-001 1.04447171e-001
      -1.87947437e-001 -3.26971173e-001 -5.24624348e-001 8.06563795e-002
      -7.12757409e-001 -8.02030802e-001 -5.77512741e-001 8.30236316e-001
      -7.10330248e-001 -7.16178060e-001 -6.81410730e-001 1.62583008e-001
      6.55647397e-001 -5.07184565e-001 -6.78908288e-001 -5.97576916e-001
      -2.54171193e-001 -1.04899538e+000 7.85622299e-001 -8.49735081e-001
      -5.63743949e-001 -5.76685488e-001 1.41105488e-001 -7.55065262e-001
      -5.31565666e-001 -6.66831374e-001 -1.86052606e-001</_>
    <_>
      -7.66119242e-001 1.12435175e-002 6.44383311e-001 -5.59527993e-001
      1.71344805e+000 -7.55432248e-001 -3.08443576e-001 -6.48549438e-001
      -3.82450849e-001 1.68465471e+000 -4.46739972e-001 -1.25105679e+000
      1.05352372e-001 -6.92597389e-001 7.42387056e-001 -2.10165709e-001
      -8.36406350e-001 -7.90362835e-001 -6.86497927e-001 8.11584294e-001
      -2.64504880e-001 -3.81367236e-001 1.04447171e-001 2.88515806e-001
      -7.62430489e-001 8.79231513e-001 -6.25698149e-001 -7.12757409e-001
      -8.02030802e-001 -5.77512741e-001 -7.76493251e-001
      -2.68856168e-001 2.18248412e-001 -6.81410730e-001 -3.77491653e-001
      1.22810078e+000 -5.07184565e-001 9.49344754e-001 -5.97576916e-001
      -2.54171193e-001 -1.04899538e+000 1.38770878e-001 1.32348120e+000
      -3.87455220e-003 -5.76685488e-001 -4.96073902e-001
      -7.55065262e-001 3.40747213e+000 8.89108405e-002 -7.18420923e-001</_>
    <_>
      -2.80910749e-002 1.12435175e-002 -6.44383311e-001 -5.59527993e-001
      -7.69934535e-001 -1.70124143e-001 1.92344025e-001 -6.48549438e-001
      -8.46855462e-001 -6.87614158e-002 2.06970692e-001 -4.38572705e-001
      -7.52305031e-001 -6.92597389e-001 7.42387056e-001 1.21896088e+000
      -1.27545848e-001 -7.90362835e-001 -6.86497927e-001 8.11584294e-001
      -7.88079619e-001 2.18177533e+000 -6.31777883e-001 -6.64410710e-001
      -3.26971173e-001 1.77303568e-001 2.90607429e+000 -7.12757409e-001
      -2.82911211e-001 5.16921282e-001 -7.76493251e-001 -2.68856168e-001
      -2.48964831e-001 -6.81410730e-001 -9.17566299e-001 8.31939504e-002
      -5.07184565e-001 -6.78908288e-001 -5.97576916e-001 1.96475789e-001
      -1.04899538e+000 -5.08080542e-001 -3.06431025e-001
      -5.63743949e-001 5.80690265e-001 1.41105488e-001 -4.65786867e-002
      -5.31565666e-001 8.89108405e-002 -1.86052606e-001</_>
    <_>
      -2.80910749e-002 -8.01099241e-001 0. -5.59527993e-001
      -2.73258030e-001 -1.70124143e-001 1.92344025e-001 -6.48549438e-001
      5.46358407e-001 -6.87614158e-002 -4.46739972e-001 -4.38572705e-001
      -7.52305031e-001 -1.22339129e-001 -3.75060111e-001
      -2.10165709e-001 2.26884410e-001 5.69249511e-001 -7.60428607e-002
      -2.21666172e-001 -2.64504880e-001 7.17122436e-001 -6.31777883e-001
      -1.87947437e-001 -3.26971173e-001 -5.24624348e-001
      -6.25698149e-001 -7.12757409e-001 -2.82911211e-001
      -5.77512741e-001 2.94659764e-001 1.93851423e+000 -2.48964831e-001
      -8.10214132e-002 -9.17566299e-001 -4.89259481e-001 6.31513968e-002
      -6.78908288e-001 -5.97576916e-001 1.54841673e+000 -1.04899538e+000
      1.38770878e-001 -8.49735081e-001 -3.87455220e-003 -5.76685488e-001
      -4.96073902e-001 -4.65786867e-002 -5.31565666e-001 8.89108405e-002
      -7.18420923e-001</_>
    <_>
      7.09937096e-001 -8.01099241e-001 -6.44383311e-001 -5.59527993e-001
      -2.73258030e-001 1.00049210e+000 -8.09231222e-001 -6.48549438e-001
      1.47516763e+000 -6.53233469e-001 -7.73595273e-001 -1.25105679e+000
      -3.23476315e-001 -1.22339129e-001 -9.33783650e-001
      -9.24729049e-001 -1.27545848e-001 -7.90362835e-001
      -6.86497927e-001 8.11584294e-001 -2.64504880e-001 -1.52040133e-002
      1.04447171e-001 2.88515806e-001 -7.62430489e-001 -5.24624348e-001
      -6.25698149e-001 -2.29220122e-001 -5.42470992e-001
      -5.77512741e-001 -2.40916759e-001 1.05556607e+000 -7.16178060e-001
      -6.81410730e-001 -9.17566299e-001 -1.06171298e+000
      -5.07184565e-001 1.35218233e-001 -5.97576916e-001 -2.54171193e-001
      -1.04899538e+000 1.38770878e-001 -8.49735081e-001 5.55994868e-001
      -5.76685488e-001 -4.96073902e-001 -7.55065262e-001 7.81446934e-001
      8.89108405e-002 -7.18420923e-001</_>
    <_>
      -7.66119242e-001 -8.01099241e-001 0. -5.59527993e-001
      -7.69934535e-001 -1.70124143e-001 -3.08443576e-001
      -6.48549438e-001 -8.46855462e-001 -6.53233469e-001
      -7.73595273e-001 -1.25105679e+000 -7.52305031e-001
      -6.92597389e-001 -9.33783650e-001 -2.10165709e-001
      -8.36406350e-001 -7.90362835e-001 -7.60428607e-002
      -2.21666172e-001 -7.88079619e-001 -7.47530460e-001 1.04447171e-001
      2.88515806e-001 -7.62430489e-001 -5.24624348e-001 -6.25698149e-001
      -2.29220122e-001 -5.42470992e-001 -5.77512741e-001 2.94659764e-001
      -7.10330248e-001 6.85461640e-001 -8.10214132e-002 1.62583008e-001
      -1.06171298e+000 -5.07184565e-001 1.35218233e-001 -5.97576916e-001
      1.96475789e-001 -1.04899538e+000 -5.08080542e-001 -3.06431025e-001
      -5.63743949e-001 -5.76685488e-001 -4.96073902e-001
      -7.55065262e-001 -5.31565666e-001 -6.66831374e-001 3.46315712e-001</_>
    <_>
      1.44796526e+000 -8.01099241e-001 0. 3.43844056e-001
      -2.73258030e-001 4.15183991e-001 -3.08443576e-001 3.80102061e-002
      -8.46855462e-001 -6.87614158e-002 -1.19884633e-001
      -1.25105679e+000 -3.23476315e-001 -1.22339129e-001 1.83663458e-001
      5.04397571e-001 -4.81976092e-001 -7.90362835e-001 -6.86497927e-001
      8.11584294e-001 -7.88079619e-001 3.50959212e-001 8.40672255e-001
      -6.64410710e-001 5.43947399e-001 1.77303568e-001 8.06563795e-002
      2.54317164e-001 -2.33513881e-002 -5.77512741e-001 -7.76493251e-001
      -7.10330248e-001 -2.48964831e-001 -6.81410730e-001
      -3.77491653e-001 -4.89259481e-001 -5.07184565e-001 1.76347125e+000
      2.65921742e-001 -2.54171193e-001 -1.04899538e+000 -5.08080542e-001
      -8.49735081e-001 -3.87455220e-003 -5.76685488e-001 1.41105488e-001
      -7.55065262e-001 -5.31565666e-001 -6.66831374e-001
      -7.18420923e-001</_>
    <_>
      -7.66119242e-001 1.12435175e-002 3.22191668e+000 -5.59527993e-001
      -7.69934535e-001 -7.55432248e-001 -8.09231222e-001 3.80102061e-002
      5.46358407e-001 -6.53233469e-001 -1.19884633e-001 -1.25105679e+000
      -3.23476315e-001 2.72895217e+000 -3.75060111e-001 2.64808750e+000
      -4.81976092e-001 5.69249511e-001 -7.60428607e-002 8.11584294e-001
      -7.88079619e-001 -3.81367236e-001 -6.31777883e-001 7.64979064e-001
      -7.62430489e-001 -5.24624348e-001 -6.25698149e-001
      -7.12757409e-001 -5.42470992e-001 -5.77512741e-001
      -7.76493251e-001 -2.68856168e-001 -2.48964831e-001
      -6.81410730e-001 1.62583008e-001 8.31939504e-002 -5.07184565e-001
      1.35218233e-001 -5.97576916e-001 -2.54171193e-001 -1.04899538e+000
      -5.08080542e-001 -3.06431025e-001 -5.63743949e-001
      -5.76685488e-001 7.78284848e-001 -7.55065262e-001 -5.31565666e-001
      8.44653010e-001 -1.86052606e-001</_>
    <_>
      -7.66119242e-001 8.23586345e-001 0. 3.43844056e-001
      -7.69934535e-001 -7.55432248e-001 6.93131626e-001 -6.48549438e-001
      -8.46855462e-001 -6.87614158e-002 -1.19884633e-001
      -1.25105679e+000 -7.52305031e-001 -6.92597389e-001 7.42387056e-001
      -9.24729049e-001 -8.36406350e-001 -7.90362835e-001
      -6.86497927e-001 1.84483469e+000 -7.88079619e-001 1.08328569e+000
      -6.31777883e-001 -1.87947437e-001 -3.26971173e-001
      -5.24624348e-001 8.06563795e-002 -7.12757409e-001 -5.42470992e-001
      1.06413829e+000 -7.76493251e-001 -2.68856168e-001 -2.48964831e-001
      -8.10214132e-002 -9.17566299e-001 6.55647397e-001 -5.07184565e-001
      -6.78908288e-001 2.85641789e+000 1.96475789e-001 -1.04899538e+000
      1.38770878e-001 -8.49735081e-001 -3.87455220e-003 5.80690265e-001
      7.78284848e-001 6.61907852e-001 -5.31565666e-001 -6.66831374e-001
      -1.86052606e-001</_>
    <_>
      -7.66119242e-001 1.12435175e-002 6.44383311e-001 -5.59527993e-001
      -7.69934535e-001 -7.55432248e-001 -3.08443576e-001
      -6.48549438e-001 -3.82450849e-001 -6.87614158e-002
      -7.73595273e-001 3.73911321e-001 -3.23476315e-001 -6.92597389e-001
      -3.75060111e-001 1.21896088e+000 2.26884410e-001 -7.90362835e-001
      5.34412146e-001 -2.21666172e-001 -2.64504880e-001 -7.47530460e-001
      1.57689738e+000 -6.64410710e-001 -7.62430489e-001 -5.24624348e-001
      -6.25698149e-001 -7.12757409e-001 -2.33513881e-002
      -5.77512741e-001 -2.40916759e-001 -7.10330248e-001
      -7.16178060e-001 -8.10214132e-002 -9.17566299e-001 6.55647397e-001
      -5.07184565e-001 -6.78908288e-001 -5.97576916e-001
      -2.54171193e-001 7.77267694e-001 -5.08080542e-001 2.36873060e-001
      -5.63743949e-001 5.80690265e-001 -4.96073902e-001 -7.55065262e-001
      2.09445953e+000 -6.66831374e-001 -1.86052606e-001</_>
    <_>
      1.44796526e+000 -8.01099241e-001 6.44383311e-001 3.43844056e-001
      -7.69934535e-001 -7.55432248e-001 -8.09231222e-001
      -6.48549438e-001 5.46358407e-001 -6.87614158e-002 -4.46739972e-001
      3.73911321e-001 5.34181058e-001 -6.92597389e-001 1.83663458e-001
      -2.10165709e-001 -4.81976092e-001 3.28847432e+000 -7.60428607e-002
      -2.21666172e-001 1.30621934e+000 -1.52040133e-002 -6.31777883e-001
      2.88515806e-001 5.43947399e-001 -5.24624348e-001 -6.25698149e-001
      -7.12757409e-001 -8.02030802e-001 -5.77512741e-001
      -2.40916759e-001 1.72617912e-001 -7.16178060e-001 5.19367874e-001
      7.02657640e-001 -4.89259481e-001 -5.07184565e-001 -6.78908288e-001
      -5.97576916e-001 6.47122741e-001 7.77267694e-001 -5.08080542e-001
      2.36873060e-001 -5.63743949e-001 -5.76685488e-001 -4.96073902e-001
      -7.55065262e-001 -5.31565666e-001 8.44653010e-001 -7.18420923e-001</_>
    <_>
      -2.80910749e-002 8.23586345e-001 1.28876662e+000 1.24721611e+000
      -7.69934535e-001 -1.70124143e-001 1.92344025e-001 -6.48549438e-001
      1.01076305e+000 -6.87614158e-002 -4.46739972e-001 3.73911321e-001
      -3.23476315e-001 -6.92597389e-001 -3.75060111e-001
      -9.24729049e-001 -4.81976092e-001 1.92886186e+000 -6.86497927e-001
      -2.21666172e-001 2.59069890e-001 7.17122436e-001 -6.31777883e-001
      3.14729548e+000 -3.26971173e-001 -5.24624348e-001 8.06563795e-002
      -2.29220122e-001 -2.82911211e-001 -5.77512741e-001
      -7.76493251e-001 -7.10330248e-001 -7.16178060e-001 5.19367874e-001
      -3.77491653e-001 6.55647397e-001 2.34449553e+000 -6.78908288e-001
      -5.97576916e-001 1.54841673e+000 7.77267694e-001 7.85622299e-001
      2.36873060e-001 -5.63743949e-001 1.73806608e+000 -4.96073902e-001
      6.61907852e-001 7.81446934e-001 8.44653010e-001 -1.86052606e-001</_>
    <_>
      1.44796526e+000 1.12435175e-002 1.93314993e+000 -5.59527993e-001
      1.71344805e+000 -7.55432248e-001 -3.08443576e-001 7.24569798e-001
      8.19537789e-002 -6.53233469e-001 -1.19884633e-001 -4.38572705e-001
      -3.23476315e-001 1.58843565e+000 7.42387056e-001 1.93352425e+000
      -8.36406350e-001 -7.90362835e-001 5.34412146e-001 8.11584294e-001
      -2.64504880e-001 -1.52040133e-002 8.40672255e-001 1.24144244e+000
      -7.62430489e-001 -5.24624348e-001 8.06563795e-002 1.22139168e+000
      -5.42470992e-001 -3.02957390e-002 -7.76493251e-001
      -7.10330248e-001 -7.16178060e-001 1.11975718e+000 1.62583008e-001
      -1.06171298e+000 1.20382333e+000 1.35218233e-001 1.12942040e+000
      -7.04818130e-001 -1.04899538e+000 1.43247378e+000 -3.06431025e-001
      -3.87455220e-003 2.00239243e-003 -4.96073902e-001 -7.55065262e-001
      -5.31565666e-001 8.44653010e-001 -1.86052606e-001</_>
    <_>
      -2.80910749e-002 8.23586345e-001 -6.44383311e-001 -5.59527993e-001
      7.20094979e-001 -1.70124143e-001 -8.09231222e-001 3.80102061e-002
      8.19537789e-002 -6.87614158e-002 -7.73595273e-001 3.73911321e-001
      5.34181058e-001 -6.92597389e-001 -9.33783650e-001 -2.10165709e-001
      -1.27545848e-001 -7.90362835e-001 -6.86497927e-001
      -2.21666172e-001 -2.64504880e-001 -3.81367236e-001 1.04447171e-001
      -1.87947437e-001 -7.62430489e-001 -5.24624348e-001 7.87010849e-001
      -2.29220122e-001 -8.02030802e-001 -5.77512741e-001
      -7.76493251e-001 6.14091992e-001 -2.48964831e-001 -6.81410730e-001
      -9.17566299e-001 8.31939504e-002 -5.07184565e-001 -6.78908288e-001
      -5.97576916e-001 -2.54171193e-001 -1.04899538e+000 7.85622299e-001
      -8.49735081e-001 -5.63743949e-001 -5.76685488e-001
      -4.96073902e-001 6.61907852e-001 2.09445953e+000 -6.66831374e-001
      -7.18420923e-001</_>
    <_>
      -7.66119242e-001 -8.01099241e-001 1.28876662e+000 -5.59527993e-001
      -2.73258030e-001 1.00049210e+000 -3.08443576e-001 -6.48549438e-001
      5.46358407e-001 -6.53233469e-001 -7.73595273e-001 -4.38572705e-001
      1.05352372e-001 -6.92597389e-001 -9.33783650e-001 -9.24729049e-001
      -8.36406350e-001 -7.90362835e-001 -7.60428607e-002 8.11584294e-001
      -7.88079619e-001 -7.47530460e-001 -6.31777883e-001 7.64979064e-001
      1.08488105e-001 -5.24624348e-001 -6.25698149e-001 7.37854421e-001
      4.95768219e-001 -5.77512741e-001 -7.76493251e-001 -2.68856168e-001
      -7.16178060e-001 -6.81410730e-001 -9.17566299e-001
      -1.06171298e+000 6.31513968e-002 -6.78908288e-001 -5.97576916e-001
      -1.15546513e+000 -1.04899538e+000 -5.08080542e-001
      -3.06431025e-001 -5.63743949e-001 -5.76685488e-001 1.41105488e-001
      -7.55065262e-001 -5.31565666e-001 -6.66831374e-001
      -1.86052606e-001</_>
    <_>
      -7.66119242e-001 1.12435175e-002 0. -5.59527993e-001
      1.21677148e+000 -7.55432248e-001 -8.09231222e-001 -6.48549438e-001
      1.47516763e+000 1.68465471e+000 -4.46739972e-001 -1.25105679e+000
      -3.23476315e-001 4.47919130e-001 7.42387056e-001 -9.24729049e-001
      -8.36406350e-001 5.69249511e-001 -6.86497927e-001 1.84483469e+000
      -2.64504880e-001 7.17122436e-001 -6.31777883e-001 -1.87947437e-001
      -3.26971173e-001 8.79231513e-001 -6.25698149e-001 -7.12757409e-001
      -8.02030802e-001 -5.77512741e-001 1.36581278e+000 -2.68856168e-001
      -2.48964831e-001 1.11975718e+000 1.62583008e-001 8.31939504e-002
      6.31513968e-002 9.49344754e-001 1.12942040e+000 -1.15546513e+000
      -1.04899538e+000 -5.08080542e-001 7.80177176e-001 -5.63743949e-001
      -5.76685488e-001 1.41105488e-001 2.07888103e+000 -5.31565666e-001
      1.60039532e+000 3.46315712e-001</_>
    <_>
      -7.66119242e-001 2.44827175e+000 -6.44383311e-001 -5.59527993e-001
      -2.73258030e-001 -7.55432248e-001 6.93131626e-001 -6.48549438e-001
      8.19537789e-002 -6.87614158e-002 -1.19884633e-001 1.18639529e+000
      -7.52305031e-001 -6.92597389e-001 1.85983407e+000 -9.24729049e-001
      -8.36406350e-001 -7.90362835e-001 -6.86497927e-001
      -2.21666172e-001 2.59069890e-001 -7.47530460e-001 -6.31777883e-001
      -1.87947437e-001 -3.26971173e-001 -5.24624348e-001
      -6.25698149e-001 -7.12757409e-001 -5.42470992e-001
      -5.77512741e-001 -2.40916759e-001 -7.10330248e-001
      -2.48964831e-001 1.11975718e+000 1.78280699e+000 -4.89259481e-001
      -5.07184565e-001 -6.78908288e-001 -5.97576916e-001 1.96475789e-001
      -1.04899538e+000 -5.08080542e-001 2.36873060e-001 -5.63743949e-001
      -5.76685488e-001 -4.96073902e-001 -7.55065262e-001 7.81446934e-001
      1.60039532e+000 3.46315712e-001</_>
    <_>
      -2.80910749e-002 -8.01099241e-001 -6.44383311e-001
      -5.59527993e-001 -7.69934535e-001 -1.70124143e-001 1.92344025e-001
      7.24569798e-001 -8.46855462e-001 -6.53233469e-001 -7.73595273e-001
      -1.25105679e+000 -7.52305031e-001 -1.22339129e-001 7.42387056e-001
      -9.24729049e-001 -8.36406350e-001 -7.90362835e-001
      -6.86497927e-001 -1.25491667e+000 -7.88079619e-001
      -1.11369371e+000 1.04447171e-001 -6.64410710e-001 -7.62430489e-001
      -5.24624348e-001 -6.25698149e-001 -2.29220122e-001 2.36208424e-001
      -5.77512741e-001 8.30236316e-001 -7.10330248e-001 -7.16178060e-001
      -6.81410730e-001 -9.17566299e-001 -1.06171298e+000 3.48516750e+000
      -6.78908288e-001 -5.97576916e-001 -7.04818130e-001
      -1.04899538e+000 1.38770878e-001 1.32348120e+000 -5.63743949e-001
      5.80690265e-001 1.41546416e+000 -7.55065262e-001 -5.31565666e-001
      -6.66831374e-001 -7.18420923e-001</_>
    <_>
      -2.80910749e-002 1.12435175e-002 6.44383311e-001 1.24721611e+000
      -7.69934535e-001 1.00049210e+000 1.19391930e+000 3.80102061e-002
      -3.82450849e-001 -6.53233469e-001 8.60681355e-001 -1.25105679e+000
      9.63009715e-001 4.47919130e-001 -3.75060111e-001 -9.24729049e-001
      -4.81976092e-001 -7.90362835e-001 -6.86497927e-001
      -2.21666172e-001 1.30621934e+000 -7.47530460e-001 1.57689738e+000
      -1.87947437e-001 5.43947399e-001 -5.24624348e-001 8.06563795e-002
      -7.12757409e-001 1.01488781e+000 -5.77512741e-001 -7.76493251e-001
      1.49704015e+000 -7.16178060e-001 5.19367874e-001 -9.17566299e-001
      -4.89259481e-001 1.20382333e+000 1.35218233e-001 -5.97576916e-001
      1.54841673e+000 -1.04899538e+000 1.38770878e-001 -8.49735081e-001
      -5.63743949e-001 -5.76685488e-001 1.41105488e-001 6.61907852e-001
      -5.31565666e-001 -6.66831374e-001 8.78683984e-001</_>
    <_>
      -7.66119242e-001 1.12435175e-002 -6.44383311e-001 3.43844056e-001
      -7.69934535e-001 -7.55432248e-001 6.93131626e-001 -6.48549438e-001
      -8.46855462e-001 -6.53233469e-001 -1.19884633e-001
      -4.38572705e-001 -7.52305031e-001 -6.92597389e-001 7.42387056e-001
      -9.24729049e-001 -4.81976092e-001 5.69249511e-001 -6.86497927e-001
      -2.21666172e-001 -7.88079619e-001 -1.11369371e+000
      -6.31777883e-001 1.24144244e+000 -7.62430489e-001 -5.24624348e-001
      8.06563795e-002 2.54317164e-001 -2.82911211e-001 -3.02957390e-002
      -2.40916759e-001 -7.10330248e-001 -7.16178060e-001
      -6.81410730e-001 7.02657640e-001 8.31939504e-002 6.33487344e-001
      -6.78908288e-001 1.12942040e+000 -1.15546513e+000 7.77267694e-001
      -5.08080542e-001 -3.06431025e-001 -5.63743949e-001
      -5.76685488e-001 1.41105488e-001 2.78736758e+000 3.40747213e+000
      2.35613751e+000 8.78683984e-001</_>
    <_>
      -7.66119242e-001 -8.01099241e-001 0. 1.24721611e+000
      -7.69934535e-001 -1.70124143e-001 1.92344025e-001 3.80102061e-002
      -3.82450849e-001 -6.53233469e-001 -4.46739972e-001 3.73911321e-001
      5.34181058e-001 -6.92597389e-001 -9.33783650e-001 -9.24729049e-001
      -8.36406350e-001 -7.90362835e-001 5.34412146e-001 -2.21666172e-001
      7.82644689e-001 3.50959212e-001 1.04447171e-001 -1.87947437e-001
      1.08488105e-001 -5.24624348e-001 -6.25698149e-001 -7.12757409e-001
      -8.02030802e-001 -5.77512741e-001 2.94659764e-001 1.05556607e+000
      -7.16178060e-001 -8.10214132e-002 -9.17566299e-001 8.31939504e-002
      -5.07184565e-001 1.76347125e+000 -5.97576916e-001 1.96475789e-001
      7.77267694e-001 1.38770878e-001 -8.49735081e-001 -5.63743949e-001
      5.80690265e-001 1.41546416e+000 -7.55065262e-001 -5.31565666e-001
      -6.66831374e-001 -7.18420923e-001</_>
    <_>
      -7.66119242e-001 8.23586345e-001 -6.44383311e-001 -5.59527993e-001
      1.21677148e+000 -7.55432248e-001 -8.09231222e-001 -6.48549438e-001
      1.47516763e+000 1.68465471e+000 -4.46739972e-001 2.81136322e+000
      -7.52305031e-001 -1.22339129e-001 -3.75060111e-001
      -9.24729049e-001 -4.81976092e-001 -7.90362835e-001
      -6.86497927e-001 8.11584294e-001 -2.64504880e-001 -3.81367236e-001
      -6.31777883e-001 -1.87947437e-001 -7.62430489e-001
      -5.24624348e-001 7.87010849e-001 2.54317164e-001 -5.42470992e-001
      -5.77512741e-001 -7.76493251e-001 6.14091992e-001 -7.16178060e-001
      5.19367874e-001 -3.77491653e-001 -4.89259481e-001 -5.07184565e-001
      -6.78908288e-001 -5.97576916e-001 1.96475789e-001 -1.04899538e+000
      1.43247378e+000 -3.06431025e-001 -5.63743949e-001 -5.76685488e-001
      -4.96073902e-001 -7.55065262e-001 -5.31565666e-001 8.89108405e-002
      1.41105223e+000</_>
    <_>
      -7.66119242e-001 -8.01099241e-001 1.93314993e+000 2.15058827e+000
      -7.69934535e-001 1.58580017e+000 1.19391930e+000 2.78424859e+000
      -8.46855462e-001 1.68465471e+000 -4.46739972e-001 -1.25105679e+000
      1.05352372e-001 4.47919130e-001 1.30111051e+000 -9.24729049e-001
      -8.36406350e-001 5.69249511e-001 -6.86497927e-001 8.11584294e-001
      1.30621934e+000 7.17122436e-001 8.40672255e-001 -6.64410710e-001
      9.79406714e-001 -5.24624348e-001 7.87010849e-001 2.54317164e-001
      1.27444768e+000 -5.77512741e-001 1.36581278e+000 -7.10330248e-001
      -2.48964831e-001 -6.81410730e-001 -9.17566299e-001 6.55647397e-001
      1.20382333e+000 -6.78908288e-001 2.65921742e-001 -1.15546513e+000
      -1.04899538e+000 -5.08080542e-001 -8.49735081e-001
      -5.63743949e-001 -5.76685488e-001 2.68982291e+000 -7.55065262e-001
      -5.31565666e-001 3.86762190e+000 -7.18420923e-001</_>
    <_>
      -7.66119242e-001 1.12435175e-002 -6.44383311e-001 -5.59527993e-001
      -7.69934535e-001 1.00049210e+000 6.93131626e-001 -6.48549438e-001
      -8.46855462e-001 -6.53233469e-001 -7.73595273e-001
      -1.25105679e+000 -7.52305031e-001 -6.92597389e-001
      -9.33783650e-001 -9.24729049e-001 -8.36406350e-001
      -7.90362835e-001 -7.60428607e-002 -1.25491667e+000 2.59069890e-001
      -1.11369371e+000 -6.31777883e-001 2.88515806e-001 -7.62430489e-001
      -5.24624348e-001 -6.25698149e-001 -7.12757409e-001
      -8.02030802e-001 -5.77512741e-001 -7.76493251e-001
      -7.10330248e-001 -2.48964831e-001 -6.81410730e-001
      -9.17566299e-001 -1.06171298e+000 -5.07184565e-001
      -6.78908288e-001 -5.97576916e-001 -1.15546513e+000
      -1.04899538e+000 -5.08080542e-001 -8.49735081e-001
      -5.63743949e-001 -5.76685488e-001 -4.96073902e-001
      -7.55065262e-001 -5.31565666e-001 -6.66831374e-001
      -7.18420923e-001</_>
    <_>
      7.09937096e-001 1.12435175e-002 3.86629987e+000 1.24721611e+000
      -7.69934535e-001 1.58580017e+000 -3.08443576e-001 3.80102061e-002
      -3.82450849e-001 -6.87614158e-002 5.33826053e-001 -1.25105679e+000
      -3.23476315e-001 1.58843565e+000 -9.33783650e-001 -9.24729049e-001
      -4.81976092e-001 -7.90362835e-001 5.34412146e-001 8.11584294e-001
      1.30621934e+000 -7.47530460e-001 1.04447171e-001 2.88515806e-001
      1.08488105e-001 1.77303568e-001 7.87010849e-001 1.22139168e+000
      1.53400743e+000 5.16921282e-001 -7.76493251e-001 -7.10330248e-001
      -2.48964831e-001 -8.10214132e-002 -3.77491653e-001
      -1.06171298e+000 6.33487344e-001 9.49344754e-001 2.65921742e-001
      1.96475789e-001 -1.04899538e+000 1.43247378e+000 -3.06431025e-001
      5.55994868e-001 -5.76685488e-001 1.41546416e+000 -4.65786867e-002
      -5.31565666e-001 -6.66831374e-001 -1.86052606e-001</_>
    <_>
      2.18599343e+000 -8.01099241e-001 6.44383311e-001 -5.59527993e-001
      7.20094979e-001 -7.55432248e-001 -3.08443576e-001 -6.48549438e-001
      -3.82450849e-001 2.26912665e+000 -4.46739972e-001 3.73911321e-001
      1.05352372e-001 -1.22339129e-001 1.30111051e+000 -2.10165709e-001
      -4.81976092e-001 -7.90362835e-001 -6.86497927e-001
      -2.21666172e-001 -2.64504880e-001 -1.11369371e+000
      -6.31777883e-001 -1.87947437e-001 -3.26971173e-001
      -5.24624348e-001 -6.25698149e-001 -2.29220122e-001
      -5.42470992e-001 -5.77512741e-001 -2.40916759e-001 1.72617912e-001
      -2.48964831e-001 -6.81410730e-001 -3.77491653e-001
      -4.89259481e-001 -5.07184565e-001 3.39172435e+000 -5.97576916e-001
      -2.54171193e-001 -1.04899538e+000 1.38770878e-001 1.32348120e+000
      -5.63743949e-001 -5.76685488e-001 -4.96073902e-001
      -4.65786867e-002 -5.31565666e-001 -6.66831374e-001
      -1.86052606e-001</_>
    <_>
      -2.80910749e-002 1.12435175e-002 0. -5.59527993e-001
      -2.73258030e-001 -1.70124143e-001 -8.09231222e-001
      -6.48549438e-001 5.46358407e-001 -6.53233469e-001 -7.73595273e-001
      -1.25105679e+000 5.34181058e-001 -6.92597389e-001 1.83663458e-001
      -9.24729049e-001 -4.81976092e-001 -7.90362835e-001
      -6.86497927e-001 -2.21666172e-001 -2.64504880e-001
      -3.81367236e-001 8.40672255e-001 -1.87947437e-001 -7.62430489e-001
      1.58115935e+000 8.06563795e-002 -7.12757409e-001 -2.82911211e-001
      -3.02957390e-002 2.94659764e-001 6.14091992e-001 -2.48964831e-001
      -8.10214132e-002 -9.17566299e-001 8.31939504e-002 1.20382333e+000
      9.49344754e-001 2.65921742e-001 1.96475789e-001 7.77267694e-001
      -5.08080542e-001 -8.49735081e-001 -3.87455220e-003 5.80690265e-001
      7.78284848e-001 -4.65786867e-002 -5.31565666e-001 8.89108405e-002
      -7.18420923e-001</_>
    <_>
      -7.66119242e-001 -8.01099241e-001 -6.44383311e-001
      -5.59527993e-001 -7.69934535e-001 -7.55432248e-001
      -8.09231222e-001 -6.48549438e-001 -3.82450849e-001
      -6.53233469e-001 -4.46739972e-001 -4.38572705e-001
      -3.23476315e-001 -6.92597389e-001 7.42387056e-001 1.21896088e+000
      -4.81976092e-001 -7.90362835e-001 -6.86497927e-001
      -2.21666172e-001 -7.88079619e-001 -1.52040133e-002
      -6.31777883e-001 -1.87947437e-001 1.08488105e-001 -5.24624348e-001
      -6.25698149e-001 -7.12757409e-001 -5.42470992e-001
      -5.77512741e-001 8.30236316e-001 -2.68856168e-001 -7.16178060e-001
      -6.81410730e-001 -9.17566299e-001 -4.89259481e-001
      -5.07184565e-001 1.76347125e+000 -5.97576916e-001 -1.15546513e+000
      -1.04899538e+000 -5.08080542e-001 -8.49735081e-001
      -5.63743949e-001 2.00239243e-003 -4.96073902e-001 -7.55065262e-001
      7.81446934e-001 -6.66831374e-001 -7.18420923e-001</_>
    <_>
      1.44796526e+000 1.63592911e+000 0. -5.59527993e-001
      2.23418474e-001 -7.55432248e-001 -8.09231222e-001 -6.48549438e-001
      -8.46855462e-001 2.26912665e+000 -1.19884633e-001 1.18639529e+000
      1.05352372e-001 -6.92597389e-001 1.30111051e+000 5.04397571e-001
      -4.81976092e-001 -7.90362835e-001 5.34412146e-001 -2.21666172e-001
      -2.64504880e-001 -3.81367236e-001 -6.31777883e-001
      -1.87947437e-001 -7.62430489e-001 -5.24624348e-001
      -6.25698149e-001 -7.12757409e-001 -5.42470992e-001
      -5.77512741e-001 2.94659764e-001 -7.10330248e-001 2.18248412e-001
      -8.10214132e-002 1.62583008e-001 1.22810078e+000 -5.07184565e-001
      1.76347125e+000 -5.97576916e-001 -2.54171193e-001 7.77267694e-001
      1.38770878e-001 7.80177176e-001 -3.87455220e-003 -5.76685488e-001
      -4.96073902e-001 -7.55065262e-001 -5.31565666e-001 8.89108405e-002
      3.46315712e-001</_>
    <_>
      -2.80910749e-002 -8.01099241e-001 2.57753325e+000 -5.59527993e-001
      7.20094979e-001 -1.70124143e-001 -3.08443576e-001 -6.48549438e-001
      1.47516763e+000 -6.87614158e-002 -1.19884633e-001 -1.25105679e+000
      -3.23476315e-001 -6.92597389e-001 7.42387056e-001 -9.24729049e-001
      -4.81976092e-001 3.28847432e+000 -6.86497927e-001 -2.21666172e-001
      7.82644689e-001 7.17122436e-001 1.04447171e-001 -1.87947437e-001
      -3.26971173e-001 1.58115935e+000 8.06563795e-002 -2.29220122e-001
      -5.42470992e-001 -5.77512741e-001 -2.40916759e-001 1.49704015e+000
      -7.16178060e-001 5.19367874e-001 -3.77491653e-001 8.31939504e-002
      6.33487344e-001 1.35218233e-001 1.99291921e+000 6.47122741e-001
      7.77267694e-001 -5.08080542e-001 -3.06431025e-001 -5.63743949e-001
      2.00239243e-003 2.05264354e+000 6.61907852e-001 -5.31565666e-001
      8.89108405e-002 -7.18420923e-001</_>
    <_>
      -7.66119242e-001 2.44827175e+000 0. -5.59527993e-001
      -7.69934535e-001 -1.70124143e-001 -3.08443576e-001 7.24569798e-001
      -3.82450849e-001 5.15710652e-001 -1.19884633e-001 3.73911321e-001
      -7.52305031e-001 -1.22339129e-001 1.83663458e-001 -9.24729049e-001
      -1.27545848e-001 -7.90362835e-001 -7.60428607e-002
      -2.21666172e-001 -7.88079619e-001 -7.47530460e-001
      -6.31777883e-001 -6.64410710e-001 -3.26971173e-001
      -5.24624348e-001 -6.25698149e-001 -7.12757409e-001
      -8.02030802e-001 -5.77512741e-001 -2.40916759e-001
      -7.10330248e-001 2.18248412e-001 -6.81410730e-001 -9.17566299e-001
      8.31939504e-002 -5.07184565e-001 -6.78908288e-001 -5.97576916e-001
      1.96475789e-001 -1.04899538e+000 1.38770878e-001 7.80177176e-001
      -5.63743949e-001 -5.76685488e-001 -4.96073902e-001
      -7.55065262e-001 -5.31565666e-001 -6.66831374e-001
      -7.18420923e-001</_>
    <_>
      7.09937096e-001 -8.01099241e-001 6.44383311e-001 -5.59527993e-001
      -7.69934535e-001 -1.70124143e-001 -3.08443576e-001 3.80102061e-002
      5.46358407e-001 -6.53233469e-001 -4.46739972e-001 -1.25105679e+000
      5.34181058e-001 -6.92597389e-001 -3.75060111e-001 -9.24729049e-001
      5.81314683e-001 -7.90362835e-001 -6.86497927e-001 -2.21666172e-001
      -2.64504880e-001 -7.47530460e-001 -6.31777883e-001
      -1.87947437e-001 5.43947399e-001 1.77303568e-001 8.06563795e-002
      -2.29220122e-001 -2.33513881e-002 -3.02957390e-002
      -2.40916759e-001 -7.10330248e-001 -7.16178060e-001
      -6.81410730e-001 -9.17566299e-001 -4.89259481e-001
      -5.07184565e-001 -6.78908288e-001 -5.97576916e-001
      -7.04818130e-001 7.77267694e-001 7.85622299e-001 -3.06431025e-001
      -5.63743949e-001 -5.76685488e-001 -4.96073902e-001
      -7.55065262e-001 -5.31565666e-001 -6.66831374e-001
      -7.18420923e-001</_>
    <_>
      -7.66119242e-001 -8.01099241e-001 -6.44383311e-001
      -5.59527993e-001 -7.69934535e-001 -7.55432248e-001
      -3.08443576e-001 3.80102061e-002 -3.82450849e-001 -6.53233469e-001
      -7.73595273e-001 3.73911321e-001 -7.52305031e-001 -6.92597389e-001
      -9.33783650e-001 -2.10165709e-001 -8.36406350e-001
      -7.90362835e-001 -7.60428607e-002 8.11584294e-001 2.59069890e-001
      -3.81367236e-001 -6.31777883e-001 -1.87947437e-001
      -7.62430489e-001 -5.24624348e-001 -6.25698149e-001
      -2.29220122e-001 -8.02030802e-001 -3.02957390e-002 2.94659764e-001
      1.05556607e+000 -2.48964831e-001 -6.81410730e-001 -9.17566299e-001
      -1.06171298e+000 -5.07184565e-001 -6.78908288e-001
      -5.97576916e-001 -7.04818130e-001 -1.04899538e+000
      -1.15493190e+000 -8.49735081e-001 -5.63743949e-001
      -5.76685488e-001 -4.96073902e-001 -7.55065262e-001
      -5.31565666e-001 8.89108405e-002 1.94342053e+000</_>
    <_>
      -2.80910749e-002 -8.01099241e-001 0. -5.59527993e-001
      -7.69934535e-001 4.15183991e-001 -3.08443576e-001 7.24569798e-001
      1.47516763e+000 5.15710652e-001 -7.73595273e-001 3.73911321e-001
      -3.23476315e-001 -1.22339129e-001 -3.75060111e-001
      -9.24729049e-001 -1.27545848e-001 5.69249511e-001 -6.86497927e-001
      -2.21666172e-001 -7.88079619e-001 3.50959212e-001 -6.31777883e-001
      1.71790564e+000 -7.62430489e-001 -5.24624348e-001 8.06563795e-002
      -2.29220122e-001 -5.42470992e-001 -3.02957390e-002 2.94659764e-001
      -7.10330248e-001 -2.48964831e-001 -8.10214132e-002 1.62583008e-001
      -4.89259481e-001 6.31513968e-002 -6.78908288e-001 -5.97576916e-001
      6.47122741e-001 7.77267694e-001 7.85622299e-001 -3.06431025e-001
      -5.63743949e-001 1.73806608e+000 1.41546416e+000 6.61907852e-001
      3.40747213e+000 8.44653010e-001 -7.18420923e-001</_>
    <_>
      -7.66119242e-001 -8.01099241e-001 -6.44383311e-001
      -5.59527993e-001 7.20094979e-001 -7.55432248e-001 -8.09231222e-001
      -6.48549438e-001 -3.82450849e-001 3.43807077e+000 -1.19884633e-001
      1.18639529e+000 1.05352372e-001 4.47919130e-001 -9.33783650e-001
      5.04397571e-001 -8.36406350e-001 -7.90362835e-001 -6.86497927e-001
      -2.21666172e-001 -2.64504880e-001 -1.11369371e+000 1.04447171e-001
      -1.87947437e-001 -3.26971173e-001 -5.24624348e-001
      -6.25698149e-001 -2.29220122e-001 -5.42470992e-001
      -5.77512741e-001 -7.76493251e-001 1.72617912e-001 -7.16178060e-001
      -6.81410730e-001 -9.17566299e-001 -1.06171298e+000 6.33487344e-001
      9.49344754e-001 -5.97576916e-001 -1.15546513e+000 -1.04899538e+000
      1.38770878e-001 2.36873060e-001 -5.63743949e-001 -5.76685488e-001
      -4.96073902e-001 6.61907852e-001 -5.31565666e-001 8.89108405e-002
      -7.18420923e-001</_>
    <_>
      -7.66119242e-001 1.12435175e-002 6.44383311e-001 -5.59527993e-001
      1.21677148e+000 -7.55432248e-001 -8.09231222e-001 -6.48549438e-001
      5.46358407e-001 1.68465471e+000 -1.19884633e-001 -1.25105679e+000
      -3.23476315e-001 -6.92597389e-001 1.30111051e+000 -2.10165709e-001
      -8.36406350e-001 5.69249511e-001 -6.86497927e-001 8.11584294e-001
      2.59069890e-001 -7.47530460e-001 1.04447171e-001 -1.87947437e-001
      -3.26971173e-001 8.79231513e-001 -6.25698149e-001 -7.12757409e-001
      -8.02030802e-001 5.16921282e-001 2.94659764e-001 -7.10330248e-001
      -7.16178060e-001 5.19367874e-001 7.02657640e-001 -4.89259481e-001
      6.33487344e-001 1.76347125e+000 2.65921742e-001 -7.04818130e-001
      -1.04899538e+000 -5.08080542e-001 1.32348120e+000 -5.63743949e-001
      2.00239243e-003 -4.96073902e-001 6.61907852e-001 -5.31565666e-001
      8.44653010e-001 -1.86052606e-001</_>
    <_>
      7.09937096e-001 1.12435175e-002 -6.44383311e-001 -5.59527993e-001
      1.71344805e+000 -7.55432248e-001 -3.08443576e-001 -6.48549438e-001
      -8.46855462e-001 2.26912665e+000 -4.46739972e-001 3.73911321e-001
      1.05352372e-001 -1.22339129e-001 -3.75060111e-001 -2.10165709e-001
      -8.36406350e-001 -7.90362835e-001 -6.86497927e-001 8.11584294e-001
      7.82644689e-001 -1.11369371e+000 -6.31777883e-001 2.88515806e-001
      -3.26971173e-001 -5.24624348e-001 -6.25698149e-001
      -7.12757409e-001 -5.42470992e-001 -3.02957390e-002
      -7.76493251e-001 -2.68856168e-001 -7.16178060e-001
      -8.10214132e-002 1.62583008e-001 -1.06171298e+000 6.31513968e-002
      1.35218233e-001 -5.97576916e-001 -1.15546513e+000 -1.04899538e+000
      7.85622299e-001 2.36873060e-001 -5.63743949e-001 -5.76685488e-001
      -4.96073902e-001 -7.55065262e-001 -5.31565666e-001
      -6.66831374e-001 -1.86052606e-001</_>
    <_>
      -2.80910749e-002 8.23586345e-001 6.44383311e-001 -5.59527993e-001
      -7.69934535e-001 -7.55432248e-001 -8.09231222e-001 1.41112936e+000
      -3.82450849e-001 -6.87614158e-002 -1.19884633e-001 3.73911321e-001
      1.05352372e-001 -1.22339129e-001 -3.75060111e-001 -9.24729049e-001
      -4.81976092e-001 -7.90362835e-001 -6.86497927e-001 1.84483469e+000
      2.59069890e-001 -7.47530460e-001 -6.31777883e-001 2.88515806e-001
      5.43947399e-001 1.77303568e-001 8.06563795e-002 -7.12757409e-001
      -5.42470992e-001 5.16921282e-001 -2.40916759e-001 1.72617912e-001
      2.18248412e-001 1.72014642e+000 1.24273229e+000 8.31939504e-002
      6.33487344e-001 -6.78908288e-001 1.12942040e+000 -2.54171193e-001
      7.77267694e-001 7.85622299e-001 -3.06431025e-001 -5.63743949e-001
      -5.76685488e-001 -4.96073902e-001 -7.55065262e-001 4.72048473e+000
      8.89108405e-002 -1.86052606e-001</_>
    <_>
      -7.66119242e-001 8.23586345e-001 -6.44383311e-001 -5.59527993e-001
      2.23418474e-001 -1.70124143e-001 1.69470692e+000 -6.48549438e-001
      5.46358407e-001 -6.87614158e-002 -4.46739972e-001 3.73911321e-001
      -3.23476315e-001 -6.92597389e-001 -3.75060111e-001
      -9.24729049e-001 -4.81976092e-001 3.28847432e+000 -6.86497927e-001
      8.11584294e-001 1.30621934e+000 -1.52040133e-002 8.40672255e-001
      -1.87947437e-001 -3.26971173e-001 -5.24624348e-001 7.87010849e-001
      1.22139168e+000 -2.33513881e-002 -5.77512741e-001 -7.76493251e-001
      -2.68856168e-001 -2.48964831e-001 -8.10214132e-002 2.86295605e+000
      -4.89259481e-001 -5.07184565e-001 -6.78908288e-001 1.99291921e+000
      1.09776974e+000 7.77267694e-001 2.72617650e+000 2.36873060e-001
      -5.63743949e-001 -5.76685488e-001 -4.96073902e-001
      -7.55065262e-001 7.81446934e-001 8.89108405e-002 8.78683984e-001</_>
    <_>
      -2.80910749e-002 -8.01099241e-001 -6.44383311e-001
      -5.59527993e-001 -2.73258030e-001 -7.55432248e-001 1.19391930e+000
      1.41112936e+000 1.47516763e+000 5.15710652e-001 8.60681355e-001
      -1.25105679e+000 9.63009715e-001 1.58843565e+000 2.41855764e+000
      -9.24729049e-001 -1.27545848e-001 3.28847432e+000 5.34412146e-001
      -2.21666172e-001 2.59069890e-001 -1.52040133e-002 1.04447171e-001
      -1.87947437e-001 1.08488105e-001 1.77303568e-001 8.06563795e-002
      -2.29220122e-001 -2.33513881e-002 5.16921282e-001 8.30236316e-001
      1.49704015e+000 1.15267491e+000 -6.81410730e-001 1.62583008e-001
      -1.06171298e+000 -5.07184565e-001 -6.78908288e-001 5.44691420e+000
      -2.54171193e-001 7.77267694e-001 -5.08080542e-001 7.80177176e-001
      -5.63743949e-001 -5.76685488e-001 -4.96073902e-001
      -7.55065262e-001 -5.31565666e-001 2.35613751e+000 8.78683984e-001</_>
    <_>
      1.44796526e+000 8.23586345e-001 2.57753325e+000 2.15058827e+000
      7.20094979e-001 1.00049210e+000 1.69470692e+000 2.78424859e+000
      1.47516763e+000 1.68465471e+000 2.06970692e-001 1.18639529e+000
      1.05352372e-001 1.58843565e+000 1.85983407e+000 5.04397571e-001
      -1.27545848e-001 -7.90362835e-001 -6.86497927e-001 1.84483469e+000
      -7.88079619e-001 3.50959212e-001 -6.31777883e-001 1.71790564e+000
      9.79406714e-001 8.79231513e-001 8.06563795e-002 2.18846631e+000
      -2.33513881e-002 -5.77512741e-001 8.30236316e-001 3.70441055e+000
      -7.16178060e-001 5.19367874e-001 2.32288146e+000 1.22810078e+000
      2.34449553e+000 9.49344754e-001 2.85641789e+000 1.99906361e+000
      -1.04899538e+000 2.72617650e+000 2.41008925e+000 -3.87455220e-003
      2.31675410e+000 1.41105488e-001 -4.65786867e-002 -5.31565666e-001
      2.35613751e+000 -1.86052606e-001</_>
    <_>
      -7.66119242e-001 1.12435175e-002 0. -5.59527993e-001
      7.20094979e-001 -1.70124143e-001 6.93131626e-001 3.80102061e-002
      1.01076305e+000 -6.53233469e-001 2.06970692e-001 3.73911321e-001
      1.05352372e-001 -6.92597389e-001 2.41855764e+000 -9.24729049e-001
      1.64460552e+000 -7.90362835e-001 -6.86497927e-001 -2.21666172e-001
      2.35336900e+000 1.08328569e+000 -6.31777883e-001 -1.87947437e-001
      1.08488105e-001 -5.24624348e-001 7.87010849e-001 2.54317164e-001
      7.55328059e-001 -5.77512741e-001 2.43696570e+000 -7.10330248e-001
      -7.16178060e-001 -8.10214132e-002 -9.17566299e-001
      -4.89259481e-001 -5.07184565e-001 -6.78908288e-001 2.65921742e-001
      -7.04818130e-001 7.77267694e-001 -5.08080542e-001 -8.49735081e-001
      1.67573369e+000 -5.76685488e-001 -4.96073902e-001 6.61907852e-001
      -5.31565666e-001 -6.66831374e-001 8.78683984e-001</_>
    <_>
      1.44796526e+000 2.44827175e+000 -6.44383311e-001 3.43844056e-001
      2.23418474e-001 4.15183991e-001 -3.08443576e-001 3.80102061e-002
      1.47516763e+000 -6.87614158e-002 -1.19884633e-001 -1.25105679e+000
      -3.23476315e-001 1.01817739e+000 -3.75060111e-001 -9.24729049e-001
      -1.27545848e-001 -7.90362835e-001 -6.86497927e-001 8.11584294e-001
      -2.64504880e-001 -3.81367236e-001 3.78557253e+000 2.88515806e-001
      9.79406714e-001 1.77303568e-001 1.49336529e+000 -7.12757409e-001
      -2.33513881e-002 5.16921282e-001 2.94659764e-001 -2.68856168e-001
      1.15267491e+000 1.11975718e+000 7.02657640e-001 8.31939504e-002
      6.33487344e-001 -6.78908288e-001 -5.97576916e-001 2.44971061e+000
      -1.04899538e+000 -5.08080542e-001 7.80177176e-001 1.67573369e+000
      1.15937817e+000 -4.96073902e-001 -7.55065262e-001 -5.31565666e-001
      8.89108405e-002 8.78683984e-001</_>
    <_>
      -7.66119242e-001 1.12435175e-002 1.28876662e+000 -5.59527993e-001
      -7.69934535e-001 -1.70124143e-001 -8.09231222e-001
      -6.48549438e-001 -8.46855462e-001 -6.53233469e-001
      -4.46739972e-001 -1.25105679e+000 -7.52305031e-001
      -6.92597389e-001 -9.33783650e-001 -9.24729049e-001
      -4.81976092e-001 -7.90362835e-001 -6.86497927e-001
      -1.25491667e+000 2.59069890e-001 -7.47530460e-001 -6.31777883e-001
      1.24144244e+000 -3.26971173e-001 -5.24624348e-001 8.06563795e-002
      -2.29220122e-001 -2.82911211e-001 -3.02957390e-002
      -7.76493251e-001 -7.10330248e-001 -2.48964831e-001
      -6.81410730e-001 7.02657640e-001 -1.06171298e+000 6.31513968e-002
      -6.78908288e-001 2.65921742e-001 -7.04818130e-001 -1.04899538e+000
      7.85622299e-001 -8.49735081e-001 -3.87455220e-003 5.80690265e-001
      1.41105488e-001 -7.55065262e-001 -5.31565666e-001 -6.66831374e-001
      3.46315712e-001</_>
    <_>
      1.44796526e+000 -8.01099241e-001 -6.44383311e-001 3.05396032e+000
      -2.73258030e-001 4.15183991e-001 6.93131626e-001 3.80102061e-002
      1.01076305e+000 5.15710652e-001 -4.46739972e-001 2.81136322e+000
      -7.52305031e-001 1.01817739e+000 1.85983407e+000 5.04397571e-001
      9.35744941e-001 5.69249511e-001 -6.86497927e-001 -2.21666172e-001
      7.82644689e-001 -3.81367236e-001 1.57689738e+000 -1.87947437e-001
      -3.26971173e-001 -5.24624348e-001 -6.25698149e-001
      -7.12757409e-001 7.55328059e-001 -3.02957390e-002 1.36581278e+000
      6.14091992e-001 6.85461640e-001 -8.10214132e-002 7.02657640e-001
      6.55647397e-001 6.31513968e-002 1.35218233e-001 1.12942040e+000
      -7.04818130e-001 -1.04899538e+000 7.85622299e-001 7.80177176e-001
      -3.87455220e-003 5.80690265e-001 2.05264354e+000 1.37039447e+000
      -5.31565666e-001 -6.66831374e-001 -1.86052606e-001</_>
    <_>
      2.18599343e+000 -8.01099241e-001 6.44383311e-001 -5.59527993e-001
      7.20094979e-001 -7.55432248e-001 -3.08443576e-001 3.80102061e-002
      1.47516763e+000 1.10018265e+000 2.06970692e-001 -1.25105679e+000
      -3.23476315e-001 -1.22339129e-001 1.85983407e+000 -2.10165709e-001
      1.64460552e+000 -7.90362835e-001 -7.60428607e-002 -1.25491667e+000
      2.59069890e-001 3.64642811e+000 1.57689738e+000 -6.64410710e-001
      9.79406714e-001 1.77303568e-001 7.87010849e-001 2.18846631e+000
      -2.33513881e-002 -3.02957390e-002 1.36581278e+000 1.05556607e+000
      2.55431461e+000 5.19367874e-001 -3.77491653e-001 -1.06171298e+000
      6.31513968e-002 1.35218233e-001 2.65921742e-001 3.35100460e+000
      -1.04899538e+000 7.85622299e-001 -8.49735081e-001 5.55994868e-001
      2.00239243e-003 -4.96073902e-001 -7.55065262e-001 -5.31565666e-001
      4.62336397e+000 2.47578883e+000</_>
    <_>
      -2.80910749e-002 1.12435175e-002 -6.44383311e-001 -5.59527993e-001
      -7.69934535e-001 -7.55432248e-001 -8.09231222e-001 3.80102061e-002
      -8.46855462e-001 -6.53233469e-001 -7.73595273e-001
      -4.38572705e-001 -7.52305031e-001 -6.92597389e-001
      -9.33783650e-001 -9.24729049e-001 5.81314683e-001 -7.90362835e-001
      -7.60428607e-002 -2.21666172e-001 -7.88079619e-001
      -1.11369371e+000 -6.31777883e-001 -1.87947437e-001
      -3.26971173e-001 1.77303568e-001 -6.25698149e-001 -7.12757409e-001
      -5.42470992e-001 -5.77512741e-001 -7.76493251e-001 1.72617912e-001
      -2.48964831e-001 -6.81410730e-001 -3.77491653e-001
      -1.06171298e+000 6.31513968e-002 -6.78908288e-001 -5.97576916e-001
      6.47122741e-001 -1.04899538e+000 -5.08080542e-001 -8.49735081e-001
      -5.63743949e-001 -5.76685488e-001 -4.96073902e-001
      -7.55065262e-001 -5.31565666e-001 8.89108405e-002 -7.18420923e-001</_>
    <_>
      2.92402148e+000 -8.01099241e-001 1.93314993e+000 3.43844056e-001
      -7.69934535e-001 -7.55432248e-001 6.93131626e-001 1.41112936e+000
      -3.82450849e-001 -6.53233469e-001 -7.73595273e-001
      -1.25105679e+000 -3.23476315e-001 4.47919130e-001 7.42387056e-001
      5.04397571e-001 9.35744941e-001 1.92886186e+000 5.34412146e-001
      -2.21666172e-001 7.82644689e-001 -7.47530460e-001 -6.31777883e-001
      2.88515806e-001 -7.62430489e-001 -5.24624348e-001 -6.25698149e-001
      2.54317164e-001 -2.82911211e-001 5.16921282e-001 -7.76493251e-001
      -2.68856168e-001 1.15267491e+000 -6.81410730e-001 -9.17566299e-001
      1.80055428e+000 -5.07184565e-001 1.76347125e+000 2.65921742e-001
      -1.15546513e+000 -1.04899538e+000 -5.08080542e-001
      -3.06431025e-001 1.11586428e+000 -5.76685488e-001 7.78284848e-001
      -4.65786867e-002 -5.31565666e-001 -6.66831374e-001 8.78683984e-001</_>
    <_>
      -2.80910749e-002 8.23586345e-001 6.44383311e-001 2.15058827e+000
      7.20094979e-001 -1.70124143e-001 -8.09231222e-001 -6.48549438e-001
      1.93957233e+000 -6.87614158e-002 -1.19884633e-001 -4.38572705e-001
      -3.23476315e-001 2.15869379e+000 1.83663458e-001 1.21896088e+000
      -1.27545848e-001 -7.90362835e-001 5.34412146e-001 -2.21666172e-001
      1.30621934e+000 3.50959212e-001 1.04447171e-001 -6.64410710e-001
      5.43947399e-001 8.79231513e-001 2.90607429e+000 1.70492899e+000
      -2.82911211e-001 -3.02957390e-002 -7.76493251e-001 1.72617912e-001
      1.15267491e+000 -8.10214132e-002 1.62583008e-001 1.22810078e+000
      6.31513968e-002 1.35218233e-001 2.85641789e+000 6.47122741e-001
      -1.04899538e+000 2.07932520e+000 1.32348120e+000 1.67573369e+000
      5.80690265e-001 -4.96073902e-001 -4.65786867e-002 -5.31565666e-001
      8.89108405e-002 -7.18420923e-001</_>
    <_>
      7.09937096e-001 8.23586345e-001 -6.44383311e-001 -5.59527993e-001
      2.23418474e-001 -1.70124143e-001 1.69470692e+000 1.41112936e+000
      1.93957233e+000 -6.87614158e-002 -1.19884633e-001 -1.25105679e+000
      1.39183843e+000 2.15869379e+000 1.85983407e+000 -9.24729049e-001
      5.81314683e-001 5.69249511e-001 -7.60428607e-002 -2.21666172e-001
      -2.64504880e-001 7.17122436e-001 -6.31777883e-001 -1.87947437e-001
      1.08488105e-001 -5.24624348e-001 -6.25698149e-001 -2.29220122e-001
      4.95768219e-001 -5.77512741e-001 2.94659764e-001 6.14091992e-001
      2.55431461e+000 -6.81410730e-001 1.62583008e-001 -1.06171298e+000
      -5.07184565e-001 -6.78908288e-001 4.58341551e+000 1.96475789e-001
      -1.04899538e+000 -5.08080542e-001 1.32348120e+000 -5.63743949e-001
      -5.76685488e-001 -4.96073902e-001 -7.55065262e-001
      -5.31565666e-001 1.60039532e+000 3.46315712e-001</_>
    <_>
      -7.66119242e-001 8.23586345e-001 -6.44383311e-001 3.43844056e-001
      7.20094979e-001 -7.55432248e-001 6.93131626e-001 3.80102061e-002
      -3.82450849e-001 -6.87614158e-002 -4.46739972e-001
      -1.25105679e+000 -7.52305031e-001 -1.22339129e-001 1.83663458e-001
      1.93352425e+000 2.26884410e-001 -7.90362835e-001 5.34412146e-001
      -1.25491667e+000 -2.64504880e-001 -1.11369371e+000
      -6.31777883e-001 -6.64410710e-001 -7.62430489e-001 1.77303568e-001
      -6.25698149e-001 7.37854421e-001 -8.02030802e-001 5.16921282e-001
      8.30236316e-001 -7.10330248e-001 -7.16178060e-001 -6.81410730e-001
      -9.17566299e-001 -4.89259481e-001 6.31513968e-002 1.35218233e-001
      -5.97576916e-001 -1.15546513e+000 -1.04899538e+000 7.85622299e-001
      2.36873060e-001 -3.87455220e-003 2.00239243e-003 1.41105488e-001
      -7.55065262e-001 -5.31565666e-001 -6.66831374e-001
      -1.86052606e-001</_>
    <_>
      -2.80910749e-002 8.23586345e-001 2.57753325e+000 -5.59527993e-001
      2.23418474e-001 1.00049210e+000 1.69470692e+000 2.78424859e+000
      5.46358407e-001 5.15710652e-001 -1.19884633e-001 3.73911321e-001
      1.05352372e-001 -1.22339129e-001 7.42387056e-001 5.04397571e-001
      2.26884410e-001 3.28847432e+000 1.14486718e+000 -2.21666172e-001
      -2.64504880e-001 -7.47530460e-001 1.04447171e-001 1.24144244e+000
      1.08488105e-001 1.77303568e-001 3.61242890e+000 -2.29220122e-001
      2.36208424e-001 -3.02957390e-002 2.94659764e-001 1.05556607e+000
      1.15267491e+000 2.32053566e+000 3.94310546e+000 -4.89259481e-001
      6.33487344e-001 -6.78908288e-001 2.65921742e-001 -2.54171193e-001
      2.60353065e+000 2.07932520e+000 1.32348120e+000 -5.63743949e-001
      5.80690265e-001 2.05264354e+000 -7.55065262e-001 -5.31565666e-001
      3.11187959e+000 -1.86052606e-001</_>
    <_>
      -2.80910749e-002 1.12435175e-002 -6.44383311e-001 1.24721611e+000
      1.21677148e+000 1.00049210e+000 2.69628191e+000 7.24569798e-001
      -3.82450849e-001 -6.87614158e-002 2.16810250e+000 4.43633127e+000
      1.82066703e+000 1.01817739e+000 2.41855764e+000 -2.10165709e-001
      -1.27545848e-001 -7.90362835e-001 -7.60428607e-002 2.87808514e+000
      2.35336900e+000 1.81561208e+000 4.52179766e+000 -1.87947437e-001
      -3.26971173e-001 -5.24624348e-001 1.49336529e+000 2.67200351e+000
      -2.82911211e-001 5.16921282e-001 1.36581278e+000 2.82146239e+000
      2.18248412e-001 2.32053566e+000 7.02657640e-001 -1.06171298e+000
      1.77415931e+000 2.57759786e+000 2.65921742e-001 1.99906361e+000
      7.77267694e-001 4.01987934e+000 -3.06431025e-001 -5.63743949e-001
      2.31675410e+000 7.78725815e+000 -7.55065262e-001 -5.31565666e-001
      2.35613751e+000 -7.18420923e-001</_>
    <_>
      3.66205001e+000 -8.01099241e-001 0. 1.24721611e+000
      7.20094979e-001 1.00049210e+000 -3.08443576e-001 -6.48549438e-001
      2.40397692e+000 -6.53233469e-001 -7.73595273e-001 1.99887931e+000
      5.34181058e-001 -1.22339129e-001 7.42387056e-001 1.21896088e+000
      2.26884410e-001 -7.90362835e-001 -7.60428607e-002 1.84483469e+000
      2.87694359e+000 1.44944882e+000 1.04447171e-001 1.71790564e+000
      5.43947399e-001 1.58115935e+000 7.87010849e-001 -7.12757409e-001
      4.95768219e-001 1.06413829e+000 8.30236316e-001 1.93851423e+000
      -2.48964831e-001 1.72014642e+000 1.24273229e+000 1.22810078e+000
      1.20382333e+000 -6.78908288e-001 1.99291921e+000 1.96475789e-001
      -1.04899538e+000 2.07932520e+000 2.41008925e+000 3.91521144e+000
      5.80690265e-001 7.78284848e-001 6.61907852e-001 7.81446934e-001
      8.44653010e-001 1.41105223e+000</_>
    <_>
      -7.66119242e-001 -8.01099241e-001 0. -5.59527993e-001
      2.23418474e-001 -7.55432248e-001 -8.09231222e-001 -6.48549438e-001
      8.19537789e-002 -6.53233469e-001 -4.46739972e-001 -1.25105679e+000
      1.05352372e-001 -1.22339129e-001 -9.33783650e-001 -9.24729049e-001
      2.26884410e-001 5.69249511e-001 -7.60428607e-002 -2.21666172e-001
      -7.88079619e-001 -3.81367236e-001 8.40672255e-001 7.64979064e-001
      1.41486597e+000 -5.24624348e-001 -6.25698149e-001 -7.12757409e-001
      -2.82911211e-001 -5.77512741e-001 8.30236316e-001 1.72617912e-001
      -7.16178060e-001 -6.81410730e-001 1.24273229e+000 -1.06171298e+000
      1.20382333e+000 1.35218233e-001 -5.97576916e-001 -1.15546513e+000
      -1.04899538e+000 -5.08080542e-001 -8.49735081e-001
      -3.87455220e-003 -5.76685488e-001 -4.96073902e-001
      -7.55065262e-001 -5.31565666e-001 8.89108405e-002 8.78683984e-001</_>
    <_>
      2.92402148e+000 8.23586345e-001 2.57753325e+000 -5.59527993e-001
      7.20094979e-001 -7.55432248e-001 1.69470692e+000 -6.48549438e-001
      8.19537789e-002 5.15710652e-001 8.37835407e+000 -1.25105679e+000
      5.34181058e-001 1.01817739e+000 1.85983407e+000 -2.10165709e-001
      3.41675687e+000 1.92886186e+000 1.14486718e+000 -1.25491667e+000
      1.30621934e+000 2.91410184e+000 4.52179766e+000 -1.87947437e-001
      1.08488105e-001 2.28308725e+000 3.61242890e+000 2.18846631e+000
      4.38916540e+000 1.06413829e+000 8.30236316e-001 2.82146239e+000
      5.35759401e+000 -6.81410730e-001 -3.77491653e-001 1.22810078e+000
      6.33487344e-001 2.57759786e+000 1.99291921e+000 3.35100460e+000
      -1.04899538e+000 -5.08080542e-001 2.36873060e-001 -5.63743949e-001
      2.00239243e-003 -4.96073902e-001 6.61907852e-001 -5.31565666e-001
      8.89108405e-002 8.78683984e-001</_>
    <_>
      -7.66119242e-001 -8.01099241e-001 -6.44383311e-001
      -5.59527993e-001 -7.69934535e-001 1.58580017e+000 6.93131626e-001
      7.24569798e-001 -8.46855462e-001 -6.53233469e-001 -4.46739972e-001
      -4.38572705e-001 9.63009715e-001 4.47919130e-001 -3.75060111e-001
      -9.24729049e-001 2.26884410e-001 -7.90362835e-001 -7.60428607e-002
      -2.21666172e-001 2.35336900e+000 -1.11369371e+000 1.04447171e-001
      -1.87947437e-001 -3.26971173e-001 1.77303568e-001 -6.25698149e-001
      7.37854421e-001 7.55328059e-001 -5.77512741e-001 -7.76493251e-001
      -2.68856168e-001 1.15267491e+000 -8.10214132e-002 1.24273229e+000
      -4.89259481e-001 -5.07184565e-001 -6.78908288e-001
      -5.97576916e-001 -1.15546513e+000 2.60353065e+000 -5.08080542e-001
      -3.06431025e-001 1.11586428e+000 -5.76685488e-001 1.41105488e-001
      -7.55065262e-001 -5.31565666e-001 -6.66831374e-001 3.46315712e-001</_>
    <_>
      -2.80910749e-002 8.23586345e-001 6.44383311e-001 3.43844056e-001
      2.23418474e-001 -1.70124143e-001 -3.08443576e-001 7.24569798e-001
      -3.82450849e-001 -6.53233469e-001 -4.46739972e-001
      -1.25105679e+000 -7.52305031e-001 -6.92597389e-001
      -9.33783650e-001 1.21896088e+000 -4.81976092e-001 -7.90362835e-001
      -7.60428607e-002 -1.25491667e+000 -7.88079619e-001
      -7.47530460e-001 -6.31777883e-001 -6.64410710e-001
      -7.62430489e-001 1.77303568e-001 -6.25698149e-001 1.22139168e+000
      -2.33513881e-002 -3.02957390e-002 1.90138936e+000 -2.68856168e-001
      -7.16178060e-001 -8.10214132e-002 -9.17566299e-001
      -1.06171298e+000 6.33487344e-001 1.76347125e+000 -5.97576916e-001
      -1.15546513e+000 -1.04899538e+000 1.38770878e-001 7.80177176e-001
      -3.87455220e-003 5.80690265e-001 1.41105488e-001 -4.65786867e-002
      -5.31565666e-001 -6.66831374e-001 -1.86052606e-001</_>
    <_>
      7.09937096e-001 8.23586345e-001 1.28876662e+000 3.43844056e-001
      3.70015407e+000 4.15183991e-001 1.92344025e-001 2.78424859e+000
      -8.46855462e-001 3.43807077e+000 1.51439190e+000 1.18639529e+000
      9.63009715e-001 -6.92597389e-001 -9.33783650e-001 -9.24729049e-001
      9.35744941e-001 -7.90362835e-001 -7.60428607e-002 1.84483469e+000
      1.30621934e+000 1.81561208e+000 -6.31777883e-001 1.24144244e+000
      1.41486597e+000 -5.24624348e-001 7.87010849e-001 -7.12757409e-001
      7.55328059e-001 -3.02957390e-002 -7.76493251e-001 -7.10330248e-001
      6.85461640e-001 5.19367874e-001 1.62583008e-001 -4.89259481e-001
      6.31513968e-002 -6.78908288e-001 -5.97576916e-001 1.09776974e+000
      7.77267694e-001 -5.08080542e-001 -8.49735081e-001 5.55994868e-001
      -5.76685488e-001 -4.96073902e-001 -7.55065262e-001
      -5.31565666e-001 8.89108405e-002 8.78683984e-001</_>
    <_>
      -2.80910749e-002 -8.01099241e-001 5.15506649e+000 3.43844056e-001
      1.21677148e+000 1.58580017e+000 1.92344025e-001 1.41112936e+000
      1.01076305e+000 2.85359883e+000 1.18753672e+000 1.18639529e+000
      5.34181058e-001 4.47919130e-001 2.41855764e+000 3.36265063e+000
      -4.81976092e-001 -7.90362835e-001 1.14486718e+000 1.84483469e+000
      -2.64504880e-001 -3.81367236e-001 5.99424791e+000 1.22000971e+001
      1.85032535e+000 8.79231513e-001 2.19971991e+000 7.37854421e-001
      1.53400743e+000 1.06413829e+000 1.36581278e+000 1.05556607e+000
      -2.48964831e-001 5.19367874e-001 5.02325487e+000 8.31939504e-002
      2.34449553e+000 2.57759786e+000 1.12942040e+000 1.99906361e+000
      7.77267694e-001 7.85622299e-001 1.32348120e+000 2.23560309e+000
      2.00239243e-003 1.41105488e-001 6.61907852e-001 -5.31565666e-001
      1.60039532e+000 -1.86052606e-001</_>
    <_>
      -2.80910749e-002 1.12435175e-002 1.28876662e+000 1.24721611e+000
      -2.73258030e-001 1.00049210e+000 1.19391930e+000 -6.48549438e-001
      -8.46855462e-001 5.15710652e-001 -4.46739972e-001 1.99887931e+000
      9.63009715e-001 1.58843565e+000 1.83663458e-001 -9.24729049e-001
      5.81314683e-001 -7.90362835e-001 -7.60428607e-002 -2.21666172e-001
      -2.64504880e-001 -1.52040133e-002 1.04447171e-001 1.24144244e+000
      5.43947399e-001 -5.24624348e-001 7.87010849e-001 -7.12757409e-001
      2.36208424e-001 -3.02957390e-002 -2.40916759e-001 1.05556607e+000
      -7.16178060e-001 -6.81410730e-001 7.02657640e-001 -1.06171298e+000
      -5.07184565e-001 1.35218233e-001 -5.97576916e-001 -7.04818130e-001
      7.77267694e-001 -5.08080542e-001 -8.49735081e-001 -5.63743949e-001
      5.80690265e-001 -4.96073902e-001 6.61907852e-001 7.81446934e-001
      -6.66831374e-001 2.47578883e+000</_>
    <_>
      2.92402148e+000 8.23586345e-001 1.28876662e+000 2.15058827e+000
      -2.73258030e-001 1.58580017e+000 1.19391930e+000 2.09768891e+000
      1.93957233e+000 -6.53233469e-001 -4.46739972e-001 -4.38572705e-001
      1.05352372e-001 -1.22339129e-001 1.83663458e-001 -9.24729049e-001
      -1.27545848e-001 -7.90362835e-001 -6.86497927e-001 2.87808514e+000
      -2.64504880e-001 1.08328569e+000 -6.31777883e-001 -6.64410710e-001
      1.41486597e+000 -5.24624348e-001 8.06563795e-002 -2.29220122e-001
      -2.33513881e-002 5.16921282e-001 8.30236316e-001 -7.10330248e-001
      1.61988819e+000 1.11975718e+000 1.62583008e-001 -1.06171298e+000
      6.33487344e-001 -6.78908288e-001 1.99291921e+000 -7.04818130e-001
      -1.04899538e+000 1.38770878e-001 2.36873060e-001 2.23560309e+000
      1.15937817e+000 1.41546416e+000 6.61907852e-001 -5.31565666e-001
      -6.66831374e-001 -7.18420923e-001</_>
    <_>
      -2.80910749e-002 1.12435175e-002 0. -5.59527993e-001
      7.20094979e-001 2.75641656e+000 1.92344025e-001 3.80102061e-002
      5.46358407e-001 -6.53233469e-001 1.51439190e+000 -1.25105679e+000
      1.05352372e-001 1.01817739e+000 1.30111051e+000 -2.10165709e-001
      -4.81976092e-001 -7.90362835e-001 -6.86497927e-001 8.11584294e-001
      -2.64504880e-001 1.44944882e+000 1.04447171e-001 2.88515806e-001
      9.79406714e-001 1.58115935e+000 7.87010849e-001 1.70492899e+000
      -5.42470992e-001 -5.77512741e-001 2.94659764e-001 1.72617912e-001
      6.85461640e-001 5.19367874e-001 -3.77491653e-001 8.31939504e-002
      6.33487344e-001 9.49344754e-001 2.65921742e-001 -1.15546513e+000
      7.77267694e-001 2.07932520e+000 -3.06431025e-001 -5.63743949e-001
      1.15937817e+000 -4.96073902e-001 6.61907852e-001 -5.31565666e-001
      -6.66831374e-001 -1.86052606e-001</_>
    <_>
      -2.80910749e-002 -8.01099241e-001 1.28876662e+000 -5.59527993e-001
      2.23418474e-001 4.15183991e-001 -8.09231222e-001 1.41112936e+000
      -8.46855462e-001 -6.53233469e-001 5.33826053e-001 -4.38572705e-001
      5.34181058e-001 4.47919130e-001 1.83663458e-001 -9.24729049e-001
      -4.81976092e-001 -7.90362835e-001 -7.60428607e-002 8.11584294e-001
      2.59069890e-001 1.08328569e+000 2.31312251e+000 -6.64410710e-001
      5.43947399e-001 8.79231513e-001 1.49336529e+000 1.22139168e+000
      2.36208424e-001 -5.77512741e-001 -7.76493251e-001 1.05556607e+000
      -2.48964831e-001 1.72014642e+000 7.02657640e-001 6.55647397e-001
      3.48516750e+000 1.35218233e-001 1.12942040e+000 -7.04818130e-001
      -1.04899538e+000 -1.15493190e+000 7.80177176e-001 1.67573369e+000
      2.31675410e+000 -4.96073902e-001 6.61907852e-001 -5.31565666e-001
      8.44653010e-001 -1.86052606e-001</_>
    <_>
      7.09937096e-001 -8.01099241e-001 6.44383311e-001 3.05396032e+000
      -2.73258030e-001 4.15183991e-001 1.92344025e-001 1.41112936e+000
      1.01076305e+000 -6.87614158e-002 -4.46739972e-001 1.99887931e+000
      9.63009715e-001 4.47919130e-001 1.30111051e+000 5.04397571e-001
      -1.27545848e-001 -7.90362835e-001 5.34412146e-001 1.84483469e+000
      2.59069890e-001 3.50959212e-001 8.40672255e-001 7.64979064e-001
      1.85032535e+000 2.28308725e+000 7.87010849e-001 1.22139168e+000
      2.36208424e-001 2.15857244e+000 1.36581278e+000 1.05556607e+000
      -2.48964831e-001 2.32053566e+000 1.24273229e+000 2.94546103e+000
      6.33487344e-001 9.49344754e-001 2.85641789e+000 1.09776974e+000
      7.77267694e-001 2.07932520e+000 7.80177176e-001 1.11586428e+000
      2.00239243e-003 7.78284848e-001 2.07888103e+000 -5.31565666e-001
      8.89108405e-002 -1.86052606e-001</_>
    <_>
      7.09937096e-001 8.23586345e-001 6.44383311e-001 3.43844056e-001
      1.21677148e+000 -1.70124143e-001 -3.08443576e-001 -6.48549438e-001
      1.01076305e+000 -6.53233469e-001 5.33826053e-001 -1.25105679e+000
      -3.23476315e-001 -1.22339129e-001 -9.33783650e-001
      -2.10165709e-001 -4.81976092e-001 -7.90362835e-001
      -7.60428607e-002 -2.21666172e-001 7.82644689e-001 -3.81367236e-001
      3.04934740e+000 2.88515806e-001 -3.26971173e-001 -5.24624348e-001
      -6.25698149e-001 1.22139168e+000 4.95768219e-001 -5.77512741e-001
      -7.76493251e-001 6.14091992e-001 2.18248412e-001 -8.10214132e-002
      1.24273229e+000 8.31939504e-002 6.33487344e-001 -6.78908288e-001
      -5.97576916e-001 -7.04818130e-001 7.77267694e-001 7.85622299e-001
      2.36873060e-001 -3.87455220e-003 1.73806608e+000 -4.96073902e-001
      -4.65786867e-002 -5.31565666e-001 -6.66831374e-001
      -1.86052606e-001</_>
    <_>
      7.09937096e-001 -8.01099241e-001 6.44383311e-001 1.24721611e+000
      2.21012473e+000 1.00049210e+000 -3.08443576e-001 3.80102061e-002
      1.93957233e+000 -6.87614158e-002 -7.73595273e-001 2.81136322e+000
      9.63009715e-001 2.15869379e+000 -9.33783650e-001 -2.10165709e-001
      -8.36406350e-001 -7.90362835e-001 5.34412146e-001 -2.21666172e-001
      2.35336900e+000 -1.52040133e-002 1.57689738e+000 7.64979064e-001
      -3.26971173e-001 -5.24624348e-001 2.19971991e+000 7.37854421e-001
      -2.33513881e-002 -3.02957390e-002 8.30236316e-001 1.05556607e+000
      1.61988819e+000 -6.81410730e-001 1.78280699e+000 8.31939504e-002
      -5.07184565e-001 1.76347125e+000 1.12942040e+000 -7.04818130e-001
      -1.04899538e+000 2.07932520e+000 1.86678529e+000 -5.63743949e-001
      1.15937817e+000 1.41105488e-001 -4.65786867e-002 7.81446934e-001
      8.44653010e-001 -7.18420923e-001</_>
    <_>
      7.09937096e-001 -8.01099241e-001 6.44383311e-001 -5.59527993e-001
      7.20094979e-001 -7.55432248e-001 1.92344025e-001 -6.48549438e-001
      8.19537789e-002 -6.87614158e-002 8.60681355e-001 -1.25105679e+000
      3.53598213e+000 -6.92597389e-001 1.83663458e-001 -9.24729049e-001
      1.29017520e+000 -7.90362835e-001 -7.60428607e-002 -2.21666172e-001
      -2.64504880e-001 2.18177533e+000 -6.31777883e-001 -6.64410710e-001
      5.43947399e-001 -5.24624348e-001 -6.25698149e-001 -2.29220122e-001
      4.95768219e-001 -5.77512741e-001 -7.76493251e-001 -2.68856168e-001
      2.18248412e-001 -6.81410730e-001 1.24273229e+000 -1.06171298e+000
      -5.07184565e-001 1.35218233e-001 -5.97576916e-001 1.96475789e-001
      -1.04899538e+000 3.37302804e+000 -8.49735081e-001 -3.87455220e-003
      5.80690265e-001 -4.96073902e-001 -7.55065262e-001 -5.31565666e-001
      -6.66831374e-001 3.46315712e-001</_>
    <_>
      7.09937096e-001 -8.01099241e-001 0. 1.24721611e+000
      -2.73258030e-001 4.15183991e-001 -8.09231222e-001 7.24569798e-001
      1.93957233e+000 -6.87614158e-002 5.33826053e-001 -4.38572705e-001
      1.05352372e-001 -6.92597389e-001 -9.33783650e-001 -9.24729049e-001
      5.81314683e-001 -7.90362835e-001 -6.86497927e-001 1.84483469e+000
      -7.88079619e-001 1.08328569e+000 -6.31777883e-001 -6.64410710e-001
      5.43947399e-001 -5.24624348e-001 -6.25698149e-001 2.54317164e-001
      4.95768219e-001 -3.02957390e-002 -7.76493251e-001 4.14588451e+000
      -2.48964831e-001 -6.81410730e-001 -9.17566299e-001
      -4.89259481e-001 6.31513968e-002 -6.78908288e-001 -5.97576916e-001
      6.47122741e-001 7.77267694e-001 -1.15493190e+000 2.36873060e-001
      -5.63743949e-001 2.00239243e-003 -4.96073902e-001 6.61907852e-001
      -5.31565666e-001 -6.66831374e-001 2.47578883e+000</_>
    <_>
      -7.66119242e-001 8.23586345e-001 0. -5.59527993e-001
      2.21012473e+000 1.00049210e+000 -8.09231222e-001 3.80102061e-002
      -3.82450849e-001 -6.53233469e-001 2.06970692e-001 -1.25105679e+000
      1.05352372e-001 -6.92597389e-001 7.42387056e-001 1.21896088e+000
      1.29017520e+000 -7.90362835e-001 -6.86497927e-001 -1.25491667e+000
      -7.88079619e-001 7.17122436e-001 -6.31777883e-001 -6.64410710e-001
      -3.26971173e-001 -5.24624348e-001 8.06563795e-002 2.54317164e-001
      7.55328059e-001 -5.77512741e-001 -2.40916759e-001 -2.68856168e-001
      2.18248412e-001 -6.81410730e-001 -3.77491653e-001 -1.06171298e+000
      -5.07184565e-001 2.57759786e+000 -5.97576916e-001 1.96475789e-001
      -1.04899538e+000 -1.15493190e+000 -3.06431025e-001
      -5.63743949e-001 2.00239243e-003 -4.96073902e-001 -7.55065262e-001
      -5.31565666e-001 -6.66831374e-001 8.78683984e-001</_>
    <_>
      -2.80910749e-002 -8.01099241e-001 -6.44383311e-001
      -5.59527993e-001 2.23418474e-001 1.58580017e+000 -8.09231222e-001
      -6.48549438e-001 5.46358407e-001 -6.53233469e-001 -4.46739972e-001
      -4.38572705e-001 -3.23476315e-001 4.47919130e-001 -9.33783650e-001
      5.04397571e-001 -8.36406350e-001 -7.90362835e-001 -6.86497927e-001
      -1.25491667e+000 2.59069890e-001 -7.47530460e-001 1.04447171e-001
      -6.64410710e-001 -7.62430489e-001 8.79231513e-001 -6.25698149e-001
      7.37854421e-001 -2.33513881e-002 5.16921282e-001 -2.40916759e-001
      1.72617912e-001 -7.16178060e-001 -6.81410730e-001 -9.17566299e-001
      -1.06171298e+000 -5.07184565e-001 1.35218233e-001 2.65921742e-001
      -7.04818130e-001 -1.04899538e+000 -1.15493190e+000
      -8.49735081e-001 -5.63743949e-001 2.00239243e-003 -4.96073902e-001
      6.61907852e-001 -5.31565666e-001 8.89108405e-002 -7.18420923e-001</_>
    <_>
      -2.80910749e-002 8.23586345e-001 -6.44383311e-001 -5.59527993e-001
      -2.73258030e-001 -1.70124143e-001 -3.08443576e-001
      -6.48549438e-001 -3.82450849e-001 -6.53233469e-001 5.33826053e-001
      -4.38572705e-001 -3.23476315e-001 -6.92597389e-001 1.85983407e+000
      -9.24729049e-001 1.64460552e+000 -7.90362835e-001 2.36577725e+000
      8.11584294e-001 7.82644689e-001 3.64642811e+000 8.40672255e-001
      -6.64410710e-001 9.79406714e-001 -5.24624348e-001 1.49336529e+000
      -7.12757409e-001 -2.82911211e-001 -5.77512741e-001 2.94659764e-001
      -2.68856168e-001 -2.48964831e-001 -6.81410730e-001 1.78280699e+000
      -1.06171298e+000 -5.07184565e-001 1.35218233e-001 -5.97576916e-001
      2.44971061e+000 -1.04899538e+000 -1.15493190e+000 -8.49735081e-001
      -5.63743949e-001 2.00239243e-003 -4.96073902e-001 -7.55065262e-001
      -5.31565666e-001 -6.66831374e-001 2.47578883e+000</_>
    <_>
      -2.80910749e-002 -8.01099241e-001 0. -5.59527993e-001
      2.23418474e-001 -1.70124143e-001 1.19391930e+000 -6.48549438e-001
      8.19537789e-002 -6.53233469e-001 4.12923479e+000 3.73911321e-001
      1.39183843e+000 1.01817739e+000 -9.33783650e-001 1.21896088e+000
      2.26884410e-001 -7.90362835e-001 -7.60428607e-002 8.11584294e-001
      -2.64504880e-001 -1.52040133e-002 -6.31777883e-001
      -1.87947437e-001 1.08488105e-001 -5.24624348e-001 -6.25698149e-001
      2.54317164e-001 4.95768219e-001 -3.02957390e-002 -2.40916759e-001
      1.05556607e+000 6.85461640e-001 -6.81410730e-001 -3.77491653e-001
      -4.89259481e-001 -5.07184565e-001 1.35218233e-001 -5.97576916e-001
      -1.15546513e+000 -1.04899538e+000 2.07932520e+000 2.36873060e-001
      5.55994868e-001 -5.76685488e-001 -4.96073902e-001 -7.55065262e-001
      -5.31565666e-001 -6.66831374e-001 8.78683984e-001</_>
    <_>
      7.09937096e-001 -8.01099241e-001 0. 3.43844056e-001
      -7.69934535e-001 -1.70124143e-001 6.93131626e-001 1.41112936e+000
      -3.82450849e-001 -6.53233469e-001 -1.19884633e-001
      -1.25105679e+000 9.63009715e-001 -1.22339129e-001 1.83663458e-001
      -2.10165709e-001 -1.27545848e-001 5.69249511e-001 -7.60428607e-002
      -2.21666172e-001 -2.64504880e-001 -3.81367236e-001 1.04447171e-001
      -6.64410710e-001 9.79406714e-001 -5.24624348e-001 7.87010849e-001
      2.54317164e-001 -2.33513881e-002 -5.77512741e-001 2.94659764e-001
      1.05556607e+000 1.15267491e+000 -6.81410730e-001 -9.17566299e-001
      -1.06171298e+000 -5.07184565e-001 1.76347125e+000 -5.97576916e-001
      -7.04818130e-001 -1.04899538e+000 -5.08080542e-001
      -8.49735081e-001 -3.87455220e-003 -5.76685488e-001 7.78284848e-001
      -7.55065262e-001 7.81446934e-001 -6.66831374e-001 -7.18420923e-001</_>
    <_>
      7.09937096e-001 1.63592911e+000 6.44383311e-001 1.24721611e+000
      -7.69934535e-001 -7.55432248e-001 1.69470692e+000 -6.48549438e-001
      8.19537789e-002 -6.53233469e-001 -1.19884633e-001 3.73911321e-001
      5.34181058e-001 2.15869379e+000 3.53600478e+000 -2.10165709e-001
      -4.81976092e-001 -7.90362835e-001 -6.86497927e-001
      -1.25491667e+000 -2.64504880e-001 -7.47530460e-001 8.40672255e-001
      -6.64410710e-001 5.43947399e-001 1.77303568e-001 1.49336529e+000
      -2.29220122e-001 1.53400743e+000 2.15857244e+000 8.30236316e-001
      -7.10330248e-001 6.85461640e-001 1.72014642e+000 1.24273229e+000
      -4.89259481e-001 6.31513968e-002 -6.78908288e-001 2.65921742e-001
      -7.04818130e-001 2.60353065e+000 -5.08080542e-001 2.36873060e-001
      -5.63743949e-001 1.15937817e+000 1.41105488e-001 6.61907852e-001
      -5.31565666e-001 8.44653010e-001 -7.18420923e-001</_>
    <_>
      -2.80910749e-002 1.12435175e-002 0. 2.15058827e+000
      7.20094979e-001 -1.70124143e-001 -3.08443576e-001 7.24569798e-001
      5.46358407e-001 -6.53233469e-001 5.33826053e-001 -1.25105679e+000
      -7.52305031e-001 4.47919130e-001 1.83663458e-001 5.04397571e-001
      -8.36406350e-001 -7.90362835e-001 -7.60428607e-002
      -1.25491667e+000 -7.88079619e-001 -7.47530460e-001
      -6.31777883e-001 -1.87947437e-001 1.08488105e-001 -5.24624348e-001
      8.06563795e-002 -2.29220122e-001 -5.42470992e-001 5.16921282e-001
      1.90138936e+000 -2.68856168e-001 1.15267491e+000 1.11975718e+000
      1.62583008e-001 8.31939504e-002 1.20382333e+000 1.35218233e-001
      -5.97576916e-001 1.96475789e-001 -1.04899538e+000 1.38770878e-001
      7.80177176e-001 -5.63743949e-001 2.00239243e-003 7.78284848e-001
      6.61907852e-001 -5.31565666e-001 -6.66831374e-001 -7.18420923e-001</_>
    <_>
      1.44796526e+000 1.12435175e-002 0. -5.59527993e-001
      -7.69934535e-001 1.58580017e+000 1.69470692e+000 -6.48549438e-001
      8.19537789e-002 -6.53233469e-001 2.06970692e-001 -4.38572705e-001
      -3.23476315e-001 1.58843565e+000 2.41855764e+000 5.04397571e-001
      -8.36406350e-001 5.69249511e-001 -7.60428607e-002 -2.21666172e-001
      -7.88079619e-001 -3.81367236e-001 -6.31777883e-001
      -6.64410710e-001 5.43947399e-001 1.77303568e-001 1.49336529e+000
      1.22139168e+000 4.95768219e-001 1.06413829e+000 -2.40916759e-001
      -7.10330248e-001 -2.48964831e-001 2.32053566e+000 1.24273229e+000
      -1.06171298e+000 6.33487344e-001 -6.78908288e-001 -5.97576916e-001
      1.09776974e+000 7.77267694e-001 -1.15493190e+000 2.36873060e-001
      -3.87455220e-003 -5.76685488e-001 1.41546416e+000 -7.55065262e-001
      7.81446934e-001 8.89108405e-002 -1.86052606e-001</_>
    <_>
      -2.80910749e-002 -8.01099241e-001 -6.44383311e-001 2.15058827e+000
      2.23418474e-001 2.75641656e+000 1.92344025e-001 3.80102061e-002
      2.86838150e+000 -6.87614158e-002 -7.73595273e-001 3.73911321e-001
      -7.52305031e-001 1.01817739e+000 1.83663458e-001 1.21896088e+000
      -8.36406350e-001 1.92886186e+000 -7.60428607e-002 1.84483469e+000
      1.82979417e+000 -1.52040133e-002 8.40672255e-001 -6.64410710e-001
      9.79406714e-001 8.79231513e-001 -6.25698149e-001 2.67200351e+000
      -2.82911211e-001 1.06413829e+000 -7.76493251e-001 1.72617912e-001
      1.61988819e+000 -8.10214132e-002 1.78280699e+000 1.22810078e+000
      2.34449553e+000 3.39172435e+000 2.65921742e-001 1.99906361e+000
      -1.04899538e+000 1.43247378e+000 1.32348120e+000 -3.87455220e-003
      -5.76685488e-001 1.41546416e+000 1.37039447e+000 -5.31565666e-001
      8.89108405e-002 8.78683984e-001</_>
    <_>
      -7.66119242e-001 1.63592911e+000 -6.44383311e-001 -5.59527993e-001
      2.23418474e-001 -7.55432248e-001 -8.09231222e-001 -6.48549438e-001
      1.93957233e+000 1.68465471e+000 -4.46739972e-001 1.18639529e+000
      -7.52305031e-001 -1.22339129e-001 -3.75060111e-001
      -2.10165709e-001 -1.27545848e-001 5.69249511e-001 5.34412146e-001
      -2.21666172e-001 2.59069890e-001 7.17122436e-001 -6.31777883e-001
      -6.64410710e-001 1.41486597e+000 1.77303568e-001 -6.25698149e-001
      -2.29220122e-001 -2.82911211e-001 5.16921282e-001 2.94659764e-001
      -7.10330248e-001 6.85461640e-001 -8.10214132e-002 -9.17566299e-001
      1.22810078e+000 -5.07184565e-001 -6.78908288e-001 -5.97576916e-001
      -7.04818130e-001 -1.04899538e+000 1.38770878e-001 -8.49735081e-001
      -5.63743949e-001 -5.76685488e-001 -4.96073902e-001
      -4.65786867e-002 -5.31565666e-001 8.89108405e-002 1.94342053e+000</_>
    <_>
      -7.66119242e-001 2.44827175e+000 -6.44383311e-001 3.43844056e-001
      3.70015407e+000 -1.70124143e-001 2.19549441e+000 7.24569798e-001
      1.01076305e+000 1.10018265e+000 2.82181334e+000 1.18639529e+000
      1.82066703e+000 -1.22339129e-001 1.30111051e+000 1.93352425e+000
      -1.27545848e-001 5.69249511e-001 5.34412146e-001 8.11584294e-001
      1.82979417e+000 2.18177533e+000 3.04934740e+000 -6.64410710e-001
      1.41486597e+000 3.68694305e+000 2.19971991e+000 5.08969021e+000
      5.16784477e+000 2.15857244e+000 1.36581278e+000 2.82146239e+000
      3.95595431e+000 4.12170362e+000 1.62583008e-001 3.51791453e+000
      6.31513968e-002 9.49344754e-001 4.58341551e+000 3.35100460e+000
      -1.04899538e+000 1.38770878e-001 2.95339346e+000 -3.87455220e-003
      1.15937817e+000 -4.96073902e-001 1.37039447e+000 -5.31565666e-001
      1.60039532e+000 1.94342053e+000</_>
    <_>
      1.44796526e+000 2.44827175e+000 3.22191668e+000 2.15058827e+000
      1.71344805e+000 -1.70124143e-001 6.93131626e-001 2.09768891e+000
      5.46358407e-001 -6.87614158e-002 2.06970692e-001 -4.38572705e-001
      5.34181058e-001 4.47919130e-001 4.65345240e+000 1.21896088e+000
      9.35744941e-001 -7.90362835e-001 1.14486718e+000 3.91133571e+000
      3.40051842e+000 -1.52040133e-002 8.40672255e-001 3.62375879e+000
      2.72124386e+000 1.58115935e+000 -6.25698149e-001 2.18846631e+000
      2.05312705e+000 2.15857244e+000 1.36581278e+000 1.05556607e+000
      2.18248412e-001 -6.81410730e-001 1.78280699e+000 -1.06171298e+000
      1.20382333e+000 -6.78908288e-001 1.12942040e+000 1.54841673e+000
      -1.04899538e+000 -5.08080542e-001 1.86678529e+000 -3.87455220e-003
      1.15937817e+000 2.05264354e+000 6.61907852e-001 2.09445953e+000
      8.44653010e-001 1.41105223e+000</_>
    <_>
      3.66205001e+000 8.23586345e-001 0. 3.43844056e-001
      -7.69934535e-001 -7.55432248e-001 1.92344025e-001 3.80102061e-002
      -8.46855462e-001 -6.53233469e-001 -4.46739972e-001
      -1.25105679e+000 1.05352372e-001 1.01817739e+000 1.83663458e-001
      5.04397571e-001 1.29017520e+000 -7.90362835e-001 -6.86497927e-001
      -1.25491667e+000 2.35336900e+000 -7.47530460e-001 -6.31777883e-001
      1.71790564e+000 5.43947399e-001 -5.24624348e-001 -6.25698149e-001
      -2.29220122e-001 -2.82911211e-001 -3.02957390e-002
      -2.40916759e-001 -7.10330248e-001 2.18248412e-001 -8.10214132e-002
      1.24273229e+000 -1.06171298e+000 -5.07184565e-001 -6.78908288e-001
      1.12942040e+000 -2.54171193e-001 -1.04899538e+000 1.38770878e-001
      -8.49735081e-001 1.11586428e+000 -5.76685488e-001 1.41546416e+000
      -7.55065262e-001 -5.31565666e-001 -6.66831374e-001
      -1.86052606e-001</_>
    <_>
      2.18599343e+000 1.12435175e-002 0. -5.59527993e-001
      2.21012473e+000 1.00049210e+000 1.92344025e-001 7.24569798e-001
      5.46358407e-001 5.15710652e-001 -4.46739972e-001 6.06129932e+000
      1.39183843e+000 2.15869379e+000 1.30111051e+000 3.36265063e+000
      -4.81976092e-001 5.69249511e-001 2.36577725e+000 -1.25491667e+000
      -2.64504880e-001 -3.81367236e-001 1.57689738e+000 -1.87947437e-001
      1.08488105e-001 1.77303568e-001 7.87010849e-001 -2.29220122e-001
      -2.82911211e-001 2.70578933e+000 -2.40916759e-001 1.72617912e-001
      2.18248412e-001 1.11975718e+000 1.24273229e+000 -1.06171298e+000
      6.33487344e-001 3.39172435e+000 -5.97576916e-001 1.96475789e-001
      7.77267694e-001 2.07932520e+000 -3.06431025e-001 5.55994868e-001
      2.00239243e-003 1.41546416e+000 6.61907852e-001 -5.31565666e-001
      8.44653010e-001 -7.18420923e-001</_>
    <_>
      -7.66119242e-001 -8.01099241e-001 6.44383311e-001 -5.59527993e-001
      7.20094979e-001 2.75641656e+000 -8.09231222e-001 -6.48549438e-001
      8.19537789e-002 2.85359883e+000 1.18753672e+000 -4.38572705e-001
      5.34181058e-001 -6.92597389e-001 7.42387056e-001 -2.10165709e-001
      5.81314683e-001 -7.90362835e-001 -7.60428607e-002 -1.25491667e+000
      7.82644689e-001 -1.52040133e-002 1.04447171e-001 7.64979064e-001
      5.43947399e-001 1.77303568e-001 2.19971991e+000 -2.29220122e-001
      -2.33513881e-002 -3.02957390e-002 1.90138936e+000 6.14091992e-001
      6.85461640e-001 5.19367874e-001 1.24273229e+000 6.55647397e-001
      6.31513968e-002 1.35218233e-001 -5.97576916e-001 -1.15546513e+000
      -1.04899538e+000 -5.08080542e-001 2.36873060e-001 -5.63743949e-001
      1.15937817e+000 -4.96073902e-001 2.07888103e+000 7.81446934e-001
      8.44653010e-001 -7.18420923e-001</_>
    <_>
      -2.80910749e-002 1.12435175e-002 -6.44383311e-001 3.43844056e-001
      7.20094979e-001 4.15183991e-001 6.93131626e-001 1.41112936e+000
      8.19537789e-002 -6.87614158e-002 -1.19884633e-001 1.18639529e+000
      -7.52305031e-001 -1.22339129e-001 7.42387056e-001 5.04397571e-001
      2.26884410e-001 -7.90362835e-001 5.34412146e-001 -2.21666172e-001
      2.59069890e-001 7.17122436e-001 -6.31777883e-001 2.88515806e-001
      1.08488105e-001 1.77303568e-001 7.87010849e-001 2.54317164e-001
      -5.42470992e-001 -3.02957390e-002 1.36581278e+000 -2.68856168e-001
      -2.48964831e-001 -8.10214132e-002 1.24273229e+000 -4.89259481e-001
      6.31513968e-002 1.35218233e-001 2.65921742e-001 6.47122741e-001
      -1.04899538e+000 1.38770878e-001 -8.49735081e-001 1.67573369e+000
      5.80690265e-001 7.78284848e-001 -4.65786867e-002 2.09445953e+000
      8.89108405e-002 1.41105223e+000</_>
    <_>
      7.09937096e-001 1.63592911e+000 3.22191668e+000 3.43844056e-001
      2.21012473e+000 1.00049210e+000 6.93131626e-001 2.78424859e+000
      1.01076305e+000 5.15710652e-001 5.33826053e-001 -4.38572705e-001
      1.82066703e+000 1.58843565e+000 2.41855764e+000 5.04397571e-001
      -4.81976092e-001 -7.90362835e-001 -6.86497927e-001 3.91133571e+000
      1.30621934e+000 1.08328569e+000 8.40672255e-001 4.10022211e+000
      2.28578448e+000 3.68694305e+000 -6.25698149e-001 2.18846631e+000
      1.53400743e+000 3.25300646e+000 2.94659764e-001 6.14091992e-001
      -7.16178060e-001 5.19367874e-001 7.02657640e-001 -1.06171298e+000
      1.20382333e+000 -6.78908288e-001 1.12942040e+000 6.47122741e-001
      7.77267694e-001 7.85622299e-001 1.86678529e+000 5.55994868e-001
      2.00239243e-003 1.41546416e+000 -4.65786867e-002 7.81446934e-001
      -6.66831374e-001 -1.86052606e-001</_>
    <_>
      7.09937096e-001 1.12435175e-002 -6.44383311e-001 -5.59527993e-001
      2.23418474e-001 -7.55432248e-001 -3.08443576e-001 7.24569798e-001
      -3.82450849e-001 -6.53233469e-001 -4.46739972e-001
      -4.38572705e-001 1.05352372e-001 -1.22339129e-001 1.83663458e-001
      -9.24729049e-001 1.29017520e+000 -7.90362835e-001 -7.60428607e-002
      -2.21666172e-001 -2.64504880e-001 1.08328569e+000 -6.31777883e-001
      -6.64410710e-001 9.79406714e-001 -5.24624348e-001 -6.25698149e-001
      -2.29220122e-001 2.36208424e-001 -5.77512741e-001 -2.40916759e-001
      1.05556607e+000 1.15267491e+000 -6.81410730e-001 7.02657640e-001
      -1.06171298e+000 6.31513968e-002 2.57759786e+000 -5.97576916e-001
      1.54841673e+000 7.77267694e-001 -1.15493190e+000 -8.49735081e-001
      1.67573369e+000 5.80690265e-001 -4.96073902e-001 -7.55065262e-001
      -5.31565666e-001 -6.66831374e-001 8.78683984e-001</_>
    <_>
      7.09937096e-001 8.23586345e-001 3.22191668e+000 2.15058827e+000
      -7.69934535e-001 1.00049210e+000 1.19391930e+000 1.41112936e+000
      -3.82450849e-001 -6.53233469e-001 -4.46739972e-001 3.73911321e-001
      1.39183843e+000 4.47919130e-001 7.42387056e-001 5.04397571e-001
      -1.27545848e-001 5.69249511e-001 5.34412146e-001 -2.21666172e-001
      7.82644689e-001 -3.81367236e-001 1.04447171e-001 2.19436884e+000
      1.08488105e-001 8.79231513e-001 8.06563795e-002 -2.29220122e-001
      -2.82911211e-001 -5.77512741e-001 -2.40916759e-001 6.14091992e-001
      -7.16178060e-001 -8.10214132e-002 1.24273229e+000 8.31939504e-002
      -5.07184565e-001 1.35218233e-001 -5.97576916e-001 -2.54171193e-001
      7.77267694e-001 2.07932520e+000 -3.06431025e-001 -3.87455220e-003
      2.89544201e+000 1.41105488e-001 -7.55065262e-001 7.81446934e-001
      -6.66831374e-001 -1.86052606e-001</_>
    <_>
      1.44796526e+000 5.69764280e+000 0. 3.43844056e-001 3.20347762e+000
      2.17110825e+000 1.19391930e+000 3.47080827e+000 5.46358407e-001
      3.43807077e+000 3.80237937e+000 1.99887931e+000 1.05352372e-001
      -1.22339129e-001 7.42387056e-001 1.21896088e+000 1.99903584e+000
      5.69249511e-001 1.75532222e+000 -1.25491667e+000 2.87694359e+000
      4.01259136e+000 1.57689738e+000 -6.64410710e-001 4.02762175e+000
      4.38887072e+000 2.19971991e+000 3.15554094e+000 4.90828466e+000
      5.44187403e+000 2.43696570e+000 4.14588451e+000 1.15267491e+000
      3.52131438e+000 1.62583008e-001 1.80055428e+000 -5.07184565e-001
      2.57759786e+000 1.12942040e+000 2.90035748e+000 -1.04899538e+000
      -5.08080542e-001 1.86678529e+000 -5.63743949e-001 2.00239243e-003
      -4.96073902e-001 4.20434046e+000 -5.31565666e-001 2.35613751e+000
      1.94342053e+000</_>
    <_>
      7.09937096e-001 -8.01099241e-001 0. 3.43844056e-001
      7.20094979e-001 2.17110825e+000 4.69943237e+000 2.09768891e+000
      8.19537789e-002 5.15710652e-001 1.51439190e+000 1.99887931e+000
      2.24949574e+000 1.01817739e+000 1.30111051e+000 5.04397571e-001
      -8.36406350e-001 5.69249511e-001 5.34412146e-001 3.91133571e+000
      3.40051842e+000 1.44944882e+000 8.40672255e-001 -1.87947437e-001
      5.43947399e-001 2.28308725e+000 7.87010849e-001 7.37854421e-001
      1.53400743e+000 -3.02957390e-002 2.94659764e-001 6.14091992e-001
      -7.16178060e-001 2.92092490e+000 7.02657640e-001 1.22810078e+000
      6.31513968e-002 9.49344754e-001 2.65921742e-001 1.96475789e-001
      7.77267694e-001 4.01987934e+000 -3.06431025e-001 -5.63743949e-001
      1.73806608e+000 5.23854065e+000 -4.65786867e-002 -5.31565666e-001
      3.86762190e+000 3.46315712e-001</_>
    <_>
      -7.66119242e-001 1.12435175e-002 0. 3.43844056e-001
      2.23418474e-001 -1.70124143e-001 1.92344025e-001 -6.48549438e-001
      8.19537789e-002 5.15710652e-001 -1.19884633e-001 -1.25105679e+000
      -3.23476315e-001 -6.92597389e-001 -9.33783650e-001
      -2.10165709e-001 9.35744941e-001 -7.90362835e-001 -7.60428607e-002
      -2.21666172e-001 7.82644689e-001 1.44944882e+000 -6.31777883e-001
      2.88515806e-001 -7.62430489e-001 -5.24624348e-001 8.06563795e-002
      -2.29220122e-001 2.36208424e-001 -5.77512741e-001 -7.76493251e-001
      -7.10330248e-001 2.18248412e-001 2.32053566e+000 7.02657640e-001
      8.31939504e-002 -5.07184565e-001 1.76347125e+000 -5.97576916e-001
      -2.54171193e-001 -1.04899538e+000 -5.08080542e-001
      -3.06431025e-001 -5.63743949e-001 -5.76685488e-001
      -4.96073902e-001 -7.55065262e-001 -5.31565666e-001 8.89108405e-002
      -1.86052606e-001</_>
    <_>
      -7.66119242e-001 1.63592911e+000 6.44383311e-001 -5.59527993e-001
      7.20094979e-001 -7.55432248e-001 -8.09231222e-001 7.24569798e-001
      8.19537789e-002 2.26912665e+000 -7.73595273e-001 -4.38572705e-001
      -7.52305031e-001 4.47919130e-001 -9.33783650e-001 -9.24729049e-001
      -4.81976092e-001 1.92886186e+000 -7.60428607e-002 -2.21666172e-001
      -2.64504880e-001 -7.47530460e-001 1.04447171e-001 2.88515806e-001
      -3.26971173e-001 -5.24624348e-001 8.06563795e-002 -7.12757409e-001
      -5.42470992e-001 5.16921282e-001 1.36581278e+000 1.05556607e+000
      -2.48964831e-001 -6.81410730e-001 1.78280699e+000 6.55647397e-001
      6.33487344e-001 1.76347125e+000 2.65921742e-001 -2.54171193e-001
      -1.04899538e+000 1.38770878e-001 -3.06431025e-001 -3.87455220e-003
      1.15937817e+000 -4.96073902e-001 -4.65786867e-002 2.09445953e+000
      8.89108405e-002 3.46315712e-001</_>
    <_>
      -2.80910749e-002 -8.01099241e-001 0. -5.59527993e-001
      -7.69934535e-001 -1.70124143e-001 2.19549441e+000 3.80102061e-002
      8.19537789e-002 -6.87614158e-002 -7.73595273e-001 -4.38572705e-001
      9.63009715e-001 4.47919130e-001 -3.75060111e-001 -2.10165709e-001
      -1.27545848e-001 -7.90362835e-001 -7.60428607e-002
      -2.21666172e-001 7.82644689e-001 -7.47530460e-001 8.40672255e-001
      -1.87947437e-001 5.43947399e-001 1.58115935e+000 1.49336529e+000
      2.54317164e-001 -5.42470992e-001 1.61135530e+000 1.36581278e+000
      1.72617912e-001 -7.16178060e-001 -8.10214132e-002 -3.77491653e-001
      -4.89259481e-001 1.77415931e+000 -6.78908288e-001 -5.97576916e-001
      1.96475789e-001 7.77267694e-001 1.38770878e-001 2.36873060e-001
      -3.87455220e-003 -5.76685488e-001 1.41546416e+000 -7.55065262e-001
      -5.31565666e-001 8.89108405e-002 -7.18420923e-001</_>
    <_>
      -2.80910749e-002 1.12435175e-002 -6.44383311e-001 -5.59527993e-001
      2.23418474e-001 4.15183991e-001 -8.09231222e-001 -6.48549438e-001
      -8.46855462e-001 1.68465471e+000 5.33826053e-001 3.73911321e-001
      5.34181058e-001 -6.92597389e-001 -9.33783650e-001 5.04397571e-001
      -1.27545848e-001 5.69249511e-001 -7.60428607e-002 8.11584294e-001
      7.82644689e-001 -3.81367236e-001 -6.31777883e-001 -1.87947437e-001
      1.41486597e+000 -5.24624348e-001 7.87010849e-001 -7.12757409e-001
      1.01488781e+000 -3.02957390e-002 -7.76493251e-001 -7.10330248e-001
      2.18248412e-001 -8.10214132e-002 -9.17566299e-001 -1.06171298e+000
      6.33487344e-001 9.49344754e-001 2.65921742e-001 -7.04818130e-001
      -1.04899538e+000 7.85622299e-001 7.80177176e-001 -3.87455220e-003
      2.00239243e-003 -4.96073902e-001 -7.55065262e-001 -5.31565666e-001
      -6.66831374e-001 3.46315712e-001</_>
    <_>
      2.18599343e+000 1.63592911e+000 3.22191668e+000 1.24721611e+000
      1.21677148e+000 2.17110825e+000 6.93131626e-001 2.09768891e+000
      1.01076305e+000 4.02254295e+000 -7.73595273e-001 -4.38572705e-001
      1.82066703e+000 4.47919130e-001 1.30111051e+000 1.21896088e+000
      -1.27545848e-001 -7.90362835e-001 5.34412146e-001 2.87808514e+000
      -2.64504880e-001 -1.52040133e-002 -6.31777883e-001 3.14729548e+000
      1.41486597e+000 8.79231513e-001 7.87010849e-001 3.15554094e+000
      4.95768219e-001 1.61135530e+000 1.90138936e+000 1.72617912e-001
      -7.16178060e-001 5.19367874e-001 1.24273229e+000 1.22810078e+000
      1.20382333e+000 3.39172435e+000 1.99291921e+000 1.54841673e+000
      -1.04899538e+000 2.72617650e+000 2.36873060e-001 -5.63743949e-001
      1.73806608e+000 1.41105488e-001 6.61907852e-001 7.81446934e-001
      1.60039532e+000 8.78683984e-001</_>
    <_>
      2.18599343e+000 1.63592911e+000 6.44383311e-001 2.15058827e+000
      2.70680118e+000 1.00049210e+000 3.69785714e+000 3.80102061e-002
      1.47516763e+000 -6.87614158e-002 1.18753672e+000 -4.38572705e-001
      -3.23476315e-001 -6.92597389e-001 1.85983407e+000 5.04397571e-001
      1.29017520e+000 -7.90362835e-001 2.36577725e+000 -2.21666172e-001
      2.87694359e+000 6.20957041e+000 -6.31777883e-001 2.88515806e-001
      2.72124386e+000 3.68694305e+000 6.43784714e+000 4.12261534e+000
      2.57224655e+000 5.44187403e+000 2.43696570e+000 1.49704015e+000
      5.35759401e+000 6.52326107e+000 7.02657640e-001 4.09036779e+000
      4.05550337e+000 2.57759786e+000 1.12942040e+000 6.05488634e+000
      -1.04899538e+000 1.43247378e+000 5.66991425e+000 -5.63743949e-001
      3.47412992e+000 1.41105488e-001 2.07888103e+000 -5.31565666e-001
      8.44653010e-001 -7.18420923e-001</_>
    <_>
      1.44796526e+000 1.12435175e-002 4.51068306e+000 4.86070442e+000
      2.21012473e+000 4.15183991e-001 1.92344025e-001 2.09768891e+000
      -3.82450849e-001 6.36043119e+000 5.33826053e-001 -4.38572705e-001
      3.96481061e+000 3.86946869e+000 1.85983407e+000 1.93352425e+000
      9.35744941e-001 -7.90362835e-001 1.14486718e+000 3.91133571e+000
      2.87694359e+000 -3.81367236e-001 3.04934740e+000 2.19436884e+000
      2.28578448e+000 7.19658232e+000 4.31878328e+000 7.37854421e-001
      -2.82911211e-001 1.61135530e+000 8.30236316e-001 1.05556607e+000
      2.18248412e-001 2.32053566e+000 7.02657640e-001 1.80055428e+000
      1.08995352e+001 1.35218233e-001 2.85641789e+000 -2.54171193e-001
      -1.04899538e+000 2.07932520e+000 1.32348120e+000 4.47508097e+000
      6.94625711e+000 4.60136080e+000 4.91282701e+000 -5.31565666e-001
      3.86762190e+000 1.94342053e+000</_>
    <_>
      -7.66119242e-001 3.26061440e+000 0. -5.59527993e-001
      -7.69934535e-001 -1.70124143e-001 -3.08443576e-001
      -6.48549438e-001 8.19537789e-002 5.15710652e-001 8.60681355e-001
      -1.25105679e+000 -7.52305031e-001 -6.92597389e-001 7.42387056e-001
      -2.10165709e-001 9.35744941e-001 1.92886186e+000 5.34412146e-001
      -2.21666172e-001 2.59069890e-001 3.50959212e-001 8.40672255e-001
      7.64979064e-001 -7.62430489e-001 1.77303568e-001 -6.25698149e-001
      2.54317164e-001 -2.82911211e-001 -5.77512741e-001 -7.76493251e-001
      -7.10330248e-001 1.15267491e+000 1.11975718e+000 1.62583008e-001
      -4.89259481e-001 -5.07184565e-001 1.35218233e-001 2.65921742e-001
      -2.54171193e-001 -1.04899538e+000 1.38770878e-001 7.80177176e-001
      -5.63743949e-001 -5.76685488e-001 -4.96073902e-001
      -7.55065262e-001 7.81446934e-001 -6.66831374e-001 8.78683984e-001</_>
    <_>
      -2.80910749e-002 1.12435175e-002 -6.44383311e-001 3.05396032e+000
      2.23418474e-001 4.15183991e-001 -8.09231222e-001 -6.48549438e-001
      5.46358407e-001 -6.53233469e-001 2.06970692e-001 -1.25105679e+000
      1.05352372e-001 -1.22339129e-001 1.30111051e+000 -9.24729049e-001
      5.81314683e-001 -7.90362835e-001 5.34412146e-001 8.11584294e-001
      -2.64504880e-001 -3.81367236e-001 1.04447171e-001 2.88515806e-001
      -7.62430489e-001 -5.24624348e-001 -6.25698149e-001
      -7.12757409e-001 1.27444768e+000 -3.02957390e-002 1.36581278e+000
      1.72617912e-001 6.85461640e-001 -8.10214132e-002 -9.17566299e-001
      -1.06171298e+000 6.31513968e-002 1.35218233e-001 -5.97576916e-001
      6.47122741e-001 -1.04899538e+000 1.38770878e-001 1.32348120e+000
      1.11586428e+000 -5.76685488e-001 1.41546416e+000 -7.55065262e-001
      -5.31565666e-001 -6.66831374e-001 -1.86052606e-001</_>
    <_>
      -2.80910749e-002 8.23586345e-001 -6.44383311e-001 3.43844056e-001
      7.20094979e-001 -1.70124143e-001 -3.08443576e-001 3.80102061e-002
      -8.46855462e-001 -6.87614158e-002 -7.73595273e-001
      -4.38572705e-001 1.05352372e-001 -1.22339129e-001 1.83663458e-001
      1.21896088e+000 -1.27545848e-001 -7.90362835e-001 1.14486718e+000
      -2.21666172e-001 -2.64504880e-001 -1.11369371e+000 1.04447171e-001
      -6.64410710e-001 -7.62430489e-001 1.77303568e-001 -6.25698149e-001
      7.37854421e-001 -2.82911211e-001 -3.02957390e-002 2.94659764e-001
      -7.10330248e-001 -7.16178060e-001 5.19367874e-001 -9.17566299e-001
      -4.89259481e-001 6.31513968e-002 -6.78908288e-001 2.65921742e-001
      -7.04818130e-001 -1.04899538e+000 1.38770878e-001 -8.49735081e-001
      -3.87455220e-003 2.00239243e-003 1.41105488e-001 -7.55065262e-001
      -5.31565666e-001 -6.66831374e-001 3.46315712e-001</_>
    <_>
      -7.66119242e-001 1.12435175e-002 0. -5.59527993e-001
      1.71344805e+000 4.15183991e-001 -3.08443576e-001 -6.48549438e-001
      5.46358407e-001 -6.53233469e-001 -4.46739972e-001 3.73911321e-001
      9.63009715e-001 1.01817739e+000 -9.33783650e-001 -2.10165709e-001
      -4.81976092e-001 -7.90362835e-001 5.34412146e-001 -2.21666172e-001
      7.82644689e-001 -1.11369371e+000 -6.31777883e-001 -1.87947437e-001
      1.08488105e-001 -5.24624348e-001 8.06563795e-002 7.37854421e-001
      -8.02030802e-001 -3.02957390e-002 -2.40916759e-001 6.14091992e-001
      1.61988819e+000 -8.10214132e-002 -3.77491653e-001 1.22810078e+000
      6.31513968e-002 9.49344754e-001 -5.97576916e-001 -7.04818130e-001
      -1.04899538e+000 7.85622299e-001 7.80177176e-001 -5.63743949e-001
      1.15937817e+000 -4.96073902e-001 2.07888103e+000 2.09445953e+000
      8.89108405e-002 3.46315712e-001</_>
    <_>
      2.92402148e+000 8.23586345e-001 2.57753325e+000 3.43844056e-001
      3.70015407e+000 2.75641656e+000 3.19706964e+000 2.09768891e+000
      1.93957233e+000 3.43807077e+000 1.18753672e+000 3.73911321e-001
      5.34181058e-001 3.86946869e+000 1.30111051e+000 3.36265063e+000
      -4.81976092e-001 -7.90362835e-001 2.36577725e+000 8.11584294e-001
      1.82979417e+000 7.17122436e-001 2.31312251e+000 -1.87947437e-001
      1.41486597e+000 8.79231513e-001 1.49336529e+000 1.22139168e+000
      2.57224655e+000 5.16921282e-001 1.36581278e+000 6.14091992e-001
      2.08710122e+000 2.32053566e+000 -3.77491653e-001 1.22810078e+000
      1.77415931e+000 1.35218233e-001 1.99291921e+000 1.96475789e-001
      2.60353065e+000 -5.08080542e-001 1.86678529e+000 3.35534191e+000
      3.47412992e+000 2.68982291e+000 1.37039447e+000 -5.31565666e-001
      1.60039532e+000 3.46315712e-001</_></support_vectors>
  <decision_functions>
    <_>
      <sv_count>105</sv_count>
      <rho>8.2003969471480265e-001</rho>
      <alpha>
        1. 6.9057373593048677e-001 2.0480920109773668e-001
        4.4019078257326499e-001 5.8445417519361616e-002 1.
        3.5674698629571411e-001 3.3002096595714114e-001 1. 1.
        9.2490231905357023e-001 3.5097259457356184e-001
        2.1480077112284607e-001 3.1724909719723454e-001
        8.9324324453213988e-001 1. 1.2232459341406457e-001
        1.4115408041680322e-001 9.1102016569498279e-001
        6.7160213551668657e-001 1. 1. 8.0541496696515535e-001 1.
        7.0420115928632565e-001 1. 1. 1. 7.1225950623009182e-001
        8.5042036645313257e-001 2.4932346146283230e-001 1.
        9.4056102005100217e-001 4.1614552486020395e-001 1. 1.
        3.6796458688091260e-001 4.7456817156212150e-001
        4.7642620586137036e-001 2.2155434870529761e-002 1. 1.
        -5.6095829501176964e-001 -1.3186996412244600e-001
        -4.5160855374116243e-001 -5.3058523354262234e-002 -1.
        -2.6079276141140761e-001 -1.0625469793669229e-001 -1.
        -8.5011042612077992e-001 -8.9497787057709360e-002
        -6.8409576212425549e-002 -1. -2.9391394686569156e-001
        -1.4067594264270519e-001 -1.8367019277762721e-002 -1.
        -1.4491101552629904e-001 -5.6948958887591683e-001
        -9.0175062147528340e-001 -2.7337279811275877e-001
        -1.7360642467834911e-001 -9.5877360384185462e-001
        -1.1452431147376024e-001 -3.2539175753288729e-001
        -5.2191780420135925e-001 -7.7161782267284144e-003
        -7.0963287858569202e-001 -3.7848810290594232e-003
        -4.8654590440439233e-001 -9.2332002801649993e-001
        -1.7746408189352295e-001 -1. -2.3574417126067121e-001
        -2.8485630615492769e-001 -1. -1.8027903960238928e-002
        -4.2178291163174558e-001 -8.9515281101235178e-001
        -1.0500399278689983e-001 -1. -1.1746896189707602e-001
        -3.0879539015256922e-002 -1.5046863173823385e-001
        -1.3182491690886269e-001 -1.8746877354830779e-001
        -3.4470820063119462e-001 -1.0681507567044925e-001
        -4.4283288228977653e-002 -5.7212915107423756e-001
        -1.5302518461514891e-001 -1.6465658454377760e-001 -1. -1. -1.
        -1. -1.2322485531033646e-001 -1.7236991104260188e-001
        -1.7917952764991454e-001 -1. -8.3208946827246688e-001 -1. -1.
        -5.8616956796417090e-002</alpha></_></decision_functions></opencv_ml_svm>
</opencv_storage>
