<?xml version="1.0"?>
<opencv_storage>
<opencv_ml_svm>
  <format>3</format>
  <svmType>C_SVC</svmType>
  <kernel>
    <type>RBF</type>
    <gamma>2.0000000000000000e-002</gamma></kernel>
  <C>1.</C>
  <term_criteria><epsilon>1.1920928955078125e-007</epsilon>
    <iterations>1000</iterations></term_criteria>
  <var_count>50</var_count>
  <class_count>2</class_count>
  <class_labels type_id="opencv-matrix">
    <rows>2</rows>
    <cols>1</cols>
    <dt>i</dt>
    <data>
      0 1</data></class_labels>
  <sv_total>511</sv_total>
  <support_vectors>
    <_>
      -4.87687260e-001 -5.29093623e-001 -1.38487458e-001 3.61471683e-001
      4.69372958e-001 -4.97051328e-001 8.41989934e-001 -6.45761192e-001
      -6.41137421e-001 1.51663542e+000 -6.07505143e-001 -4.10285681e-001
      -5.32625318e-001 -6.30166888e-001 -2.63097644e-001 1.80003434e-001
      -5.02084196e-001 2.55520999e-001 -5.83738863e-001 -1.90626070e-001
      6.47736490e-001 -4.88782883e-001 2.21382439e-001 -5.69300592e-001
      -2.00427070e-001 -7.95791447e-002 -5.73952258e-001 2.00708970e-001
      2.50166774e-001 -1.59028038e-001 -6.38241649e-001 -7.29057074e-001
      -6.09935701e-001 1.04911947e+000 -1.89878330e-001 -5.67760170e-001
      6.37691498e-001 -3.59350771e-001 -3.15678954e-001 -5.39003372e-001
      -4.89400357e-001 1.72709763e-001 -4.93742675e-001 -5.47682464e-001
      7.95576096e-001 -2.25735053e-001 5.54287255e-001 -5.03982365e-001
      -2.52397805e-001 -7.25532055e-001</_>
    <_>
      -4.87687260e-001 1.37021685e+000 -4.78632092e-001 -5.05441129e-001
      -1.56085342e-001 -4.97051328e-001 -4.94691461e-001
      -2.07957000e-001 -6.41137421e-001 -4.66588974e-001
      -1.35001138e-001 -4.10285681e-001 1.31673530e-001 1.58623420e-002
      4.35999334e-001 -6.16849780e-001 -5.02084196e-001 -8.04418027e-001
      8.33912641e-002 -1.90626070e-001 6.47736490e-001 -4.88782883e-001
      2.21382439e-001 -2.57202357e-001 -6.12313867e-001 -5.83130717e-001
      -1.44861732e-002 -4.95247871e-001 -3.90992939e-001
      -4.59891886e-001 -6.38241649e-001 -7.29057074e-001
      -6.09935701e-001 -4.79353726e-001 -5.88872135e-001
      -5.67760170e-001 4.14447308e+000 5.53286016e-001 -3.15678954e-001
      -2.50986308e-001 -4.89400357e-001 1.72709763e-001 -4.93742675e-001
      -5.47682464e-001 -1.96679175e-001 -5.41369557e-001
      -1.84080750e-002 -5.03982365e-001 1.22145796e+000 -7.25532055e-001</_>
    <_>
      -4.87687260e-001 -5.29093623e-001 -4.78632092e-001
      -5.05441129e-001 -4.68814492e-001 -2.40508705e-001
      -4.94691461e-001 -6.45761192e-001 -6.41137421e-001
      -4.66588974e-001 -6.07505143e-001 -4.10285681e-001
      -5.32625318e-001 -6.30166888e-001 -6.12646103e-001
      -6.16849780e-001 -5.02084196e-001 -8.04418027e-001
      -5.83738863e-001 -5.04137397e-001 6.47736490e-001 -4.88782883e-001
      -5.34557521e-001 -5.69300592e-001 -6.12313867e-001
      -5.83130717e-001 -5.73952258e-001 -1.47269443e-001
      -3.90992939e-001 -4.59891886e-001 -6.38241649e-001 1.73288441e+000
      3.60416532e-001 -4.79353726e-001 -5.88872135e-001 -5.67760170e-001
      -5.31235635e-001 -6.63563073e-001 -3.15678954e-001 3.70307565e-002
      -4.89400357e-001 -5.65591574e-001 -1.58392876e-001
      -5.47682464e-001 -5.27430892e-001 -5.41369557e-001
      -1.84080750e-002 -5.03982365e-001 -2.52397805e-001 4.36980009e-001</_>
    <_>
      -1.89211994e-001 -5.29093623e-001 -1.38487458e-001
      -5.05441129e-001 -4.68814492e-001 -2.40508705e-001
      -4.94691461e-001 -6.45761192e-001 -6.41137421e-001
      -4.66588974e-001 -1.35001138e-001 -4.10285681e-001
      -5.32625318e-001 -6.30166888e-001 -6.12646103e-001
      -6.16849780e-001 -5.02084196e-001 -8.04418027e-001
      -5.83738863e-001 -5.04137397e-001 -6.85838759e-001
      -2.21479744e-001 -5.34557521e-001 -5.69300592e-001
      -6.12313867e-001 -7.95791447e-002 -5.73952258e-001
      -4.95247871e-001 -3.90992939e-001 -4.59891886e-001 1.04967010e+000
      -7.29057074e-001 -6.09935701e-001 -4.79353726e-001
      -5.88872135e-001 -5.67760170e-001 -5.31235635e-001
      -6.63563073e-001 -3.15678954e-001 3.25047821e-001 -4.89400357e-001
      9.11011100e-001 -4.93742675e-001 -5.47682464e-001 -1.96679175e-001
      -5.41369557e-001 5.54287255e-001 -5.03982365e-001 6.31915629e-001
      4.36980009e-001</_>
    <_>
      -4.87687260e-001 -5.29093623e-001 -4.78632092e-001
      -5.05441129e-001 -4.68814492e-001 -4.97051328e-001 8.41989934e-001
      -2.07957000e-001 -6.41137421e-001 -4.66588974e-001
      -6.07505143e-001 -4.10285681e-001 -5.32625318e-001
      -6.30166888e-001 -6.12646103e-001 -6.16849780e-001
      -2.27908522e-001 2.55520999e-001 1.41765153e+000 -5.04137397e-001
      1.98131168e+000 -4.88782883e-001 -5.34557521e-001 -5.69300592e-001
      -6.12313867e-001 -5.83130717e-001 -1.44861732e-002
      -4.95247871e-001 -3.90992939e-001 -1.59028038e-001
      -6.38241649e-001 9.12237227e-001 -6.09935701e-001 -4.79353726e-001
      -5.88872135e-001 1.77716225e-001 -5.31235635e-001 -6.63563073e-001
      -3.15678954e-001 -5.39003372e-001 -4.89400357e-001
      -5.65591574e-001 -4.93742675e-001 -5.47682464e-001
      -5.27430892e-001 -5.41369557e-001 -5.91103375e-001
      -5.03982365e-001 -5.47168911e-001 -7.25532055e-001</_>
    <_>
      -4.87687260e-001 1.04009859e-001 -4.78632092e-001 -5.05441129e-001
      1.56643808e-001 -4.97051328e-001 -4.94691461e-001 2.29847193e-001
      7.24022090e-001 -4.66588974e-001 -6.07505143e-001 -4.10285681e-001
      -5.32625318e-001 -3.07152271e-001 -6.12646103e-001
      -6.16849780e-001 -5.02084196e-001 2.37539911e+000 -5.83738863e-001
      -5.04137397e-001 -6.85838759e-001 -4.88782883e-001
      -5.34557521e-001 -5.69300592e-001 -2.00427070e-001
      -5.83130717e-001 5.44979870e-001 -4.95247871e-001 -3.90992939e-001
      -1.59028038e-001 2.05714226e-001 9.15900767e-002 -6.09935701e-001
      -4.79353726e-001 -5.88872135e-001 -5.67760170e-001
      -5.31235635e-001 -6.63563073e-001 -3.15678954e-001
      -5.39003372e-001 -4.89400357e-001 -5.65591574e-001
      -1.58392876e-001 -2.57244796e-001 -5.27430892e-001
      -5.41369557e-001 -5.91103375e-001 -2.56520599e-001
      -5.47168911e-001 -7.25532055e-001</_>
    <_>
      -1.89211994e-001 -5.29093623e-001 -4.78632092e-001 2.09529734e+000
      -4.68814492e-001 -4.97051328e-001 1.73649222e-001 -6.45761192e-001
      -6.41137421e-001 -4.66588974e-001 -6.07505143e-001
      -4.10285681e-001 1.31673530e-001 -3.07152271e-001 -6.12646103e-001
      -6.16849780e-001 -2.27908522e-001 -8.04418027e-001
      -5.83738863e-001 -1.90626070e-001 -6.85838759e-001
      -2.21479744e-001 -5.34557521e-001 -5.69300592e-001 6.23346508e-001
      -7.95791447e-002 -5.73952258e-001 -4.95247871e-001
      -3.90992939e-001 -4.59891886e-001 -6.38241649e-001
      -7.29057074e-001 -6.09935701e-001 -4.79353726e-001
      -1.89878330e-001 -5.67760170e-001 -5.31235635e-001
      -6.63563073e-001 1.63769364e+000 -5.39003372e-001 7.44567275e-001
      -5.65591574e-001 -4.93742675e-001 -2.57244796e-001
      -5.27430892e-001 8.98994654e-002 -5.91103375e-001 -9.05883964e-003
      -2.52397805e-001 1.59949207e+000</_>
    <_>
      -4.87687260e-001 4.20561612e-001 8.81946445e-001 -5.05441129e-001
      1.56643808e-001 2.72576541e-001 -4.94691461e-001 -2.07957000e-001
      7.24022090e-001 5.25023222e-001 1.75501502e+000 -4.10285681e-001
      -5.32625318e-001 3.38876963e-001 8.64508525e-002 1.80003434e-001
      -2.27908522e-001 -8.04418027e-001 -5.83738863e-001 1.22885250e-001
      -6.85838759e-001 -4.88782883e-001 -5.34557521e-001
      -2.57202357e-001 -6.12313867e-001 -7.95791447e-002
      -5.73952258e-001 -1.47269443e-001 -3.90992939e-001 1.41835794e-001
      -6.38241649e-001 -7.29057074e-001 -6.09935701e-001
      -4.79353726e-001 2.09115490e-001 -5.67760170e-001 -5.31235635e-001
      5.53286016e-001 -3.15678954e-001 3.25047821e-001 -4.89400357e-001
      2.38761377e+000 -4.93742675e-001 -2.57244796e-001 -1.96679175e-001
      -5.41369557e-001 3.41776395e+000 -2.56520599e-001 -2.52397805e-001
      -7.25532055e-001</_>
    <_>
      -4.87687260e-001 -5.29093623e-001 -4.78632092e-001
      -5.05441129e-001 -4.68814492e-001 -4.97051328e-001 8.41989934e-001
      -6.45761192e-001 -6.41137421e-001 -4.66588974e-001
      -6.07505143e-001 -4.10285681e-001 -5.32625318e-001 9.84906137e-001
      -6.12646103e-001 -6.16849780e-001 -5.02084196e-001 2.37539911e+000
      8.33912641e-002 -1.90626070e-001 -6.85838759e-001 -4.88782883e-001
      -5.34557521e-001 5.48958369e-002 -2.00427070e-001 -5.83130717e-001
      5.44979870e-001 -4.95247871e-001 -3.90992939e-001 -4.59891886e-001
      -6.38241649e-001 9.15900767e-002 -6.09935701e-001 -4.79353726e-001
      2.09115490e-001 -5.67760170e-001 -5.31235635e-001 -3.59350771e-001
      -3.15678954e-001 -5.39003372e-001 -4.89400357e-001
      -5.65591574e-001 -4.93742675e-001 -5.47682464e-001
      -5.27430892e-001 -5.41369557e-001 -5.91103375e-001
      -5.03982365e-001 -5.47168911e-001 -7.25532055e-001</_>
    <_>
      -4.87687260e-001 -2.12541878e-001 -4.78632092e-001
      -5.05441129e-001 1.56643808e-001 -4.97051328e-001 -4.94691461e-001
      -6.45761192e-001 -6.41137421e-001 5.25023222e-001 3.37502867e-001
      -4.10285681e-001 -5.32625318e-001 3.38876963e-001 -6.12646103e-001
      -6.16849780e-001 -5.02084196e-001 -8.04418027e-001
      -5.83738863e-001 -5.04137397e-001 6.47736490e-001 8.47732842e-001
      -5.34557521e-001 -5.69300592e-001 -2.00427070e-001
      -5.83130717e-001 -5.73952258e-001 2.00708970e-001 -3.90992939e-001
      -4.59891886e-001 -6.38241649e-001 -7.29057074e-001
      -6.09935701e-001 -4.79353726e-001 -5.88872135e-001
      -5.67760170e-001 -5.31235635e-001 -3.59350771e-001
      -3.15678954e-001 3.70307565e-002 -4.89400357e-001 -5.65591574e-001
      -4.93742675e-001 -5.47682464e-001 -5.27430892e-001
      -5.41369557e-001 -1.84080750e-002 -5.03982365e-001 3.37144464e-001
      4.36980009e-001</_>
    <_>
      -4.87687260e-001 -5.29093623e-001 -4.78632092e-001
      -5.05441129e-001 -4.68814492e-001 -4.97051328e-001 1.73649222e-001
      -6.45761192e-001 2.08918166e+000 -4.66588974e-001 -6.07505143e-001
      -4.10285681e-001 -5.32625318e-001 -3.07152271e-001
      -6.12646103e-001 -6.16849780e-001 -5.02084196e-001 1.31546009e+000
      -5.83738863e-001 -1.90626070e-001 6.47736490e-001 -2.21479744e-001
      -5.34557521e-001 -5.69300592e-001 -6.12313867e-001
      -5.83130717e-001 -5.73952258e-001 -4.95247871e-001
      -3.90992939e-001 -4.59891886e-001 -6.38241649e-001
      -7.29057074e-001 -6.09935701e-001 -4.79353726e-001
      -5.88872135e-001 -5.67760170e-001 -5.31235635e-001
      -6.63563073e-001 -3.15678954e-001 -5.39003372e-001
      -4.89400357e-001 -5.65591574e-001 5.12306690e-001 -5.47682464e-001
      -5.27430892e-001 -2.25735053e-001 -5.91103375e-001
      -5.03982365e-001 -2.52397805e-001 -7.25532055e-001</_>
    <_>
      -4.87687260e-001 -5.29093623e-001 -4.78632092e-001
      -5.05441129e-001 -4.68814492e-001 -4.97051328e-001
      -4.94691461e-001 -6.45761192e-001 -6.41137421e-001
      -4.66588974e-001 -6.07505143e-001 -4.10285681e-001
      -5.32625318e-001 1.58623420e-002 -6.12646103e-001 1.80003434e-001
      -5.02084196e-001 2.55520999e-001 -5.83738863e-001 -1.90626070e-001
      -6.85838759e-001 -4.88782883e-001 -5.34557521e-001
      -2.57202357e-001 -6.12313867e-001 -5.83130717e-001
      -5.73952258e-001 -4.95247871e-001 -3.90992939e-001
      -4.59891886e-001 2.05714226e-001 -7.29057074e-001 -6.09935701e-001
      -4.79353726e-001 -5.88872135e-001 -5.67760170e-001
      -5.31235635e-001 -3.59350771e-001 3.35445225e-001 -5.39003372e-001
      -2.42606834e-001 -5.65591574e-001 -4.93742675e-001
      -5.47682464e-001 -1.96679175e-001 -5.41369557e-001
      -5.91103375e-001 -2.56520599e-001 -5.47168911e-001
      -7.25532055e-001</_>
    <_>
      -4.87687260e-001 7.37113297e-001 -4.78632092e-001 -5.05441129e-001
      4.69372958e-001 2.72576541e-001 8.41989934e-001 -2.07957000e-001
      7.24022090e-001 2.01244140e+000 -1.35001138e-001 -4.10285681e-001
      -2.00475886e-001 -6.30166888e-001 -6.12646103e-001
      -6.16849780e-001 -5.02084196e-001 2.55520999e-001 -5.83738863e-001
      -5.04137397e-001 -6.85838759e-001 -4.88782883e-001
      -5.34557521e-001 -5.69300592e-001 -6.12313867e-001 9.27523911e-001
      5.44979870e-001 -4.95247871e-001 -3.90992939e-001 1.41835794e-001
      -6.38241649e-001 9.15900767e-002 -6.09935701e-001 -4.79353726e-001
      1.00710309e+000 1.77716225e-001 -5.31235635e-001 -3.59350771e-001
      -3.15678954e-001 -2.50986308e-001 -4.89400357e-001 1.72709763e-001
      -4.93742675e-001 -5.47682464e-001 -5.27430892e-001 8.98994654e-002
      1.12698257e+000 -5.03982365e-001 3.37144464e-001 -7.25532055e-001</_>
    <_>
      -4.87687260e-001 -5.29093623e-001 -4.78632092e-001 1.22838449e+000
      1.09483123e+000 -4.97051328e-001 1.73649222e-001 -2.07957000e-001
      7.24022090e-001 -4.66588974e-001 8.10006917e-001 -4.10285681e-001
      -2.00475886e-001 -3.07152271e-001 -2.63097644e-001
      -6.16849780e-001 -5.02084196e-001 2.55520999e-001 -5.83738863e-001
      -1.90626070e-001 6.47736490e-001 -4.88782883e-001 -5.34557521e-001
      5.48958369e-002 -6.12313867e-001 -5.83130717e-001 -5.73952258e-001
      2.00708970e-001 2.50166774e-001 -1.59028038e-001 -6.38241649e-001
      9.15900767e-002 3.60416532e-001 -9.72354487e-002 -1.89878330e-001
      -5.67760170e-001 -5.31235635e-001 -6.63563073e-001
      -3.15678954e-001 -2.50986308e-001 -4.89400357e-001
      -5.65591574e-001 -4.93742675e-001 -5.47682464e-001
      -1.96679175e-001 -5.41369557e-001 -5.91103375e-001
      -2.56520599e-001 -5.47168911e-001 -7.25532055e-001</_>
    <_>
      -4.87687260e-001 -5.29093623e-001 -4.78632092e-001
      -5.05441129e-001 -4.68814492e-001 -4.97051328e-001
      -4.94691461e-001 -6.45761192e-001 -6.41137421e-001
      -4.66588974e-001 -6.07505143e-001 -4.10285681e-001
      -5.32625318e-001 1.63093543e+000 7.85547853e-001 1.80003434e-001
      -5.02084196e-001 1.31546009e+000 8.33912641e-002 -5.04137397e-001
      -6.85838759e-001 -4.88782883e-001 -5.34557521e-001 1.30328870e+000
      -6.12313867e-001 4.23972398e-001 -1.44861732e-002 -4.95247871e-001
      -3.90992939e-001 -4.59891886e-001 2.05714226e-001 9.15900767e-002
      -6.09935701e-001 -4.79353726e-001 6.08109295e-001 -5.67760170e-001
      -5.31235635e-001 -5.51385023e-002 -3.15678954e-001
      -5.39003372e-001 -4.89400357e-001 -5.65591574e-001
      -1.58392876e-001 -5.47682464e-001 -5.27430892e-001
      -5.41369557e-001 -5.91103375e-001 -5.03982365e-001
      -5.47168911e-001 -7.25532055e-001</_>
    <_>
      -4.87687260e-001 1.05366504e+000 -4.78632092e-001 3.61471683e-001
      -4.68814492e-001 -2.40508705e-001 1.51033056e+000 -6.45761192e-001
      -6.41137421e-001 1.02082932e+000 -6.07505143e-001 -4.10285681e-001
      -5.32625318e-001 -6.30166888e-001 -6.12646103e-001
      -6.16849780e-001 -5.02084196e-001 2.55520999e-001 7.50521362e-001
      -1.90626070e-001 6.47736490e-001 -4.88782883e-001 -5.34557521e-001
      -5.69300592e-001 -6.12313867e-001 -5.83130717e-001
      -1.44861732e-002 -4.95247871e-001 3.45596552e+000 -4.59891886e-001
      2.05714226e-001 -7.29057074e-001 -6.09935701e-001 -4.79353726e-001
      -5.88872135e-001 1.77716225e-001 -5.31235635e-001 -3.59350771e-001
      -3.15678954e-001 -2.50986308e-001 -4.89400357e-001
      -5.65591574e-001 -4.93742675e-001 -2.57244796e-001
      -1.96679175e-001 -2.25735053e-001 -5.91103375e-001
      -5.03982365e-001 -2.52397805e-001 4.36980009e-001</_>
    <_>
      -4.87687260e-001 -5.29093623e-001 -4.78632092e-001
      -5.05441129e-001 -4.68814492e-001 -2.40508705e-001 1.73649222e-001
      -2.07957000e-001 -6.41137421e-001 -4.66588974e-001
      -6.07505143e-001 -4.10285681e-001 -5.32625318e-001
      -6.30166888e-001 -6.12646103e-001 -6.16849780e-001
      -5.02084196e-001 -8.04418027e-001 -5.83738863e-001
      -5.04137397e-001 -6.85838759e-001 -4.88782883e-001
      -5.34557521e-001 -5.69300592e-001 -6.12313867e-001
      -7.95791447e-002 -5.73952258e-001 -4.95247871e-001
      -3.90992939e-001 -4.59891886e-001 -6.38241649e-001
      -7.29057074e-001 -6.09935701e-001 -9.72354487e-002
      -1.89878330e-001 -5.67760170e-001 -5.31235635e-001
      -6.63563073e-001 -3.15678954e-001 -5.39003372e-001
      -4.89400357e-001 -5.65591574e-001 -4.93742675e-001 3.31928730e-002
      -5.27430892e-001 -5.41369557e-001 -5.91103375e-001
      -5.03982365e-001 -5.47168911e-001 -7.25532055e-001</_>
    <_>
      -4.87687260e-001 -5.29093623e-001 -4.78632092e-001 3.61471683e-001
      -4.68814492e-001 -2.40508705e-001 -4.94691461e-001 2.29847193e-001
      -6.41137421e-001 -4.66588974e-001 -6.07505143e-001
      -1.82037987e-002 -2.00475886e-001 -3.07152271e-001
      -2.63097644e-001 -6.16849780e-001 -5.02084196e-001
      -8.04418027e-001 -5.83738863e-001 1.22885250e-001 -6.85838759e-001
      -2.21479744e-001 1.73326230e+000 5.48958369e-002 -6.12313867e-001
      -5.83130717e-001 -1.44861732e-002 -4.95247871e-001
      -3.90992939e-001 -1.59028038e-001 2.05714226e-001 9.12237227e-001
      -6.09935701e-001 -4.79353726e-001 2.09115490e-001 -5.67760170e-001
      -5.31235635e-001 2.49073774e-001 3.35445225e-001 -2.50986308e-001
      -4.89400357e-001 -5.65591574e-001 -4.93742675e-001
      -5.47682464e-001 7.95576096e-001 -2.25735053e-001 -5.91103375e-001
      -5.03982365e-001 3.37144464e-001 -7.25532055e-001</_>
    <_>
      -4.87687260e-001 -5.29093623e-001 -4.78632092e-001 3.61471683e-001
      -4.68814492e-001 -4.97051328e-001 -4.94691461e-001 1.10545564e+000
      7.24022090e-001 -4.66588974e-001 -6.07505143e-001 -4.10285681e-001
      -5.32625318e-001 1.58623420e-002 -2.63097644e-001 -6.16849780e-001
      -5.02084196e-001 -8.04418027e-001 7.50521362e-001 -1.90626070e-001
      -6.85838759e-001 -4.88782883e-001 2.21382439e-001 3.66994053e-001
      2.11459711e-001 -7.95791447e-002 -5.73952258e-001 -4.95247871e-001
      -3.90992939e-001 -4.59891886e-001 -6.38241649e-001
      -7.29057074e-001 -6.09935701e-001 -4.79353726e-001
      -1.89878330e-001 1.77716225e-001 6.37691498e-001 -3.59350771e-001
      3.35445225e-001 -5.39003372e-001 -4.89400357e-001 -5.65591574e-001
      -4.93742675e-001 -2.57244796e-001 -5.27430892e-001
      -5.41369557e-001 -5.91103375e-001 -5.03982365e-001
      -5.47168911e-001 -7.25532055e-001</_>
    <_>
      -4.87687260e-001 -5.29093623e-001 -1.38487458e-001 3.61471683e-001
      1.56643808e-001 -4.97051328e-001 8.41989934e-001 2.29847193e-001
      7.24022090e-001 2.92171333e-002 -1.35001138e-001 -1.82037987e-002
      -5.32625318e-001 -6.30166888e-001 8.64508525e-002 -6.16849780e-001
      -5.02084196e-001 -8.04418027e-001 -5.83738863e-001
      -1.90626070e-001 6.47736490e-001 -4.88782883e-001 9.77322400e-001
      -5.69300592e-001 -6.12313867e-001 -5.83130717e-001
      -5.73952258e-001 5.48687398e-001 -3.90992939e-001 -4.59891886e-001
      -6.38241649e-001 -7.29057074e-001 3.60416532e-001 -4.79353726e-001
      -1.89878330e-001 1.77716225e-001 -5.31235635e-001 -6.63563073e-001
      9.86569405e-001 3.70307565e-002 -4.89400357e-001 -5.65591574e-001
      -4.93742675e-001 -2.57244796e-001 -5.27430892e-001
      -2.25735053e-001 -1.84080750e-002 -5.03982365e-001
      -5.47168911e-001 -7.25532055e-001</_>
    <_>
      -4.87687260e-001 -5.29093623e-001 2.01657176e-001 2.96220994e+000
      -1.56085342e-001 -4.97051328e-001 -4.94691461e-001
      -2.07957000e-001 -6.41137421e-001 -4.66588974e-001 8.10006917e-001
      3.73878092e-001 -5.32625318e-001 -6.30166888e-001 -6.12646103e-001
      9.76856589e-001 3.20442826e-001 2.55520999e-001 -5.83738863e-001
      -1.90626070e-001 6.47736490e-001 -4.88782883e-001 9.77322400e-001
      -5.69300592e-001 -6.12313867e-001 -5.83130717e-001
      -1.44861732e-002 -1.47269443e-001 -3.90992939e-001
      -4.59891886e-001 2.05714226e-001 -7.29057074e-001 3.60416532e-001
      -4.79353726e-001 -5.88872135e-001 9.23192561e-001 -5.31235635e-001
      -6.63563073e-001 -3.15678954e-001 -5.39003372e-001
      -4.89400357e-001 9.11011100e-001 -4.93742675e-001 6.14068210e-001
      -5.27430892e-001 -5.41369557e-001 -1.84080750e-002
      -2.56520599e-001 -5.47168911e-001 -7.25532055e-001</_>
    <_>
      -4.87687260e-001 -5.29093623e-001 -4.78632092e-001 3.61471683e-001
      -4.68814492e-001 -4.97051328e-001 -4.94691461e-001
      -6.45761192e-001 -6.41137421e-001 -4.66588974e-001
      -6.07505143e-001 -1.82037987e-002 -5.32625318e-001
      -6.30166888e-001 -6.12646103e-001 -6.16849780e-001
      -2.27908522e-001 -8.04418027e-001 8.33912641e-002 -5.04137397e-001
      -6.85838759e-001 -4.88782883e-001 2.21382439e-001 -5.69300592e-001
      -6.12313867e-001 -5.83130717e-001 -5.73952258e-001
      -4.95247871e-001 -3.90992939e-001 -4.59891886e-001
      -6.38241649e-001 -7.29057074e-001 3.60416532e-001 -4.79353726e-001
      -5.88872135e-001 -5.67760170e-001 -5.31235635e-001
      -6.63563073e-001 1.63769364e+000 -5.39003372e-001 -4.89400357e-001
      -5.65591574e-001 -1.58392876e-001 3.23630542e-001 -5.27430892e-001
      -5.41369557e-001 -5.91103375e-001 -5.03982365e-001
      -5.47168911e-001 -7.25532055e-001</_>
    <_>
      -1.89211994e-001 -2.12541878e-001 -4.78632092e-001 3.61471683e-001
      -4.68814492e-001 -2.40508705e-001 -4.94691461e-001 6.67651355e-001
      2.08918166e+000 -4.66588974e-001 -6.07505143e-001 -4.10285681e-001
      1.12812173e+000 1.30792081e+000 -2.63097644e-001 2.57056284e+000
      4.62671593e-002 2.55520999e-001 8.33912641e-002 -1.90626070e-001
      -6.85838759e-001 -2.21479744e-001 -5.34557521e-001 5.48958369e-002
      2.11459711e-001 -7.95791447e-002 5.44979870e-001 -4.95247871e-001
      -3.90992939e-001 -4.59891886e-001 1.89362609e+000 9.15900767e-002
      3.60416532e-001 -4.79353726e-001 -1.89878330e-001 -5.67760170e-001
      -5.31235635e-001 2.49073774e-001 -3.15678954e-001 -5.39003372e-001
      2.50980198e-001 -5.65591574e-001 -4.93742675e-001 -2.57244796e-001
      2.11858320e+000 1.35243762e+000 -5.91103375e-001 -2.56520599e-001
      -5.47168911e-001 4.36980009e-001</_>
    <_>
      -1.89211994e-001 -5.29093623e-001 -4.78632092e-001
      -5.05441129e-001 -4.68814492e-001 1.60339139e-002 -4.94691461e-001
      -6.45761192e-001 -6.41137421e-001 -4.66588974e-001
      -6.07505143e-001 -4.10285681e-001 -5.32625318e-001
      -6.30166888e-001 -6.12646103e-001 -6.16849780e-001
      -5.02084196e-001 2.55520999e-001 8.33912641e-002 -5.04137397e-001
      -6.85838759e-001 3.13126534e-001 -5.34557521e-001 -5.69300592e-001
      -6.12313867e-001 -5.83130717e-001 -5.73952258e-001
      -4.95247871e-001 -3.90992939e-001 -4.59891886e-001 2.05714226e-001
      9.12237227e-001 -6.09935701e-001 -4.79353726e-001 -5.88872135e-001
      -5.67760170e-001 -5.31235635e-001 -6.63563073e-001
      -3.15678954e-001 3.70307565e-002 -4.89400357e-001 1.72709763e-001
      -4.93742675e-001 -5.47682464e-001 -5.27430892e-001
      -5.41369557e-001 5.54287255e-001 -2.56520599e-001 -5.47168911e-001
      -7.25532055e-001</_>
    <_>
      1.09263279e-001 -5.29093623e-001 -4.78632092e-001 -5.05441129e-001
      -4.68814492e-001 -4.97051328e-001 -4.94691461e-001
      -2.07957000e-001 -6.41137421e-001 -4.66588974e-001
      -6.07505143e-001 3.73878092e-001 -2.00475886e-001 -3.07152271e-001
      -6.12646103e-001 1.80003434e-001 -2.27908522e-001 -8.04418027e-001
      -5.83738863e-001 -1.90626070e-001 -6.85838759e-001 4.58233915e-002
      -5.34557521e-001 -5.69300592e-001 -6.12313867e-001
      -5.83130717e-001 -5.73952258e-001 -4.95247871e-001
      -3.90992939e-001 -4.59891886e-001 -6.38241649e-001
      -7.29057074e-001 3.60416532e-001 -4.79353726e-001 -5.88872135e-001
      3.15962172e+000 -5.31235635e-001 -6.63563073e-001 -3.15678954e-001
      3.70307565e-002 -4.89400357e-001 -5.65591574e-001 -1.58392876e-001
      3.31928730e-002 -1.96679175e-001 -2.25735053e-001 -5.91103375e-001
      -2.56520599e-001 -5.47168911e-001 4.36980009e-001</_>
    <_>
      -4.87687260e-001 -5.29093623e-001 -4.78632092e-001 1.22838449e+000
      -4.68814492e-001 -4.97051328e-001 1.73649222e-001 1.10545564e+000
      -6.41137421e-001 -4.66588974e-001 -6.07505143e-001
      -4.10285681e-001 -5.32625318e-001 -6.30166888e-001
      -2.63097644e-001 1.80003434e-001 -5.02084196e-001 2.55520999e-001
      -5.83738863e-001 -5.04137397e-001 -6.85838759e-001
      -4.88782883e-001 -5.34557521e-001 -5.69300592e-001 2.11459711e-001
      -5.83130717e-001 -5.73952258e-001 -4.95247871e-001
      -3.90992939e-001 -4.59891886e-001 2.05714226e-001 -7.29057074e-001
      3.60416532e-001 -4.79353726e-001 -5.88872135e-001 9.23192561e-001
      -5.31235635e-001 -5.51385023e-002 3.35445225e-001 -5.39003372e-001
      -4.89400357e-001 -5.65591574e-001 -4.93742675e-001
      -5.47682464e-001 -5.27430892e-001 -5.41369557e-001
      -5.91103375e-001 -5.03982365e-001 -5.47168911e-001 4.36980009e-001</_>
    <_>
      -1.89211994e-001 -5.29093623e-001 -4.78632092e-001 2.09529734e+000
      -4.68814492e-001 -4.97051328e-001 -4.94691461e-001
      -2.07957000e-001 -6.41137421e-001 -4.66588974e-001
      -6.07505143e-001 -4.10285681e-001 1.31673530e-001 9.84906137e-001
      1.13509631e+000 1.80003434e-001 -5.02084196e-001 2.37539911e+000
      8.33912641e-002 1.06341922e+000 -6.85838759e-001 -2.21479744e-001
      9.77322400e-001 1.30328870e+000 -6.12313867e-001 -5.83130717e-001
      5.44979870e-001 -4.95247871e-001 -3.90992939e-001 -4.59891886e-001
      -6.38241649e-001 -7.29057074e-001 -6.09935701e-001
      -4.79353726e-001 -1.89878330e-001 1.77716225e-001 -5.31235635e-001
      5.53286016e-001 -3.15678954e-001 -2.50986308e-001 -2.42606834e-001
      -5.65591574e-001 -4.93742675e-001 -2.57244796e-001
      -1.96679175e-001 7.21168518e-001 -5.91103375e-001 -5.03982365e-001
      4.23733369e-002 4.36980009e-001</_>
    <_>
      -4.87687260e-001 -5.29093623e-001 -4.78632092e-001
      -5.05441129e-001 -4.68814492e-001 -4.97051328e-001
      -4.94691461e-001 -6.45761192e-001 7.24022090e-001 -4.66588974e-001
      -6.07505143e-001 -4.10285681e-001 -2.00475886e-001 1.58623420e-002
      8.64508525e-002 9.76856589e-001 -5.02084196e-001 2.55520999e-001
      1.41765153e+000 -1.90626070e-001 -6.85838759e-001 -4.88782883e-001
      2.21382439e-001 -2.57202357e-001 2.11459711e-001 -7.95791447e-002
      -5.73952258e-001 -4.95247871e-001 -3.90992939e-001
      -4.59891886e-001 2.05714226e-001 -7.29057074e-001 1.33076870e+000
      -4.79353726e-001 1.00710309e+000 -5.67760170e-001 -5.31235635e-001
      -6.63563073e-001 -3.15678954e-001 -5.39003372e-001
      -4.89400357e-001 -5.65591574e-001 -4.93742675e-001
      -5.47682464e-001 -1.96679175e-001 1.03680301e+000 -5.91103375e-001
      -5.03982365e-001 -5.47168911e-001 4.36980009e-001</_>
    <_>
      -4.87687260e-001 -5.29093623e-001 -4.78632092e-001
      -5.05441129e-001 4.69372958e-001 -2.40508705e-001 1.51033056e+000
      -6.45761192e-001 -6.41137421e-001 -4.66588974e-001 8.10006917e-001
      -4.10285681e-001 -5.32625318e-001 -6.30166888e-001
      -6.12646103e-001 -6.16849780e-001 -5.02084196e-001 2.55520999e-001
      7.50521362e-001 -5.04137397e-001 -6.85838759e-001 -4.88782883e-001
      -5.34557521e-001 -5.69300592e-001 -2.00427070e-001
      -5.83130717e-001 -1.44861732e-002 -1.47269443e-001 2.50166774e-001
      4.42699611e-001 -6.38241649e-001 9.15900767e-002 1.33076870e+000
      2.84882843e-001 -5.88872135e-001 -5.67760170e-001 -5.31235635e-001
      -6.63563073e-001 -3.15678954e-001 -5.39003372e-001
      -4.89400357e-001 -5.65591574e-001 -4.93742675e-001
      -5.47682464e-001 -5.27430892e-001 -5.41369557e-001
      -5.91103375e-001 -5.03982365e-001 -2.52397805e-001
      -7.25532055e-001</_>
    <_>
      -4.87687260e-001 -5.29093623e-001 -4.78632092e-001
      -5.05441129e-001 -4.68814492e-001 -4.97051328e-001
      -4.94691461e-001 2.29847193e-001 -6.41137421e-001 -4.66588974e-001
      -6.07505143e-001 -4.10285681e-001 -5.32625318e-001
      -3.07152271e-001 8.64508525e-002 -6.16849780e-001 -2.27908522e-001
      1.31546009e+000 -5.83738863e-001 -5.04137397e-001 -6.85838759e-001
      -4.88782883e-001 2.21382439e-001 -2.57202357e-001 -6.12313867e-001
      -7.95791447e-002 -5.73952258e-001 -4.95247871e-001
      -3.90992939e-001 -4.59891886e-001 -6.38241649e-001 9.12237227e-001
      -6.09935701e-001 -4.79353726e-001 2.09115490e-001 -5.67760170e-001
      -5.31235635e-001 -5.51385023e-002 -3.15678954e-001
      -5.39003372e-001 -4.89400357e-001 -5.65591574e-001
      -4.93742675e-001 -5.47682464e-001 -5.27430892e-001
      -5.41369557e-001 -5.91103375e-001 -5.03982365e-001
      -5.47168911e-001 -7.25532055e-001</_>
    <_>
      -4.87687260e-001 -5.29093623e-001 5.41801810e-001 -5.05441129e-001
      -4.68814492e-001 -4.97051328e-001 -4.94691461e-001
      -6.45761192e-001 -6.41137421e-001 5.25023222e-001 -6.07505143e-001
      -4.10285681e-001 -5.32625318e-001 -6.30166888e-001 8.64508525e-002
      1.80003434e-001 -5.02084196e-001 -8.04418027e-001 -5.83738863e-001
      4.36396569e-001 6.47736490e-001 -4.88782883e-001 -5.34557521e-001
      -5.69300592e-001 -6.12313867e-001 -7.95791447e-002
      -1.44861732e-002 -4.95247871e-001 -3.90992939e-001
      -1.59028038e-001 -6.38241649e-001 -7.29057074e-001 3.60416532e-001
      1.04911947e+000 -1.89878330e-001 -5.67760170e-001 6.37691498e-001
      -6.63563073e-001 -3.15678954e-001 -5.39003372e-001
      -4.89400357e-001 -5.65591574e-001 -4.93742675e-001
      -5.47682464e-001 -5.27430892e-001 -5.41369557e-001
      -5.91103375e-001 -5.03982365e-001 -5.47168911e-001
      -7.25532055e-001</_>
    <_>
      -4.87687260e-001 -5.29093623e-001 -4.78632092e-001
      -5.05441129e-001 -4.68814492e-001 -4.97051328e-001 1.73649222e-001
      -2.07957000e-001 -6.41137421e-001 -4.66588974e-001
      -6.07505143e-001 -4.10285681e-001 -2.00475886e-001 1.58623420e-002
      -2.63097644e-001 -6.16849780e-001 -5.02084196e-001 2.55520999e-001
      -5.83738863e-001 -5.04137397e-001 -6.85838759e-001
      -4.88782883e-001 2.21382439e-001 -2.57202357e-001 -6.12313867e-001
      1.43107545e+000 5.44979870e-001 -4.95247871e-001 -3.90992939e-001
      -4.59891886e-001 -6.38241649e-001 -7.29057074e-001
      -6.09935701e-001 -4.79353726e-001 1.00710309e+000 1.66866899e+000
      -5.31235635e-001 -3.59350771e-001 -3.15678954e-001
      -5.39003372e-001 -4.89400357e-001 -5.65591574e-001
      -4.93742675e-001 -5.47682464e-001 -5.27430892e-001
      -5.41369557e-001 -5.91103375e-001 -5.03982365e-001
      -5.47168911e-001 -7.25532055e-001</_>
    <_>
      -4.87687260e-001 -2.12541878e-001 -4.78632092e-001 3.61471683e-001
      -4.68814492e-001 -4.97051328e-001 -4.94691461e-001
      -6.45761192e-001 -6.41137421e-001 -4.66588974e-001
      -6.07505143e-001 -4.10285681e-001 -5.32625318e-001 3.38876963e-001
      8.64508525e-002 1.80003434e-001 -5.02084196e-001 -8.04418027e-001
      -5.83738863e-001 -5.04137397e-001 -6.85838759e-001
      -4.88782883e-001 9.77322400e-001 -2.57202357e-001 -6.12313867e-001
      -5.83130717e-001 -5.73952258e-001 -4.95247871e-001
      -3.90992939e-001 -4.59891886e-001 2.05714226e-001 -7.29057074e-001
      3.60416532e-001 -4.79353726e-001 -5.88872135e-001 -5.67760170e-001
      -5.31235635e-001 -5.51385023e-002 -3.15678954e-001
      -5.39003372e-001 -4.89400357e-001 1.72709763e-001 -4.93742675e-001
      -5.47682464e-001 1.34072572e-001 -5.41369557e-001 -5.91103375e-001
      -5.03982365e-001 -5.47168911e-001 -7.25532055e-001</_>
    <_>
      -4.87687260e-001 1.04009859e-001 5.41801810e-001 -5.05441129e-001
      1.40756035e+000 -2.40508705e-001 -4.94691461e-001 -2.07957000e-001
      -6.41137421e-001 2.92171333e-002 2.70002294e+000 -4.10285681e-001
      1.31673530e-001 -6.30166888e-001 -2.63097644e-001 1.80003434e-001
      -5.02084196e-001 -8.04418027e-001 8.33912641e-002 -5.04137397e-001
      -6.85838759e-001 -4.88782883e-001 -5.34557521e-001
      -5.69300592e-001 -6.12313867e-001 9.27523911e-001 -5.73952258e-001
      5.48687398e-001 8.91326487e-001 -1.59028038e-001 2.05714226e-001
      2.55353165e+000 2.30112100e+000 -9.72354487e-002 -5.88872135e-001
      -5.67760170e-001 6.37691498e-001 -6.63563073e-001 -3.15678954e-001
      3.70307565e-002 4.18668333e-003 3.12591529e+000 -1.58392876e-001
      -5.47682464e-001 -1.96679175e-001 -5.41369557e-001 2.27237320e+000
      -5.03982365e-001 -2.52397805e-001 2.76200414e+000</_>
    <_>
      -4.87687260e-001 4.20561612e-001 -4.78632092e-001 -5.05441129e-001
      -4.68814492e-001 -4.97051328e-001 -4.94691461e-001
      -6.45761192e-001 7.24022090e-001 2.92171333e-002 3.37502867e-001
      -4.10285681e-001 -5.32625318e-001 -6.30166888e-001
      -6.12646103e-001 -6.16849780e-001 -5.02084196e-001
      -8.04418027e-001 -5.83738863e-001 -5.04137397e-001
      -6.85838759e-001 -4.88782883e-001 -5.34557521e-001
      -2.57202357e-001 -6.12313867e-001 -5.83130717e-001
      -5.73952258e-001 -1.47269443e-001 -3.90992939e-001
      -4.59891886e-001 -6.38241649e-001 -7.29057074e-001
      -6.09935701e-001 -4.79353726e-001 -5.88872135e-001
      -5.67760170e-001 -5.31235635e-001 5.53286016e-001 -3.15678954e-001
      -2.50986308e-001 -4.89400357e-001 1.72709763e-001 -4.93742675e-001
      -5.47682464e-001 -5.27430892e-001 -5.41369557e-001
      -1.84080750e-002 -5.03982365e-001 -2.52397805e-001 4.36980009e-001</_>
    <_>
      -4.87687260e-001 -5.29093623e-001 2.01657176e-001 -5.05441129e-001
      -4.68814492e-001 -4.97051328e-001 7.52539635e+000 1.10545564e+000
      7.24022090e-001 -4.66588974e-001 1.75501502e+000 -4.10285681e-001
      -5.32625318e-001 -3.07152271e-001 8.64508525e-002 1.77370977e+000
      -5.02084196e-001 1.31546009e+000 5.42043209e+000 -5.04137397e-001
      6.47736490e-001 -4.88782883e-001 -5.34557521e-001 -5.69300592e-001
      -2.00427070e-001 -5.83130717e-001 -1.44861732e-002
      -4.95247871e-001 2.17364597e+000 -4.59891886e-001 -6.38241649e-001
      9.12237227e-001 -6.09935701e-001 2.84882843e-001 -5.88872135e-001
      9.23192561e-001 -5.31235635e-001 -6.63563073e-001 -3.15678954e-001
      -5.39003372e-001 -4.89400357e-001 -5.65591574e-001 8.47656488e-001
      1.48538113e+000 -5.27430892e-001 -2.25735053e-001 -5.91103375e-001
      -5.03982365e-001 -5.47168911e-001 -7.25532055e-001</_>
    <_>
      -1.89211994e-001 7.37113297e-001 -4.78632092e-001 -5.05441129e-001
      -1.56085342e-001 -2.40508705e-001 -4.94691461e-001
      -6.45761192e-001 7.24022090e-001 -4.66588974e-001 3.37502867e-001
      -4.10285681e-001 -5.32625318e-001 -6.30166888e-001
      -6.12646103e-001 -6.16849780e-001 -5.02084196e-001
      -8.04418027e-001 -5.83738863e-001 -5.04137397e-001 6.47736490e-001
      4.58233915e-002 -5.34557521e-001 -5.69300592e-001 -6.12313867e-001
      -5.83130717e-001 -5.73952258e-001 -4.95247871e-001
      -3.90992939e-001 -4.59891886e-001 -6.38241649e-001
      -7.29057074e-001 -6.09935701e-001 -4.79353726e-001
      -5.88872135e-001 -5.67760170e-001 1.80661869e+000 -3.59350771e-001
      -3.15678954e-001 3.70307565e-002 -4.89400357e-001 -5.65591574e-001
      -4.93742675e-001 -5.47682464e-001 -5.27430892e-001
      -5.41369557e-001 -1.84080750e-002 -5.03982365e-001 6.31915629e-001
      1.59949207e+000</_>
    <_>
      -4.87687260e-001 -5.29093623e-001 -4.78632092e-001 3.61471683e-001
      -4.68814492e-001 -4.97051328e-001 -4.94691461e-001
      -6.45761192e-001 -6.41137421e-001 -4.66588974e-001
      -6.07505143e-001 -1.82037987e-002 -5.32625318e-001
      -6.30166888e-001 -6.12646103e-001 -6.16849780e-001
      -5.02084196e-001 -8.04418027e-001 8.33912641e-002 1.22885250e-001
      -6.85838759e-001 -4.88782883e-001 -5.34557521e-001
      -5.69300592e-001 -6.12313867e-001 -5.83130717e-001
      -5.73952258e-001 -4.95247871e-001 -3.90992939e-001
      -4.59891886e-001 2.05714226e-001 -7.29057074e-001 1.33076870e+000
      -4.79353726e-001 -5.88872135e-001 1.66866899e+000 -5.31235635e-001
      -6.63563073e-001 3.35445225e-001 -5.39003372e-001 -4.89400357e-001
      -5.65591574e-001 -4.93742675e-001 -2.57244796e-001
      -1.96679175e-001 -2.25735053e-001 -5.91103375e-001
      -5.03982365e-001 -5.47168911e-001 -7.25532055e-001</_>
    <_>
      -4.87687260e-001 -5.29093623e-001 -4.78632092e-001
      -5.05441129e-001 -4.68814492e-001 -2.40508705e-001 8.41989934e-001
      -2.07957000e-001 7.24022090e-001 -4.66588974e-001 -6.07505143e-001
      -4.10285681e-001 1.31673530e-001 1.58623420e-002 -6.12646103e-001
      1.77370977e+000 -2.27908522e-001 -8.04418027e-001 7.50521362e-001
      -5.04137397e-001 -6.85838759e-001 -4.88782883e-001
      -5.34557521e-001 5.48958369e-002 -6.12313867e-001 -5.83130717e-001
      -5.73952258e-001 -4.95247871e-001 -3.90992939e-001
      -4.59891886e-001 -6.38241649e-001 9.15900767e-002 -6.09935701e-001
      -4.79353726e-001 -1.89878330e-001 1.77716225e-001 -5.31235635e-001
      2.49073774e-001 -3.15678954e-001 -5.39003372e-001 -4.89400357e-001
      -5.65591574e-001 -4.93742675e-001 3.23630542e-001 1.34072572e-001
      8.98994654e-002 -5.91103375e-001 -9.05883964e-003 -5.47168911e-001
      4.36980009e-001</_>
    <_>
      -4.87687260e-001 -5.29093623e-001 -4.78632092e-001
      -5.05441129e-001 -4.68814492e-001 -4.97051328e-001
      -4.94691461e-001 -2.07957000e-001 -6.41137421e-001
      -4.66588974e-001 -6.07505143e-001 -4.10285681e-001
      -5.32625318e-001 -6.30166888e-001 -2.63097644e-001 1.80003434e-001
      -5.02084196e-001 -8.04418027e-001 -5.83738863e-001
      -5.04137397e-001 -6.85838759e-001 -4.88782883e-001
      -5.34557521e-001 -2.57202357e-001 -6.12313867e-001
      -7.95791447e-002 -5.73952258e-001 -4.95247871e-001
      -3.90992939e-001 -4.59891886e-001 2.05714226e-001 -7.29057074e-001
      3.60416532e-001 -4.79353726e-001 -5.88872135e-001 -5.67760170e-001
      -5.31235635e-001 -6.63563073e-001 1.63769364e+000 -5.39003372e-001
      -4.89400357e-001 -5.65591574e-001 -4.93742675e-001
      -5.47682464e-001 -5.27430892e-001 -5.41369557e-001
      -5.91103375e-001 -5.03982365e-001 -5.47168911e-001 4.36980009e-001</_>
    <_>
      -4.87687260e-001 -5.29093623e-001 -4.78632092e-001 2.09529734e+000
      -4.68814492e-001 -4.97051328e-001 -4.94691461e-001
      -6.45761192e-001 -6.41137421e-001 -4.66588974e-001
      -6.07505143e-001 -4.10285681e-001 -5.32625318e-001 6.61891520e-001
      1.48464489e+000 1.80003434e-001 -5.02084196e-001 -8.04418027e-001
      -5.83738863e-001 -5.04137397e-001 -6.85838759e-001
      -4.88782883e-001 -5.34557521e-001 -5.69300592e-001
      -6.12313867e-001 9.27523911e-001 -5.73952258e-001 -4.95247871e-001
      -3.90992939e-001 -4.59891886e-001 2.05714226e-001 -7.29057074e-001
      3.60416532e-001 -4.79353726e-001 6.08109295e-001 -5.67760170e-001
      -5.31235635e-001 8.57498288e-001 9.86569405e-001 -5.39003372e-001
      -4.89400357e-001 -5.65591574e-001 -4.93742675e-001
      -5.47682464e-001 -5.27430892e-001 -2.25735053e-001
      -5.91103375e-001 -5.03982365e-001 -5.47168911e-001
      -7.25532055e-001</_>
    <_>
      -1.89211994e-001 -2.12541878e-001 -4.78632092e-001
      -5.05441129e-001 -1.56085342e-001 -2.40508705e-001
      -4.94691461e-001 -6.45761192e-001 -6.41137421e-001
      -4.66588974e-001 -1.35001138e-001 -4.10285681e-001
      -5.32625318e-001 -6.30166888e-001 -6.12646103e-001
      -6.16849780e-001 -5.02084196e-001 -8.04418027e-001
      -5.83738863e-001 -5.04137397e-001 -6.85838759e-001
      -2.21479744e-001 -5.34557521e-001 -5.69300592e-001
      -6.12313867e-001 -5.83130717e-001 -5.73952258e-001
      -4.95247871e-001 -3.90992939e-001 -1.59028038e-001 2.05714226e-001
      9.15900767e-002 -6.09935701e-001 -4.79353726e-001 -5.88872135e-001
      -5.67760170e-001 -5.31235635e-001 -6.63563073e-001
      -3.15678954e-001 3.70307565e-002 -4.89400357e-001 9.11011100e-001
      -1.58392876e-001 -5.47682464e-001 -5.27430892e-001
      -5.41369557e-001 5.54287255e-001 -5.03982365e-001 4.23733369e-002
      1.59949207e+000</_>
    <_>
      -4.87687260e-001 -5.29093623e-001 -4.78632092e-001
      -5.05441129e-001 -4.68814492e-001 -4.97051328e-001
      -4.94691461e-001 6.67651355e-001 -6.41137421e-001 -4.66588974e-001
      -6.07505143e-001 -4.10285681e-001 -5.32625318e-001
      -6.30166888e-001 -6.12646103e-001 -6.16849780e-001
      -5.02084196e-001 -8.04418027e-001 -5.83738863e-001
      -5.04137397e-001 -6.85838759e-001 -4.88782883e-001
      -5.34557521e-001 -5.69300592e-001 -2.00427070e-001
      -5.83130717e-001 -5.73952258e-001 -4.95247871e-001
      -3.90992939e-001 -4.59891886e-001 -6.38241649e-001
      -7.29057074e-001 -6.09935701e-001 -4.79353726e-001
      -5.88872135e-001 -5.67760170e-001 -5.31235635e-001
      -6.63563073e-001 -3.15678954e-001 -5.39003372e-001
      -2.42606834e-001 -5.65591574e-001 -4.93742675e-001
      -5.47682464e-001 -5.27430892e-001 -5.41369557e-001
      -5.91103375e-001 -5.03982365e-001 -5.47168911e-001
      -7.25532055e-001</_>
    <_>
      -4.87687260e-001 -5.29093623e-001 8.81946445e-001 -5.05441129e-001
      -1.56085342e-001 -4.97051328e-001 -4.94691461e-001
      -6.45761192e-001 -6.41137421e-001 2.92171333e-002 1.75501502e+000
      -4.10285681e-001 -5.32625318e-001 -6.30166888e-001
      -6.12646103e-001 -6.16849780e-001 -5.02084196e-001
      -8.04418027e-001 8.33912641e-002 -5.04137397e-001 6.47736490e-001
      -4.88782883e-001 -5.34557521e-001 -5.69300592e-001
      -6.12313867e-001 -5.83130717e-001 -5.73952258e-001 1.24464417e+000
      -3.90992939e-001 7.43563414e-001 -6.38241649e-001 9.12237227e-001
      -6.09935701e-001 6.67001128e-001 -5.88872135e-001 9.23192561e-001
      -5.31235635e-001 -6.63563073e-001 -3.15678954e-001
      -5.39003372e-001 -4.89400357e-001 9.11011100e-001 -4.93742675e-001
      -5.47682464e-001 -5.27430892e-001 -5.41369557e-001
      -1.84080750e-002 -5.03982365e-001 -5.47168911e-001
      -7.25532055e-001</_>
    <_>
      -4.87687260e-001 -5.29093623e-001 -4.78632092e-001
      -5.05441129e-001 -4.68814492e-001 -4.97051328e-001
      -4.94691461e-001 -2.07957000e-001 -6.41137421e-001
      -4.66588974e-001 -6.07505143e-001 -4.10285681e-001
      -5.32625318e-001 -3.07152271e-001 8.64508525e-002 -6.16849780e-001
      -5.02084196e-001 -8.04418027e-001 8.33912641e-002 -5.04137397e-001
      -6.85838759e-001 -4.88782883e-001 -5.34557521e-001
      -2.57202357e-001 -6.12313867e-001 -7.95791447e-002
      -5.73952258e-001 -4.95247871e-001 -3.90992939e-001
      -4.59891886e-001 -6.38241649e-001 9.15900767e-002 3.60416532e-001
      -4.79353726e-001 -1.89878330e-001 -5.67760170e-001
      -5.31235635e-001 2.49073774e-001 -3.15678954e-001 -5.39003372e-001
      -4.89400357e-001 -5.65591574e-001 -4.93742675e-001
      -5.47682464e-001 -5.27430892e-001 -5.41369557e-001
      -5.91103375e-001 -5.03982365e-001 -5.47168911e-001
      -7.25532055e-001</_>
    <_>
      1.09263279e-001 -5.29093623e-001 -1.38487458e-001 -5.05441129e-001
      -4.68814492e-001 1.60339139e-002 -4.94691461e-001 -6.45761192e-001
      7.24022090e-001 -4.66588974e-001 -6.07505143e-001 -4.10285681e-001
      -2.00475886e-001 -3.07152271e-001 -6.12646103e-001
      -6.16849780e-001 -5.02084196e-001 2.55520999e-001 -5.83738863e-001
      -1.90626070e-001 6.47736490e-001 -4.88782883e-001 -5.34557521e-001
      -5.69300592e-001 -6.12313867e-001 -5.83130717e-001
      -5.73952258e-001 2.00708970e-001 -3.90992939e-001 -4.59891886e-001
      -6.38241649e-001 9.15900767e-002 -6.09935701e-001 2.84882843e-001
      -5.88872135e-001 -5.67760170e-001 -5.31235635e-001
      -6.63563073e-001 -3.15678954e-001 3.25047821e-001 -4.89400357e-001
      9.11011100e-001 -4.93742675e-001 -2.57244796e-001 -1.96679175e-001
      -2.25735053e-001 -5.91103375e-001 -5.03982365e-001
      -5.47168911e-001 4.36980009e-001</_>
    <_>
      -4.87687260e-001 4.20561612e-001 -4.78632092e-001 -5.05441129e-001
      -4.68814492e-001 -4.97051328e-001 -4.94691461e-001
      -6.45761192e-001 7.24022090e-001 -4.66588974e-001 3.37502867e-001
      -4.10285681e-001 -5.32625318e-001 -6.30166888e-001
      -6.12646103e-001 -6.16849780e-001 -5.02084196e-001
      -8.04418027e-001 -5.83738863e-001 -5.04137397e-001 1.98131168e+000
      -4.88782883e-001 -5.34557521e-001 -2.57202357e-001
      -6.12313867e-001 -5.83130717e-001 -5.73952258e-001
      -4.95247871e-001 -3.90992939e-001 -4.59891886e-001
      -6.38241649e-001 9.15900767e-002 -6.09935701e-001 -4.79353726e-001
      -5.88872135e-001 -5.67760170e-001 -5.31235635e-001 5.53286016e-001
      -3.15678954e-001 -5.39003372e-001 -4.89400357e-001 1.72709763e-001
      -4.93742675e-001 -5.47682464e-001 -5.27430892e-001
      -5.41369557e-001 -1.84080750e-002 -5.03982365e-001 3.37144464e-001
      4.36980009e-001</_>
    <_>
      -4.87687260e-001 -5.29093623e-001 -4.78632092e-001 1.22838449e+000
      -4.68814492e-001 -4.97051328e-001 -4.94691461e-001 6.67651355e-001
      7.24022090e-001 -4.66588974e-001 -6.07505143e-001 3.73878092e-001
      -5.32625318e-001 -6.30166888e-001 -6.12646103e-001
      -6.16849780e-001 -5.02084196e-001 1.31546009e+000 1.41765153e+000
      -5.04137397e-001 -6.85838759e-001 -4.88782883e-001 2.21382439e-001
      -5.69300592e-001 -2.00427070e-001 -5.83130717e-001
      -5.73952258e-001 -4.95247871e-001 -3.90992939e-001
      -4.59891886e-001 2.05714226e-001 9.15900767e-002 -6.09935701e-001
      -4.79353726e-001 -5.88872135e-001 -5.67760170e-001
      -5.31235635e-001 -6.63563073e-001 1.63769364e+000 -5.39003372e-001
      4.18668333e-003 -5.65591574e-001 -4.93742675e-001 3.31928730e-002
      -5.27430892e-001 -5.41369557e-001 -5.91103375e-001
      -2.56520599e-001 -5.47168911e-001 -7.25532055e-001</_>
    <_>
      -4.87687260e-001 -5.29093623e-001 -4.78632092e-001 3.61471683e-001
      -4.68814492e-001 -4.97051328e-001 -4.94691461e-001
      -6.45761192e-001 -6.41137421e-001 -4.66588974e-001
      -6.07505143e-001 -4.10285681e-001 -5.32625318e-001
      -6.30166888e-001 -6.12646103e-001 -6.16849780e-001
      -5.02084196e-001 1.31546009e+000 -5.83738863e-001 -5.04137397e-001
      -6.85838759e-001 -2.21479744e-001 -5.34557521e-001
      -5.69300592e-001 -6.12313867e-001 -5.83130717e-001
      -5.73952258e-001 -4.95247871e-001 -3.90992939e-001
      -4.59891886e-001 -6.38241649e-001 -7.29057074e-001
      -6.09935701e-001 -4.79353726e-001 -5.88872135e-001
      -5.67760170e-001 -5.31235635e-001 -6.63563073e-001
      -3.15678954e-001 -5.39003372e-001 -4.89400357e-001
      -5.65591574e-001 -4.93742675e-001 -5.47682464e-001
      -5.27430892e-001 -5.41369557e-001 -5.91103375e-001
      -5.03982365e-001 -5.47168911e-001 -7.25532055e-001</_>
    <_>
      -4.87687260e-001 -2.12541878e-001 -4.78632092e-001 3.61471683e-001
      -4.68814492e-001 1.60339139e-002 -4.94691461e-001 -6.45761192e-001
      -6.41137421e-001 -4.66588974e-001 -1.35001138e-001
      -4.10285681e-001 -5.32625318e-001 -6.30166888e-001
      -6.12646103e-001 -6.16849780e-001 -5.02084196e-001
      -8.04418027e-001 -5.83738863e-001 -5.04137397e-001
      -6.85838759e-001 -2.21479744e-001 -5.34557521e-001
      -5.69300592e-001 -6.12313867e-001 -5.83130717e-001
      -5.73952258e-001 -1.47269443e-001 -3.90992939e-001
      -4.59891886e-001 -6.38241649e-001 9.12237227e-001 -6.09935701e-001
      -4.79353726e-001 -5.88872135e-001 -5.67760170e-001
      -5.31235635e-001 -6.63563073e-001 -3.15678954e-001 3.70307565e-002
      -4.89400357e-001 1.72709763e-001 -4.93742675e-001 -5.47682464e-001
      -5.27430892e-001 -5.41369557e-001 5.54287255e-001 -5.03982365e-001
      4.23733369e-002 4.36980009e-001</_>
    <_>
      -4.87687260e-001 1.04009859e-001 -4.78632092e-001 3.61471683e-001
      -4.68814492e-001 -4.97051328e-001 -4.94691461e-001
      -2.07957000e-001 7.24022090e-001 -4.66588974e-001 -1.35001138e-001
      -4.10285681e-001 -5.32625318e-001 -6.30166888e-001
      -6.12646103e-001 -6.16849780e-001 -5.02084196e-001
      -8.04418027e-001 -5.83738863e-001 -5.04137397e-001
      -6.85838759e-001 -4.88782883e-001 2.21382439e-001 -5.69300592e-001
      -6.12313867e-001 -5.83130717e-001 -5.73952258e-001
      -1.47269443e-001 -3.90992939e-001 -4.59891886e-001
      -6.38241649e-001 -7.29057074e-001 -6.09935701e-001
      -4.79353726e-001 -1.89878330e-001 -5.67760170e-001
      -5.31235635e-001 -5.51385023e-002 -3.15678954e-001
      -2.50986308e-001 -4.89400357e-001 1.72709763e-001 -4.93742675e-001
      -5.47682464e-001 -5.27430892e-001 -2.25735053e-001
      -1.84080750e-002 -5.03982365e-001 -2.52397805e-001 4.36980009e-001</_>
    <_>
      -4.87687260e-001 -5.29093623e-001 -4.78632092e-001 3.61471683e-001
      -4.68814492e-001 -4.97051328e-001 -4.94691461e-001
      -2.07957000e-001 -6.41137421e-001 -4.66588974e-001
      -6.07505143e-001 -1.82037987e-002 -5.32625318e-001
      -6.30166888e-001 -2.63097644e-001 9.76856589e-001 -5.02084196e-001
      -8.04418027e-001 3.41904187e+000 -5.04137397e-001 -6.85838759e-001
      -4.88782883e-001 3.24514222e+000 3.66994053e-001 -2.00427070e-001
      2.43817854e+000 1.66391206e+000 -4.95247871e-001 -3.90992939e-001
      -4.59891886e-001 -6.38241649e-001 9.15900767e-002 1.33076870e+000
      -4.79353726e-001 -1.89878330e-001 3.15962172e+000 -5.31235635e-001
      -3.59350771e-001 -3.15678954e-001 -5.39003372e-001
      -4.89400357e-001 -5.65591574e-001 -4.93742675e-001
      -5.47682464e-001 -5.27430892e-001 -5.41369557e-001
      -5.91103375e-001 -5.03982365e-001 -5.47168911e-001
      -7.25532055e-001</_>
    <_>
      -4.87687260e-001 -5.29093623e-001 -4.78632092e-001
      -5.05441129e-001 -4.68814492e-001 -4.97051328e-001 1.73649222e-001
      -2.07957000e-001 7.24022090e-001 -4.66588974e-001 -6.07505143e-001
      -4.10285681e-001 -2.00475886e-001 -3.07152271e-001
      -2.63097644e-001 9.76856589e-001 -5.02084196e-001 2.55520999e-001
      2.08478165e+000 4.36396569e-001 6.47736490e-001 -4.88782883e-001
      2.21382439e-001 3.66994053e-001 1.44712007e+000 -5.83130717e-001
      2.22337818e+000 -4.95247871e-001 -3.90992939e-001 -4.59891886e-001
      2.73758197e+000 9.15900767e-002 4.24182558e+000 -4.79353726e-001
      2.09115490e-001 9.23192561e-001 6.37691498e-001 5.53286016e-001
      -3.15678954e-001 -5.39003372e-001 -4.89400357e-001
      -5.65591574e-001 -4.93742675e-001 -5.47682464e-001 1.34072572e-001
      -5.41369557e-001 -5.91103375e-001 -2.56520599e-001
      -5.47168911e-001 -7.25532055e-001</_>
    <_>
      -4.87687260e-001 -5.29093623e-001 -4.78632092e-001
      -5.05441129e-001 -4.68814492e-001 -4.97051328e-001
      -4.94691461e-001 -2.07957000e-001 -6.41137421e-001
      -4.66588974e-001 -6.07505143e-001 -4.10285681e-001
      -5.32625318e-001 -3.07152271e-001 -6.12646103e-001
      -6.16849780e-001 -5.02084196e-001 -8.04418027e-001
      -5.83738863e-001 -5.04137397e-001 -6.85838759e-001
      -4.88782883e-001 -5.34557521e-001 -5.69300592e-001
      -6.12313867e-001 -7.95791447e-002 -5.73952258e-001
      -1.47269443e-001 2.50166774e-001 1.41835794e-001 -6.38241649e-001
      9.15900767e-002 3.60416532e-001 -9.72354487e-002 -5.88872135e-001
      -5.67760170e-001 -5.31235635e-001 -6.63563073e-001
      -3.15678954e-001 -2.50986308e-001 -4.89400357e-001
      -5.65591574e-001 -4.93742675e-001 -5.47682464e-001
      -5.27430892e-001 -5.41369557e-001 -5.91103375e-001
      -5.03982365e-001 -5.47168911e-001 -7.25532055e-001</_>
    <_>
      -4.87687260e-001 -5.29093623e-001 -4.78632092e-001
      -5.05441129e-001 -1.56085342e-001 -2.40508705e-001 8.41989934e-001
      -6.45761192e-001 2.08918166e+000 5.25023222e-001 -6.07505143e-001
      -4.10285681e-001 4.63822931e-001 -3.07152271e-001 -6.12646103e-001
      -6.16849780e-001 -5.02084196e-001 -8.04418027e-001
      -5.83738863e-001 -5.04137397e-001 -6.85838759e-001
      -4.88782883e-001 2.21382439e-001 -5.69300592e-001 -2.00427070e-001
      -5.83130717e-001 -5.73952258e-001 2.00708970e-001 -3.90992939e-001
      -4.59891886e-001 -6.38241649e-001 -7.29057074e-001
      -6.09935701e-001 -9.72354487e-002 -1.89878330e-001 9.23192561e-001
      -5.31235635e-001 -6.63563073e-001 -3.15678954e-001
      -5.39003372e-001 4.18668333e-003 -5.65591574e-001 -4.93742675e-001
      -2.57244796e-001 -5.27430892e-001 -5.41369557e-001
      -5.91103375e-001 -2.56520599e-001 -5.47168911e-001 1.59949207e+000</_>
    <_>
      -4.87687260e-001 -2.12541878e-001 -4.78632092e-001 3.61471683e-001
      -4.68814492e-001 -4.97051328e-001 -4.94691461e-001
      -6.45761192e-001 -6.41137421e-001 1.02082932e+000 -6.07505143e-001
      -4.10285681e-001 -2.00475886e-001 -6.30166888e-001
      -6.12646103e-001 -6.16849780e-001 -5.02084196e-001
      -8.04418027e-001 8.33912641e-002 -5.04137397e-001 6.47736490e-001
      -4.88782883e-001 2.21382439e-001 -2.57202357e-001 -2.00427070e-001
      -5.83130717e-001 5.44979870e-001 -4.95247871e-001 -3.90992939e-001
      -4.59891886e-001 2.05714226e-001 9.15900767e-002 -6.09935701e-001
      6.67001128e-001 -5.88872135e-001 1.77716225e-001 -5.31235635e-001
      -6.63563073e-001 -3.15678954e-001 -5.39003372e-001
      -4.89400357e-001 -5.65591574e-001 -4.93742675e-001
      -5.47682464e-001 -5.27430892e-001 -5.41369557e-001
      -5.91103375e-001 -5.03982365e-001 -5.47168911e-001
      -7.25532055e-001</_>
    <_>
      -4.87687260e-001 -5.29093623e-001 1.56223583e+000 3.61471683e-001
      1.09483123e+000 -4.97051328e-001 -4.94691461e-001 -6.45761192e-001
      -6.41137421e-001 5.25023222e-001 1.28251100e+000 -4.10285681e-001
      -5.32625318e-001 -6.30166888e-001 -2.63097644e-001
      -6.16849780e-001 -5.02084196e-001 2.55520999e-001 8.33912641e-002
      -5.04137397e-001 3.31488705e+000 -4.88782883e-001 -5.34557521e-001
      -5.69300592e-001 -6.12313867e-001 1.43107545e+000 -1.44861732e-002
      -1.47269443e-001 2.50166774e-001 1.41835794e-001 2.05714226e-001
      9.12237227e-001 3.60416532e-001 1.04911947e+000 2.09115490e-001
      -5.67760170e-001 -5.31235635e-001 -6.63563073e-001
      -3.15678954e-001 -5.39003372e-001 -4.89400357e-001 9.11011100e-001
      -4.93742675e-001 -5.47682464e-001 -1.96679175e-001
      -2.25735053e-001 5.54287255e-001 -5.03982365e-001 -5.47168911e-001
      -7.25532055e-001</_>
    <_>
      -1.89211994e-001 -5.29093623e-001 -1.38487458e-001
      -5.05441129e-001 -4.68814492e-001 -2.40508705e-001
      -4.94691461e-001 -6.45761192e-001 -6.41137421e-001
      -4.66588974e-001 -1.35001138e-001 -4.10285681e-001
      -5.32625318e-001 -6.30166888e-001 -6.12646103e-001
      -6.16849780e-001 -5.02084196e-001 -8.04418027e-001
      -5.83738863e-001 -5.04137397e-001 -6.85838759e-001
      -2.21479744e-001 -5.34557521e-001 -5.69300592e-001
      -6.12313867e-001 -7.95791447e-002 -5.73952258e-001
      -4.95247871e-001 -3.90992939e-001 -4.59891886e-001 1.04967010e+000
      -7.29057074e-001 -6.09935701e-001 -4.79353726e-001
      -5.88872135e-001 -5.67760170e-001 -5.31235635e-001
      -6.63563073e-001 -3.15678954e-001 3.25047821e-001 -4.89400357e-001
      9.11011100e-001 -4.93742675e-001 -5.47682464e-001 -1.96679175e-001
      -5.41369557e-001 5.54287255e-001 -5.03982365e-001 6.31915629e-001
      4.36980009e-001</_>
    <_>
      -4.87687260e-001 1.04009859e-001 -4.78632092e-001 -5.05441129e-001
      -1.56085342e-001 -4.97051328e-001 -4.94691461e-001
      -6.45761192e-001 7.24022090e-001 -4.66588974e-001 1.28251100e+000
      -4.10285681e-001 -5.32625318e-001 -6.30166888e-001
      -6.12646103e-001 -6.16849780e-001 -5.02084196e-001 2.55520999e-001
      -5.83738863e-001 -5.04137397e-001 -6.85838759e-001
      -4.88782883e-001 -5.34557521e-001 -5.69300592e-001
      -6.12313867e-001 -5.83130717e-001 -5.73952258e-001
      -4.95247871e-001 -3.90992939e-001 -4.59891886e-001
      -6.38241649e-001 -7.29057074e-001 -6.09935701e-001
      -9.72354487e-002 -5.88872135e-001 -5.67760170e-001
      -5.31235635e-001 1.46592283e+000 -3.15678954e-001 -2.50986308e-001
      -4.89400357e-001 -5.65591574e-001 -4.93742675e-001
      -5.47682464e-001 -5.27430892e-001 -5.41369557e-001
      -5.91103375e-001 -5.03982365e-001 3.37144464e-001 4.36980009e-001</_>
    <_>
      -4.87687260e-001 -5.29093623e-001 -1.38487458e-001
      -5.05441129e-001 -4.68814492e-001 -4.97051328e-001 1.73649222e-001
      -2.07957000e-001 -6.41137421e-001 1.02082932e+000 -1.35001138e-001
      -1.82037987e-002 -5.32625318e-001 -6.30166888e-001
      -6.12646103e-001 -6.16849780e-001 -5.02084196e-001
      -8.04418027e-001 8.33912641e-002 -5.04137397e-001 6.47736490e-001
      -4.88782883e-001 9.77322400e-001 -5.69300592e-001 -6.12313867e-001
      -5.83130717e-001 -5.73952258e-001 -1.47269443e-001
      -3.90992939e-001 -4.59891886e-001 2.05714226e-001 9.15900767e-002
      3.60416532e-001 2.57759261e+000 -5.88872135e-001 1.77716225e-001
      -5.31235635e-001 -6.63563073e-001 -3.15678954e-001
      -5.39003372e-001 -4.89400357e-001 -5.65591574e-001
      -4.93742675e-001 -5.47682464e-001 -5.27430892e-001
      -2.25735053e-001 -1.84080750e-002 -5.03982365e-001
      -5.47168911e-001 -7.25532055e-001</_>
    <_>
      -1.89211994e-001 -5.29093623e-001 -4.78632092e-001
      -5.05441129e-001 -4.68814492e-001 7.85661757e-001 -4.94691461e-001
      -6.45761192e-001 7.24022090e-001 -4.66588974e-001 -6.07505143e-001
      -4.10285681e-001 4.63822931e-001 -3.07152271e-001 -2.63097644e-001
      -6.16849780e-001 -5.02084196e-001 2.55520999e-001 -5.83738863e-001
      -1.90626070e-001 -6.85838759e-001 3.13126534e-001 9.77322400e-001
      5.48958369e-002 -2.00427070e-001 4.23972398e-001 1.10444593e+000
      -4.95247871e-001 -3.90992939e-001 -4.59891886e-001 2.05714226e-001
      9.15900767e-002 3.60416532e-001 -4.79353726e-001 2.09115490e-001
      9.23192561e-001 -5.31235635e-001 2.49073774e-001 -3.15678954e-001
      3.70307565e-002 -4.89400357e-001 -5.65591574e-001 -4.93742675e-001
      -5.47682464e-001 4.64824319e-001 4.05533969e-001 -5.91103375e-001
      -2.56520599e-001 -2.52397805e-001 3.92451620e+000</_>
    <_>
      -4.87687260e-001 -5.29093623e-001 -4.78632092e-001 1.22838449e+000
      -4.68814492e-001 -4.97051328e-001 8.41989934e-001 -2.07957000e-001
      -6.41137421e-001 -4.66588974e-001 -6.07505143e-001
      -1.82037987e-002 -5.32625318e-001 1.58623420e-002 8.64508525e-002
      1.80003434e-001 -5.02084196e-001 2.55520999e-001 -5.83738863e-001
      -5.04137397e-001 -6.85838759e-001 -2.21479744e-001
      -5.34557521e-001 -5.69300592e-001 2.11459711e-001 -7.95791447e-002
      -5.73952258e-001 -4.95247871e-001 2.50166774e-001 -4.59891886e-001
      -6.38241649e-001 -7.29057074e-001 -6.09935701e-001
      -4.79353726e-001 2.09115490e-001 1.77716225e-001 -5.31235635e-001
      -5.51385023e-002 -3.15678954e-001 -5.39003372e-001 4.18668333e-003
      -5.65591574e-001 -4.93742675e-001 -2.57244796e-001
      -1.96679175e-001 7.21168518e-001 -5.91103375e-001 -9.05883964e-003
      -5.47168911e-001 1.59949207e+000</_>
    <_>
      -1.89211994e-001 7.37113297e-001 5.41801810e-001 -5.05441129e-001
      -4.68814492e-001 -4.97051328e-001 1.73649222e-001 2.29847193e-001
      7.24022090e-001 2.01244140e+000 -6.07505143e-001 -4.10285681e-001
      -5.32625318e-001 -6.30166888e-001 -6.12646103e-001
      -6.16849780e-001 -5.02084196e-001 2.55520999e-001 7.50521362e-001
      -1.90626070e-001 6.47736490e-001 -2.21479744e-001 -5.34557521e-001
      -5.69300592e-001 -6.12313867e-001 4.23972398e-001 -1.44861732e-002
      -4.95247871e-001 4.09712505e+000 -1.59028038e-001 2.05714226e-001
      -7.29057074e-001 -6.09935701e-001 -9.72354487e-002
      -5.88872135e-001 9.23192561e-001 6.37691498e-001 -6.63563073e-001
      -3.15678954e-001 -5.39003372e-001 -4.89400357e-001
      -5.65591574e-001 -4.93742675e-001 -5.47682464e-001
      -5.27430892e-001 8.98994654e-002 -5.91103375e-001 -5.03982365e-001
      -5.47168911e-001 -7.25532055e-001</_>
    <_>
      -1.89211994e-001 -2.12541878e-001 -1.38487458e-001
      -5.05441129e-001 -1.56085342e-001 -4.97051328e-001
      -4.94691461e-001 -6.45761192e-001 -6.41137421e-001
      -4.66588974e-001 -1.35001138e-001 -4.10285681e-001
      -5.32625318e-001 -6.30166888e-001 -6.12646103e-001
      -6.16849780e-001 -5.02084196e-001 -8.04418027e-001
      -5.83738863e-001 -5.04137397e-001 6.47736490e-001 -4.88782883e-001
      -5.34557521e-001 -5.69300592e-001 -6.12313867e-001
      -5.83130717e-001 -5.73952258e-001 -4.95247871e-001
      -3.90992939e-001 -4.59891886e-001 -6.38241649e-001 9.12237227e-001
      -6.09935701e-001 -4.79353726e-001 -5.88872135e-001
      -5.67760170e-001 -5.31235635e-001 -6.63563073e-001
      -3.15678954e-001 3.25047821e-001 -4.89400357e-001 1.64931250e+000
      -4.93742675e-001 -2.57244796e-001 -5.27430892e-001
      -5.41369557e-001 -1.84080750e-002 -5.03982365e-001 4.23733369e-002
      1.59949207e+000</_>
    <_>
      -4.87687260e-001 -5.29093623e-001 -4.78632092e-001
      -5.05441129e-001 -4.68814492e-001 2.72576541e-001 2.84701204e+000
      -2.07957000e-001 -6.41137421e-001 -4.66588974e-001
      -6.07505143e-001 -4.10285681e-001 -5.32625318e-001
      -3.07152271e-001 -6.12646103e-001 -6.16849780e-001
      -5.02084196e-001 -8.04418027e-001 -5.83738863e-001
      -5.04137397e-001 6.47736490e-001 -4.88782883e-001 -5.34557521e-001
      -5.69300592e-001 -6.12313867e-001 -5.83130717e-001
      -1.44861732e-002 -4.95247871e-001 2.50166774e-001 -4.59891886e-001
      -6.38241649e-001 9.12237227e-001 -6.09935701e-001 -4.79353726e-001
      -5.88872135e-001 1.77716225e-001 -5.31235635e-001 -6.63563073e-001
      3.35445225e-001 -5.39003372e-001 -4.89400357e-001 -5.65591574e-001
      -4.93742675e-001 -2.57244796e-001 -5.27430892e-001
      -5.41369557e-001 -5.91103375e-001 -5.03982365e-001
      -5.47168911e-001 4.36980009e-001</_>
    <_>
      -4.87687260e-001 1.04009859e-001 -4.78632092e-001 -5.05441129e-001
      -4.68814492e-001 -4.97051328e-001 -4.94691461e-001
      -6.45761192e-001 -6.41137421e-001 -4.66588974e-001
      -6.07505143e-001 -4.10285681e-001 -5.32625318e-001
      -3.07152271e-001 -2.63097644e-001 -6.16849780e-001
      -5.02084196e-001 -8.04418027e-001 -5.83738863e-001
      -5.04137397e-001 -6.85838759e-001 -4.88782883e-001
      -5.34557521e-001 -5.69300592e-001 -6.12313867e-001
      -5.83130717e-001 -5.73952258e-001 -4.95247871e-001
      -3.90992939e-001 -4.59891886e-001 -6.38241649e-001 9.15900767e-002
      -6.09935701e-001 -4.79353726e-001 -5.88872135e-001
      -5.67760170e-001 -5.31235635e-001 -6.63563073e-001
      -3.15678954e-001 -2.50986308e-001 -4.89400357e-001
      -5.65591574e-001 -4.93742675e-001 -5.47682464e-001
      -5.27430892e-001 -5.41369557e-001 -5.91103375e-001
      -5.03982365e-001 -5.47168911e-001 -7.25532055e-001</_>
    <_>
      -4.87687260e-001 -5.29093623e-001 -4.78632092e-001
      -5.05441129e-001 -4.68814492e-001 -4.97051328e-001
      -4.94691461e-001 -6.45761192e-001 -6.41137421e-001
      -4.66588974e-001 -6.07505143e-001 -4.10285681e-001
      -5.32625318e-001 -6.30166888e-001 -6.12646103e-001
      -6.16849780e-001 -5.02084196e-001 -8.04418027e-001
      -5.83738863e-001 -5.04137397e-001 -6.85838759e-001
      -4.88782883e-001 -5.34557521e-001 5.48958369e-002 -6.12313867e-001
      -7.95791447e-002 -5.73952258e-001 -4.95247871e-001
      -3.90992939e-001 -4.59891886e-001 -6.38241649e-001
      -7.29057074e-001 -6.09935701e-001 -4.79353726e-001 2.09115490e-001
      -5.67760170e-001 -5.31235635e-001 -3.59350771e-001 3.35445225e-001
      -5.39003372e-001 -4.89400357e-001 9.11011100e-001 -4.93742675e-001
      -5.47682464e-001 -5.27430892e-001 -5.41369557e-001
      -5.91103375e-001 -5.03982365e-001 -5.47168911e-001 4.36980009e-001</_>
    <_>
      -4.87687260e-001 -5.29093623e-001 8.02498341e+000 3.61471683e-001
      2.03301859e+000 -4.97051328e-001 1.51033056e+000 -6.45761192e-001
      -6.41137421e-001 7.46630859e+000 5.06254292e+000 -4.10285681e-001
      -5.32625318e-001 -6.30166888e-001 -6.12646103e-001 1.80003434e-001
      -5.02084196e-001 1.31546009e+000 -5.83738863e-001 -5.04137397e-001
      6.47736490e-001 -4.88782883e-001 -5.34557521e-001 5.48958369e-002
      -2.00427070e-001 -5.83130717e-001 -1.44861732e-002 6.11634207e+000
      1.53248632e+000 5.85824823e+000 -6.38241649e-001 9.15900767e-002
      1.33076870e+000 8.30936623e+000 -5.88872135e-001 -5.67760170e-001
      6.37691498e-001 -6.63563073e-001 -3.15678954e-001 -5.39003372e-001
      -4.89400357e-001 7.55572319e+000 -4.93742675e-001 -5.47682464e-001
      -5.27430892e-001 -5.41369557e-001 6.28124046e+000 -5.03982365e-001
      -5.47168911e-001 -7.25532055e-001</_>
    <_>
      -4.87687260e-001 1.04009859e-001 -4.78632092e-001 -5.05441129e-001
      -4.68814492e-001 -4.97051328e-001 -4.94691461e-001
      -6.45761192e-001 7.24022090e-001 -4.66588974e-001 -6.07505143e-001
      -4.10285681e-001 -5.32625318e-001 -6.30166888e-001
      -6.12646103e-001 -6.16849780e-001 -5.02084196e-001 2.55520999e-001
      -5.83738863e-001 -5.04137397e-001 1.98131168e+000 -4.88782883e-001
      -5.34557521e-001 -5.69300592e-001 -2.00427070e-001
      -7.95791447e-002 -1.44861732e-002 -4.95247871e-001 2.50166774e-001
      -4.59891886e-001 -6.38241649e-001 9.15900767e-002 -6.09935701e-001
      -4.79353726e-001 -5.88872135e-001 -5.67760170e-001 6.37691498e-001
      -5.51385023e-002 -3.15678954e-001 -5.39003372e-001
      -4.89400357e-001 -5.65591574e-001 -4.93742675e-001
      -5.47682464e-001 -5.27430892e-001 -5.41369557e-001
      -5.91103375e-001 -2.56520599e-001 -2.52397805e-001
      -7.25532055e-001</_>
    <_>
      -4.87687260e-001 -2.12541878e-001 -4.78632092e-001
      -5.05441129e-001 1.40756035e+000 -4.97051328e-001 -4.94691461e-001
      -6.45761192e-001 7.24022090e-001 5.25023222e-001 8.10006917e-001
      -4.10285681e-001 -5.32625318e-001 -6.30166888e-001
      -6.12646103e-001 -6.16849780e-001 -5.02084196e-001 2.37539911e+000
      -5.83738863e-001 -5.04137397e-001 -6.85838759e-001
      -4.88782883e-001 -5.34557521e-001 3.66994053e-001 -6.12313867e-001
      -5.83130717e-001 -5.73952258e-001 -1.47269443e-001
      -3.90992939e-001 1.41835794e-001 -6.38241649e-001 -7.29057074e-001
      -6.09935701e-001 -4.79353726e-001 -5.88872135e-001
      -5.67760170e-001 -5.31235635e-001 5.53286016e-001 -3.15678954e-001
      3.70307565e-002 -4.89400357e-001 -5.65591574e-001 -4.93742675e-001
      -5.47682464e-001 -5.27430892e-001 -5.41369557e-001 5.54287255e-001
      -5.03982365e-001 -5.47168911e-001 -7.25532055e-001</_>
    <_>
      -4.87687260e-001 1.04009859e-001 -4.78632092e-001 -5.05441129e-001
      -4.68814492e-001 2.72576541e-001 -4.94691461e-001 -6.45761192e-001
      -6.41137421e-001 -4.66588974e-001 -6.07505143e-001
      -4.10285681e-001 1.31673530e-001 -6.30166888e-001 -6.12646103e-001
      -6.16849780e-001 -5.02084196e-001 -8.04418027e-001
      -5.83738863e-001 -5.04137397e-001 1.98131168e+000 3.13126534e-001
      -5.34557521e-001 -2.57202357e-001 -6.12313867e-001
      -5.83130717e-001 -5.73952258e-001 2.00708970e-001 2.50166774e-001
      -4.59891886e-001 -6.38241649e-001 -7.29057074e-001
      -6.09935701e-001 -4.79353726e-001 2.09115490e-001 -5.67760170e-001
      -5.31235635e-001 -5.51385023e-002 -3.15678954e-001 3.25047821e-001
      -4.89400357e-001 1.72709763e-001 -4.93742675e-001 -5.47682464e-001
      -5.27430892e-001 -5.41369557e-001 1.12698257e+000 -5.03982365e-001
      3.37144464e-001 4.36980009e-001</_>
    <_>
      -4.87687260e-001 -5.29093623e-001 -4.78632092e-001
      -5.05441129e-001 -4.68814492e-001 -4.97051328e-001
      -4.94691461e-001 -6.45761192e-001 7.24022090e-001 -4.66588974e-001
      -6.07505143e-001 -4.10285681e-001 -2.00475886e-001
      -6.30166888e-001 -6.12646103e-001 1.80003434e-001 -5.02084196e-001
      1.31546009e+000 8.33912641e-002 -5.04137397e-001 -6.85838759e-001
      -4.88782883e-001 2.21382439e-001 -5.69300592e-001 -2.00427070e-001
      -5.83130717e-001 1.66391206e+000 -4.95247871e-001 -3.90992939e-001
      -4.59891886e-001 -6.38241649e-001 -7.29057074e-001
      -6.09935701e-001 -4.79353726e-001 -5.88872135e-001 2.41414523e+000
      -5.31235635e-001 -6.63563073e-001 -3.15678954e-001
      -2.50986308e-001 -4.89400357e-001 -5.65591574e-001
      -4.93742675e-001 -5.47682464e-001 1.34072572e-001 -2.25735053e-001
      -5.91103375e-001 -5.03982365e-001 -2.52397805e-001
      -7.25532055e-001</_>
    <_>
      -4.87687260e-001 4.20561612e-001 -4.78632092e-001 3.61471683e-001
      -4.68814492e-001 -2.40508705e-001 -4.94691461e-001
      -6.45761192e-001 -6.41137421e-001 2.92171333e-002 2.22751904e+000
      -4.10285681e-001 -5.32625318e-001 -6.30166888e-001
      -6.12646103e-001 -6.16849780e-001 -5.02084196e-001
      -8.04418027e-001 -5.83738863e-001 -5.04137397e-001 6.47736490e-001
      -4.88782883e-001 9.77322400e-001 -5.69300592e-001 -6.12313867e-001
      -5.83130717e-001 -5.73952258e-001 -4.95247871e-001
      -3.90992939e-001 -4.59891886e-001 -6.38241649e-001
      -7.29057074e-001 -6.09935701e-001 -4.79353726e-001
      -5.88872135e-001 -5.67760170e-001 -5.31235635e-001
      -6.63563073e-001 -3.15678954e-001 -5.39003372e-001
      -4.89400357e-001 1.72709763e-001 -4.93742675e-001 -5.47682464e-001
      -5.27430892e-001 -5.41369557e-001 -5.91103375e-001
      -5.03982365e-001 -2.52397805e-001 4.36980009e-001</_>
    <_>
      -4.87687260e-001 -5.29093623e-001 2.01657176e-001 3.61471683e-001
      -4.68814492e-001 -4.97051328e-001 1.73649222e-001 -2.07957000e-001
      -6.41137421e-001 2.92171333e-002 -6.07505143e-001 -4.10285681e-001
      -2.00475886e-001 -3.07152271e-001 -6.12646103e-001 1.80003434e-001
      -5.02084196e-001 -8.04418027e-001 -5.83738863e-001
      -5.04137397e-001 6.47736490e-001 -4.88782883e-001 2.21382439e-001
      -2.57202357e-001 2.11459711e-001 9.27523911e-001 -1.44861732e-002
      -1.47269443e-001 3.45596552e+000 -4.59891886e-001 -6.38241649e-001
      9.15900767e-002 3.60416532e-001 6.67001128e-001 -1.89878330e-001
      1.77716225e-001 -5.31235635e-001 -6.63563073e-001 -3.15678954e-001
      -5.39003372e-001 -4.89400357e-001 9.11011100e-001 -4.93742675e-001
      -5.47682464e-001 1.34072572e-001 -2.25735053e-001 -5.91103375e-001
      -5.03982365e-001 -5.47168911e-001 -7.25532055e-001</_>
    <_>
      -4.87687260e-001 -5.29093623e-001 -4.78632092e-001
      -5.05441129e-001 -4.68814492e-001 -4.97051328e-001
      -4.94691461e-001 -6.45761192e-001 -6.41137421e-001
      -4.66588974e-001 -6.07505143e-001 -4.10285681e-001
      -2.00475886e-001 -3.07152271e-001 4.35999334e-001 -6.16849780e-001
      -5.02084196e-001 -8.04418027e-001 -5.83738863e-001
      -1.90626070e-001 -6.85838759e-001 -4.88782883e-001
      -5.34557521e-001 -5.69300592e-001 -6.12313867e-001
      -7.95791447e-002 -1.44861732e-002 -1.47269443e-001
      -3.90992939e-001 -4.59891886e-001 2.05714226e-001 -7.29057074e-001
      3.60416532e-001 -4.79353726e-001 6.08109295e-001 -5.67760170e-001
      -5.31235635e-001 -5.51385023e-002 -3.15678954e-001
      -5.39003372e-001 -4.89400357e-001 -5.65591574e-001
      -4.93742675e-001 -5.47682464e-001 -1.96679175e-001
      -2.25735053e-001 -5.91103375e-001 -5.03982365e-001
      -5.47168911e-001 4.36980009e-001</_>
    <_>
      -4.87687260e-001 -5.29093623e-001 2.01657176e-001 -5.05441129e-001
      -1.56085342e-001 -4.97051328e-001 1.73649222e-001 2.29847193e-001
      -6.41137421e-001 2.92171333e-002 -6.07505143e-001 -4.10285681e-001
      -2.00475886e-001 -3.07152271e-001 -6.12646103e-001 9.76856589e-001
      -5.02084196e-001 2.37539911e+000 -5.83738863e-001 -5.04137397e-001
      1.98131168e+000 -4.88782883e-001 -5.34557521e-001 -5.69300592e-001
      -2.00427070e-001 -5.83130717e-001 -1.44861732e-002
      -1.47269443e-001 2.50166774e-001 1.41835794e-001 -6.38241649e-001
      -7.29057074e-001 -6.09935701e-001 -4.79353726e-001
      -5.88872135e-001 -5.67760170e-001 -5.31235635e-001
      -3.59350771e-001 -3.15678954e-001 -5.39003372e-001
      -4.89400357e-001 -5.65591574e-001 -4.93742675e-001
      -5.47682464e-001 -1.96679175e-001 -5.41369557e-001 5.54287255e-001
      -5.03982365e-001 -5.47168911e-001 -7.25532055e-001</_>
    <_>
      -4.87687260e-001 7.37113297e-001 -4.78632092e-001 -5.05441129e-001
      -4.68814492e-001 -4.97051328e-001 8.41989934e-001 -6.45761192e-001
      2.08918166e+000 -4.66588974e-001 -6.07505143e-001 -4.10285681e-001
      1.31673530e-001 1.30792081e+000 -2.63097644e-001 1.80003434e-001
      -5.02084196e-001 1.31546009e+000 7.50521362e-001 -1.90626070e-001
      6.47736490e-001 -4.88782883e-001 -5.34557521e-001 -5.69300592e-001
      -2.00427070e-001 4.45238495e+000 1.10444593e+000 -4.95247871e-001
      -3.90992939e-001 -4.59891886e-001 -6.38241649e-001
      -7.29057074e-001 3.60416532e-001 -4.79353726e-001 3.00207210e+000
      -5.67760170e-001 6.37691498e-001 -5.51385023e-002 -3.15678954e-001
      -5.39003372e-001 -4.89400357e-001 -5.65591574e-001
      -4.93742675e-001 -5.47682464e-001 -5.27430892e-001
      -2.25735053e-001 -5.91103375e-001 -5.03982365e-001 6.31915629e-001
      -7.25532055e-001</_>
    <_>
      -4.87687260e-001 -5.29093623e-001 8.81946445e-001 -5.05441129e-001
      1.56643808e-001 -4.97051328e-001 8.41989934e-001 -2.07957000e-001
      -6.41137421e-001 5.25023222e-001 -6.07505143e-001 -4.10285681e-001
      -5.32625318e-001 -6.30166888e-001 -6.12646103e-001 1.80003434e-001
      -5.02084196e-001 2.55520999e-001 8.33912641e-002 -5.04137397e-001
      1.98131168e+000 -4.88782883e-001 -5.34557521e-001 -5.69300592e-001
      -2.00427070e-001 4.23972398e-001 -5.73952258e-001 -4.95247871e-001
      -3.90992939e-001 -1.59028038e-001 -6.38241649e-001 9.15900767e-002
      3.60416532e-001 1.04911947e+000 -5.88872135e-001 -5.67760170e-001
      -5.31235635e-001 -6.63563073e-001 -3.15678954e-001
      -5.39003372e-001 -4.89400357e-001 1.72709763e-001 -4.93742675e-001
      6.14068210e-001 -5.27430892e-001 -5.41369557e-001 -1.84080750e-002
      -9.05883964e-003 -5.47168911e-001 -7.25532055e-001</_>
    <_>
      -4.87687260e-001 -5.29093623e-001 -4.78632092e-001 1.22838449e+000
      -4.68814492e-001 -4.97051328e-001 -4.94691461e-001
      -2.07957000e-001 7.24022090e-001 -4.66588974e-001 -6.07505143e-001
      -4.10285681e-001 -2.00475886e-001 -3.07152271e-001
      -2.63097644e-001 1.80003434e-001 -2.27908522e-001 -8.04418027e-001
      -5.83738863e-001 -1.90626070e-001 -6.85838759e-001
      -4.88782883e-001 -5.34557521e-001 -2.57202357e-001
      -6.12313867e-001 -5.83130717e-001 -5.73952258e-001
      -4.95247871e-001 -3.90992939e-001 -4.59891886e-001 1.04967010e+000
      9.15900767e-002 3.60416532e-001 -4.79353726e-001 -1.89878330e-001
      -5.67760170e-001 -5.31235635e-001 5.53286016e-001 3.35445225e-001
      -5.39003372e-001 -4.89400357e-001 9.11011100e-001 -1.58392876e-001
      -2.57244796e-001 -5.27430892e-001 -5.41369557e-001
      -5.91103375e-001 -5.03982365e-001 -5.47168911e-001
      -7.25532055e-001</_>
    <_>
      -4.87687260e-001 -5.29093623e-001 -4.78632092e-001
      -5.05441129e-001 -1.56085342e-001 -4.97051328e-001
      -4.94691461e-001 2.29847193e-001 2.08918166e+000 5.25023222e-001
      3.37502867e-001 -4.10285681e-001 4.63822931e-001 1.58623420e-002
      -6.12646103e-001 -6.16849780e-001 -5.02084196e-001 2.55520999e-001
      -5.83738863e-001 4.36396569e-001 -6.85838759e-001 -4.88782883e-001
      -5.34557521e-001 -5.69300592e-001 -6.12313867e-001
      -7.95791447e-002 -1.44861732e-002 -4.95247871e-001 8.91326487e-001
      -1.59028038e-001 2.05714226e-001 -7.29057074e-001 -6.09935701e-001
      1.04911947e+000 -5.88872135e-001 -5.67760170e-001 -5.31235635e-001
      -6.63563073e-001 -3.15678954e-001 -2.50986308e-001
      -4.89400357e-001 9.11011100e-001 -4.93742675e-001 -5.47682464e-001
      -5.27430892e-001 8.98994654e-002 2.84506869e+000 -5.03982365e-001
      3.37144464e-001 4.36980009e-001</_>
    <_>
      -4.87687260e-001 4.20561612e-001 -4.78632092e-001 -5.05441129e-001
      -4.68814492e-001 1.60339139e-002 -4.94691461e-001 -6.45761192e-001
      7.24022090e-001 -4.66588974e-001 -6.07505143e-001 -4.10285681e-001
      1.31673530e-001 -3.07152271e-001 8.64508525e-002 9.76856589e-001
      -5.02084196e-001 2.55520999e-001 7.50521362e-001 1.22885250e-001
      -6.85838759e-001 -4.88782883e-001 2.21382439e-001 -5.69300592e-001
      -6.12313867e-001 -5.83130717e-001 -5.73952258e-001
      -4.95247871e-001 -3.90992939e-001 -4.59891886e-001
      -6.38241649e-001 -7.29057074e-001 -6.09935701e-001
      -4.79353726e-001 -1.89878330e-001 -5.67760170e-001 1.80661869e+000
      -3.59350771e-001 -3.15678954e-001 6.13064945e-001 -4.89400357e-001
      -5.65591574e-001 -4.93742675e-001 -5.47682464e-001
      -1.96679175e-001 -5.41369557e-001 -5.91103375e-001
      -5.03982365e-001 1.22145796e+000 -7.25532055e-001</_>
    <_>
      -4.87687260e-001 -2.12541878e-001 -4.78632092e-001
      -5.05441129e-001 -4.68814492e-001 -4.97051328e-001 8.41989934e-001
      -2.07957000e-001 -6.41137421e-001 -4.66588974e-001
      -6.07505143e-001 -4.10285681e-001 1.31673530e-001 -6.30166888e-001
      -6.12646103e-001 1.80003434e-001 -5.02084196e-001 -8.04418027e-001
      8.33912641e-002 -5.04137397e-001 -6.85838759e-001 -4.88782883e-001
      -5.34557521e-001 -5.69300592e-001 2.11459711e-001 -5.83130717e-001
      -5.73952258e-001 -1.47269443e-001 -3.90992939e-001
      -4.59891886e-001 2.05714226e-001 9.15900767e-002 -6.09935701e-001
      -4.79353726e-001 -5.88872135e-001 -5.67760170e-001
      -5.31235635e-001 -6.63563073e-001 -3.15678954e-001
      -5.39003372e-001 -4.89400357e-001 -5.65591574e-001
      -4.93742675e-001 -5.47682464e-001 1.34072572e-001 -5.41369557e-001
      -5.91103375e-001 -5.03982365e-001 -5.47168911e-001
      -7.25532055e-001</_>
    <_>
      -4.87687260e-001 -5.29093623e-001 8.81946445e-001 3.61471683e-001
      -4.68814492e-001 -4.97051328e-001 1.73649222e-001 -2.07957000e-001
      -6.41137421e-001 1.02082932e+000 3.37502867e-001 -4.10285681e-001
      -5.32625318e-001 -3.07152271e-001 -6.12646103e-001 1.80003434e-001
      -2.27908522e-001 2.55520999e-001 -5.83738863e-001 -5.04137397e-001
      6.47736490e-001 -4.88782883e-001 -5.34557521e-001 -2.57202357e-001
      -6.12313867e-001 -5.83130717e-001 1.10444593e+000 2.00708970e-001
      2.50166774e-001 -4.59891886e-001 2.05714226e-001 9.12237227e-001
      -6.09935701e-001 6.67001128e-001 -1.89878330e-001 1.77716225e-001
      -5.31235635e-001 -6.63563073e-001 -3.15678954e-001
      -5.39003372e-001 -4.89400357e-001 -5.65591574e-001
      -1.58392876e-001 3.31928730e-002 -5.27430892e-001 -5.41369557e-001
      5.54287255e-001 -5.03982365e-001 -5.47168911e-001 -7.25532055e-001</_>
    <_>
      -4.87687260e-001 1.04009859e-001 -1.38487458e-001 -5.05441129e-001
      -4.68814492e-001 -4.97051328e-001 1.73649222e-001 -2.07957000e-001
      -6.41137421e-001 -4.66588974e-001 -6.07505143e-001
      -4.10285681e-001 -5.32625318e-001 -3.07152271e-001 4.35999334e-001
      -6.16849780e-001 -5.02084196e-001 1.31546009e+000 -5.83738863e-001
      -1.90626070e-001 6.47736490e-001 -4.88782883e-001 -5.34557521e-001
      1.61538684e+000 -2.00427070e-001 -5.83130717e-001 -5.73952258e-001
      -4.95247871e-001 -3.90992939e-001 -4.59891886e-001
      -6.38241649e-001 -7.29057074e-001 -6.09935701e-001 2.84882843e-001
      -5.88872135e-001 -5.67760170e-001 -5.31235635e-001 1.46592283e+000
      -3.15678954e-001 -5.39003372e-001 -4.89400357e-001
      -5.65591574e-001 -4.93742675e-001 -5.47682464e-001
      -5.27430892e-001 -5.41369557e-001 -5.91103375e-001
      -5.03982365e-001 -2.52397805e-001 -7.25532055e-001</_>
    <_>
      -4.87687260e-001 -5.29093623e-001 -1.38487458e-001
      -5.05441129e-001 -1.56085342e-001 -2.40508705e-001
      -4.94691461e-001 -2.07957000e-001 -6.41137421e-001 2.92171333e-002
      -1.35001138e-001 -4.10285681e-001 1.31673530e-001 1.58623420e-002
      -2.63097644e-001 -6.16849780e-001 -5.02084196e-001
      -8.04418027e-001 8.33912641e-002 -1.90626070e-001 -6.85838759e-001
      -4.88782883e-001 -5.34557521e-001 -5.69300592e-001
      -2.00427070e-001 -5.83130717e-001 -5.73952258e-001
      -1.47269443e-001 -3.90992939e-001 -4.59891886e-001
      -6.38241649e-001 9.15900767e-002 -6.09935701e-001 -4.79353726e-001
      -5.88872135e-001 9.23192561e-001 -5.31235635e-001 -6.63563073e-001
      -3.15678954e-001 -5.39003372e-001 -4.89400357e-001
      -5.65591574e-001 -4.93742675e-001 -5.47682464e-001
      -1.96679175e-001 8.98994654e-002 -5.91103375e-001 -5.03982365e-001
      -2.52397805e-001 -7.25532055e-001</_>
    <_>
      -4.87687260e-001 1.04009859e-001 -4.78632092e-001 -5.05441129e-001
      -1.56085342e-001 -4.97051328e-001 -4.94691461e-001
      -2.07957000e-001 7.24022090e-001 -4.66588974e-001 1.28251100e+000
      -4.10285681e-001 -5.32625318e-001 -6.30166888e-001
      -6.12646103e-001 -6.16849780e-001 -5.02084196e-001
      -8.04418027e-001 -5.83738863e-001 -5.04137397e-001 6.47736490e-001
      -4.88782883e-001 -5.34557521e-001 -5.69300592e-001
      -6.12313867e-001 -5.83130717e-001 -5.73952258e-001
      -4.95247871e-001 -3.90992939e-001 -4.59891886e-001
      -6.38241649e-001 -7.29057074e-001 -6.09935701e-001
      -9.72354487e-002 -5.88872135e-001 1.77716225e-001 -5.31235635e-001
      2.49073774e-001 -3.15678954e-001 -2.50986308e-001 -4.89400357e-001
      1.72709763e-001 -4.93742675e-001 -5.47682464e-001 -5.27430892e-001
      -5.41369557e-001 -1.84080750e-002 -5.03982365e-001
      -2.52397805e-001 -7.25532055e-001</_>
    <_>
      -4.87687260e-001 -5.29093623e-001 -4.78632092e-001
      -5.05441129e-001 -1.56085342e-001 -4.97051328e-001
      -4.94691461e-001 -6.45761192e-001 7.24022090e-001 2.92171333e-002
      2.22751904e+000 -4.10285681e-001 -5.32625318e-001 -6.30166888e-001
      -6.12646103e-001 -6.16849780e-001 -5.02084196e-001
      -8.04418027e-001 -5.83738863e-001 -5.04137397e-001
      -6.85838759e-001 -4.88782883e-001 -5.34557521e-001 3.66994053e-001
      -2.00427070e-001 -5.83130717e-001 -5.73952258e-001
      -4.95247871e-001 -3.90992939e-001 7.43563414e-001 -6.38241649e-001
      9.15900767e-002 -6.09935701e-001 -9.72354487e-002 -5.88872135e-001
      -5.67760170e-001 -5.31235635e-001 -5.51385023e-002
      -3.15678954e-001 -5.39003372e-001 -4.89400357e-001
      -5.65591574e-001 -4.93742675e-001 -5.47682464e-001
      -5.27430892e-001 -5.41369557e-001 -5.91103375e-001
      -5.03982365e-001 -2.52397805e-001 1.59949207e+000</_>
    <_>
      -4.87687260e-001 -5.29093623e-001 -4.78632092e-001
      -5.05441129e-001 -4.68814492e-001 -4.97051328e-001
      -4.94691461e-001 6.67651355e-001 2.08918166e+000 -4.66588974e-001
      -6.07505143e-001 -4.10285681e-001 -2.00475886e-001
      -6.30166888e-001 -2.63097644e-001 -6.16849780e-001
      -5.02084196e-001 2.55520999e-001 -5.83738863e-001 -1.90626070e-001
      6.47736490e-001 -4.88782883e-001 -5.34557521e-001 -5.69300592e-001
      -6.12313867e-001 -5.83130717e-001 -5.73952258e-001
      -4.95247871e-001 -3.90992939e-001 -4.59891886e-001 2.05714226e-001
      -7.29057074e-001 -6.09935701e-001 -4.79353726e-001
      -5.88872135e-001 -5.67760170e-001 -5.31235635e-001
      -6.63563073e-001 -3.15678954e-001 -5.39003372e-001
      -4.89400357e-001 -5.65591574e-001 -4.93742675e-001
      -5.47682464e-001 -5.27430892e-001 -5.41369557e-001
      -5.91103375e-001 -5.03982365e-001 -2.52397805e-001
      -7.25532055e-001</_>
    <_>
      -1.89211994e-001 -2.12541878e-001 -4.78632092e-001 3.61471683e-001
      -4.68814492e-001 -4.97051328e-001 -4.94691461e-001
      -2.07957000e-001 -6.41137421e-001 -4.66588974e-001
      -6.07505143e-001 -4.10285681e-001 -5.32625318e-001 3.38876963e-001
      -2.63097644e-001 -6.16849780e-001 -5.02084196e-001
      -8.04418027e-001 8.33912641e-002 -1.90626070e-001 -6.85838759e-001
      -2.21479744e-001 2.21382439e-001 -2.57202357e-001 -6.12313867e-001
      -7.95791447e-002 -5.73952258e-001 -4.95247871e-001
      -3.90992939e-001 -4.59891886e-001 2.05714226e-001 9.15900767e-002
      3.60416532e-001 -4.79353726e-001 -1.89878330e-001 9.23192561e-001
      -5.31235635e-001 -3.59350771e-001 3.35445225e-001 3.70307565e-002
      4.18668333e-003 -5.65591574e-001 -4.93742675e-001 -5.47682464e-001
      4.64824319e-001 -5.41369557e-001 -5.91103375e-001 -5.03982365e-001
      -2.52397805e-001 -7.25532055e-001</_>
    <_>
      -4.87687260e-001 -5.29093623e-001 -4.78632092e-001 2.09529734e+000
      -4.68814492e-001 -4.97051328e-001 1.73649222e-001 -2.07957000e-001
      7.24022090e-001 -4.66588974e-001 -6.07505143e-001 3.73878092e-001
      -2.00475886e-001 1.63093543e+000 1.13509631e+000 9.76856589e-001
      4.62671593e-002 -8.04418027e-001 8.33912641e-002 1.22885250e-001
      -6.85838759e-001 -4.88782883e-001 1.73326230e+000 -5.69300592e-001
      2.11459711e-001 9.27523911e-001 5.44979870e-001 -4.95247871e-001
      -3.90992939e-001 -4.59891886e-001 -6.38241649e-001
      -7.29057074e-001 1.33076870e+000 -4.79353726e-001 1.40609694e+000
      1.77716225e-001 -5.31235635e-001 -5.51385023e-002 1.63769364e+000
      -5.39003372e-001 -4.89400357e-001 -5.65591574e-001 5.12306690e-001
      1.77581882e+000 1.34072572e-001 8.98994654e-002 -5.91103375e-001
      2.38402933e-001 -5.47168911e-001 -7.25532055e-001</_>
    <_>
      -1.89211994e-001 -5.29093623e-001 -4.78632092e-001 3.61471683e-001
      -4.68814492e-001 -4.97051328e-001 -4.94691461e-001
      -6.45761192e-001 7.24022090e-001 5.25023222e-001 -6.07505143e-001
      -4.10285681e-001 -5.32625318e-001 -6.30166888e-001
      -6.12646103e-001 -6.16849780e-001 -2.27908522e-001
      -8.04418027e-001 -5.83738863e-001 -5.04137397e-001
      -6.85838759e-001 -4.88782883e-001 -5.34557521e-001
      -5.69300592e-001 -6.12313867e-001 -5.83130717e-001
      -5.73952258e-001 -4.95247871e-001 2.50166774e-001 -4.59891886e-001
      2.05714226e-001 9.12237227e-001 -6.09935701e-001 -9.72354487e-002
      -5.88872135e-001 -5.67760170e-001 -5.31235635e-001
      -6.63563073e-001 -3.15678954e-001 -5.39003372e-001
      -2.42606834e-001 -5.65591574e-001 1.76956922e-001 -2.57244796e-001
      -5.27430892e-001 -5.41369557e-001 -5.91103375e-001
      -5.03982365e-001 4.23733369e-002 -7.25532055e-001</_>
    <_>
      -4.87687260e-001 -2.12541878e-001 -4.78632092e-001 3.61471683e-001
      -4.68814492e-001 -4.97051328e-001 1.51033056e+000 -6.45761192e-001
      -6.41137421e-001 -4.66588974e-001 -6.07505143e-001
      -1.82037987e-002 7.95972347e-001 1.58623420e-002 -6.12646103e-001
      1.80003434e-001 -5.02084196e-001 2.55520999e-001 8.33912641e-002
      1.22885250e-001 -6.85838759e-001 -4.88782883e-001 2.21382439e-001
      -5.69300592e-001 2.11459711e-001 -7.95791447e-002 1.66391206e+000
      -4.95247871e-001 -3.90992939e-001 -4.59891886e-001 2.05714226e-001
      9.15900767e-002 -6.09935701e-001 -4.79353726e-001 -1.89878330e-001
      -5.67760170e-001 -5.31235635e-001 -6.63563073e-001
      -3.15678954e-001 -5.39003372e-001 -4.89400357e-001
      -5.65591574e-001 -4.93742675e-001 -2.57244796e-001 4.64824319e-001
      -2.25735053e-001 -5.91103375e-001 -5.03982365e-001
      -2.52397805e-001 1.59949207e+000</_>
    <_>
      -4.87687260e-001 -2.12541878e-001 1.22209108e+000 -5.05441129e-001
      1.40756035e+000 -4.97051328e-001 1.73649222e-001 -2.07957000e-001
      -6.41137421e-001 1.51663542e+000 1.28251100e+000 1.55012369e+000
      -2.00475886e-001 -3.07152271e-001 -6.12646103e-001 1.80003434e-001
      3.20442826e-001 -8.04418027e-001 8.33912641e-002 -5.04137397e-001
      1.98131168e+000 -4.88782883e-001 -5.34557521e-001 5.48958369e-002
      1.03523338e+000 9.27523911e-001 -5.73952258e-001 1.94060099e+000
      -3.90992939e-001 4.42699611e-001 2.05714226e-001 -7.29057074e-001
      2.30112100e+000 1.04911947e+000 1.00710309e+000 1.77716225e-001
      -5.31235635e-001 -6.63563073e-001 9.86569405e-001 -5.39003372e-001
      -4.89400357e-001 -5.65591574e-001 5.12306690e-001 3.23630542e-001
      -1.96679175e-001 -2.25735053e-001 1.69967782e+000 -2.56520599e-001
      -5.47168911e-001 -7.25532055e-001</_>
    <_>
      -4.87687260e-001 -5.29093623e-001 -1.38487458e-001 3.61471683e-001
      7.82102108e-001 -4.97051328e-001 8.19373703e+000 2.85667229e+000
      -6.41137421e-001 2.92171333e-002 -6.07505143e-001 -1.82037987e-002
      1.31673530e-001 -3.07152271e-001 -6.12646103e-001 4.16426945e+000
      -5.02084196e-001 1.31546009e+000 5.42043209e+000 -5.04137397e-001
      -6.85838759e-001 -4.88782883e-001 1.73326230e+000 -5.69300592e-001
      -2.00427070e-001 -5.83130717e-001 -5.73952258e-001 5.48687398e-001
      8.91326487e-001 -4.59891886e-001 2.05714226e-001 9.15900767e-002
      1.33076870e+000 2.84882843e-001 6.08109295e-001 5.39605093e+000
      -5.31235635e-001 -6.63563073e-001 -3.15678954e-001
      -5.39003372e-001 -4.89400357e-001 -5.65591574e-001
      -1.58392876e-001 3.23630542e-001 -5.27430892e-001 -5.41369557e-001
      5.54287255e-001 -5.03982365e-001 -5.47168911e-001 -7.25532055e-001</_>
    <_>
      1.30316436e+000 1.04009859e-001 2.01657176e-001 -5.05441129e-001
      -1.56085342e-001 1.04220438e+000 -4.94691461e-001 2.29847193e-001
      -6.41137421e-001 -4.66588974e-001 -6.07505143e-001
      -4.10285681e-001 -5.32625318e-001 -6.30166888e-001
      -6.12646103e-001 -6.16849780e-001 5.94618499e-001 1.31546009e+000
      -5.83738863e-001 -5.04137397e-001 -6.85838759e-001 1.11503601e+000
      -5.34557521e-001 -5.69300592e-001 -6.12313867e-001
      -5.83130717e-001 -5.73952258e-001 8.96665752e-001 -3.90992939e-001
      -4.59891886e-001 -6.38241649e-001 9.12237227e-001 -6.09935701e-001
      -4.79353726e-001 -5.88872135e-001 -5.67760170e-001
      -5.31235635e-001 -3.59350771e-001 -3.15678954e-001
      -5.39003372e-001 7.44567275e-001 -5.65591574e-001 1.76956922e-001
      1.48538113e+000 -5.27430892e-001 -2.25735053e-001 5.54287255e-001
      2.21809721e+000 -5.47168911e-001 1.59949207e+000</_>
    <_>
      -4.87687260e-001 -5.29093623e-001 -4.78632092e-001
      -5.05441129e-001 -4.68814492e-001 -4.97051328e-001
      -4.94691461e-001 -2.07957000e-001 -6.41137421e-001
      -4.66588974e-001 -1.35001138e-001 -4.10285681e-001
      -2.00475886e-001 -6.30166888e-001 -6.12646103e-001
      -6.16849780e-001 -5.02084196e-001 -8.04418027e-001
      -5.83738863e-001 -5.04137397e-001 -6.85838759e-001
      -2.21479744e-001 -5.34557521e-001 -5.69300592e-001
      -6.12313867e-001 -5.83130717e-001 5.44979870e-001 -1.47269443e-001
      -3.90992939e-001 -4.59891886e-001 2.05714226e-001 9.15900767e-002
      3.60416532e-001 -4.79353726e-001 2.09115490e-001 -5.67760170e-001
      -5.31235635e-001 -6.63563073e-001 -3.15678954e-001
      -2.50986308e-001 -4.89400357e-001 -5.65591574e-001
      -4.93742675e-001 -5.47682464e-001 -1.96679175e-001
      -5.41369557e-001 -5.91103375e-001 -5.03982365e-001
      -5.47168911e-001 -7.25532055e-001</_>
    <_>
      -4.87687260e-001 -5.29093623e-001 -4.78632092e-001 3.61471683e-001
      -4.68814492e-001 -4.97051328e-001 -4.94691461e-001 2.29847193e-001
      -6.41137421e-001 -4.66588974e-001 -6.07505143e-001
      -4.10285681e-001 1.31673530e-001 -3.07152271e-001 -6.12646103e-001
      1.77370977e+000 -5.02084196e-001 2.55520999e-001 8.33912641e-002
      -1.90626070e-001 -6.85838759e-001 -4.88782883e-001 9.77322400e-001
      5.48958369e-002 2.11459711e-001 -5.83130717e-001 -1.44861732e-002
      -4.95247871e-001 -3.90992939e-001 -4.59891886e-001
      -6.38241649e-001 -7.29057074e-001 3.60416532e-001 -4.79353726e-001
      -1.89878330e-001 -5.67760170e-001 -5.31235635e-001
      -3.59350771e-001 -3.15678954e-001 -5.39003372e-001
      -4.89400357e-001 -5.65591574e-001 -4.93742675e-001
      -5.47682464e-001 -5.27430892e-001 -2.25735053e-001
      -5.91103375e-001 -5.03982365e-001 -5.47168911e-001
      -7.25532055e-001</_>
    <_>
      -4.87687260e-001 -5.29093623e-001 -4.78632092e-001 3.61471683e-001
      -4.68814492e-001 -4.97051328e-001 -4.94691461e-001
      -6.45761192e-001 -6.41137421e-001 -4.66588974e-001
      -6.07505143e-001 -4.10285681e-001 -2.00475886e-001
      -3.07152271e-001 4.35999334e-001 -6.16849780e-001 -5.02084196e-001
      -8.04418027e-001 7.50521362e-001 -1.90626070e-001 -6.85838759e-001
      -4.88782883e-001 -5.34557521e-001 -2.57202357e-001
      -6.12313867e-001 -5.83130717e-001 -5.73952258e-001
      -4.95247871e-001 -3.90992939e-001 -4.59891886e-001
      -6.38241649e-001 9.15900767e-002 -6.09935701e-001 -4.79353726e-001
      2.09115490e-001 1.77716225e-001 -5.31235635e-001 -3.59350771e-001
      -3.15678954e-001 -5.39003372e-001 -4.89400357e-001
      -5.65591574e-001 -4.93742675e-001 -5.47682464e-001
      -5.27430892e-001 -2.25735053e-001 -5.91103375e-001
      -5.03982365e-001 -5.47168911e-001 4.36980009e-001</_>
    <_>
      -4.87687260e-001 -5.29093623e-001 -4.78632092e-001
      -5.05441129e-001 -4.68814492e-001 -4.97051328e-001
      -4.94691461e-001 -6.45761192e-001 -6.41137421e-001
      -4.66588974e-001 -1.35001138e-001 -4.10285681e-001
      -5.32625318e-001 -6.30166888e-001 -6.12646103e-001
      -6.16849780e-001 -5.02084196e-001 -8.04418027e-001
      -5.83738863e-001 -5.04137397e-001 6.47736490e-001 -4.88782883e-001
      -5.34557521e-001 -5.69300592e-001 -6.12313867e-001
      -5.83130717e-001 -5.73952258e-001 -4.95247871e-001
      -3.90992939e-001 -1.59028038e-001 -6.38241649e-001 9.15900767e-002
      -6.09935701e-001 -4.79353726e-001 -5.88872135e-001
      -5.67760170e-001 -5.31235635e-001 -6.63563073e-001
      -3.15678954e-001 -5.39003372e-001 -4.89400357e-001
      -5.65591574e-001 -4.93742675e-001 -5.47682464e-001
      -5.27430892e-001 -5.41369557e-001 2.27237320e+000 -2.56520599e-001
      3.37144464e-001 -7.25532055e-001</_>
    <_>
      -4.87687260e-001 -5.29093623e-001 -4.78632092e-001
      -5.05441129e-001 -4.68814492e-001 -4.97051328e-001
      -4.94691461e-001 -6.45761192e-001 -6.41137421e-001 1.51663542e+000
      -6.07505143e-001 -4.10285681e-001 -5.32625318e-001
      -6.30166888e-001 -6.12646103e-001 -6.16849780e-001
      -5.02084196e-001 -8.04418027e-001 -5.83738863e-001
      -5.04137397e-001 6.47736490e-001 -4.88782883e-001 2.21382439e-001
      -2.57202357e-001 1.44712007e+000 -5.83130717e-001 -5.73952258e-001
      -4.95247871e-001 2.17364597e+000 -4.59891886e-001 -6.38241649e-001
      -7.29057074e-001 -6.09935701e-001 -4.79353726e-001
      -5.88872135e-001 -5.67760170e-001 -5.31235635e-001
      -6.63563073e-001 -3.15678954e-001 -5.39003372e-001
      -4.89400357e-001 -5.65591574e-001 -4.93742675e-001
      -5.47682464e-001 -5.27430892e-001 -5.41369557e-001
      -5.91103375e-001 -5.03982365e-001 -5.47168911e-001 1.59949207e+000</_>
    <_>
      -4.87687260e-001 1.04009859e-001 -4.78632092e-001 3.61471683e-001
      -4.68814492e-001 -4.97051328e-001 -4.94691461e-001
      -2.07957000e-001 -6.41137421e-001 -4.66588974e-001
      -6.07505143e-001 -4.10285681e-001 -5.32625318e-001 3.38876963e-001
      8.64508525e-002 9.76856589e-001 -5.02084196e-001 2.55520999e-001
      -5.83738863e-001 -5.04137397e-001 -6.85838759e-001
      -4.88782883e-001 2.21382439e-001 9.91190434e-001 -6.12313867e-001
      9.27523911e-001 5.44979870e-001 -4.95247871e-001 -3.90992939e-001
      -4.59891886e-001 -6.38241649e-001 -7.29057074e-001 3.60416532e-001
      -4.79353726e-001 -5.88872135e-001 -5.67760170e-001
      -5.31235635e-001 -3.59350771e-001 -3.15678954e-001
      -5.39003372e-001 -4.89400357e-001 -5.65591574e-001
      -4.93742675e-001 -5.47682464e-001 -5.27430892e-001
      -2.25735053e-001 -5.91103375e-001 -5.03982365e-001
      -2.52397805e-001 -7.25532055e-001</_>
    <_>
      -4.87687260e-001 4.20561612e-001 -4.78632092e-001 1.22838449e+000
      -4.68814492e-001 -4.97051328e-001 1.73649222e-001 -6.45761192e-001
      7.24022090e-001 2.92171333e-002 8.10006917e-001 -4.10285681e-001
      -5.32625318e-001 -3.07152271e-001 4.35999334e-001 -6.16849780e-001
      -5.02084196e-001 -8.04418027e-001 -5.83738863e-001
      -5.04137397e-001 -6.85838759e-001 -4.88782883e-001 2.21382439e-001
      5.48958369e-002 -6.12313867e-001 -5.83130717e-001 -5.73952258e-001
      -4.95247871e-001 8.91326487e-001 -1.59028038e-001 -6.38241649e-001
      -7.29057074e-001 -6.09935701e-001 -4.79353726e-001
      -5.88872135e-001 -5.67760170e-001 -5.31235635e-001 2.49073774e-001
      -3.15678954e-001 -2.50986308e-001 -4.89400357e-001
      -5.65591574e-001 -4.93742675e-001 -5.47682464e-001
      -5.27430892e-001 -5.41369557e-001 5.54287255e-001 -5.03982365e-001
      -2.52397805e-001 -7.25532055e-001</_>
    <_>
      -4.87687260e-001 -5.29093623e-001 -4.78632092e-001 2.96220994e+000
      -4.68814492e-001 -4.97051328e-001 -4.94691461e-001 2.29847193e-001
      -6.41137421e-001 -4.66588974e-001 -6.07505143e-001
      -4.10285681e-001 -5.32625318e-001 -6.30166888e-001
      -6.12646103e-001 1.80003434e-001 -5.02084196e-001 -8.04418027e-001
      -5.83738863e-001 -5.04137397e-001 -6.85838759e-001
      -2.21479744e-001 9.77322400e-001 -5.69300592e-001 2.11459711e-001
      -5.83130717e-001 -5.73952258e-001 -4.95247871e-001
      -3.90992939e-001 -4.59891886e-001 -6.38241649e-001
      -7.29057074e-001 -6.09935701e-001 -4.79353726e-001
      -5.88872135e-001 -5.67760170e-001 -5.31235635e-001
      -6.63563073e-001 3.35445225e-001 -5.39003372e-001 -4.89400357e-001
      -5.65591574e-001 -4.93742675e-001 -5.47682464e-001
      -5.27430892e-001 -5.41369557e-001 -5.91103375e-001
      -5.03982365e-001 -5.47168911e-001 4.36980009e-001</_>
    <_>
      -1.89211994e-001 -5.29093623e-001 -4.78632092e-001
      -5.05441129e-001 -4.68814492e-001 -4.97051328e-001
      -4.94691461e-001 -6.45761192e-001 -6.41137421e-001
      -4.66588974e-001 -6.07505143e-001 -4.10285681e-001
      -5.32625318e-001 -3.07152271e-001 4.35999334e-001 1.80003434e-001
      -2.27908522e-001 2.55520999e-001 7.50521362e-001 -5.04137397e-001
      -6.85838759e-001 -4.88782883e-001 1.73326230e+000 -2.57202357e-001
      -6.12313867e-001 -5.83130717e-001 -5.73952258e-001
      -4.95247871e-001 -3.90992939e-001 -4.59891886e-001
      -6.38241649e-001 9.15900767e-002 3.60416532e-001 -4.79353726e-001
      -5.88872135e-001 1.77716225e-001 -5.31235635e-001 -6.63563073e-001
      -3.15678954e-001 -5.39003372e-001 4.18668333e-003 -5.65591574e-001
      -4.93742675e-001 -5.47682464e-001 -5.27430892e-001
      -2.25735053e-001 -5.91103375e-001 -9.05883964e-003
      -5.47168911e-001 -7.25532055e-001</_>
    <_>
      -4.87687260e-001 -5.29093623e-001 -4.78632092e-001 3.61471683e-001
      -4.68814492e-001 -4.97051328e-001 -4.94691461e-001 2.29847193e-001
      7.24022090e-001 -4.66588974e-001 -6.07505143e-001 -4.10285681e-001
      -2.00475886e-001 -6.30166888e-001 8.64508525e-002 -6.16849780e-001
      -5.02084196e-001 -8.04418027e-001 8.33912641e-002 -5.04137397e-001
      -6.85838759e-001 -4.88782883e-001 2.21382439e-001 3.66994053e-001
      -6.12313867e-001 -5.83130717e-001 -5.73952258e-001
      -4.95247871e-001 -3.90992939e-001 -4.59891886e-001 2.05714226e-001
      9.15900767e-002 -6.09935701e-001 -4.79353726e-001 -5.88872135e-001
      -5.67760170e-001 -5.31235635e-001 -5.51385023e-002
      -3.15678954e-001 -5.39003372e-001 -4.89400357e-001 9.11011100e-001
      -4.93742675e-001 3.23630542e-001 -1.96679175e-001 -5.41369557e-001
      -5.91103375e-001 -5.03982365e-001 -5.47168911e-001
      -7.25532055e-001</_>
    <_>
      -4.87687260e-001 -5.29093623e-001 8.81946445e-001 -5.05441129e-001
      -1.56085342e-001 -4.97051328e-001 1.73649222e-001 -2.07957000e-001
      -6.41137421e-001 1.51663542e+000 8.10006917e-001 -4.10285681e-001
      1.31673530e-001 -3.07152271e-001 8.64508525e-002 1.80003434e-001
      -5.02084196e-001 -8.04418027e-001 8.33912641e-002 -1.90626070e-001
      1.98131168e+000 -4.88782883e-001 -5.34557521e-001 -5.69300592e-001
      -6.12313867e-001 -5.83130717e-001 -1.44861732e-002
      -4.95247871e-001 8.91326487e-001 -1.59028038e-001 2.05714226e-001
      9.15900767e-002 3.60416532e-001 2.84882843e-001 2.09115490e-001
      -5.67760170e-001 -5.31235635e-001 -6.63563073e-001
      -3.15678954e-001 -5.39003372e-001 -4.89400357e-001
