<?xml version="1.0"?>
<opencv_storage>
<opencv_ml_svm>
  <format>3</format>
  <svmType>C_SVC</svmType>
  <kernel>
    <type>RBF</type>
    <gamma>2.0000000000000000e-002</gamma></kernel>
  <C>1.</C>
  <term_criteria><epsilon>1.1920928955078125e-007</epsilon>
    <iterations>1000</iterations></term_criteria>
  <var_count>50</var_count>
  <class_count>2</class_count>
  <class_labels type_id="opencv-matrix">
    <rows>2</rows>
    <cols>1</cols>
    <dt>i</dt>
    <data>
      0 1</data></class_labels>
  <sv_total>110</sv_total>
  <support_vectors>
    <_>
      1.62042245e-001 -5.03834546e-001 -5.86278021e-001 8.66425574e-001
      -3.08819860e-001 -3.77830505e-001 -6.06232770e-002 5.28381839e-002
      -4.00235534e-001 -5.17875552e-001 -1.01381528e+000
      -3.41683179e-001 5.12658954e-002 -5.68596244e-001 6.50546074e-001
      1.66184461e+000 -5.38166702e-001 -8.44182596e-002 -3.09997231e-001
      -4.07708764e-001 -7.68155456e-001 -4.39588547e-001
      -4.48307961e-001 -6.57809794e-001 -6.55402482e-001
      -2.70996988e-001 1.99563250e-001 -3.85909200e-001 -4.57033962e-001
      -5.99244893e-001 -1.82839319e-001 -1.00715943e-001
      -8.02066028e-002 -1.80343270e-001 1.05439103e+000 -5.58274209e-001
      -8.21481526e-001 9.95077908e-001 7.33947992e-001 9.42851722e-001
      1.39822811e-001 3.46581042e-001 2.73388386e-001 -3.31246078e-001
      -8.14019218e-002 1.59581274e-001 3.73984426e-002 -3.34577918e-001
      -3.39912735e-002 9.21008587e-001</_>
    <_>
      -6.22986615e-001 -5.03834546e-001 -5.86278021e-001
      -8.17116737e-001 -5.74316084e-001 -5.23949444e-001
      -6.32555842e-001 -1.02958906e+000 -4.00235534e-001
      -5.17875552e-001 -6.36119619e-002 -8.65159333e-001
      -5.23072302e-001 -5.68596244e-001 -6.75513864e-001
      -9.06135142e-001 -5.38166702e-001 -8.44182596e-002
      -5.73192000e-001 -4.07708764e-001 -1.54144928e-001
      -4.39588547e-001 -4.48307961e-001 -6.57809794e-001
      -6.55402482e-001 -5.64066172e-001 -6.22775018e-001
      -6.91314101e-001 -4.57033962e-001 -5.99244893e-001
      -1.82839319e-001 -5.46477258e-001 -4.48848575e-001
      -7.58894145e-001 -6.08971655e-001 -5.58274209e-001
      -3.65949988e-001 -5.88653147e-001 -6.43645465e-001
      -8.17629218e-001 -5.28530180e-001 -7.54188001e-001
      -6.17609084e-001 -6.39292002e-001 -5.67778468e-001 1.59581274e-001
      -4.68538761e-001 -3.34577918e-001 -6.35762095e-001
      -4.17927235e-001</_>
    <_>
      9.47071075e-001 3.50182921e-001 -5.86278021e-001 -3.96231174e-001
      -4.33236398e-002 6.45001948e-001 -6.32555842e-001 7.74456382e-001
      7.20736682e-001 1.33358510e-002 -1.01381528e+000 -8.65159333e-001
      5.12658954e-002 -2.35648155e-002 -1.24838669e-002 3.77854764e-001
      2.42542520e-001 -9.02362645e-001 1.79556119e+000 8.74428153e-001
      -1.07516074e+000 -6.32716596e-001 -4.48307961e-001 8.98789525e-001
      9.99257922e-001 5.29731703e+000 -2.11605892e-001 -3.85909200e-001
      -4.57033962e-001 6.24853671e-001 -6.85122013e-001 -1.00715943e-001
      -8.17490518e-001 3.00168657e+000 2.85636711e+000 3.25351775e-001
      8.95815417e-002 3.37067437e+000 1.19314575e+000 -2.30802238e-001
      -5.28530180e-001 1.99773455e+000 1.16438580e+000 1.20898366e+000
      -5.67778468e-001 -1.08074141e+000 -2.99893022e-001 1.31757343e+000
      8.68664980e-001 -9.53501523e-001</_>
    <_>
      -6.22986615e-001 -2.90330201e-001 -7.67491162e-002 2.46543903e-002
      -3.08819860e-001 -5.23949444e-001 -6.32555842e-001 1.13526547e+000
      3.47079277e-001 -5.17875552e-001 2.53122479e-001 -8.65159333e-001
      -5.23072302e-001 -5.68596244e-001 3.19031119e-001 1.23384798e+000
      -1.47812083e-001 -6.29714489e-001 -5.73192000e-001
      -4.07708764e-001 1.52860329e-001 -4.39588547e-001 -2.52429336e-001
      -3.51700634e-002 -6.55402482e-001 6.08210444e-001 3.07774711e+000
      2.24900663e-001 -4.57033962e-001 -1.91212043e-001 -1.82839319e-001
      -5.46477258e-001 1.02571929e+000 -7.58894145e-001 -3.31744552e-001
      -1.00008714e+000 -3.65949988e-001 -8.52608323e-001
      -6.43645465e-001 1.82309222e+000 -1.94353700e-001 1.44735003e+000
      -2.36107837e-002 -9.47337985e-001 -5.67778468e-001 1.39990401e+000
      -4.68538761e-001 -4.14764695e-003 -3.39912735e-002 3.85434240e-001</_>
    <_>
      -6.22986615e-001 -5.03834546e-001 -5.86278021e-001
      -8.17116737e-001 -5.74316084e-001 -5.23949444e-001
      -6.32555842e-001 -3.07970911e-001 -4.00235534e-001
      -5.17875552e-001 -3.80346388e-001 7.05269217e-001 -5.23072302e-001
      -5.68596244e-001 -3.43998849e-001 -9.06135142e-001
      -5.38166702e-001 7.33526111e-001 -5.73192000e-001 -4.07708764e-001
      1.52860329e-001 -4.39588547e-001 -4.48307961e-001 -6.57809794e-001
      -6.55402482e-001 -5.64066172e-001 -6.22775018e-001
      -6.91314101e-001 -4.57033962e-001 -5.99244893e-001
      -1.82839319e-001 -5.46477258e-001 -4.48848575e-001
      -7.58894145e-001 -6.08971655e-001 -5.58274209e-001
      -3.65949988e-001 -8.52608323e-001 -6.43645465e-001
      -8.17629218e-001 -5.28530180e-001 -7.54188001e-001
      -3.20609927e-001 -6.39292002e-001 -5.67778468e-001 1.59581274e-001
      -4.68538761e-001 -3.34577918e-001 -6.35762095e-001
      -6.85714364e-001</_>
    <_>
      -6.22986615e-001 -5.03834546e-001 -5.86278021e-001 1.28731108e+000
      -5.74316084e-001 -5.23949444e-001 -6.32555842e-001
      -6.68779969e-001 -4.00235534e-001 -3.40805084e-001
      -6.36119619e-002 -8.65159333e-001 5.12658954e-002 -2.05241963e-001
      -3.43998849e-001 -9.06135142e-001 -5.38166702e-001
      -6.29714489e-001 -5.73192000e-001 -8.35087717e-001
      -7.68155456e-001 -6.32716596e-001 -4.48307961e-001
      -3.51700634e-002 -6.55402482e-001 -5.64066172e-001
      -6.22775018e-001 -3.85909200e-001 -4.57033962e-001
      -5.99244893e-001 -6.85122013e-001 -5.46477258e-001
      -8.17490518e-001 -4.69618708e-001 -6.08971655e-001
      -5.58274209e-001 -3.65949988e-001 -3.24697971e-001
      -6.43645465e-001 -8.17629218e-001 -5.28530180e-001
      -4.78995740e-001 -2.36107837e-002 -3.31246078e-001
      -5.67778468e-001 -7.70660758e-001 -4.68538761e-001
      -4.14764695e-003 -3.34876686e-001 -1.50140077e-001</_>
    <_>
      -6.22986615e-001 -7.68258199e-002 -5.86278021e-001
      -3.96231174e-001 -3.08819860e-001 -3.77830505e-001
      -4.41911668e-001 1.13526547e+000 -4.00235534e-001 -5.17875552e-001
      2.53122479e-001 1.81793004e-001 -1.40180171e-001 -5.68596244e-001
      6.50546074e-001 1.66184461e+000 -3.42989385e-001 -9.02362645e-001
      -4.41594630e-001 -4.07708764e-001 4.59865600e-001 -2.46460497e-001
      -2.52429336e-001 2.76149809e-001 6.31555617e-001 1.78048706e+000
      -6.22775018e-001 2.24900663e-001 -2.52863646e-001 2.16820821e-001
      -6.85122013e-001 -5.46477258e-001 -8.02066028e-002
      -7.58894145e-001 -1.93131000e-001 1.20897782e+000 8.95815417e-002
      -3.24697971e-001 2.74750143e-001 9.42851722e-001 1.39822811e-001
      6.21773303e-001 -6.17609084e-001 5.92891812e-001 -3.24590176e-001
      1.59581274e-001 -4.68538761e-001 -4.14764695e-003 -3.34876686e-001
      -4.17927235e-001</_>
    <_>
      2.51712894e+000 -2.90330201e-001 -5.86278021e-001 8.66425574e-001
      -5.74316084e-001 -3.77830505e-001 -4.41911668e-001 1.85688353e+000
      -4.00235534e-001 -5.17875552e-001 -6.97080851e-001 7.05269217e-001
      -5.23072302e-001 -2.05241963e-001 -6.75513864e-001 8.05851400e-001
      -5.38166702e-001 -9.02362645e-001 -3.09997231e-001
      -4.07708764e-001 1.52860329e-001 -4.39588547e-001 -5.65507337e-002
      -6.57809794e-001 5.96323919e+000 -2.70996988e-001 -6.22775018e-001
      5.30305624e-001 -2.52863646e-001 2.16820821e-001 -1.82839319e-001
      -5.46477258e-001 -8.02066028e-002 -7.58894145e-001 4.79695654e+000
      -1.00008714e+000 -8.21481526e-001 -8.52608323e-001
      -6.43645465e-001 -2.30802238e-001 -5.28530180e-001
      -2.03803480e-001 -6.17609084e-001 -6.39292002e-001
      -5.67778468e-001 -1.08074141e+000 -4.68538761e-001
      -6.65008187e-001 -6.35762095e-001 -4.17927235e-001</_>
    <_>
      -4.92148459e-001 -2.90330201e-001 -5.86278021e-001
      -8.17116737e-001 -5.74316084e-001 -3.77830505e-001
      -6.32555842e-001 -1.02958906e+000 -4.00235534e-001
      -5.17875552e-001 -6.36119619e-002 -8.65159333e-001
      -5.23072302e-001 -2.05241963e-001 -3.43998849e-001
      -9.06135142e-001 -5.38166702e-001 -9.02362645e-001
      -5.73192000e-001 -8.35087717e-001 -1.07516074e+000
      -6.32716596e-001 -4.48307961e-001 -6.57809794e-001
      -4.71551299e-001 -2.70996988e-001 -6.22775018e-001
      -8.05042610e-002 -4.86933291e-002 -5.99244893e-001
      -6.85122013e-001 -5.46477258e-001 -8.17490518e-001
      -7.58894145e-001 -1.93131000e-001 -1.00008714e+000
      -3.65949988e-001 -8.52608323e-001 -6.43645465e-001
      -8.17629218e-001 -5.28530180e-001 3.46581042e-001 -6.17609084e-001
      -9.47337985e-001 -5.67778468e-001 -1.08074141e+000
      -4.68538761e-001 -6.65008187e-001 -6.35762095e-001
      -9.53501523e-001</_>
    <_>
      1.86293805e+000 -2.90330201e-001 -5.86278021e-001 8.66425574e-001
      -5.74316084e-001 -5.23949444e-001 -6.06232770e-002 4.13647264e-001
      -2.65781321e-002 -5.17875552e-001 -1.01381528e+000 1.81793004e-001
      -5.23072302e-001 -5.68596244e-001 -6.75513864e-001
      -4.78138506e-001 -3.42989385e-001 -9.02362645e-001 6.11184597e-001
      -4.07708764e-001 4.59865600e-001 -6.32716596e-001 -2.52429336e-001
      -6.57809794e-001 2.10236478e+000 1.19434869e+000 -6.22775018e-001
      -8.05042610e-002 -2.52863646e-001 -5.99244893e-001
      -6.85122013e-001 -5.46477258e-001 6.57077372e-001 -7.58894145e-001
      3.41082144e+000 -1.16461217e-001 -3.65949988e-001 -5.88653147e-001
      -1.84447676e-001 -5.24215698e-001 -1.94353700e-001 3.46581042e-001
      -6.17609084e-001 -6.39292002e-001 -5.67778468e-001
      -1.08074141e+000 -4.68538761e-001 -6.65008187e-001
      -6.35762095e-001 -6.85714364e-001</_>
    <_>
      -6.22986615e-001 -5.03834546e-001 -5.86278021e-001
      -8.17116737e-001 -5.74316084e-001 -5.23949444e-001
      -6.32555842e-001 -1.02958906e+000 -4.00235534e-001
      -5.17875552e-001 -3.80346388e-001 1.22874546e+000 -5.23072302e-001
      -5.68596244e-001 -3.43998849e-001 -9.06135142e-001
      -5.38166702e-001 -6.29714489e-001 -5.73192000e-001
      -4.07708764e-001 4.59865600e-001 -5.33324480e-002 -4.48307961e-001
      -6.57809794e-001 -6.55402482e-001 -8.57135296e-001
      -6.22775018e-001 -6.91314101e-001 -4.57033962e-001
      -5.99244893e-001 -1.82839319e-001 -5.46477258e-001
      -8.02066028e-002 -7.58894145e-001 -6.08971655e-001
      -1.16461217e-001 -3.65949988e-001 -5.88653147e-001
      -6.43645465e-001 -8.17629218e-001 -5.28530180e-001
      -7.54188001e-001 -6.17609084e-001 -9.47337985e-001
      -5.67778468e-001 -1.50499403e-001 -4.68538761e-001
      -3.34577918e-001 -6.35762095e-001 1.17647089e-001</_>
    <_>
      -6.22986615e-001 -5.03834546e-001 -5.86278021e-001
      -8.17116737e-001 -5.74316084e-001 -5.23949444e-001
      -4.41911668e-001 -6.68779969e-001 -4.00235534e-001
      -5.17875552e-001 -6.36119619e-002 -8.65159333e-001
      -5.23072302e-001 -5.68596244e-001 -6.75513864e-001
      -9.06135142e-001 -5.38166702e-001 4.60877985e-001 -5.73192000e-001
      1.96701828e-002 -4.61150169e-001 -6.32716596e-001 -4.48307961e-001
      -6.57809794e-001 -6.55402482e-001 -5.64066172e-001
      -6.22775018e-001 -6.91314101e-001 -4.57033962e-001
      -5.99244893e-001 -1.82839319e-001 -5.46477258e-001
      -8.02066028e-002 -7.58894145e-001 -6.08971655e-001 3.25351775e-001
      -3.65949988e-001 -8.52608323e-001 -6.43645465e-001
      -5.24215698e-001 -5.28530180e-001 -7.54188001e-001
      -6.17609084e-001 -6.39292002e-001 -5.67778468e-001 1.08982337e+000
      -4.68538761e-001 -6.65008187e-001 -6.35762095e-001
      -6.85714364e-001</_>
    <_>
      -6.22986615e-001 -5.03834546e-001 -5.86278021e-001 2.46543903e-002
      -5.74316084e-001 -2.31711581e-001 -6.32555842e-001
      -1.02958906e+000 -4.00235534e-001 -5.17875552e-001
      -3.80346388e-001 -8.65159333e-001 2.42711961e-001 -2.35648155e-002
      3.19031119e-001 -9.06135142e-001 -5.38166702e-001 -9.02362645e-001
      -5.73192000e-001 -8.35087717e-001 -1.07516074e+000
      -6.32716596e-001 -4.48307961e-001 -3.46489906e-001
      -6.55402482e-001 -8.57135296e-001 -6.22775018e-001
      -8.05042610e-002 -4.57033962e-001 -5.99244893e-001
      -6.85122013e-001 -5.46477258e-001 -8.17490518e-001
      -7.58894145e-001 -6.08971655e-001 -1.16461217e-001
      -8.21481526e-001 -5.88653147e-001 -6.43645465e-001
      -8.17629218e-001 -5.28530180e-001 -7.54188001e-001
      -2.36107837e-002 -6.39292002e-001 -5.67778468e-001
      -7.70660758e-001 -4.68538761e-001 -6.65008187e-001
      -3.34876686e-001 -6.85714364e-001</_>
    <_>
      1.07790923e+000 -5.03834546e-001 -5.86278021e-001 -3.96231174e-001
      4.87668812e-001 9.37239826e-001 -4.41911668e-001 -3.07970911e-001
      -4.00235534e-001 1.90406322e-001 -6.97080851e-001 -8.65159333e-001
      1.00849617e+000 1.58112332e-001 9.82061088e-001 -9.06135142e-001
      4.73652221e-002 -3.57066393e-001 8.74379396e-001 4.47049141e-001
      -1.54144928e-001 -5.33324480e-002 -4.48307961e-001
      -3.46489906e-001 -6.55402482e-001 -8.57135296e-001
      -6.22775018e-001 -8.05042610e-002 1.55476987e-001 -5.99244893e-001
      -1.82839319e-001 7.90806711e-001 -8.17490518e-001 1.08932175e-001
      -5.45174442e-002 -1.00008714e+000 -3.65949988e-001
      -6.07427992e-002 -1.84447676e-001 -8.17629218e-001
      -1.94353700e-001 6.21773303e-001 -6.17609084e-001 -2.32001133e-002
      -3.24590176e-001 1.59581274e-001 1.21791863e+000 6.56712890e-001
      -3.39912735e-002 -4.17927235e-001</_>
    <_>
      8.16232920e-001 -5.03834546e-001 -5.86278021e-001 2.46543903e-002
      -5.74316084e-001 -2.31711581e-001 1.30020916e-001 4.13647264e-001
      -4.00235534e-001 -1.63734615e-001 -6.97080851e-001
      -3.41683179e-001 -3.31626236e-001 -3.86919111e-001
      -1.24838669e-002 -4.78138506e-001 -5.38166702e-001
      -3.57066393e-001 4.79587168e-001 1.96701828e-002 1.68788660e+000
      -5.33324480e-002 -4.48307961e-001 -3.51700634e-002
      -6.55402482e-001 -2.70996988e-001 3.48891640e+000 -3.85909200e-001
      -2.52863646e-001 -1.91212043e-001 3.19443345e-001 -5.46477258e-001
      1.02571929e+000 -1.80343270e-001 -3.31744552e-001 -1.16461217e-001
      -3.65949988e-001 2.05089855e+000 2.74750143e-001 1.82309222e+000
      -5.28530180e-001 -2.03803480e-001 -6.17609084e-001 2.84845829e-001
      6.48162842e-001 -1.50499403e-001 -4.68538761e-001 -6.65008187e-001
      -3.34876686e-001 1.17647089e-001</_>
    <_>
      8.16232920e-001 -5.03834546e-001 -7.67491162e-002 2.46543903e-002
      -3.08819860e-001 -5.23949444e-001 -4.41911668e-001 5.28381839e-002
      -4.00235534e-001 -3.40805084e-001 -1.01381528e+000
      -8.65159333e-001 -1.40180171e-001 -5.68596244e-001
      -1.24838669e-002 -9.06135142e-001 -1.47812083e-001
      -8.44182596e-002 7.42781997e-001 1.96701828e-002 1.52860329e-001
      -6.32716596e-001 -4.48307961e-001 -3.46489906e-001
      -6.55402482e-001 2.20721532e-002 1.84423971e+000 -6.91314101e-001
      -4.57033962e-001 -1.91212043e-001 3.19443345e-001 -5.46477258e-001
      1.39436126e+000 6.87483072e-001 -4.70358104e-001 3.41804266e+000
      -3.65949988e-001 1.52298820e+000 2.74750143e-001 1.82309222e+000
      1.39822811e-001 -7.54188001e-001 -6.17609084e-001 9.00937736e-001
      1.61786348e-001 -4.60580081e-001 -2.99893022e-001 3.26282620e-001
      2.66894132e-001 -1.50140077e-001</_>
    <_>
      -6.22986615e-001 -2.90330201e-001 -5.86278021e-001 2.46543903e-002
      -5.74316084e-001 -3.77830505e-001 1.30020916e-001 -6.68779969e-001
      -4.00235534e-001 -5.17875552e-001 -6.97080851e-001
      -8.65159333e-001 -3.31626236e-001 -5.68596244e-001
      -3.43998849e-001 1.66184461e+000 -3.42989385e-001 -9.02362645e-001
      -5.73192000e-001 -4.07708764e-001 1.52860329e-001 -6.32716596e-001
      -4.48307961e-001 -6.57809794e-001 -2.87700146e-001 3.15141320e-001
      -2.11605892e-001 2.24900663e-001 -2.52863646e-001 -5.99244893e-001
      -1.82839319e-001 -5.46477258e-001 -4.48848575e-001
      -1.80343270e-001 -5.45174442e-002 3.25351775e-001 -8.21481526e-001
      -3.24697971e-001 -6.43645465e-001 6.49438262e-001 -1.94353700e-001
      3.46581042e-001 -6.17609084e-001 2.84845829e-001 -5.67778468e-001
      -7.70660758e-001 -4.68538761e-001 -3.34577918e-001
      -6.35762095e-001 3.85434240e-001</_>
    <_>
      -3.61310333e-001 -5.03834546e-001 -5.86278021e-001 1.70819664e+000
      -5.74316084e-001 -3.77830505e-001 -6.32555842e-001
      -6.68779969e-001 -4.00235534e-001 -5.17875552e-001
      -6.36119619e-002 -8.65159333e-001 5.12658954e-002 -2.05241963e-001
      -1.24838669e-002 -9.06135142e-001 -5.38166702e-001
      -6.29714489e-001 -4.41594630e-001 1.96701828e-002 -1.07516074e+000
      -6.32716596e-001 -4.48307961e-001 1.83274913e+000 -4.71551299e-001
      -2.70996988e-001 -6.22775018e-001 -6.91314101e-001
      -4.57033962e-001 -5.99244893e-001 -6.85122013e-001
      -5.46477258e-001 -8.17490518e-001 3.98207605e-001 -4.70358104e-001
      -1.00008714e+000 -8.21481526e-001 -8.52608323e-001
      -6.43645465e-001 -5.24215698e-001 -5.28530180e-001
      -4.78995740e-001 2.73388386e-001 -9.47337985e-001 -5.67778468e-001
      -1.08074141e+000 -4.68538761e-001 -6.65008187e-001 5.67779541e-001
      1.17647089e-001</_>
    <_>
      -4.92148459e-001 -2.90330201e-001 -5.86278021e-001 2.46543903e-002
      -5.74316084e-001 -5.23949444e-001 -6.06232770e-002 3.30011988e+000
      -4.00235534e-001 -5.17875552e-001 -3.80346388e-001
      -3.41683179e-001 -5.23072302e-001 -5.68596244e-001
      -3.43998849e-001 8.05851400e-001 -5.38166702e-001 4.60877985e-001
      -5.73192000e-001 -8.35087717e-001 1.07387614e+000 -2.46460497e-001
      -4.48307961e-001 -6.57809794e-001 -6.55402482e-001
      -5.64066172e-001 3.48891640e+000 -6.91314101e-001 -4.57033962e-001
      -5.99244893e-001 3.19443345e-001 -5.46477258e-001 2.88435370e-001
      -1.80343270e-001 -6.08971655e-001 -1.16461217e-001 8.95815417e-002
      -6.07427992e-002 2.74750143e-001 5.05064058e+000 -5.28530180e-001
      -4.78995740e-001 -2.36107837e-002 -6.39292002e-001
      -8.14019218e-002 -4.60580081e-001 -4.68538761e-001
      -3.34577918e-001 -6.35762095e-001 6.53221428e-001</_>
    <_>
      4.74137735e+000 -5.03834546e-001 -5.86278021e-001 2.46543903e-002
      -5.74316084e-001 1.37559664e+000 -2.51267463e-001 1.13526547e+000
      -4.00235534e-001 -5.17875552e-001 -1.01381528e+000
      -3.41683179e-001 -5.23072302e-001 -5.68596244e-001 3.19031119e-001
      -9.06135142e-001 -5.38166702e-001 1.00617421e+000 3.11153531e+000
      1.96701828e-002 -7.68155456e-001 -6.32716596e-001 -4.48307961e-001
      -6.57809794e-001 8.00021514e-002 6.08210444e-001 -2.11605892e-001
      -6.91314101e-001 -4.57033962e-001 -5.99244893e-001
      -1.82839319e-001 -5.46477258e-001 -4.48848575e-001 1.08932175e-001
      2.02468586e+000 -5.58274209e-001 -8.21481526e-001 -3.24697971e-001
      -6.43645465e-001 1.23626530e+000 -5.28530180e-001 7.13887811e-002
      -3.20609927e-001 -3.31246078e-001 1.61786348e-001 1.59581274e-001
      -4.68538761e-001 -3.34577918e-001 -3.39912735e-002
      -6.85714364e-001</_>
    <_>
      -6.22986615e-001 -5.03834546e-001 -5.86278021e-001
      -3.96231174e-001 -4.33236398e-002 -5.23949444e-001
      -4.41911668e-001 4.13647264e-001 3.47079277e-001 -5.17875552e-001
      -6.36119619e-002 7.05269217e-001 -5.23072302e-001 -5.68596244e-001
      -6.75513864e-001 2.08984113e+000 -5.38166702e-001 -3.57066393e-001
      -5.73192000e-001 -8.35087717e-001 -1.07516074e+000
      -5.33324480e-002 -4.48307961e-001 -6.57809794e-001 6.31555617e-001
      6.08210444e-001 1.99563250e-001 -8.05042610e-002 -4.57033962e-001
      2.16820821e-001 -6.85122013e-001 -5.46477258e-001 -4.48848575e-001
      -4.69618708e-001 -4.70358104e-001 -5.58274209e-001
      -8.21481526e-001 -5.88653147e-001 -1.84447676e-001
      -8.17629218e-001 1.39822811e-001 3.46581042e-001 -6.17609084e-001
      -9.47337985e-001 -5.67778468e-001 -1.08074141e+000 3.73984426e-002
      -6.65008187e-001 -6.35762095e-001 -4.17927235e-001</_>
    <_>
      -6.22986615e-001 -5.03834546e-001 -5.86278021e-001
      -8.17116737e-001 -5.74316084e-001 -5.23949444e-001
      -6.32555842e-001 -1.02958906e+000 -4.00235534e-001
      -5.17875552e-001 2.53122479e-001 -3.41683179e-001 -5.23072302e-001
      -5.68596244e-001 -3.43998849e-001 -4.78138506e-001
      -5.38166702e-001 -8.44182596e-002 -5.73192000e-001
      -4.07708764e-001 1.52860329e-001 -2.46460497e-001 -4.48307961e-001
      -6.57809794e-001 -6.55402482e-001 -8.57135296e-001
      -6.22775018e-001 -6.91314101e-001 -4.57033962e-001
      -5.99244893e-001 -1.82839319e-001 -5.46477258e-001
      -4.48848575e-001 -7.58894145e-001 -6.08971655e-001
      -1.00008714e+000 -8.21481526e-001 -5.88653147e-001
      -6.43645465e-001 -8.17629218e-001 -5.28530180e-001
      -7.54188001e-001 -6.17609084e-001 -6.39292002e-001
      -5.67778468e-001 1.08982337e+000 -4.68538761e-001 -3.34577918e-001
      -6.35762095e-001 -6.85714364e-001</_>
    <_>
      -6.22986615e-001 -7.68258199e-002 -5.86278021e-001
      -8.17116737e-001 -4.33236398e-002 -5.23949444e-001
      -6.32555842e-001 -1.02958906e+000 -4.00235534e-001
      -5.17875552e-001 -1.01381528e+000 -8.65159333e-001
      -5.23072302e-001 -5.68596244e-001 -1.24838669e-002
      -9.06135142e-001 4.37719822e-001 -9.02362645e-001 -5.73192000e-001
      4.47049141e-001 -1.07516074e+000 -6.32716596e-001 -2.52429336e-001
      -6.57809794e-001 -6.55402482e-001 -5.64066172e-001
      -2.11605892e-001 -6.91314101e-001 -4.57033962e-001
      -1.91212043e-001 -6.85122013e-001 -5.46477258e-001
      -8.17490518e-001 -7.58894145e-001 -6.08971655e-001
      -1.00008714e+000 -8.21481526e-001 -8.52608323e-001 7.33947992e-001
      -8.17629218e-001 -5.28530180e-001 -7.54188001e-001
      -2.36107837e-002 -9.47337985e-001 -5.67778468e-001
      -1.08074141e+000 -4.68538761e-001 -4.14764695e-003 2.66894132e-001
      -9.53501523e-001</_>
    <_>
      -3.61310333e-001 -2.90330201e-001 -7.67491162e-002
      -3.96231174e-001 -3.08819860e-001 1.37559664e+000 -2.51267463e-001
      -3.07970911e-001 3.47079277e-001 -5.17875552e-001 -1.01381528e+000
      1.81793004e-001 1.39138830e+000 7.03143775e-001 -3.43998849e-001
      3.77854764e-001 -3.42989385e-001 -9.02362645e-001 7.42781997e-001
      3.43870187e+000 -1.07516074e+000 3.32923651e-001 5.31085074e-001
      -3.51700634e-002 -6.55402482e-001 -2.70996988e-001 2.25540876e+000
      -8.05042610e-002 -4.57033962e-001 6.24853671e-001 -1.82839319e-001
      -3.23596597e-001 2.88435370e-001 3.98207605e-001 8.40961039e-002
      -1.16461217e-001 -3.65949988e-001 9.95077908e-001 7.33947992e-001
      1.23626530e+000 1.39822811e-001 -4.78995740e-001 -3.20609927e-001
      2.84845829e-001 1.61786348e-001 1.59581274e-001 -2.99893022e-001
      6.56712890e-001 2.66894132e-001 -6.85714364e-001</_>
    <_>
      -3.61310333e-001 -2.90330201e-001 1.45183754e+000 8.66425574e-001
      -5.74316084e-001 1.08335876e+000 -4.41911668e-001 1.49607444e+000
      3.47079277e-001 -1.63734615e-001 -1.01381528e+000 7.05269217e-001
      4.34158027e-001 1.61152947e+000 -1.24838669e-002 -5.01418747e-002
      -5.38166702e-001 -6.29714489e-001 7.42781997e-001 3.01132298e+000
      -1.54144928e-001 1.39795601e-001 -2.52429336e-001 5.87469637e-001
      -2.87700146e-001 2.20721532e-002 2.66657805e+000 -3.85909200e-001
      -2.52863646e-001 2.16820821e-001 -6.85122013e-001 -3.23596597e-001
      -8.02066028e-002 9.76758480e-001 -5.45174442e-002 1.20897782e+000
      8.95815417e-002 -6.07427992e-002 7.33947992e-001 3.56024742e-001
      1.39822811e-001 -4.78995740e-001 -6.17609084e-001 1.20898366e+000
      1.61786348e-001 -4.60580081e-001 -2.99893022e-001 -4.14764695e-003
      8.68664980e-001 -4.17927235e-001</_>
    <_>
      8.16232920e-001 -5.03834546e-001 9.42308605e-001 8.66425574e-001
      -5.74316084e-001 -3.77830505e-001 -4.41911668e-001 1.85688353e+000
      -4.00235534e-001 -5.17875552e-001 -3.80346388e-001
      -8.65159333e-001 -5.23072302e-001 -3.86919111e-001
      -1.24838669e-002 -5.01418747e-002 -1.47812083e-001 4.60877985e-001
      8.47949833e-002 -4.07708764e-001 7.66870856e-001 -4.39588547e-001
      -4.48307961e-001 -3.51700634e-002 -6.55402482e-001
      -2.70996988e-001 1.99563250e-001 -6.91314101e-001 -2.52863646e-001
      -1.91212043e-001 3.19443345e-001 -1.00715943e-001 -4.48848575e-001
      3.98207605e-001 -3.31744552e-001 3.25351775e-001 8.95815417e-002
      -6.07427992e-002 -1.84447676e-001 3.56024742e-001 -5.28530180e-001
      -7.54188001e-001 2.73388386e-001 2.13312173e+000 -8.14019218e-002
      -7.70660758e-001 -4.68538761e-001 -3.34577918e-001
      -3.39912735e-002 1.17647089e-001</_>
    <_>
      1.73209989e+000 -5.03834546e-001 -5.86278021e-001 -3.96231174e-001
      -5.74316084e-001 -5.23949444e-001 -6.32555842e-001 1.85688353e+000
      3.47079277e-001 -5.17875552e-001 -3.80346388e-001 -8.65159333e-001
      -5.23072302e-001 -5.68596244e-001 -1.24838669e-002 8.05851400e-001
      -5.38166702e-001 4.60877985e-001 8.74379396e-001 -4.07708764e-001
      -4.61150169e-001 -2.46460497e-001 -4.48307961e-001
      -6.57809794e-001 1.91851366e+000 1.78048706e+000 1.99563250e-001
      -6.91314101e-001 -4.57033962e-001 -5.99244893e-001
      -1.82839319e-001 -5.46477258e-001 -8.17490518e-001
      -7.58894145e-001 4.10388899e+000 -1.00008714e+000 -3.65949988e-001
      -3.24697971e-001 -1.84447676e-001 2.40991926e+000 -1.94353700e-001
      7.13887811e-002 -6.17609084e-001 -3.31246078e-001 -8.14019218e-002
      7.79742658e-001 -4.68538761e-001 3.26282620e-001 -6.35762095e-001
      -1.50140077e-001</_>
    <_>
      -6.22986615e-001 5.63687325e-001 -5.86278021e-001 4.45539951e-001
      -3.08819860e-001 -5.23949444e-001 -6.32555842e-001
      -6.68779969e-001 -4.00235534e-001 -5.17875552e-001
      -1.01381528e+000 -8.65159333e-001 -5.23072302e-001
      -5.68596244e-001 -3.43998849e-001 -4.78138506e-001 4.73652221e-002
      -9.02362645e-001 -5.73192000e-001 -4.07708764e-001
      -1.07516074e+000 -6.32716596e-001 -5.65507337e-002
      -6.57809794e-001 -6.55402482e-001 -8.57135296e-001
      -6.22775018e-001 -3.85909200e-001 -4.57033962e-001
      -1.91212043e-001 -6.85122013e-001 -5.46477258e-001
      -8.17490518e-001 -4.69618708e-001 -6.08971655e-001
      -1.00008714e+000 -8.21481526e-001 -8.52608323e-001
      -1.84447676e-001 -8.17629218e-001 -5.28530180e-001
      -4.78995740e-001 2.73388386e-001 -9.47337985e-001 -5.67778468e-001
      -1.08074141e+000 -4.68538761e-001 -4.14764695e-003
      -3.34876686e-001 -9.53501523e-001</_>
    <_>
      2.25545263e+000 -5.03834546e-001 4.32779759e-001 -8.17116737e-001
      -5.74316084e-001 -3.77830505e-001 -6.32555842e-001 2.21769261e+000
      3.47079277e-001 -5.17875552e-001 -6.97080851e-001 -8.65159333e-001
      -5.23072302e-001 -5.68596244e-001 -1.24838669e-002 3.77854764e-001
      -5.38166702e-001 -8.44182596e-002 8.74379396e-001 -8.35087717e-001
      1.52860329e-001 -5.33324480e-002 -5.65507337e-002 -6.57809794e-001
      1.36696017e+000 1.19434869e+000 -2.11605892e-001 -6.91314101e-001
      -4.57033962e-001 -5.99244893e-001 3.19443345e-001 -5.46477258e-001
      -8.17490518e-001 -4.69618708e-001 3.96527553e+000 -5.58274209e-001
      -3.65949988e-001 2.03212380e-001 -1.84447676e-001 9.42851722e-001
      -5.28530180e-001 -4.78995740e-001 -6.17609084e-001 2.84845829e-001
      4.04974610e-001 1.59581274e-001 -4.68538761e-001 -3.34577918e-001
      -6.35762095e-001 3.85434240e-001</_>
    <_>
      1.07790923e+000 -5.03834546e-001 -7.67491162e-002 2.46543903e-002
      -5.74316084e-001 -3.77830505e-001 -2.51267463e-001 1.85688353e+000
      -4.00235534e-001 -1.63734615e-001 2.53122479e-001 7.05269217e-001
      -5.23072302e-001 -3.86919111e-001 -6.75513864e-001
      -5.01418747e-002 -3.42989385e-001 1.88229859e-001 2.16392383e-001
      -8.35087717e-001 -4.61150169e-001 -6.32716596e-001
      -4.48307961e-001 -3.46489906e-001 -6.55402482e-001 3.15141320e-001
      -6.22775018e-001 -6.91314101e-001 -2.52863646e-001
      -1.91212043e-001 3.19443345e-001 -5.46477258e-001 -8.02066028e-002
      3.98207605e-001 -4.70358104e-001 -1.16461217e-001 -3.65949988e-001
      4.67167556e-001 -1.84447676e-001 3.56024742e-001 -5.28530180e-001
      -4.78995740e-001 5.70387542e-001 1.51702976e+000 -3.24590176e-001
      -1.50499403e-001 -2.99893022e-001 -3.34577918e-001 5.67779541e-001
      -4.17927235e-001</_>
    <_>
      -6.22986615e-001 -5.03834546e-001 -5.86278021e-001
      -3.96231174e-001 -3.08819860e-001 -5.23949444e-001
      -2.51267463e-001 1.13526547e+000 -4.00235534e-001 -5.17875552e-001
      2.53122479e-001 -3.41683179e-001 -5.23072302e-001 -5.68596244e-001
      -1.24838669e-002 -5.01418747e-002 -3.42989385e-001 1.88229859e-001
      -5.73192000e-001 -8.35087717e-001 1.38088131e+000 1.39795601e-001
      -4.48307961e-001 5.87469637e-001 -6.55402482e-001 -5.64066172e-001
      -2.11605892e-001 -8.05042610e-002 -4.57033962e-001 2.16820821e-001
      -1.82839319e-001 -5.46477258e-001 -8.02066028e-002
      -7.58894145e-001 -6.08971655e-001 -5.58274209e-001 8.95815417e-002
      -8.52608323e-001 -1.84447676e-001 6.26112595e-002 -5.28530180e-001
      -7.54188001e-001 -2.36107837e-002 -2.32001133e-002 6.48162842e-001
      1.08982337e+000 -4.68538761e-001 -4.14764695e-003 -6.35762095e-001
      1.18879569e+000</_>
    <_>
      -6.22986615e-001 -5.03834546e-001 -5.86278021e-001 2.46543903e-002
      -5.74316084e-001 -5.23949444e-001 -4.41911668e-001 1.13526547e+000
      -4.00235534e-001 -5.17875552e-001 2.53122479e-001 1.81793004e-001
      -5.23072302e-001 -5.68596244e-001 -6.75513864e-001 1.66184461e+000
      -3.42989385e-001 -6.29714489e-001 -4.41594630e-001 1.96701828e-002
      7.66870856e-001 -5.33324480e-002 -2.52429336e-001 -3.46489906e-001
      4.47704464e-001 1.48741782e+000 -6.22775018e-001 2.24900663e-001
      -2.52863646e-001 -5.99244893e-001 -6.85122013e-001
      -5.46477258e-001 -4.48848575e-001 -7.58894145e-001
      -4.70358104e-001 3.25351775e-001 -3.65949988e-001 -6.07427992e-002
      -6.43645465e-001 3.56024742e-001 -1.94353700e-001 3.46581042e-001
      -6.17609084e-001 -6.39292002e-001 -5.67778468e-001
      -1.08074141e+000 -2.99893022e-001 -6.65008187e-001
      -6.35762095e-001 -6.85714364e-001</_>
    <_>
      -6.22986615e-001 -5.03834546e-001 -5.86278021e-001
      -3.96231174e-001 -3.08819860e-001 -5.23949444e-001
      -6.32555842e-001 -1.02958906e+000 -4.00235534e-001
      -5.17875552e-001 -1.01381528e+000 -8.65159333e-001
      -5.23072302e-001 -5.68596244e-001 -1.24838669e-002
      -5.01418747e-002 -1.47812083e-001 -9.02362645e-001
      -5.73192000e-001 -4.07708764e-001 -1.07516074e+000
      -6.32716596e-001 -2.52429336e-001 -6.57809794e-001
      -6.55402482e-001 -8.57135296e-001 -6.22775018e-001
      -3.85909200e-001 -2.52863646e-001 -5.99244893e-001
      -6.85122013e-001 -5.46477258e-001 -8.17490518e-001 1.08932175e-001
      -6.08971655e-001 -1.00008714e+000 -8.21481526e-001
      -8.52608323e-001 -1.84447676e-001 -5.24215698e-001
      -5.28530180e-001 -7.54188001e-001 8.67386699e-001 -6.39292002e-001
      -5.67778468e-001 -1.08074141e+000 -4.68538761e-001
      -3.34577918e-001 -6.35762095e-001 -9.53501523e-001</_>
    <_>
      -6.22986615e-001 -5.03834546e-001 -5.86278021e-001
      -3.96231174e-001 -5.74316084e-001 -5.23949444e-001
      -6.32555842e-001 -3.07970911e-001 -4.00235534e-001
      -5.17875552e-001 -6.36119619e-002 -8.65159333e-001
      -5.23072302e-001 -5.68596244e-001 -3.43998849e-001
      -4.78138506e-001 -5.38166702e-001 -3.57066393e-001
      -5.73192000e-001 -4.07708764e-001 -1.54144928e-001
      -4.39588547e-001 -4.48307961e-001 -6.57809794e-001
      -6.55402482e-001 -8.57135296e-001 -2.11605892e-001
      -6.91314101e-001 -4.57033962e-001 -5.99244893e-001
      -1.82839319e-001 -5.46477258e-001 -4.48848575e-001
      -7.58894145e-001 -6.08971655e-001 3.25351775e-001 -3.65949988e-001
      -8.52608323e-001 -6.43645465e-001 -5.24215698e-001
      -5.28530180e-001 -7.54188001e-001 -6.17609084e-001
      -2.32001133e-002 -5.67778468e-001 2.02006531e+000 -4.68538761e-001
      -3.34577918e-001 -6.35762095e-001 -1.50140077e-001</_>
    <_>
      1.73209989e+000 -5.03834546e-001 -5.86278021e-001 2.46543903e-002
      -5.74316084e-001 6.05262667e-002 -6.32555842e-001 1.49607444e+000
      -4.00235534e-001 -5.17875552e-001 -3.80346388e-001 1.81793004e-001
      -5.23072302e-001 -3.86919111e-001 -6.75513864e-001 3.77854764e-001
      -5.38166702e-001 -6.29714489e-001 1.00597680e+000 -4.07708764e-001
      -4.61150169e-001 -6.32716596e-001 -2.52429336e-001
      -6.57809794e-001 2.28621602e+000 2.07355618e+000 -6.22775018e-001
      -3.85909200e-001 -2.52863646e-001 -5.99244893e-001
      -6.85122013e-001 -5.46477258e-001 2.88435370e-001 -4.69618708e-001
      3.13359427e+000 -1.16461217e-001 -8.21481526e-001 -6.07427992e-002
      -6.43645465e-001 -2.30802238e-001 -1.94353700e-001 1.17215776e+000
      -2.36107837e-002 -9.47337985e-001 -5.67778468e-001 4.69661951e-001
      -4.68538761e-001 -6.65008187e-001 -6.35762095e-001
      -1.50140077e-001</_>
    <_>
      5.54556668e-001 -5.03834546e-001 -5.86278021e-001 4.45539951e-001
      -5.74316084e-001 -2.31711581e-001 -2.51267463e-001 2.57850170e+000
      -4.00235534e-001 -1.63734615e-001 -3.80346388e-001 1.81793004e-001
      -5.23072302e-001 -2.05241963e-001 -3.43998849e-001
      -5.01418747e-002 -5.38166702e-001 4.60877985e-001 -4.68024202e-002
      -8.35087717e-001 1.99489176e+000 -6.32716596e-001 -4.48307961e-001
      -6.57809794e-001 -6.55402482e-001 -2.70996988e-001 6.10732377e-001
      -3.85909200e-001 -2.52863646e-001 -5.99244893e-001 3.19443345e-001
      -3.23596597e-001 -8.17490518e-001 1.08932175e-001 -6.08971655e-001
      1.20897782e+000 8.95815417e-002 4.67167556e-001 7.33947992e-001
      3.56024742e-001 -5.28530180e-001 -7.54188001e-001 -3.20609927e-001
      1.20898366e+000 -8.14019218e-002 -1.50499403e-001 -4.68538761e-001
      -6.65008187e-001 2.66894132e-001 1.17647089e-001</_>
    <_>
      1.99377620e+000 -7.68258199e-002 -7.67491162e-002 -8.17116737e-001
      7.53165007e-001 7.91120887e-001 -6.32555842e-001 4.13647264e-001
      -2.65781321e-002 1.90406322e-001 -6.97080851e-001 -8.65159333e-001
      8.17050099e-001 -2.05241963e-001 6.50546074e-001 1.23384798e+000
      -3.42989385e-001 -9.02362645e-001 1.40076900e+000 8.74428153e-001
      -7.68155456e-001 -6.32716596e-001 -4.48307961e-001
      -3.51700634e-002 2.65391827e+000 5.00424767e+000 -6.22775018e-001
      2.24900663e-001 -4.57033962e-001 2.16820821e-001 -6.85122013e-001
      -1.00715943e-001 -8.17490518e-001 2.42313552e+000 2.16329956e+000
      -1.00008714e+000 8.95815417e-002 2.84276414e+000 7.33947992e-001
      1.23626530e+000 -5.28530180e-001 3.37369609e+000 1.75838411e+000
      3.05725956e+000 -5.67778468e-001 -1.08074141e+000 -4.68538761e-001
      6.56712890e-001 8.68664980e-001 -9.53501523e-001</_>
    <_>
      -4.92148459e-001 -5.03834546e-001 -5.86278021e-001
      -8.17116737e-001 7.53165007e-001 4.98883039e-001 -6.32555842e-001
      -1.02958906e+000 -4.00235534e-001 -5.17875552e-001
      -1.01381528e+000 -8.65159333e-001 -3.31626236e-001
      -2.05241963e-001 -6.75513864e-001 -9.06135142e-001
      -5.38166702e-001 -9.02362645e-001 -4.41594630e-001
      -8.35087717e-001 -1.07516074e+000 -6.32716596e-001
      -4.48307961e-001 -3.51700634e-002 -6.55402482e-001
      -8.57135296e-001 -6.22775018e-001 -6.91314101e-001
      -2.52863646e-001 -5.99244893e-001 -6.85122013e-001
      -5.46477258e-001 -8.17490518e-001 -7.58894145e-001
      -6.08971655e-001 -1.00008714e+000 -8.21481526e-001
      -5.88653147e-001 -6.43645465e-001 -8.17629218e-001
      -5.28530180e-001 -4.78995740e-001 -6.17609084e-001
      -9.47337985e-001 -5.67778468e-001 -1.08074141e+000
      -4.68538761e-001 -6.65008187e-001 -6.35762095e-001
      -9.53501523e-001</_>
    <_>
      1.33958554e+000 -5.03834546e-001 -7.67491162e-002 2.12908220e+000
      -5.74316084e-001 -2.31711581e-001 -2.51267463e-001
      -3.07970911e-001 -4.00235534e-001 -3.40805084e-001
      -1.01381528e+000 -8.65159333e-001 -3.31626236e-001
      -5.68596244e-001 -6.75513864e-001 -9.06135142e-001
      -1.47812083e-001 -8.44182596e-002 7.42781997e-001 -4.07708764e-001
      -1.54144928e-001 -4.39588547e-001 -4.48307961e-001 2.76149809e-001
      -6.55402482e-001 -2.70996988e-001 6.10732377e-001 -6.91314101e-001
      -4.57033962e-001 -1.91212043e-001 3.19443345e-001 -5.46477258e-001
      6.57077372e-001 1.08932175e-001 -4.70358104e-001 1.20897782e+000
      8.95815417e-002 1.52298820e+000 -1.84447676e-001 2.70333266e+000
      -5.28530180e-001 -7.54188001e-001 -3.20609927e-001 9.00937736e-001
      1.61786348e-001 -1.50499403e-001 -2.99893022e-001 6.56712890e-001
      -3.34876686e-001 1.17647089e-001</_>
    <_>
      -3.61310333e-001 -5.03834546e-001 -5.86278021e-001
      -8.17116737e-001 -5.74316084e-001 -5.23949444e-001
      -6.32555842e-001 -1.02958906e+000 -4.00235534e-001
      -5.17875552e-001 -6.36119619e-002 -8.65159333e-001
      -5.23072302e-001 -5.68596244e-001 -3.43998849e-001
      -9.06135142e-001 -5.38166702e-001 -9.02362645e-001
      -5.73192000e-001 -8.35087717e-001 -1.07516074e+000
      -6.32716596e-001 -4.48307961e-001 -6.57809794e-001
      -2.87700146e-001 -8.57135296e-001 -6.22775018e-001 5.30305624e-001
      -4.57033962e-001 -5.99244893e-001 -6.85122013e-001
      -5.46477258e-001 -8.17490518e-001 -7.58894145e-001
      -3.31744552e-001 -1.00008714e+000 -8.21481526e-001
      -5.88653147e-001 -6.43645465e-001 -8.17629218e-001
      -5.28530180e-001 -4.78995740e-001 -6.17609084e-001
      -9.47337985e-001 -3.24590176e-001 -1.08074141e+000
      -4.68538761e-001 -6.65008187e-001 -6.35762095e-001
      -6.85714364e-001</_>
    <_>
      -2.30472177e-001 -2.90330201e-001 -5.86278021e-001
      -3.96231174e-001 -5.74316084e-001 -8.55926573e-002
      -6.32555842e-001 7.74456382e-001 -4.00235534e-001 -3.40805084e-001
      -6.97080851e-001 7.05269217e-001 5.12658954e-002 -2.05241963e-001
      9.82061088e-001 2.51783776e+000 -5.38166702e-001 4.60877985e-001
      8.47949833e-002 -4.07708764e-001 -7.68155456e-001 -2.46460497e-001
      -4.48307961e-001 -6.57809794e-001 -2.87700146e-001 1.19434869e+000
      1.99563250e-001 -6.91314101e-001 -4.57033962e-001 -5.99244893e-001
      -1.82839319e-001 -3.23596597e-001 2.88435370e-001 -4.69618708e-001
      1.19300461e+000 -5.58274209e-001 -8.21481526e-001 -6.07427992e-002
      -6.43645465e-001 1.23626530e+000 -5.28530180e-001 7.13887811e-002
      -6.17609084e-001 -9.47337985e-001 -3.24590176e-001 4.69661951e-001
      -4.68538761e-001 -4.14764695e-003 -3.34876686e-001
      -6.85714364e-001</_>
    <_>
      2.92880386e-001 -7.68258199e-002 -7.67491162e-002 8.66425574e-001
      7.53165007e-001 -8.55926573e-002 -4.41911668e-001 1.13526547e+000
      -4.00235534e-001 -5.17875552e-001 -6.97080851e-001
      -3.41683179e-001 -1.40180171e-001 -2.05241963e-001 9.82061088e-001
      1.66184461e+000 4.73652221e-002 1.88229859e-001 -4.68024202e-002
      -4.07708764e-001 -7.68155456e-001 -5.33324480e-002
      -4.48307961e-001 5.87469637e-001 -2.87700146e-001 6.08210444e-001
      -2.11605892e-001 -6.91314101e-001 -4.57033962e-001
      -1.91212043e-001 -1.82839319e-001 3.45045388e-001 -8.02066028e-002
      -4.69618708e-001 7.77163863e-001 -5.58274209e-001 -3.65949988e-001
      1.52298820e+000 -6.43645465e-001 3.56024742e-001 -5.28530180e-001
      7.13887811e-002 5.70387542e-001 -3.31246078e-001 6.48162842e-001
      1.08982337e+000 -4.68538761e-001 3.26282620e-001 -3.39912735e-002
      -4.17927235e-001</_>
    <_>
      -6.22986615e-001 -5.03834546e-001 -5.86278021e-001
      -8.17116737e-001 7.53165007e-001 -3.77830505e-001 -6.32555842e-001
      -1.02958906e+000 -4.00235534e-001 -5.17875552e-001
      -1.01381528e+000 -8.65159333e-001 -5.23072302e-001
      -5.68596244e-001 -6.75513864e-001 -9.06135142e-001
      -1.47812083e-001 -9.02362645e-001 -5.73192000e-001
      -4.07708764e-001 -1.07516074e+000 -6.32716596e-001
      -4.48307961e-001 -3.46489906e-001 -6.55402482e-001
      -8.57135296e-001 -6.22775018e-001 -6.91314101e-001
      -4.57033962e-001 -5.99244893e-001 -6.85122013e-001
      -5.46477258e-001 -8.17490518e-001 -4.69618708e-001
      -6.08971655e-001 -1.00008714e+000 -8.21481526e-001
      -8.52608323e-001 2.74750143e-001 -8.17629218e-001 -5.28530180e-001
      -7.54188001e-001 2.73388386e-001 -9.47337985e-001 -5.67778468e-001
      -1.08074141e+000 -4.68538761e-001 -3.34577918e-001 2.66894132e-001
      -9.53501523e-001</_>
    <_>
      2.92880386e-001 -7.68258199e-002 -5.86278021e-001 -8.17116737e-001
      -3.08819860e-001 -3.77830505e-001 -2.51267463e-001 4.13647264e-001
      -4.00235534e-001 -3.40805084e-001 -1.01381528e+000 1.81793004e-001
      -3.31626236e-001 -5.68596244e-001 -3.43998849e-001 2.51783776e+000
      4.37719822e-001 -3.57066393e-001 -3.09997231e-001 -8.35087717e-001
      -1.54144928e-001 3.32923651e-001 5.31085074e-001 -3.51700634e-002
      4.47704464e-001 1.48741782e+000 -2.11605892e-001 -6.91314101e-001
      -2.52863646e-001 -5.99244893e-001 -6.85122013e-001
      -5.46477258e-001 -4.48848575e-001 -4.69618708e-001 1.33161819e+000
      -5.58274209e-001 -3.65949988e-001 -6.07427992e-002
      -1.84447676e-001 -5.24215698e-001 -1.94353700e-001 7.13887811e-002
      2.73388386e-001 -9.47337985e-001 -3.24590176e-001 1.59581274e-001
      3.74689937e-001 -4.14764695e-003 -6.35762095e-001 -4.17927235e-001</_>
    <_>
      6.85394824e-001 3.50182921e-001 -7.67491162e-002 2.46543903e-002
      -5.74316084e-001 -2.31711581e-001 3.20665091e-001 7.74456382e-001
      -4.00235534e-001 -3.40805084e-001 1.83679461e+000 1.22874546e+000
      2.42711961e-001 -3.86919111e-001 -1.24838669e-002 3.77854764e-001
      4.73652221e-002 7.33526111e-001 -1.78399816e-001 4.47049141e-001
      1.38088131e+000 1.10543585e+000 3.35206479e-001 -3.46489906e-001
      -1.03849001e-001 2.20721532e-002 -2.11605892e-001 5.30305624e-001
      -4.86933291e-002 -1.91212043e-001 -1.82839319e-001
      -3.23596597e-001 1.02571929e+000 6.87483072e-001 1.47023165e+000
      -5.58274209e-001 -3.65949988e-001 1.52298820e+000 -1.84447676e-001
      3.56024742e-001 8.08175862e-001 -4.78995740e-001 1.16438580e+000
      -3.31246078e-001 6.48162842e-001 1.08982337e+000 -4.68538761e-001
      6.56712890e-001 5.67779541e-001 6.53221428e-001</_>
    <_>
      -6.22986615e-001 1.36678562e-001 -5.86278021e-001 -8.17116737e-001
      -4.33236398e-002 -5.23949444e-001 -2.51267463e-001
      -6.68779969e-001 -4.00235534e-001 1.33358510e-002 -6.97080851e-001
      -8.65159333e-001 -5.23072302e-001 5.21466613e-001 -1.24838669e-002
      -9.06135142e-001 4.73652221e-002 -3.57066393e-001 -5.73192000e-001
      -8.35087717e-001 -4.61150169e-001 -4.39588547e-001
      -5.65507337e-002 5.87469637e-001 -6.55402482e-001 -8.57135296e-001
      1.99563250e-001 1.14111543e+000 -4.57033962e-001 -1.91212043e-001
      -1.82839319e-001 5.67926049e-001 -8.17490518e-001 1.08932175e-001
      -6.08971655e-001 -1.00008714e+000 -8.21481526e-001
      -5.88653147e-001 -1.84447676e-001 -8.17629218e-001 1.39822811e-001
      -7.54188001e-001 5.70387542e-001 -3.31246078e-001 -3.24590176e-001
      4.69661951e-001 -1.31247297e-001 -6.65008187e-001 -3.34876686e-001
      -4.17927235e-001</_>
    <_>
      -9.96340364e-002 2.05821776e+000 4.50901079e+000 4.45539951e-001
      4.47011232e+000 -8.55926573e-002 2.22710705e+000 2.21769261e+000
      6.32559824e+000 -1.63734615e-001 4.37066984e+000 1.81793004e-001
      5.12658954e-002 -2.35648155e-002 1.64509118e+000 2.08984113e+000
      1.80396092e+000 2.09676671e+000 -3.09997231e-001 3.01132298e+000
      4.59865600e-001 1.68482006e+000 2.88162851e+000 2.45538878e+000
      3.20547175e+000 9.01279628e-001 1.02190149e+000 2.05733037e+000
      5.63817620e-001 4.70518208e+000 1.32400870e+000 -5.46477258e-001
      6.57077372e-001 1.26603389e+000 4.99936759e-001 1.65079081e+000
      2.82277083e+000 7.31122732e-001 5.32592630e+000 9.42851722e-001
      3.48158789e+000 1.44735003e+000 1.75838411e+000 -2.32001133e-002
      6.48162842e-001 1.59581274e-001 2.06044182e-001 3.26282620e-001
      5.67779541e-001 3.86666751e+000</_>
    <_>
      3.12041007e-002 5.04727888e+000 9.42308605e-001 2.54996777e+000
      2.61163878e+000 -2.31711581e-001 3.18032813e+000 5.28381839e-002
      1.46805143e+000 5.44547260e-001 8.86591315e-001 -8.65159333e-001
      1.58283436e+000 1.24817514e+000 1.64509118e+000 3.77854764e-001
      2.58467007e+000 4.60877985e-001 -4.68024202e-002 1.30180705e+000
      -1.07516074e+000 5.16112518e+000 4.84041452e+000 2.45538878e+000
      -1.03849001e-001 1.19434869e+000 1.02190149e+000 2.97354507e+000
      1.99300981e+000 6.24853671e-001 8.21726024e-001 1.90520990e+000
      -4.48848575e-001 9.76758480e-001 -4.70358104e-001 -5.58274209e-001
      3.27830243e+000 1.25903308e+000 1.19314575e+000 1.23626530e+000
      4.73999321e-001 1.72254229e+000 3.54037905e+000 2.13312173e+000
      1.61786348e-001 -1.08074141e+000 3.41031337e+000 -4.14764695e-003
      2.37309194e+000 6.53221428e-001</_>
    <_>
      -6.22986615e-001 -7.68258199e-002 -5.86278021e-001
      -8.17116737e-001 -3.08819860e-001 -5.23949444e-001
      -6.32555842e-001 -1.02958906e+000 -4.00235534e-001
      -5.17875552e-001 -3.80346388e-001 -8.65159333e-001
      -5.23072302e-001 -5.68596244e-001 -6.75513864e-001
      -9.06135142e-001 4.37719822e-001 -9.02362645e-001 -5.73192000e-001
      -8.35087717e-001 -4.61150169e-001 -5.33324480e-002
      -4.48307961e-001 -6.57809794e-001 -6.55402482e-001
      -5.64066172e-001 -6.22775018e-001 -3.85909200e-001
      -4.57033962e-001 -1.91212043e-001 -1.82839319e-001
      -5.46477258e-001 -4.48848575e-001 -7.58894145e-001
      -6.08971655e-001 -1.00008714e+000 -3.65949988e-001
      -5.88653147e-001 -6.43645465e-001 -8.17629218e-001
      -1.94353700e-001 -4.78995740e-001 -6.17609084e-001
      -6.39292002e-001 -8.14019218e-002 -7.70660758e-001 2.06044182e-001
      -3.34577918e-001 -6.35762095e-001 -9.53501523e-001</_>
    <_>
      -6.22986615e-001 -7.68258199e-002 -5.86278021e-001 1.28731108e+000
      1.28415751e+000 -5.23949444e-001 -6.32555842e-001 1.13526547e+000
      -2.65781321e-002 -3.40805084e-001 -1.01381528e+000
      -8.65159333e-001 -3.31626236e-001 -5.68596244e-001 2.30812120e+000
      1.66184461e+000 2.42542520e-001 -9.02362645e-001 -5.73192000e-001
      -8.35087717e-001 -1.07516074e+000 -6.32716596e-001
      -5.65507337e-002 -3.51700634e-002 -4.71551299e-001 6.08210444e-001
      -2.11605892e-001 -6.91314101e-001 -2.52863646e-001
      -5.99244893e-001 -6.85122013e-001 -1.00715943e-001
      -8.17490518e-001 -1.80343270e-001 -6.08971655e-001 7.67164767e-001
      -8.21481526e-001 -5.88653147e-001 -6.43645465e-001
      -2.30802238e-001 -5.28530180e-001 -2.03803480e-001 8.67386699e-001
      2.84845829e-001 -5.67778468e-001 -1.08074141e+000 -1.31247297e-001
      3.26282620e-001 8.68664980e-001 -9.53501523e-001</_>
    <_>
      -6.22986615e-001 1.36678562e-001 -5.86278021e-001 -3.96231174e-001
      -5.74316084e-001 -5.23949444e-001 1.30020916e-001 -6.68779969e-001
      -4.00235534e-001 -3.40805084e-001 -6.36119619e-002
      -8.65159333e-001 -3.31626236e-001 -3.86919111e-001 9.82061088e-001
      -9.06135142e-001 6.32897139e-001 -8.44182596e-002 -5.73192000e-001
      -8.35087717e-001 -4.61150169e-001 -5.33324480e-002 1.31459951e+000
      2.76149809e-001 -6.55402482e-001 -5.64066172e-001 -6.22775018e-001
      5.30305624e-001 3.59647304e-001 -1.91212043e-001 -1.82839319e-001
      -3.23596597e-001 -8.17490518e-001 -1.80343270e-001
      -6.08971655e-001 -1.16461217e-001 -3.65949988e-001
      -5.88653147e-001 -6.43645465e-001 -8.17629218e-001
      -5.28530180e-001 -7.54188001e-001 1.46138501e+000 -3.31246078e-001
      -5.67778468e-001 -7.70660758e-001 3.73984426e-002 -6.65008187e-001
      -3.34876686e-001 -4.17927235e-001</_>
    <_>
      -6.22986615e-001 -7.68258199e-002 -5.86278021e-001
      -8.17116737e-001 -3.08819860e-001 -3.77830505e-001
      -4.41911668e-001 -1.02958906e+000 -4.00235534e-001
      -5.17875552e-001 2.53122479e-001 -8.65159333e-001 -5.23072302e-001
      -3.86919111e-001 -6.75513864e-001 -9.06135142e-001
      -1.47812083e-001 1.00617421e+000 -4.41594630e-001 -8.35087717e-001
      -7.68155456e-001 -6.32716596e-001 -4.48307961e-001
      -6.57809794e-001 -6.55402482e-001 -5.64066172e-001
      -6.22775018e-001 -8.05042610e-002 -4.86933291e-002
      -5.99244893e-001 -1.82839319e-001 -5.46477258e-001
      -4.48848575e-001 -7.58894145e-001 -6.08971655e-001
      -1.00008714e+000 -3.65949988e-001 -8.52608323e-001
      -1.84447676e-001 -8.17629218e-001 -1.94353700e-001
      -7.54188001e-001 -6.17609084e-001 -9.47337985e-001 6.48162842e-001
      -4.60580081e-001 -2.99893022e-001 -3.34577918e-001
      -6.35762095e-001 9.21008587e-001</_>
    <_>
      2.92880386e-001 -7.68258199e-002 -5.86278021e-001 -8.17116737e-001
      -3.08819860e-001 -3.77830505e-001 -2.51267463e-001 1.49607444e+000
      -4.00235534e-001 -3.40805084e-001 -6.97080851e-001
      -3.41683179e-001 -3.31626236e-001 -5.68596244e-001
      -1.24838669e-002 2.08984113e+000 4.73652221e-002 -8.44182596e-002
      -4.68024202e-002 -4.07708764e-001 -1.54144928e-001 3.32923651e-001
      5.31085074e-001 -3.46489906e-001 4.47704464e-001 9.01279628e-001
      -2.11605892e-001 -6.91314101e-001 -4.86933291e-002
      -1.91212043e-001 -1.82839319e-001 -5.46477258e-001
      -8.02066028e-002 -7.58894145e-001 1.05439103e+000 -5.58274209e-001
      -3.65949988e-001 -6.07427992e-002 -1.84447676e-001
      -5.24215698e-001 -5.28530180e-001 7.13887811e-002 -2.36107837e-002
      -9.47337985e-001 -3.24590176e-001 1.59581274e-001 -1.31247297e-001
      -3.34577918e-001 -6.35762095e-001 -6.85714364e-001</_>
    <_>
      -6.22986615e-001 -7.68258199e-002 -7.67491162e-002
      -8.17116737e-001 2.22172588e-001 -2.31711581e-001 -4.41911668e-001
      -6.68779969e-001 -4.00235534e-001 1.90406322e-001 -3.80346388e-001
      -8.65159333e-001 -3.31626236e-001 -3.86919111e-001
      -3.43998849e-001 -9.06135142e-001 -1.47812083e-001
      -9.02362645e-001 -3.09997231e-001 -8.35087717e-001
      -4.61150169e-001 -4.39588547e-001 -4.48307961e-001
      -6.57809794e-001 -6.55402482e-001 -8.57135296e-001
      -6.22775018e-001 -3.85909200e-001 1.55476987e-001 -5.99244893e-001
      -6.85122013e-001 5.67926049e-001 -8.17490518e-001 -1.80343270e-001
      -6.08971655e-001 -1.00008714e+000 5.45113087e-001 -8.52608323e-001
      -6.43645465e-001 -5.24215698e-001 -5.28530180e-001
      -7.54188001e-001 -2.36107837e-002 -2.32001133e-002 8.91351104e-001
      -7.70660758e-001 3.74689937e-001 -6.65008187e-001 -6.35762095e-001
      -6.85714364e-001</_>
    <_>
      1.86293805e+000 3.50182921e-001 2.98042417e+000 1.70819664e+000
      2.22172588e-001 -8.55926573e-002 2.41775131e+000 4.13647264e-001
      -2.65781321e-002 -1.63734615e-001 1.20332575e+000 2.27569771e+000
      -3.31626236e-001 7.03143775e-001 3.19031119e-001 -5.01418747e-002
      -1.47812083e-001 3.18735909e+000 8.47949833e-002 1.30180705e+000
      1.38088131e+000 4.77486897e+000 1.39327869e-001 2.45538878e+000
      1.55081141e+000 2.36662531e+000 6.10732377e-001 2.24900663e-001
      -4.57033962e-001 2.66501784e+000 1.32400870e+000 -3.23596597e-001
      2.13164520e+000 1.26603389e+000 3.27220798e+000 1.20897782e+000
      3.27830243e+000 1.25903308e+000 4.86672831e+000 9.42851722e-001
      1.81070542e+000 8.96965563e-001 2.73388386e-001 1.82507563e+000
      2.83685708e+000 4.50071096e+000 -1.31247297e-001 6.56712890e-001
      5.67779541e-001 3.59888029e+000</_>
    <_>
      -6.22986615e-001 -2.90330201e-001 -5.86278021e-001
      -3.96231174e-001 -3.08819860e-001 -5.23949444e-001 7.01953471e-001
      5.28381839e-002 -4.00235534e-001 1.33358510e-002 5.69856882e-001
      1.81793004e-001 -5.23072302e-001 -5.68596244e-001 -3.43998849e-001
      -9.06135142e-001 -3.42989385e-001 1.00617421e+000 -5.73192000e-001
      -4.07708764e-001 1.99489176e+000 -2.46460497e-001 -2.52429336e-001
      -3.46489906e-001 -6.55402482e-001 -8.57135296e-001
      -6.22775018e-001 -8.05042610e-002 -4.57033962e-001 2.16820821e-001
      3.19443345e-001 -3.23596597e-001 6.57077372e-001 -7.58894145e-001
      -6.08971655e-001 -1.00008714e+000 -3.65949988e-001
      -8.52608323e-001 -1.84447676e-001 -2.30802238e-001
      -5.28530180e-001 -4.78995740e-001 -2.36107837e-002
      -9.47337985e-001 -8.14019218e-002 4.69661951e-001 -1.31247297e-001
      -6.65008187e-001 -6.35762095e-001 3.86666751e+000</_>
    <_>
      -4.92148459e-001 4.62027025e+000 -7.67491162e-002 -8.17116737e-001
      2.34614253e+000 6.05262667e-002 2.98968387e+000 -1.02958906e+000
      -4.00235534e-001 8.98688138e-001 2.47026348e+000 -8.65159333e-001
      5.12658954e-002 1.58112332e-001 6.50546074e-001 -9.06135142e-001
      2.19431543e+000 4.60877985e-001 -3.09997231e-001 1.72918606e+000
      -1.54144928e-001 6.89927769e+000 7.19095755e+000 5.87469637e-001
      -4.71551299e-001 -8.57135296e-001 -6.22775018e-001 4.50056982e+000
      1.99300981e+000 1.03288651e+000 -6.85122013e-001 1.90520990e+000
      -8.17490518e-001 -4.69618708e-001 -5.45174442e-002
      -5.58274209e-001 5.45113087e-001 2.03212380e-001 1.19314575e+000
      -8.17629218e-001 4.73999321e-001 -7.54188001e-001 2.35238242e+000
      2.84845829e-001 1.37772763e+000 -1.50499403e-001 1.21791863e+000
      -4.14764695e-003 2.66894132e-001 -4.17927235e-001</_>
    <_>
      -2.30472177e-001 -5.03834546e-001 -5.86278021e-001
      -8.17116737e-001 -3.08819860e-001 2.06645191e-001 -6.32555842e-001
      -1.02958906e+000 -4.00235534e-001 1.90406322e-001 -1.01381528e+000
      -8.65159333e-001 2.42711961e-001 5.21466613e-001 -6.75513864e-001
      -9.06135142e-001 -3.42989385e-001 1.88229859e-001 -4.41594630e-001
      -4.07708764e-001 -1.07516074e+000 -6.32716596e-001
      -4.48307961e-001 -3.46489906e-001 -6.55402482e-001
      -5.64066172e-001 -6.22775018e-001 -8.05042610e-002 1.55476987e-001
      -5.99244893e-001 -6.85122013e-001 3.45045388e-001 -8.17490518e-001
      3.98207605e-001 -4.70358104e-001 -1.00008714e+000 -8.21481526e-001
      -5.88653147e-001 -6.43645465e-001 -5.24215698e-001
      -5.28530180e-001 -7.54188001e-001 -6.17609084e-001 2.84845829e-001
      -5.67778468e-001 -1.08074141e+000 -2.99893022e-001
      -3.34577918e-001 -3.34876686e-001 -6.85714364e-001</_>
    <_>
      -9.96340364e-002 3.50182921e-001 -5.86278021e-001 -3.96231174e-001
      -3.08819860e-001 1.08335876e+000 -4.41911668e-001 5.28381839e-002
      -4.00235534e-001 8.98688138e-001 -6.97080851e-001 -8.65159333e-001
      4.34158027e-001 8.84820879e-001 -1.24838669e-002 -9.06135142e-001
      4.73652221e-002 1.88229859e-001 3.47989768e-001 8.74428153e-001
      -1.07516074e+000 -5.33324480e-002 1.11872089e+000 -3.46489906e-001
      4.47704464e-001 6.08210444e-001 -2.11605892e-001 -8.05042610e-002
      5.63817620e-001 6.24853671e-001 -6.85122013e-001 1.22164719e-001
      -4.48848575e-001 6.87483072e-001 -6.08971655e-001 -1.00008714e+000
      -3.65949988e-001 7.31122732e-001 2.74750143e-001 -2.30802238e-001
      -5.28530180e-001 1.44735003e+000 -6.17609084e-001 1.20898366e+000
      -8.14019218e-002 -7.70660758e-001 3.74689937e-001 3.26282620e-001
      2.66894132e-001 1.18879569e+000</_>
    <_>
      -9.96340364e-002 3.12573981e+000 -7.67491162e-002 2.54996777e+000
      2.08064604e+000 9.37239826e-001 -6.32555842e-001 7.74456382e-001
      -4.00235534e-001 4.97130871e+000 -6.97080851e-001 -8.65159333e-001
      3.30584908e+000 2.51991510e+000 9.82061088e-001 -9.06135142e-001
      4.73162031e+000 -9.02362645e-001 6.11184597e-001 1.30180705e+000
      -1.07516074e+000 -6.32716596e-001 1.51047814e+000 2.76670885e+000
      -2.87700146e-001 -2.70996988e-001 6.10732377e-001 1.44652045e+000
      5.66807556e+000 -1.91212043e-001 -6.85122013e-001 3.68825531e+000
      -8.17490518e-001 3.86951280e+000 -3.31744552e-001 -5.58274209e-001
      -8.21481526e-001 7.31122732e-001 1.19314575e+000 6.26112595e-002
      -5.28530180e-001 -4.78995740e-001 1.75838411e+000 5.92891812e-001
      4.04974610e-001 -7.70660758e-001 7.45781088e+000 2.63929462e+000
      3.57663369e+000 -9.53501523e-001</_>
    <_>
      -6.22986615e-001 -5.03834546e-001 -7.67491162e-002
      -3.96231174e-001 2.22172588e-001 3.52764100e-001 -4.41911668e-001
      -6.68779969e-001 -4.00235534e-001 1.90406322e-001 -1.01381528e+000
      -8.65159333e-001 -1.40180171e-001 1.58112332e-001 -3.43998849e-001
      -9.06135142e-001 2.42542520e-001 -6.29714489e-001 -4.41594630e-001
      1.96701828e-002 -1.54144928e-001 -5.33324480e-002 -4.48307961e-001
      -6.57809794e-001 -6.55402482e-001 -8.57135296e-001
      -6.22775018e-001 -8.05042610e-002 1.17632854e+000 -5.99244893e-001
      -6.85122013e-001 7.90806711e-001 -8.17490518e-001 -1.80343270e-001
      -4.70358104e-001 -5.58274209e-001 -3.65949988e-001
      -5.88653147e-001 -6.43645465e-001 -5.24215698e-001 1.39822811e-001
      -7.54188001e-001 2.73388386e-001 -6.39292002e-001 1.37772763e+000
      -7.70660758e-001 -1.31247297e-001 -4.14764695e-003
      -6.35762095e-001 -6.85714364e-001</_>
    <_>
      -2.30472177e-001 -5.03834546e-001 -5.86278021e-001 2.46543903e-002
      -3.08819860e-001 -8.55926573e-002 -6.32555842e-001
      -3.07970911e-001 -4.00235534e-001 1.25282907e+000 -1.01381528e+000
      -8.65159333e-001 1.00849617e+000 1.06649804e+000 -3.43998849e-001
      -4.78138506e-001 -3.42989385e-001 -9.02362645e-001 1.13757420e+000
      -8.35087717e-001 -1.07516074e+000 -6.32716596e-001
      -4.48307961e-001 -6.57809794e-001 -6.55402482e-001
      -8.57135296e-001 -6.22775018e-001 -6.91314101e-001 3.59647304e-001
      -5.99244893e-001 -6.85122013e-001 2.12809062e+000 -8.17490518e-001
      -1.80343270e-001 -3.31744552e-001 -1.00008714e+000
      -8.21481526e-001 2.03212380e-001 -6.43645465e-001 -8.17629218e-001
      -5.28530180e-001 -4.78995740e-001 -3.20609927e-001 2.84845829e-001
      -5.67778468e-001 -1.08074141e+000 5.43335676e-001 -4.14764695e-003
      -3.39912735e-002 -9.53501523e-001</_>
    <_>
      4.23718512e-001 9.90696013e-001 -7.67491162e-002 4.45539951e-001
      4.87668812e-001 2.10619116e+000 -6.32555842e-001 5.28381839e-002
      5.20462561e+000 5.44547260e-001 -3.80346388e-001 -8.65159333e-001
      8.17050099e-001 3.39789480e-001 -6.75513864e-001 8.05851400e-001
      4.37719822e-001 -9.02362645e-001 1.53236639e+000 8.74428153e-001
      -1.07516074e+000 -5.33324480e-002 1.39327869e-001 -3.51700634e-002
      2.65391827e+000 2.36662531e+000 -6.22775018e-001 -6.91314101e-001
      -2.52863646e-001 2.16820821e-001 -1.82839319e-001 5.67926049e-001
      -8.17490518e-001 1.08932175e-001 2.22709656e-001 -1.16461217e-001
      8.95815417e-002 1.78694344e+000 1.19314575e+000 -8.17629218e-001
      -1.94353700e-001 3.92408061e+000 -3.20609927e-001 -2.32001133e-002
      -5.67778468e-001 -1.08074141e+000 2.06044182e-001 9.87143159e-001
      -6.35762095e-001 -6.85714364e-001</_>
    <_>
      -6.22986615e-001 -5.03834546e-001 1.45183754e+000 -3.96231174e-001
      4.87668812e-001 -5.23949444e-001 -6.32555842e-001 -1.02958906e+000
      3.47079277e-001 -1.63734615e-001 5.69856882e-001 1.22874546e+000
      -5.23072302e-001 -5.68596244e-001 -6.75513864e-001 1.23384798e+000
      -5.38166702e-001 1.00617421e+000 -5.73192000e-001 4.47049141e-001
      -1.07516074e+000 -6.32716596e-001 -4.48307961e-001 2.76149809e-001
      -6.55402482e-001 -5.64066172e-001 1.02190149e+000 5.30305624e-001
      -2.52863646e-001 2.25698519e+000 3.33313966e+000 -5.46477258e-001
      1.39436126e+000 -4.69618708e-001 -6.08971655e-001 3.25351775e-001
      5.45113087e-001 -6.07427992e-002 7.33947992e-001 -5.24215698e-001
      2.47905850e+000 -2.03803480e-001 -2.36107837e-002 -3.31246078e-001
      -3.24590176e-001 -1.08074141e+000 3.73984426e-002 -6.65008187e-001
      -3.34876686e-001 3.06330585e+000</_>
    <_>
      -2.30472177e-001 1.20420039e+000 -5.86278021e-001 2.54996777e+000
      1.28415751e+000 -8.55926573e-002 -6.32555842e-001 -3.07970911e-001
      -4.00235534e-001 1.33358510e-002 -1.01381528e+000 -8.65159333e-001
      5.12658954e-002 -2.05241963e-001 1.64509118e+000 -9.06135142e-001
      6.32897139e-001 -9.02362645e-001 -3.09997231e-001 4.47049141e-001
      -1.07516074e+000 -6.32716596e-001 3.35206479e-001 2.76149809e-001
      -6.55402482e-001 -5.64066172e-001 6.10732377e-001 -3.85909200e-001
      -4.57033962e-001 -5.99244893e-001 -6.85122013e-001 1.01368737e+000
      -8.17490518e-001 -7.58894145e-001 -4.70358104e-001 4.30166864e+000
      -3.65949988e-001 -3.24697971e-001 -6.43645465e-001 6.26112595e-002
      -5.28530180e-001 -7.54188001e-001 2.64938140e+000 -6.39292002e-001
      -5.67778468e-001 -1.08074141e+000 5.43335676e-001 -6.65008187e-001
      -3.39912735e-002 -9.53501523e-001</_>
    <_>
      3.12041007e-002 5.26078367e+000 -5.86278021e-001 2.46543903e-002
      2.87713504e+000 2.06645191e-001 1.84581876e+000 -6.68779969e-001
      3.47079277e-001 4.61716795e+000 -1.01381528e+000 -8.65159333e-001
      1.39138830e+000 3.39789480e-001 6.50546074e-001 -4.78138506e-001
      5.90268421e+000 -9.02362645e-001 -4.68024202e-002 -8.35087717e-001
      -1.07516074e+000 4.00235701e+000 6.99507904e+000 4.01198816e+000
      8.15406740e-001 -2.70996988e-001 -6.22775018e-001 2.24900663e-001
      5.66807556e+000 6.24853671e-001 -6.85122013e-001 3.24249387e+000
      -8.17490518e-001 6.87483072e-001 -5.45174442e-002 -1.00008714e+000
      5.45113087e-001 4.67167556e-001 -6.43645465e-001 -8.17629218e-001
      -5.28530180e-001 7.13887811e-002 8.67386699e-001 -2.32001133e-002
      -3.24590176e-001 -1.08074141e+000 6.10864496e+000 1.97843397e+000
      1.77132118e+000 -9.53501523e-001</_>
    <_>
      -2.30472177e-001 1.36678562e-001 -5.86278021e-001 8.66425574e-001
      7.53165007e-001 -3.77830505e-001 -6.32555842e-001 1.49607444e+000
      -2.65781321e-002 -1.63734615e-001 8.86591315e-001 -8.65159333e-001
      -3.31626236e-001 -5.68596244e-001 -1.24838669e-002 1.66184461e+000
      4.73652221e-002 1.88229859e-001 -4.41594630e-001 -8.35087717e-001
      1.07387614e+000 -2.46460497e-001 3.35206479e-001 -3.51700634e-002
      1.18310905e+000 1.78048706e+000 -2.11605892e-001 5.30305624e-001
      -4.57033962e-001 -5.99244893e-001 -6.85122013e-001
      -5.46477258e-001 1.39436126e+000 -1.80343270e-001 -1.93131000e-001
      1.20897782e+000 -3.65949988e-001 -3.24697971e-001 2.74750143e-001
      6.26112595e-002 -1.94353700e-001 7.13887811e-002 -2.36107837e-002
      1.82507563e+000 -3.24590176e-001 -4.60580081e-001 -2.99893022e-001
      -4.14764695e-003 -3.39912735e-002 -1.50140077e-001</_>
    <_>
      2.38629079e+000 -2.90330201e-001 -7.67491162e-002 2.46543903e-002
      -3.08819860e-001 1.22947776e+000 1.30020916e-001 4.13647264e-001
      -4.00235534e-001 -5.17875552e-001 -6.97080851e-001
      -8.65159333e-001 2.42711961e-001 5.21466613e-001 1.31357610e+000
      -9.06135142e-001 -1.47812083e-001 2.09676671e+000 1.40076900e+000
      -4.07708764e-001 -7.68155456e-001 -4.39588547e-001
      -4.48307961e-001 5.87469637e-001 -6.55402482e-001 -8.57135296e-001
      -2.11605892e-001 2.24900663e-001 -4.57033962e-001 2.16820821e-001
      -1.82839319e-001 1.22164719e-001 -8.17490518e-001 1.55530930e+000
      1.33161819e+000 -1.00008714e+000 8.95815417e-002 -5.88653147e-001
      -6.43645465e-001 3.56024742e-001 1.39822811e-001 -4.78995740e-001
      -2.36107837e-002 9.00937736e-001 1.61786348e-001 -4.60580081e-001
      -2.99893022e-001 -3.34577918e-001 -6.35762095e-001
      -1.50140077e-001</_>
    <_>
      -9.96340364e-002 -5.03834546e-001 -5.86278021e-001
      -8.17116737e-001 -5.74316084e-001 3.52764100e-001 1.65517449e+000
      -3.07970911e-001 -4.00235534e-001 3.67476791e-001 -1.01381528e+000
      -8.65159333e-001 -5.23072302e-001 -2.35648155e-002
      -1.24838669e-002 -9.06135142e-001 -5.38166702e-001 1.00617421e+000
      1.00597680e+000 4.47049141e-001 1.52860329e-001 7.19179749e-001
      -4.48307961e-001 -6.57809794e-001 -6.55402482e-001
      -2.70996988e-001 -2.11605892e-001 -8.05042610e-002
      -4.57033962e-001 -5.99244893e-001 -1.82839319e-001
      -3.23596597e-001 -8.02066028e-002 -7.58894145e-001
      -3.31744552e-001 -1.16461217e-001 -3.65949988e-001 7.31122732e-001
      -6.43645465e-001 6.26112595e-002 1.39822811e-001 -7.54188001e-001
      -6.17609084e-001 -2.32001133e-002 4.04974610e-001 7.79742658e-001
      -4.68538761e-001 6.56712890e-001 -6.35762095e-001 3.85434240e-001</_>
    <_>
      1.60126173e+000 -7.68258199e-002 4.32779759e-001 -8.17116737e-001
      1.28415751e+000 -2.31711581e-001 1.30020916e-001 1.49607444e+000
      1.84170890e+000 -1.63734615e-001 2.53122479e-001 -3.41683179e-001
      -5.23072302e-001 -2.05241963e-001 6.50546074e-001 -4.78138506e-001
      -1.47812083e-001 1.55147040e+000 3.47989768e-001 8.74428153e-001
      7.66870856e-001 -6.32716596e-001 -4.48307961e-001 5.87469637e-001
      2.28621602e+000 2.20721532e-002 1.02190149e+000 -3.85909200e-001
      -4.57033962e-001 1.84895217e+000 3.19443345e-001 -1.00715943e-001
      6.57077372e-001 9.76758480e-001 1.88607240e+000 -1.16461217e-001
      -3.65949988e-001 7.31122732e-001 7.33947992e-001 6.49438262e-001
      1.47652888e+000 7.13887811e-002 -2.36107837e-002 -2.32001133e-002
      4.04974610e-001 4.69661951e-001 -4.68538761e-001 3.26282620e-001
      2.66894132e-001 2.52773166e+000</_>
    <_>
      -6.22986615e-001 5.63687325e-001 -7.67491162e-002 2.46543903e-002
      7.53165007e-001 -8.55926573e-002 -4.41911668e-001 -1.02958906e+000
      -4.00235534e-001 -3.40805084e-001 -6.97080851e-001
      -8.65159333e-001 4.34158027e-001 7.03143775e-001 -3.43998849e-001
      -9.06135142e-001 1.02325165e+000 -9.02362645e-001 -4.68024202e-002
      -8.35087717e-001 -1.07516074e+000 -6.32716596e-001 5.31085074e-001
      -3.51700634e-002 -6.55402482e-001 -8.57135296e-001
      -6.22775018e-001 -3.85909200e-001 1.17632854e+000 2.16820821e-001
      -1.82839319e-001 1.22164719e-001 -8.17490518e-001 -4.69618708e-001
      -6.08971655e-001 -1.00008714e+000 8.95815417e-002 -5.88653147e-001
      2.74750143e-001 -8.17629218e-001 -5.28530180e-001 -7.54188001e-001
      2.73388386e-001 -2.32001133e-002 -3.24590176e-001 -1.08074141e+000
      3.73984426e-002 -4.14764695e-003 2.66894132e-001 -9.53501523e-001</_>
    <_>
      -6.22986615e-001 -5.03834546e-001 -5.86278021e-001 2.46543903e-002
      2.22172588e-001 -5.23949444e-001 -6.32555842e-001 -1.02958906e+000
      -4.00235534e-001 -5.17875552e-001 -1.01381528e+000
      -8.65159333e-001 -5.23072302e-001 -5.68596244e-001
      -1.24838669e-002 -9.06135142e-001 4.73652221e-002 -9.02362645e-001
      -5.73192000e-001 -4.07708764e-001 -1.07516074e+000
      -4.39588547e-001 -4.48307961e-001 -6.57809794e-001
      -2.87700146e-001 -5.64066172e-001 -6.22775018e-001
      -6.91314101e-001 -4.57033962e-001 -1.91212043e-001
      -6.85122013e-001 -5.46477258e-001 -8.17490518e-001
      -7.58894145e-001 -6.08971655e-001 -5.58274209e-001
      -8.21481526e-001 -8.52608323e-001 -6.43645465e-001
      -5.24215698e-001 -5.28530180e-001 -2.03803480e-001
      -6.17609084e-001 -9.47337985e-001 -3.24590176e-001
      -4.60580081e-001 -2.99893022e-001 -6.65008187e-001
      -3.39912735e-002 -9.53501523e-001</_>
    <_>
      -9.96340364e-002 3.50182921e-001 9.42308605e-001 -8.17116737e-001
      2.22172588e-001 -5.23949444e-001 1.30020916e-001 -6.68779969e-001
      2.58902359e+000 1.90406322e-001 -6.36119619e-002 1.75222158e+000
      -3.31626236e-001 -5.68596244e-001 -1.24838669e-002 8.05851400e-001
      -3.42989385e-001 1.88229859e-001 -5.73192000e-001 -4.07708764e-001
      -4.61150169e-001 -6.32716596e-001 -2.52429336e-001
      -3.51700634e-002 1.18310905e+000 9.01279628e-001 6.10732377e-001
      2.24900663e-001 3.59647304e-001 1.03288651e+000 3.19443345e-001
      3.45045388e-001 2.88435370e-001 -4.69618708e-001 8.40961039e-002
      3.25351775e-001 1.45617616e+000 -5.88653147e-001 7.33947992e-001
      9.42851722e-001 1.47652888e+000 6.21773303e-001 -2.36107837e-002
      -6.39292002e-001 -3.24590176e-001 -7.70660758e-001
      -1.31247297e-001 -3.34577918e-001 -3.39912735e-002 1.17647089e-001</_>
    <_>
      -6.22986615e-001 -2.90330201e-001 -5.86278021e-001 4.45539951e-001
      -5.74316084e-001 -3.77830505e-001 -4.41911668e-001
      -6.68779969e-001 -4.00235534e-001 -3.40805084e-001
      -3.80346388e-001 7.05269217e-001 -5.23072302e-001 -5.68596244e-001
      6.50546074e-001 3.77854764e-001 -3.42989385e-001 -8.44182596e-002
      -5.73192000e-001 -4.07708764e-001 7.66870856e-001 -5.33324480e-002
      -2.52429336e-001 -3.51700634e-002 -6.55402482e-001
      -2.70996988e-001 1.99563250e-001 -3.85909200e-001 -4.57033962e-001
      6.24853671e-001 3.19443345e-001 -5.46477258e-001 6.57077372e-001
      -4.69618708e-001 -6.08971655e-001 1.20897782e+000 1.45617616e+000
      -8.52608323e-001 -1.84447676e-001 -8.17629218e-001 1.14235234e+000
      -4.78995740e-001 -3.20609927e-001 -9.47337985e-001 1.61786348e-001
      -1.50499403e-001 -4.68538761e-001 -6.65008187e-001
      -3.34876686e-001 -1.50140077e-001</_>
    <_>
      3.12041007e-002 -5.03834546e-001 -5.86278021e-001 8.66425574e-001
      -4.33236398e-002 4.98883039e-001 -6.32555842e-001 -6.68779969e-001
      -4.00235534e-001 -5.17875552e-001 -1.01381528e+000
      -8.65159333e-001 2.42711961e-001 7.03143775e-001 -3.43998849e-001
      -5.01418747e-002 -5.38166702e-001 -9.02362645e-001 8.47949833e-002
      -4.07708764e-001 -1.07516074e+000 -6.32716596e-001
      -4.48307961e-001 -3.46489906e-001 -6.55402482e-001 2.20721532e-002
      1.84423971e+000 -6.91314101e-001 -4.57033962e-001 -5.99244893e-001
      -6.85122013e-001 3.45045388e-001 -8.17490518e-001 1.26603389e+000
      -1.93131000e-001 -1.16461217e-001 -8.21481526e-001 7.31122732e-001
      -6.43645465e-001 -5.24215698e-001 -5.28530180e-001
      -4.78995740e-001 -6.17609084e-001 -3.31246078e-001
      -5.67778468e-001 -1.08074141e+000 -2.99893022e-001
      -4.14764695e-003 -3.39912735e-002 -9.53501523e-001</_>
    <_>
      -6.22986615e-001 -5.03834546e-001 -5.86278021e-001
      -8.17116737e-001 -4.33236398e-002 -5.23949444e-001
      -6.32555842e-001 -1.02958906e+000 -4.00235534e-001 1.90406322e-001
      -1.01381528e+000 -8.65159333e-001 -5.23072302e-001
      -5.68596244e-001 3.19031119e-001 -9.06135142e-001 -1.47812083e-001
      -9.02362645e-001 -4.41594630e-001 -8.35087717e-001
      -7.68155456e-001 -6.32716596e-001 -4.48307961e-001
      -3.46489906e-001 -4.71551299e-001 -5.64066172e-001
      -6.22775018e-001 -6.91314101e-001 -4.57033962e-001
      -5.99244893e-001 -6.85122013e-001 -5.46477258e-001
      -8.17490518e-001 -7.58894145e-001 -6.08971655e-001
      -5.58274209e-001 -3.65949988e-001 -8.52608323e-001
      -1.84447676e-001 -5.24215698e-001 -5.28530180e-001
      -4.78995740e-001 -2.36107837e-002 -9.47337985e-001
      -3.24590176e-001 1.59581274e-001 -4.68538761e-001 -6.65008187e-001
      -3.34876686e-001 -9.53501523e-001</_>
    <_>
      -3.61310333e-001 1.36678562e-001 1.96136642e+000 -3.96231174e-001
      2.22172588e-001 -2.31711581e-001 2.79903960e+000 1.49607444e+000
      2.96268106e+000 3.67476791e-001 3.10373235e+000 2.27569771e+000
      -3.31626236e-001 -2.35648155e-002 -6.75513864e-001 3.37383103e+000
      4.73652221e-002 7.33526111e-001 -3.09997231e-001 1.30180705e+000
      2.60890222e+000 1.68482006e+000 -5.65507337e-002 -3.51700634e-002
      8.00021514e-002 1.19434869e+000 2.25540876e+000 8.35710526e-001
      3.59647304e-001 2.66501784e+000 4.33770514e+000 -1.00715943e-001
      2.13164520e+000 -1.80343270e-001 -3.31744552e-001 3.25351775e-001
      4.18936539e+000 7.31122732e-001 3.48913479e+000 2.40991926e+000
      4.81829405e+000 1.72254229e+000 1.75838411e+000 -3.31246078e-001
      2.35048056e+000 7.79742658e-001 -1.31247297e-001 1.31757343e+000
      -3.34876686e-001 2.52773166e+000</_>
    <_>
      -3.61310333e-001 4.62027025e+000 4.32779759e-001 2.54996777e+000
      2.61163878e+000 6.05262667e-002 3.20665091e-001 -6.68779969e-001
      7.20736682e-001 -1.63734615e-001 5.69856882e-001 7.05269217e-001
      5.12658954e-002 1.58112332e-001 1.09275103e+001 1.23384798e+000
      3.56055665e+000 -3.57066393e-001 8.47949833e-002 1.72918606e+000
      4.59865600e-001 7.19179749e-001 1.31459951e+000 5.87469637e-001
      8.00021514e-002 6.08210444e-001 3.07774711e+000 1.14111543e+000
      9.72158194e-001 6.24853671e-001 -6.85122013e-001 7.90806711e-001
      2.88435370e-001 1.08932175e-001 -3.31744552e-001 5.18529463e+000
      -3.65949988e-001 -3.24697971e-001 7.33947992e-001 6.26112595e-002
      -5.28530180e-001 8.96965563e-001 8.88636398e+000 -3.31246078e-001
      4.04974610e-001 1.59581274e-001 8.80627155e-001 3.26282620e-001
      8.68664980e-001 -9.53501523e-001</_>
    <_>
      2.92880386e-001 -7.68258199e-002 -5.86278021e-001 -3.96231174e-001
      -3.08819860e-001 -2.31711581e-001 1.27388608e+000 4.13647264e-001
      3.47079277e-001 -3.40805084e-001 2.53122479e-001 -3.41683179e-001
      -5.23072302e-001 1.06649804e+000 -1.24838669e-002 3.77854764e-001
      4.73652221e-002 1.88229859e-001 8.47949833e-002 -4.07708764e-001
      -7.68155456e-001 1.49169195e+000 3.35206479e-001 -6.57809794e-001
      1.55081141e+000 9.01279628e-001 -2.11605892e-001 5.30305624e-001
      -2.52863646e-001 -1.91212043e-001 -6.85122013e-001
      -1.00715943e-001 2.88435370e-001 1.08932175e-001 6.38550341e-001
      -5.58274209e-001 -3.65949988e-001 7.31122732e-001 -1.84447676e-001
      -5.24215698e-001 -1.94353700e-001 6.21773303e-001 -3.20609927e-001
      2.84845829e-001 6.48162842e-001 -7.70660758e-001 -4.68538761e-001
      -6.65008187e-001 2.66894132e-001 -1.50140077e-001</_>
    <_>
      -4.92148459e-001 3.50182921e-001 -5.86278021e-001 -3.96231174e-001
      -5.74316084e-001 -3.77830505e-001 3.94290471e+000 2.21769261e+000
      1.84170890e+000 -3.40805084e-001 5.69856882e-001 1.81793004e-001
      5.12658954e-002 -2.05241963e-001 -6.75513864e-001 1.23384798e+000
      6.32897139e-001 1.27882230e+000 -5.73192000e-001 1.96701828e-002
      -7.68155456e-001 1.87794805e+000 1.70635676e+000 -3.46489906e-001
      2.83776951e+000 1.48741782e+000 3.48891640e+000 -6.91314101e-001
      -2.52863646e-001 -1.91212043e-001 3.83542228e+000 -5.46477258e-001
      2.13164520e+000 -1.80343270e-001 -1.93131000e-001 3.25351775e-001
      5.45113087e-001 -6.07427992e-002 7.33947992e-001 2.70333266e+000
      1.39822811e-001 1.72254229e+000 -6.17609084e-001 -3.31246078e-001
      4.04974610e-001 -7.70660758e-001 -4.68538761e-001 -6.65008187e-001
      -6.35762095e-001 -6.85714364e-001</_>
    <_>
      -6.22986615e-001 7.77191699e-001 1.45183754e+000 2.54996777e+000
      -4.33236398e-002 -2.31711581e-001 7.01953471e-001 5.10416555e+000
      1.46805143e+000 1.90406322e-001 2.53122479e-001 7.05269217e-001
      -5.23072302e-001 -2.35648155e-002 -6.75513864e-001 2.08984113e+000
      4.37719822e-001 1.82411861e+000 -5.73192000e-001 1.30180705e+000
      -1.54144928e-001 3.32923651e-001 -5.65507337e-002 -3.51700634e-002
      2.10236478e+000 6.08210444e-001 1.84423971e+000 -8.05042610e-002
      7.67987907e-001 2.66501784e+000 8.21726024e-001 -1.00715943e-001
      1.76300323e+000 -4.69618708e-001 -3.31744552e-001 7.67164767e-001
      2.36723924e+000 -3.24697971e-001 3.02993703e+000 3.58357310e+000
      1.81070542e+000 2.27292705e+000 -3.20609927e-001 2.84845829e-001
      4.04974610e-001 1.59581274e-001 5.43335676e-001 -3.34577918e-001
      -3.34876686e-001 -1.50140077e-001</_>
    <_>
      -4.92148459e-001 -5.03834546e-001 1.45183754e+000 2.54996777e+000
      -3.08819860e-001 -5.23949444e-001 -2.51267463e-001 1.49607444e+000
      1.46805143e+000 -3.40805084e-001 5.69856882e-001 1.81793004e-001
      -3.31626236e-001 -2.05241963e-001 3.19031119e-001 3.77854764e-001
      -3.42989385e-001 1.88229859e-001 -5.73192000e-001 1.96701828e-002
      1.52860329e-001 -5.33324480e-002 -5.65507337e-002 -3.46489906e-001
      4.47704464e-001 3.83197117e+000 1.02190149e+000 -3.85909200e-001
      -4.86933291e-002 1.03288651e+000 -1.82839319e-001 3.45045388e-001
      6.57077372e-001 -4.69618708e-001 2.22709656e-001 2.53441668e+000
      8.95815417e-002 -6.07427992e-002 1.65234351e+000 1.23626530e+000
      4.73999321e-001 1.72254229e+000 5.70387542e-001 -3.31246078e-001
      -5.67778468e-001 -1.08074141e+000 2.06044182e-001 -6.65008187e-001
      -3.34876686e-001 3.85434240e-001</_>
    <_>
      1.73209989e+000 1.36678562e-001 2.47089529e+000 8.66425574e-001
      -4.33236398e-002 -8.55926573e-002 -4.41911668e-001 1.13526547e+000
      -2.65781321e-002 -1.63734615e-001 2.53122479e-001 5.94003105e+000
      -3.31626236e-001 -2.35648155e-002 9.82061088e-001 2.08984113e+000
      -3.42989385e-001 4.60877985e-001 -4.68024202e-002 2.58394384e+000
      1.52860329e-001 3.32923651e-001 -2.52429336e-001 -3.51700634e-002
      1.91851366e+000 2.65969443e+000 1.02190149e+000 1.14111543e+000
      -4.57033962e-001 4.70518208e+000 1.82629144e+000 1.22164719e-001
      1.02571929e+000 1.84458470e+000 3.27220798e+000 1.65079081e+000
      1.45617616e+000 -3.24697971e-001 2.57073927e+000 6.49438262e-001
      2.81323504e+000 5.30004168e+000 -2.36107837e-002 1.82507563e+000
      -5.67778468e-001 1.70998478e+000 -2.99893022e-001 1.64800370e+000
      5.67779541e-001 9.21008587e-001</_>
    <_>
      -9.96340364e-002 -7.68258199e-002 -7.67491162e-002 1.70819664e+000
      -5.74316084e-001 -3.77830505e-001 -4.41911668e-001 4.13647264e-001
      -4.00235534e-001 -1.63734615e-001 5.69856882e-001 7.05269217e-001
      -1.40180171e-001 5.21466613e-001 3.19031119e-001 1.23384798e+000
      -1.47812083e-001 -6.29714489e-001 2.16392383e-001 1.30180705e+000
      4.59865600e-001 -5.33324480e-002 1.39327869e-001 2.76149809e-001
      2.63853312e-001 1.78048706e+000 -2.11605892e-001 -6.91314101e-001
      -2.52863646e-001 -1.91212043e-001 -6.85122013e-001
      -5.46477258e-001 2.88435370e-001 -4.69618708e-001 1.19300461e+000
      3.25351775e-001 -8.21481526e-001 -5.88653147e-001 -6.43645465e-001
      6.26112595e-002 1.39822811e-001 3.46581042e-001 -6.17609084e-001
      -6.39292002e-001 -5.67778468e-001 1.59581274e-001 -1.31247297e-001
      -6.65008187e-001 -6.35762095e-001 -4.17927235e-001</_>
    <_>
      2.51712894e+000 -7.68258199e-002 -7.67491162e-002 1.70819664e+000
      4.87668812e-001 -8.55926573e-002 -6.32555842e-001 1.13526547e+000
      -4.00235534e-001 1.90406322e-001 -3.80346388e-001 1.22874546e+000
      5.12658954e-002 5.21466613e-001 -1.24838669e-002 -9.06135142e-001
      4.73652221e-002 1.88229859e-001 2.58514571e+000 -8.35087717e-001
      -1.54144928e-001 -6.32716596e-001 -4.48307961e-001 8.98789525e-001
      8.00021514e-002 -2.70996988e-001 4.31125450e+000 -8.05042610e-002
      -4.57033962e-001 -5.99244893e-001 -1.82839319e-001 5.67926049e-001
      2.88435370e-001 3.98207605e-001 7.77163863e-001 1.65079081e+000
      8.95815417e-002 2.05089855e+000 -1.84447676e-001 2.40991926e+000
      1.39822811e-001 1.17215776e+000 -3.20609927e-001 2.13312173e+000
      -5.67778468e-001 7.79742658e-001 -1.31247297e-001 1.31757343e+000
      2.37309194e+000 -4.17927235e-001</_>
    <_>
      -2.30472177e-001 5.63687325e-001 -7.67491162e-002 -8.17116737e-001
      -3.08819860e-001 -2.31711581e-001 -6.06232770e-002
      -6.68779969e-001 -4.00235534e-001 1.33358510e-002 -6.97080851e-001
      -8.65159333e-001 -3.31626236e-001 -5.68596244e-001
      -6.75513864e-001 1.66184461e+000 -5.38166702e-001 4.60877985e-001
      -3.09997231e-001 -8.35087717e-001 -1.54144928e-001 3.32923651e-001
      -2.52429336e-001 -6.57809794e-001 9.99257922e-001 2.20721532e-002
      -6.22775018e-001 -3.85909200e-001 -4.57033962e-001
      -1.91212043e-001 -1.82839319e-001 1.22164719e-001 -4.48848575e-001
      -7.58894145e-001 2.22709656e-001 -5.58274209e-001 -8.21481526e-001
      -3.24697971e-001 -1.84447676e-001 -5.24215698e-001
      -1.94353700e-001 1.44735003e+000 -6.17609084e-001 -6.39292002e-001
      -5.67778468e-001 -1.08074141e+000 2.06044182e-001 -6.65008187e-001
      -3.34876686e-001 -9.53501523e-001</_>
    <_>
      1.33958554e+000 -7.68258199e-002 4.32779759e-001 -3.96231174e-001
      4.87668812e-001 3.85961843e+000 1.27388608e+000 1.85688353e+000
      -4.00235534e-001 1.33358510e-002 2.15352893e+000 1.22874546e+000
      1.58283436e+000 2.51991510e+000 -6.75513864e-001 -9.06135142e-001
      4.73652221e-002 2.36941481e+000 2.32195091e+000 -4.07708764e-001
      7.52098656e+000 1.68482006e+000 -4.48307961e-001 5.87469637e-001
      8.00021514e-002 2.20721532e-002 1.02190149e+000 1.75192535e+000
      1.55476987e-001 1.03288651e+000 -6.85122013e-001 1.22164719e-001
      3.97485518e+000 1.55530930e+000 3.61323208e-001 -1.16461217e-001
      1.91170776e+000 2.03212380e-001 2.74750143e-001 1.52967882e+000
      1.14235234e+000 -4.78995740e-001 1.16438580e+000 -2.32001133e-002
      6.24149275e+000 4.19062996e+000 -1.31247297e-001 -3.34577918e-001
      5.67779541e-001 3.06330585e+000</_>
    <_>
      5.54556668e-001 -5.03834546e-001 9.42308605e-001 -3.96231174e-001
      -4.33236398e-002 2.10619116e+000 1.30020916e-001 7.74456382e-001
      1.46805143e+000 1.90406322e-001 2.53122479e-001 1.75222158e+000
      2.42711961e-001 1.06649804e+000 -6.75513864e-001 8.05851400e-001
      -1.47812083e-001 1.00617421e+000 1.40076900e+000 4.72083855e+000
      1.52860329e-001 1.10543585e+000 -5.65507337e-002 1.52142918e+000
      3.94087625e+000 6.08210444e-001 6.10732377e-001 5.30305624e-001
      -4.86933291e-002 1.03288651e+000 -6.85122013e-001 1.90520990e+000
      2.88435370e-001 9.76758480e-001 2.16329956e+000 7.67164767e-001
      1.91170776e+000 2.84276414e+000 3.94833279e+000 1.23626530e+000
      8.08175862e-001 1.99773455e+000 -3.20609927e-001 1.51702976e+000
      1.86410415e+000 1.08982337e+000 1.04927289e+000 6.56712890e-001
      8.68664980e-001 6.53221428e-001</_>
    <_>
      -6.22986615e-001 -7.68258199e-002 -5.86278021e-001
      -8.17116737e-001 2.22172588e-001 -5.23949444e-001 -6.32555842e-001
      -1.02958906e+000 -4.00235534e-001 1.33358510e-002 -1.01381528e+000
      -8.65159333e-001 -3.31626236e-001 -5.68596244e-001 3.19031119e-001
      -9.06135142e-001 2.42542520e-001 -9.02362645e-001 -5.73192000e-001
      -8.35087717e-001 -4.61150169e-001 -2.46460497e-001
      -5.65507337e-002 8.98789525e-001 -6.55402482e-001 -5.64066172e-001
      -6.22775018e-001 -6.91314101e-001 -2.52863646e-001
      -5.99244893e-001 -6.85122013e-001 -1.00715943e-001 2.88435370e-001
      6.87483072e-001 -6.08971655e-001 -1.16461217e-001 -8.21481526e-001
      -6.07427992e-002 2.74750143e-001 -8.17629218e-001 -5.28530180e-001
      -7.54188001e-001 1.46138501e+000 -6.39292002e-001 -8.14019218e-002
      1.70998478e+000 7.11981416e-001 3.26282620e-001 -3.34876686e-001
      -9.53501523e-001</_>
    <_>
      2.77880526e+000 -2.90330201e-001 -5.86278021e-001 -3.96231174e-001
      4.87668812e-001 1.81395340e+000 -6.32555842e-001 1.85688353e+000
      -4.00235534e-001 1.33358510e-002 -6.97080851e-001 1.75222158e+000
      1.19994223e+000 1.24817514e+000 6.50546074e-001 3.77854764e-001
      4.73652221e-002 -3.57066393e-001 4.03271723e+000 2.15656495e+000
      -4.61150169e-001 -6.32716596e-001 -4.48307961e-001 8.98789525e-001
      8.00021514e-002 -5.64066172e-001 6.10732377e-001 2.24900663e-001
      -2.52863646e-001 -5.99244893e-001 -1.82839319e-001 2.12809062e+000
      -8.02066028e-002 9.76758480e-001 6.38550341e-001 -1.16461217e-001
      -3.65949988e-001 2.57880902e+000 1.65234351e+000 1.23626530e+000
      -5.28530180e-001 3.46581042e-001 5.70387542e-001 1.82507563e+000
      -3.24590176e-001 -4.60580081e-001 -1.31247297e-001
      -4.14764695e-003 1.47043574e+000 -1.50140077e-001</_>
    <_>
      -6.22986615e-001 -7.68258199e-002 9.42308605e-001 2.46543903e-002
      2.22172588e-001 -3.77830505e-001 5.11309266e-001 -6.68779969e-001
      -4.00235534e-001 1.33358510e-002 2.53122479e-001 -8.65159333e-001
      -3.31626236e-001 -5.68596244e-001 -1.24838669e-002
      -9.06135142e-001 2.42542520e-001 -3.57066393e-001 -4.41594630e-001
      1.96701828e-002 -7.68155456e-001 1.39795601e-001 3.35206479e-001
      -3.46489906e-001 -6.55402482e-001 -8.57135296e-001
      -2.11605892e-001 2.05733037e+000 -2.52863646e-001 -5.99244893e-001
      8.21726024e-001 -3.23596597e-001 -8.17490518e-001 -7.58894145e-001
      -6.08971655e-001 -5.58274209e-001 8.95815417e-002 -5.88653147e-001
      -1.84447676e-001 3.56024742e-001 1.39822811e-001 -7.54188001e-001
      -3.20609927e-001 -3.31246078e-001 -5.67778468e-001
      -7.70660758e-001 3.73984426e-002 9.87143159e-001 -3.34876686e-001
      1.17647089e-001</_>
    <_>
      2.90964341e+000 -2.90330201e-001 -5.86278021e-001 8.66425574e-001
      4.87668812e-001 3.12902379e+000 7.01953471e-001 4.13647264e-001
      -4.00235534e-001 1.90406322e-001 8.86591315e-001 2.79917407e+000
      1.77428043e+000 1.79320657e+000 9.82061088e-001 -9.06135142e-001
      -1.47812083e-001 1.27882230e+000 2.19035339e+000 8.74428153e-001
      4.45093393e+000 1.87794805e+000 -2.52429336e-001 5.87469637e-001
      -1.03849001e-001 -8.57135296e-001 -2.11605892e-001 2.24900663e-001
      -4.86933291e-002 6.24853671e-001 -1.82839319e-001 1.22164719e-001
      5.81806517e+000 1.55530930e+000 9.15777445e-001 3.25351775e-001
      -3.65949988e-001 2.03212380e-001 7.33947992e-001 6.49438262e-001
      4.73999321e-001 -4.78995740e-001 1.46138501e+000 2.13312173e+000
      6.24149275e+000 2.33014607e+000 -4.68538761e-001 -3.34577918e-001
      1.77132118e+000 3.85434240e-001</_>
    <_>
      -2.30472177e-001 -2.90330201e-001 1.96136642e+000 2.46543903e-002
      -5.74316084e-001 -5.23949444e-001 1.08324182e+000 1.49607444e+000
      1.09439409e+000 -5.17875552e-001 4.05393553e+000 1.75222158e+000
      -3.31626236e-001 -3.86919111e-001 -6.75513864e-001 1.66184461e+000
      -3.42989385e-001 5.36854410e+000 -5.73192000e-001 1.96701828e-002
      1.52860329e-001 5.26051700e-001 -5.65507337e-002 -6.57809794e-001
      2.10236478e+000 -2.70996988e-001 4.31125450e+000 -3.85909200e-001
      -4.57033962e-001 1.84895217e+000 5.84455299e+000 -5.46477258e-001
      2.88435370e-001 1.08932175e-001 -3.31744552e-001 1.20897782e+000
      2.36723924e+000 -6.07427992e-002 -1.84447676e-001 3.56024742e-001
      5.48664665e+000 8.96965563e-001 -3.20609927e-001 -3.31246078e-001
      1.37772763e+000 -1.50499403e-001 -4.68538761e-001 -6.65008187e-001
      -6.35762095e-001 1.99215722e+000</_>
    <_>
      1.62042245e-001 -7.68258199e-002 -5.86278021e-001 4.45539951e-001
      -5.74316084e-001 -8.55926573e-002 -6.32555842e-001
      -1.02958906e+000 -2.65781321e-002 1.90406322e-001 -3.80346388e-001
      -8.65159333e-001 5.12658954e-002 5.21466613e-001 -3.43998849e-001
      2.51783776e+000 -1.47812083e-001 4.60877985e-001 -4.41594630e-001
      4.47049141e-001 -1.54144928e-001 -4.39588547e-001 -4.48307961e-001
      2.76149809e-001 4.47704464e-001 1.19434869e+000 -6.22775018e-001
      8.35710526e-001 1.55476987e-001 -5.99244893e-001 -1.82839319e-001
      1.45944870e+000 -4.48848575e-001 1.08932175e-001 2.22709656e-001
      3.25351775e-001 -3.65949988e-001 -6.07427992e-002 2.74750143e-001
      6.49438262e-001 -1.94353700e-001 8.96965563e-001 1.46138501e+000
      -2.32001133e-002 6.48162842e-001 1.70998478e+000 2.06044182e-001
      6.56712890e-001 1.16955042e+000 -1.50140077e-001</_>
    <_>
      4.23718512e-001 -7.68258199e-002 9.42308605e-001 -3.96231174e-001
      -3.08819860e-001 3.52764100e-001 1.30020916e-001 -6.68779969e-001
      3.47079277e-001 -5.17875552e-001 2.53122479e-001 1.81793004e-001
      -3.31626236e-001 -5.68596244e-001 -1.24838669e-002
      -4.78138506e-001 -5.38166702e-001 1.88229859e-001 2.16392383e-001
      -8.35087717e-001 1.07387614e+000 9.12307799e-001 1.39327869e-001
      -3.46489906e-001 9.99257922e-001 -2.70996988e-001 -2.11605892e-001
      1.44652045e+000 -2.52863646e-001 1.84895217e+000 3.19443345e-001
      -3.23596597e-001 -8.02066028e-002 -7.58894145e-001 1.33161819e+000
      -1.16461217e-001 8.95815417e-002 7.31122732e-001 2.74750143e-001
      6.26112595e-002 -5.28530180e-001 -2.03803480e-001 8.67386699e-001
      5.92891812e-001 6.48162842e-001 2.02006531e+000 -4.68538761e-001
      -3.34577918e-001 -3.34876686e-001 3.85434240e-001</_>
    <_>
      1.33958554e+000 -5.03834546e-001 3.99948192e+000 1.28731108e+000
      -5.74316084e-001 2.06645191e-001 1.84581876e+000 7.74456382e-001
      3.47079277e-001 1.33358510e-002 5.69856882e-001 3.84612632e+000
      2.42711961e-001 5.21466613e-001 9.82061088e-001 1.23384798e+000
      -3.42989385e-001 2.36941481e+000 1.00597680e+000 1.72918606e+000
      3.22291279e+000 3.03671646e+000 1.39327869e-001 8.98789525e-001
      2.63853312e-001 1.19434869e+000 -2.11605892e-001 1.44652045e+000
      -2.52863646e-001 2.66501784e+000 8.21726024e-001 -1.00715943e-001
      4.34349728e+000 1.55530930e+000 2.71775365e+000 7.67164767e-001
      1.45617616e+000 1.52298820e+000 7.33947992e-001 1.52967882e+000
      4.73999321e-001 2.54811931e+000 2.73388386e-001 1.82507563e+000
      3.80961013e+000 3.88054943e+000 -2.99893022e-001 2.30886436e+000
      -3.39912735e-002 6.53221428e-001</_>
    <_>
      -3.61310333e-001 3.50182921e-001 -5.86278021e-001 -3.96231174e-001
      -4.33236398e-002 -8.55926573e-002 -2.51267463e-001 5.28381839e-002
      -4.00235534e-001 -1.63734615e-001 -1.01381528e+000
      -3.41683179e-001 -5.23072302e-001 -5.68596244e-001
      -3.43998849e-001 -5.01418747e-002 -5.38166702e-001 4.60877985e-001
      -3.09997231e-001 -8.35087717e-001 1.52860329e-001 -6.32716596e-001
      1.39327869e-001 -3.51700634e-002 4.47704464e-001 9.01279628e-001
      -6.22775018e-001 -8.05042610e-002 3.59647304e-001 -5.99244893e-001
      -1.82839319e-001 -1.00715943e-001 -8.02066028e-002
      -4.69618708e-001 6.38550341e-001 -1.00008714e+000 -3.65949988e-001
      -6.07427992e-002 -1.84447676e-001 -2.30802238e-001
      -5.28530180e-001 6.21773303e-001 -6.17609084e-001 -9.47337985e-001
      -5.67778468e-001 -7.70660758e-001 3.73984426e-002 -3.34577918e-001
      -3.39912735e-002 -6.85714364e-001</_>
    <_>
      -6.22986615e-001 -2.90330201e-001 1.45183754e+000 2.46543903e-002
      -4.33236398e-002 -5.23949444e-001 5.11309266e-001 4.13647264e-001
      -4.00235534e-001 -5.17875552e-001 1.20332575e+000 -3.41683179e-001
      -5.23072302e-001 -3.86919111e-001 2.30812120e+000 2.08984113e+000
      -3.42989385e-001 1.00617421e+000 -4.41594630e-001 -4.07708764e-001
      -1.54144928e-001 -2.46460497e-001 -4.48307961e-001
      -3.51700634e-002 6.31555617e-001 1.19434869e+000 -2.11605892e-001
      2.24900663e-001 -4.57033962e-001 6.24853671e-001 -1.82839319e-001
      -1.00715943e-001 6.57077372e-001 -4.69618708e-001 8.40961039e-002
      3.25351775e-001 8.95815417e-002 2.03212380e-001 1.19314575e+000
      -2.30802238e-001 1.47652888e+000 3.46581042e-001 2.05538321e+000
      -3.31246078e-001 -3.24590176e-001 -1.50499403e-001
      -4.68538761e-001 -6.65008187e-001 -3.39912735e-002 1.45658290e+000</_>
    <_>
      -3.61310333e-001 7.77191699e-001 3.48995304e+000 1.28731108e+000
      1.81514990e+000 -8.55926573e-002 5.46805811e+000 1.85688353e+000
      2.58902359e+000 1.33358510e-002 4.68740463e+000 3.32265019e+000
      2.42711961e-001 3.39789480e-001 6.50546074e-001 4.65782118e+000
      8.28074396e-001 4.27795172e+000 4.79587168e-001 3.43870187e+000
      1.52860329e-001 2.26420426e+000 1.31459951e+000 1.21010935e+000
      6.31555617e-001 9.01279628e-001 2.25540876e+000 6.63840389e+000
      -4.57033962e-001 5.92928076e+000 2.83085680e+000 1.22164719e-001
      2.86892915e+000 2.42313552e+000 6.38550341e-001 7.67164767e-001
      4.64489698e+000 2.03212380e-001 2.11154127e+000 9.42851722e-001
      5.15247059e+000 1.17215776e+000 1.75838411e+000 3.05725956e+000
      1.61786348e-001 -1.50499403e-001 -2.99893022e-001 9.87143159e-001
      1.47043574e+000 3.86666751e+000</_>
    <_>
      2.25545263e+000 -5.03834546e-001 -7.67491162e-002 8.66425574e-001
      -5.74316084e-001 3.27514267e+000 1.84581876e+000 1.49607444e+000
      -4.00235534e-001 -1.63734615e-001 -3.80346388e-001 7.05269217e-001
      1.58283436e+000 2.33823800e+000 2.63963604e+000 -4.78138506e-001
      -5.38166702e-001 -8.44182596e-002 1.40076900e+000 -8.35087717e-001
      2.60890222e+000 2.26420426e+000 -5.65507337e-002 1.21010935e+000
      -2.87700146e-001 2.20721532e-002 1.43307066e+000 5.30305624e-001
      3.59647304e-001 2.16820821e-001 8.21726024e-001 3.45045388e-001
      2.13164520e+000 2.42313552e+000 1.19300461e+000 1.65079081e+000
      5.45113087e-001 7.31122732e-001 1.19314575e+000 6.49438262e-001
      8.08175862e-001 -4.78995740e-001 1.75838411e+000 2.44116759e+000
      4.53917503e+000 2.64022684e+000 5.43335676e-001 6.56712890e-001
      8.68664980e-001 1.17647089e-001</_>
    <_>
      3.12041007e-002 6.11480093e+000 -7.67491162e-002 -8.17116737e-001
      7.53165007e-001 3.12902379e+000 1.27388608e+000 -3.07970911e-001
      1.46805143e+000 5.50252056e+000 -1.01381528e+000 -8.65159333e-001
      5.02886343e+000 4.70004082e+000 -6.75513864e-001 -9.06135142e-001
      5.31715250e+000 -9.02362645e-001 3.47989768e-001 -4.07708764e-001
      -1.07516074e+000 1.87794805e+000 5.62392855e+000 -3.51700634e-002
      4.47704464e-001 -5.64066172e-001 -6.22775018e-001 -8.05042610e-002
      7.09726763e+000 6.24853671e-001 -6.85122013e-001 5.91706181e+000
      -8.17490518e-001 -1.80343270e-001 8.40961039e-002 -1.00008714e+000
      8.95815417e-002 -5.88653147e-001 -6.43645465e-001 -8.17629218e-001
      -5.28530180e-001 -4.78995740e-001 -6.17609084e-001
      -6.39292002e-001 -5.67778468e-001 -1.08074141e+000 4.25354195e+000
      -6.65008187e-001 -3.34876686e-001 -6.85714364e-001</_>
    <_>
      1.86293805e+000 3.50182921e-001 -7.67491162e-002 2.54996777e+000
      8.98354721e+000 4.73633194e+000 1.84581876e+000 5.28381839e-002
      -2.65781321e-002 6.21080208e+000 -6.36119619e-002 -8.65159333e-001
      8.47489357e+000 7.06184387e+000 1.31357610e+000 -4.78138506e-001
      3.75573397e+000 4.60877985e-001 3.11153531e+000 6.43035460e+000
      -1.54144928e-001 1.49169195e+000 1.39327869e-001 6.50254726e+000
      8.15406740e-001 9.01279628e-001 -6.22775018e-001 3.88975978e+000
      2.40135050e+000 6.24853671e-001 -1.82839319e-001 5.24841976e+000
      -4.48848575e-001 5.31589031e+000 2.30191302e+000 1.65079081e+000
      3.73383379e+000 2.57880902e+000 1.65234351e+000 1.23626530e+000
      1.14235234e+000 3.46581042e-001 2.64938140e+000 3.98139739e+000
      4.04974610e-001 -1.50499403e-001 3.41031337e+000 1.02391911e+001
      7.78902960e+000 1.72437000e+000</_>
    <_>
      -4.92148459e-001 -2.90330201e-001 4.32779759e-001 4.45539951e-001
      4.87668812e-001 -5.23949444e-001 -6.06232770e-002 5.28381839e-002
      -4.00235534e-001 5.44547260e-001 -3.80346388e-001 -3.41683179e-001
      2.42711961e-001 -5.68596244e-001 -1.24838669e-002 -9.06135142e-001
      -1.47812083e-001 -3.57066393e-001 -4.68024202e-002
      -8.35087717e-001 -7.68155456e-001 -4.39588547e-001
      -5.65507337e-002 1.21010935e+000 -6.55402482e-001 -8.57135296e-001
      -6.22775018e-001 5.30305624e-001 3.59647304e-001 -1.91212043e-001
      -6.85122013e-001 -3.23596597e-001 -8.17490518e-001 1.08932175e-001
      -6.08971655e-001 3.25351775e-001 8.95815417e-002 -5.88653147e-001
      -6.43645465e-001 6.26112595e-002 -1.94353700e-001 -7.54188001e-001
      -2.36107837e-002 -6.39292002e-001 4.04974610e-001 -4.60580081e-001
      -1.31247297e-001 -4.14764695e-003 -3.39912735e-002
      -4.17927235e-001</_>
    <_>
      3.04048157e+000 -5.03834546e-001 -7.67491162e-002 4.23351002e+000
      -4.33236398e-002 2.10619116e+000 -6.06232770e-002 5.28381839e-002
      -4.00235534e-001 8.98688138e-001 2.53122479e-001 1.75222158e+000
      5.12658954e-002 2.88326955e+000 6.50546074e-001 -4.78138506e-001
      4.73652221e-002 1.88229859e-001 2.58514571e+000 2.15656495e+000
      1.38088131e+000 -5.33324480e-002 -5.65507337e-002 2.76149809e-001
      8.15406740e-001 9.01279628e-001 -2.11605892e-001 -3.85909200e-001
      9.72158194e-001 -5.99244893e-001 8.21726024e-001 1.23656797e+000
      1.02571929e+000 3.98207605e-001 2.44052649e+000 7.67164767e-001
      8.95815417e-002 2.84276414e+000 -6.43645465e-001 9.42851722e-001
      1.39822811e-001 1.17215776e+000 -2.36107837e-002 1.51702976e+000
      1.86410415e+000 2.33014607e+000 2.06044182e-001 1.31757343e+000
      1.16955042e+000 -4.17927235e-001</_>
    <_>
      5.26472998e+000 1.36678562e-001 1.45183754e+000 8.66425574e-001
      2.61163878e+000 7.36647272e+000 -6.06232770e-002 -3.07970911e-001
      -2.65781321e-002 2.31525183e+000 5.69856882e-001 1.81793004e-001
      2.34861875e+000 2.88326955e+000 -6.75513864e-001 -5.01418747e-002
      4.73652221e-002 4.60877985e-001 6.53306770e+000 4.47049141e-001
      -1.54144928e-001 -5.33324480e-002 -5.65507337e-002 1.52142918e+000
      4.47704464e-001 2.07355618e+000 -2.11605892e-001 1.44652045e+000
      1.55476987e-001 -5.99244893e-001 3.19443345e-001 1.68232930e+000
      2.88435370e-001 2.71241093e+000 1.47023165e+000 -5.58274209e-001
      -3.65949988e-001 7.31122732e-001 -1.84447676e-001 -2.30802238e-001
      -1.94353700e-001 3.46581042e-001 5.70387542e-001 2.13312173e+000
      1.37772763e+000 1.08982337e+000 8.80627155e-001 -3.34577918e-001
      5.67779541e-001 9.21008587e-001</_>
    <_>
      -6.22986615e-001 -7.68258199e-002 -5.86278021e-001
      -8.17116737e-001 -3.08819860e-001 2.06645191e-001 -4.41911668e-001
      -6.68779969e-001 -4.00235534e-001 1.33358510e-002 -1.01381528e+000
      -3.41683179e-001 5.12658954e-002 5.21466613e-001 -6.75513864e-001
      -9.06135142e-001 4.73652221e-002 -3.57066393e-001 -1.78399816e-001
      -8.35087717e-001 -4.61150169e-001 -4.39588547e-001
      -4.48307961e-001 -6.57809794e-001 -6.55402482e-001
      -8.57135296e-001 -6.22775018e-001 -3.85909200e-001 3.59647304e-001
      -5.99244893e-001 -6.85122013e-001 5.67926049e-001 -8.17490518e-001
      -7.58894145e-001 -4.70358104e-001 -5.58274209e-001
      -3.65949988e-001 -8.52608323e-001 -6.43645465e-001
      -8.17629218e-001 -5.28530180e-001 -7.54188001e-001 2.73388386e-001
      -3.31246078e-001 8.91351104e-001 1.59581274e-001 -2.99893022e-001
      -6.65008187e-001 -3.34876686e-001 -9.53501523e-001</_>
    <_>
      8.16232920e-001 -5.03834546e-001 -5.86278021e-001 -3.96231174e-001
      4.87668812e-001 6.05262667e-002 -6.06232770e-002 4.13647264e-001
      -4.00235534e-001 -1.63734615e-001 -3.80346388e-001 2.27569771e+000
      -5.23072302e-001 -2.35648155e-002 -6.75513864e-001
      -4.78138506e-001 -3.42989385e-001 1.88229859e-001 8.74379396e-001
      -4.07708764e-001 1.52860329e-001 -6.32716596e-001 -4.48307961e-001
      -6.57809794e-001 -2.87700146e-001 6.08210444e-001 -6.22775018e-001
      -8.05042610e-002 -4.57033962e-001 -1.91212043e-001
      -1.82839319e-001 -1.00715943e-001 2.13164520e+000 -1.80343270e-001
      -3.31744552e-001 -1.00008714e+000 8.95815417e-002 1.25903308e+000
      -1.84447676e-001 6.49438262e-001 -5.28530180e-001 -4.78995740e-001
      -6.17609084e-001 -3.31246078e-001 -8.14019218e-002 2.33014607e+000
      -4.68538761e-001 -4.14764695e-003 2.66894132e-001 -9.53501523e-001</_>
    <_>
      3.04048157e+000 1.36678562e-001 1.96136642e+000 1.70819664e+000
      7.53165007e-001 6.45001948e-001 2.03646278e+000 5.28381839e-002
