<?xml version="1.0"?>
<opencv_storage>
<opencv_ml_svm>
  <format>3</format>
  <svmType>C_SVC</svmType>
  <kernel>
    <type>RBF</type>
    <gamma>2.0000000000000000e-02</gamma></kernel>
  <C>1.</C>
  <term_criteria><epsilon>1.1920928955078125e-07</epsilon>
    <iterations>1000</iterations></term_criteria>
  <var_count>60</var_count>
  <class_count>2</class_count>
  <class_labels type_id="opencv-matrix">
    <rows>2</rows>
    <cols>1</cols>
    <dt>i</dt>
    <data>
      0 1</data></class_labels>
  <sv_total>263</sv_total>
  <support_vectors>
    <_>
      -3.92688245e-01 2.90114302e-02 -2.38554291e-02 -1.19847879e-01
      -8.69715035e-01 -2.83639938e-01 -3.66579533e-01 -2.02326626e-01
      -5.79318702e-01 -4.87390310e-01 6.84042647e-02 -8.33565414e-01
      6.84866309e-02 -6.17742717e-01 -8.66650760e-01 -1.31580389e+00
      -8.20433676e-01 -5.64993382e-01 -3.85502934e-01 1.25341463e+00
      -8.82261813e-01 -6.80255294e-01 4.37611014e-01 1.33648562e+00
      -5.21409288e-02 -1.79169834e-01 -2.84018397e-01 -8.50519776e-01
      -5.02085268e-01 8.05316940e-02 -2.10694611e-01 -5.79028010e-01
      -5.53781331e-01 -5.77386498e-01 -2.32868537e-01 7.94170141e-01
      -7.88065851e-01 5.91990173e-01 -5.06612122e-01 -7.35397220e-01
      -6.89312339e-01 -7.03878105e-01 -6.52215004e-01 -9.18572962e-01
      -3.06291074e-01 -4.79364753e-01 -7.20646203e-01 -3.23254734e-01
      -3.75093557e-02 -9.95617688e-01 -1.06316614e+00 -4.40471441e-01
      -5.23130059e-01 -2.40564585e-01 -5.61232984e-01 4.80047852e-01
      -6.08671963e-01 9.91022110e-01 4.92739603e-02 -7.09982991e-01</_>
    <_>
      -3.33995998e-01 -3.74511540e-01 6.66663051e-01 -5.78266084e-01
      -3.07066381e-01 -9.89280760e-01 -7.68954933e-01 -3.55447680e-01
      -1.23486829e+00 -4.44089800e-01 8.28635633e-01 -9.74540532e-01
      -3.83414298e-01 2.15550110e-01 -5.57525456e-01 -7.24127233e-01
      -2.09929943e-01 -9.36884403e-01 -8.44704986e-01 3.48447189e-02
      -1.17920637e+00 6.18028164e-01 1.73095465e+00 -2.43799433e-01
      7.97195956e-02 -6.19539082e-01 -3.67531836e-01 -1.17169511e+00
      -5.83894670e-01 1.36067235e+00 -6.15503430e-01 -3.30612212e-01
      -3.90859246e-01 -1.25976920e+00 -5.57751954e-01 -5.34270465e-01
      -1.09415615e+00 -2.17011645e-01 -6.08355701e-01 -1.18878520e+00
      -2.26795778e-01 -8.93981159e-01 -4.48217273e-01 -1.07916141e+00
      -3.06291074e-01 -4.79364753e-01 -7.20646203e-01 -2.05427513e-01
      1.26070604e-01 -9.95617688e-01 -1.06316614e+00 -8.81904662e-01
      -7.61163950e-01 -2.40564585e-01 1.46184117e-01 -1.09663880e+00
      -8.18771899e-01 2.34309047e-01 -4.43734109e-01 -8.02353203e-01</_>
    <_>
      -3.92688245e-01 -3.74511540e-01 -1.22500926e-01 -2.72653937e-01
      -3.07066381e-01 1.12764180e+00 -7.68954933e-01 -5.08568764e-01
      7.62308761e-02 -1.84286639e-01 -8.36420134e-02 -5.51615119e-01
      -3.83414298e-01 -1.69046566e-01 -8.66650760e-01 -4.28288877e-01
      1.11282814e+00 -1.93102404e-01 3.13504601e+00 4.91808474e-01
      1.93871176e+00 -3.09317172e-01 1.08428288e+00 -5.07180274e-01
      -4.47722495e-01 2.61199415e-01 2.17062145e-01 1.07653213e+00
      -5.83894670e-01 7.20602095e-01 1.57046425e+00 -3.92716169e-01
      -4.99473989e-01 -4.06790793e-01 -5.57751954e-01 -6.00692511e-01
      -1.75885245e-01 9.96491075e-01 7.14310825e-01 1.07815456e+00
      -2.85743885e-02 -3.23672116e-01 1.38776231e+00 2.45378470e+00
      -1.93278536e-01 -5.58256269e-01 1.24742532e+00 -5.58909178e-01
      1.84366012e+00 1.62031281e+00 1.01487470e+00 1.10454476e+00
      7.19546899e-02 -2.40564585e-01 4.70069423e-03 -3.08295459e-01
      -1.88472003e-01 6.12665594e-01 1.40504622e+00 -6.17612720e-01</_>
    <_>
      -3.33995998e-01 4.32534397e-01 4.69372064e-01 -2.72653937e-01
      -3.07066381e-01 -2.83639938e-01 1.24292207e+00 3.33597064e-01
      7.62308761e-02 -4.44089800e-01 -6.91827118e-01 5.76185942e-01
      -4.39901918e-01 -5.53643227e-01 1.63766846e-01 -1.01996553e+00
      -6.16932392e-01 -4.41029727e-01 -1.45697439e+00 1.87165976e-01
      -8.82261813e-01 -4.94786233e-01 1.22798765e+00 -5.07180274e-01
      -3.15861970e-01 -3.99354458e-01 8.01656127e-01 -5.29344440e-01
      -5.02085268e-01 -2.39503488e-01 -3.72618139e-01 -5.16924083e-01
      -2.27937132e-01 -2.36195102e-01 -5.57751954e-01 -7.33536541e-01
      1.20152104e+00 -4.19262081e-01 -6.08355701e-01 2.02493574e-02
      -4.25017178e-01 -1.08408415e+00 5.71771383e-01 -2.76219159e-01
      7.10821688e-01 -4.79364753e-01 -1.77635122e-02 -5.58909178e-01
      6.98600471e-01 -8.50288212e-01 -1.06316614e+00 9.61736776e-04
      -2.85096169e-01 -1.52616248e-01 -3.49007875e-01 -7.02467084e-01
      -6.08671963e-01 -1.44047499e-01 -1.05999422e+00 1.21349126e-01</_>
    <_>
      -4.51380491e-01 8.36057365e-01 -4.18437421e-01 -5.78266084e-01
      -4.94615912e-01 8.45385432e-01 1.69921041e-01 -4.32008207e-01
      -8.76565203e-02 -3.14188212e-01 -5.39780855e-01 5.76185942e-01
      -4.96389538e-01 -5.53643227e-01 6.07250817e-02 -7.24127233e-01
      -6.42869808e-03 -9.36884403e-01 9.92103219e-01 -2.69797772e-01
      1.34482265e+00 -1.23848096e-01 -2.09060803e-01 -5.73025465e-01
      -4.47722495e-01 -1.79169834e-01 -2.00504974e-01 4.34181452e-01
      -6.65704131e-01 4.00566876e-01 -6.15503430e-01 -1.44300357e-01
      -1.07076429e-02 -6.55994192e-02 -5.57751954e-01 -5.34270465e-01
      1.30205050e-01 -1.47611871e-02 -4.04868513e-01 4.73637313e-01
      -6.23238564e-01 -5.13775110e-01 3.67773652e-01 3.66134673e-01
      -3.06291074e-01 -5.58256269e-01 4.03966099e-01 -3.82168323e-01
      -2.01089308e-01 4.57677066e-01 -6.01379275e-01 -8.81904662e-01
      -4.04113114e-01 -2.40564585e-01 2.87667543e-01 8.58762041e-02
      -3.98571968e-01 2.34309047e-01 1.72525987e-01 -4.32872266e-01</_>
    <_>
      6.18084383e+00 -3.74511540e-01 1.75176370e+00 1.86663091e+00
      2.78750110e+00 4.22000915e-01 -9.83292460e-02 -4.32008207e-01
      -1.07098091e+00 -2.70887703e-01 6.76589370e-01 1.22853918e-02
      4.02261972e+00 2.15550110e-01 3.25501966e+00 -7.24127233e-01
      -4.13431168e-01 5.50679564e-01 5.32901168e-01 1.10109341e+00
      -1.39900327e-01 2.22542667e+00 7.96873152e-01 3.18015146e+00
      6.73091948e-01 7.01568663e-01 1.13570976e+00 -5.29344440e-01
      3.16008955e-01 2.32077789e+00 3.56037736e-01 4.26507998e+00
      -3.90859246e-01 -1.25976920e+00 -3.95310253e-01 9.27014172e-01
      -4.81975526e-01 9.96491075e-01 2.13872099e+00 -5.84267914e-01
      8.96458805e-01 -8.93981159e-01 3.67773652e-01 1.49025393e+00
      1.95395958e+00 -4.79364753e-01 5.44542670e-01 4.50766087e+00
      1.18934035e+00 2.34696031e+00 -3.70485842e-01 6.63111508e-01
      2.09524298e+00 -2.40564585e-01 2.48066068e+00 -3.08295459e-01
      3.80342746e+00 2.31526995e+00 2.26781034e+00 -5.25242507e-01</_>
    <_>
      2.83538556e+00 -7.78034508e-01 1.94905472e+00 3.29581760e-02
      3.25637507e+00 -2.83639938e-01 -9.83292460e-02 -1.25766098e-01
      -1.23486829e+00 1.62117556e-01 6.76589370e-01 7.17161059e-01
      9.15800810e-01 2.79649556e-01 2.63676906e+00 4.59226191e-01
      1.51983058e+00 1.29446161e+00 -8.44704986e-01 2.77662706e+00
      1.04787803e+00 1.66901946e+00 1.44354498e+00 -4.62638140e-02
      6.73091948e-01 2.68323016e+00 1.13570976e+00 -5.29344440e-01
      -1.12287290e-02 2.00074267e+00 -1.29732847e-01 3.58193684e+00
      -2.82244503e-01 -1.25976920e+00 -3.14089388e-01 -6.93162605e-02
      1.81370163e+00 3.22124600e+00 1.63000298e+00 -1.18878520e+00
      1.55719686e+00 -1.08408415e+00 7.75769114e-01 2.13260770e+00
      1.04985940e+00 -5.58256269e-01 1.52857840e+00 4.33092022e+00
      2.00724006e+00 3.07360768e+00 2.63112855e+00 1.54597795e+00
      9.05073345e-01 -2.40564585e-01 3.82475305e+00 8.74219537e-01
      2.43777752e+00 2.12609172e+00 1.72525987e-01 1.21349126e-01</_>
    <_>
      3.07015443e+00 -5.76273024e-01 2.34363675e+00 2.32504916e+00
      1.56842911e+00 -5.65896273e-01 4.38171327e-01 1.80476010e-01
      -1.23486829e+00 -1.84286639e-01 4.47774601e+00 1.42203677e+00
      3.34476829e+00 7.92445123e-01 1.60635149e+00 1.64257967e+00
      1.72333181e+00 -1.93102404e-01 7.36991018e-02 9.48772192e-01
      8.57197214e-03 1.60719645e+00 1.29984009e+00 2.52169919e+00
      6.07161701e-01 2.68323016e+00 1.21922326e+00 1.71888268e+00
      5.61437249e-01 4.56102419e+00 2.29912019e+00 1.65671432e+00
      4.23751324e-01 -1.25976920e+00 2.04131532e+00 2.45472097e+00
      1.96674681e+00 2.20999384e+00 2.34220815e+00 -1.03765583e+00
      8.96458805e-01 -1.08408415e+00 2.40775084e+00 8.47900033e-01
      1.27588439e+00 2.28183818e+00 1.22813031e-01 1.73872161e+00
      1.68008006e+00 -1.23640850e-01 1.24576807e+00 2.64956093e+00
      2.33327699e+00 -1.52616248e-01 9.24342930e-01 2.45090604e+00
      2.43777752e+00 1.93691337e+00 1.28179419e+00 3.06089610e-01</_>
    <_>
      -1.57919243e-01 1.23958039e+00 -6.15728438e-01 2.78346729e+00
      8.18230927e-01 -5.65896273e-01 1.51117241e+00 6.39839113e-01
      -7.43206084e-01 -1.10845435e-02 1.43682075e+00 1.28106153e+00
      -2.13951454e-01 1.51450664e-01 7.82017410e-01 2.82593322e+00
      1.72333181e+00 1.54238892e+00 1.75743997e+00 -5.74440300e-01
      1.04787803e+00 1.35990441e+00 -6.40175343e-01 -1.12109020e-01
      -5.13652742e-01 1.14193785e+00 -6.18072093e-01 3.64593458e+00
      2.27943516e+00 -5.59538662e-01 -2.91656375e-01 -8.21963996e-02
      4.78058696e-01 -5.77386498e-01 1.39154851e+00 2.62793899e-01
      2.83250213e-01 1.40099192e+00 5.10823667e-01 -4.33138609e-01
      1.68934441e+00 -3.23672116e-01 3.67773652e-01 -2.76219159e-01
      -6.45328641e-01 1.25624847e+00 -7.20646203e-01 -2.86866836e-02
      -5.28249204e-01 -1.23640850e-01 3.09291553e+00 6.63111508e-01
      1.61917508e+00 -1.52616248e-01 4.70069423e-03 1.26839113e+00
      8.62027884e-01 -3.33225787e-01 1.03529012e+00 3.07719660e+00</_>
    <_>
      -5.10072768e-01 -9.79795992e-01 -6.15728438e-01 -4.25460011e-01
      -4.94615912e-01 -8.48152578e-01 -6.34829819e-01 -2.78887153e-01
      -4.15431321e-01 -1.84286639e-01 2.20450550e-01 2.94235647e-01
      -1.00976214e-01 -1.69046566e-01 -6.60567224e-01 -1.32450506e-01
      4.00573790e-01 -6.91387504e-02 -5.38570285e-01 -5.74440300e-01
      -7.33789504e-01 -6.20250739e-02 -6.40175343e-01 -3.75489861e-01
      -5.13652742e-01 -3.99354458e-01 -6.18072093e-01 -1.17169511e+00
      7.05806911e-02 -5.59538662e-01 -4.53579903e-01 -2.00924445e-02
      -4.45166618e-01 -5.77386498e-01 -2.32868537e-01 6.35278001e-02
      -2.28400957e-02 -6.21512532e-01 -9.96377766e-02 1.71378672e-01
      2.35720798e-01 -8.93981159e-01 -6.52215004e-01 -1.15630701e-01
      -6.45328641e-01 7.28757977e-02 -7.20646203e-01 -2.64341116e-01
      -5.28249204e-01 -2.68970311e-01 -6.01379275e-01 -8.81904662e-01
      7.19546899e-02 -2.40564585e-01 3.58409256e-01 8.58762041e-02
      -5.03621936e-01 -5.22404075e-01 -4.43734109e-01 7.67940760e-01</_>
    <_>
      3.36361575e+00 -1.18155742e+00 -6.15728438e-01 -8.83878171e-01
      6.30681336e-01 -9.89280760e-01 2.71829867e+00 6.30531836e+00
      -1.07098091e+00 -1.84286639e-01 -9.95919704e-01 4.66446495e+00
      5.83022356e+00 -1.69046566e-01 9.88100946e-01 -1.01996553e+00
      7.05825627e-01 -9.36884403e-01 -5.38570285e-01 -5.74440300e-01
      -5.85317194e-01 1.85267016e-01 -6.40175343e-01 4.23367453e+00
      -5.13652742e-01 -1.79169834e-01 -6.18072093e-01 -5.29344440e-01
      2.03400683e+00 -8.79573882e-01 -6.15503430e-01 5.38843155e-01
      6.95288181e-01 -9.18577850e-01 6.60560906e-01 1.39196837e+00
      3.03806281e+00 -6.21512532e-01 6.61543846e+00 -1.18878520e+00
      4.33942199e-01 -8.93981159e-01 -6.52215004e-01 -1.15630701e-01
      -6.45328641e-01 -5.58256269e-01 -7.20646203e-01 1.50306714e+00
      -5.28249204e-01 -8.50288212e-01 1.93844831e+00 -8.81904662e-01
      7.86056399e-01 8.46632195e+00 1.06582630e+00 -3.08295459e-01
      2.01757765e+00 -5.22404075e-01 -1.97230071e-01 2.15349412e+00</_>
    <_>
      -2.16611490e-01 6.34295881e-01 -6.15728438e-01 2.63066125e+00
      5.88206863e+00 -1.38358842e-03 1.77942264e+00 1.71168649e+00
      -5.79318702e-01 6.38423324e-01 8.28635633e-01 2.12691236e+00
      -2.70439059e-01 6.00146770e-01 3.25501966e+00 1.63387850e-01
      2.23208499e+00 7.98606873e-01 7.36991018e-02 -4.22119021e-01
      -4.36844915e-01 1.97813463e+00 -6.40175343e-01 -3.75489861e-01
      -5.13652742e-01 2.24286103e+00 -6.18072093e-01 1.71888268e+00
      2.03400683e+00 -5.59538662e-01 1.81334949e+00 1.66219413e-01
      1.29266930e+00 2.75591969e-01 1.79765284e+00 9.27014172e-01
      2.27283716e+00 5.91990173e-01 5.10823667e-01 3.22508007e-01
      1.22682786e+00 -3.23672116e-01 2.40775084e+00 -1.15630701e-01
      -6.45328641e-01 5.67417288e+00 -7.20646203e-01 8.91405270e-02
      -5.28249204e-01 6.03006542e-01 7.83981264e-01 2.20812774e+00
      9.05073345e-01 2.87125468e-01 7.82859504e-01 -3.08295459e-01
      1.28222775e+00 -5.22404075e-01 1.40504622e+00 2.15349412e+00</_>
    <_>
      1.35542020e-01 2.30772913e-01 -6.15728438e-01 -5.78266084e-01
      2.55582273e-01 -7.07024455e-01 5.72296500e-01 1.80476010e-01
      7.62308761e-02 2.05418080e-01 -6.91827118e-01 1.22853918e-02
      2.37949476e-01 3.43748987e-01 -3.51441950e-01 4.59226191e-01
      9.09326851e-01 -5.64993382e-01 5.32901168e-01 -5.74440300e-01
      -1.39900327e-01 2.47271872e+00 -6.40175343e-01 8.54265988e-02
      -5.13652742e-01 -6.19539082e-01 -6.18072093e-01 -2.08169147e-01
      -6.65704131e-01 -2.39503488e-01 -6.15503430e-01 1.59461045e+00
      1.34697664e+00 1.12857044e+00 -3.95310253e-01 -4.01426405e-01
      -1.75885245e-01 -4.19262081e-01 -6.08355701e-01 6.24766648e-01
      1.82149196e+00 1.00704896e+00 -6.52215004e-01 -4.36807603e-01
      -6.45328641e-01 -5.58256269e-01 -7.20646203e-01 3.24794948e-01
      -5.28249204e-01 -1.23640850e-01 -1.39592424e-01 -8.81904662e-01
      -7.61163950e-01 -2.40564585e-01 9.95084643e-01 1.66256285e+00
      -8.34220275e-02 -3.33225787e-01 2.26781034e+00 -6.17612720e-01</_>
    <_>
      -3.92688245e-01 -7.78034508e-01 -6.15728438e-01 2.17224312e+00
      -5.88390708e-01 -5.65896273e-01 -3.66579533e-01 -4.32008207e-01
      2.40118265e-01 -4.00789261e-01 3.41342235e+00 -6.92590296e-01
      -4.44885977e-02 -2.33146012e-01 -2.48400196e-01 -4.28288877e-01
      -5.15181780e-01 2.16220713e+00 -3.85502934e-01 -2.69797772e-01
      -1.17920637e+00 -6.18432283e-01 -6.40175343e-01 -1.12109020e-01
      -5.13652742e-01 4.10147868e-02 -6.18072093e-01 -5.29344440e-01
      1.54315031e+00 -8.79573882e-01 -4.87710834e-02 -5.79028010e-01
      -4.99473989e-01 4.46187645e-01 -7.04268217e-02 7.27748096e-01
      -9.41110969e-01 1.87489256e-01 -6.08355701e-01 6.24766648e-01
      -1.60721987e-01 2.46636927e-01 1.63775936e-01 -1.07916141e+00
      -6.45328641e-01 2.51851273e+00 -7.20646203e-01 -4.99995530e-01
      -5.28249204e-01 4.57677066e-01 -8.32272708e-01 -8.81904662e-01
      -5.23130059e-01 -2.40564585e-01 -3.49007875e-01 4.80047852e-01
      -3.98571968e-01 -5.22404075e-01 -4.43734109e-01 1.22979200e+00</_>
    <_>
      1.35542020e-01 2.30772913e-01 -6.15728438e-01 -5.78266084e-01
      -3.07066381e-01 -9.89280760e-01 -6.34829819e-01 -5.08568764e-01
      -9.07093525e-01 -5.73991358e-01 -8.43873382e-01 -9.74540532e-01
      -1.00976214e-01 -6.17742717e-01 -5.57525456e-01 -7.24127233e-01
      -6.16932392e-01 -4.41029727e-01 -9.97772336e-01 -5.74440300e-01
      -1.17920637e+00 -4.32963192e-01 -6.40175343e-01 -1.12109020e-01
      -5.13652742e-01 -6.19539082e-01 -6.18072093e-01 -1.17169511e+00
      5.61437249e-01 -5.59538662e-01 -6.15503430e-01 3.52531284e-01
      -6.08088732e-01 -1.08917356e+00 7.41781771e-01 -4.67848450e-01
      -6.35020673e-01 -6.21512532e-01 -7.10099280e-01 -8.86526585e-01
      -5.57164788e-01 -7.03878105e-01 -6.52215004e-01 -1.23974991e+00
      -6.45328641e-01 -2.42690235e-01 -7.20646203e-01 2.06967741e-01
      -5.28249204e-01 -9.95617688e-01 1.24576807e+00 -8.81904662e-01
      -7.61163950e-01 -2.40564585e-01 -1.36782736e-01 -7.02467084e-01
      -3.98571968e-01 -5.22404075e-01 -1.18324625e+00 -3.40502053e-01</_>
    <_>
      -2.75303751e-01 -5.76273024e-01 -6.15728438e-01 -4.25460011e-01
      6.80327117e-02 -8.48152578e-01 7.06421614e-01 1.02264178e+00
      -5.79318702e-01 -9.76855904e-02 2.20450550e-01 -2.69664884e-01
      -4.96389538e-01 -4.08476740e-02 1.29722619e+00 4.59226191e-01
      1.21457875e+00 6.74643219e-01 -3.85502934e-01 -5.74440300e-01
      -1.39900327e-01 -3.09317172e-01 -5.68322897e-01 -3.75489861e-01
      -5.13652742e-01 7.01568663e-01 -6.18072093e-01 4.28828526e+00
      2.34199539e-01 -5.59538662e-01 -4.53579903e-01 1.66219413e-01
      2.60829210e-01 -2.36195102e-01 3.35677475e-01 8.60592186e-01
      -3.28930378e-01 -4.19262081e-01 -2.01381356e-01 -7.35397220e-01
      -1.60721987e-01 -8.93981159e-01 3.67773652e-01 -2.76219159e-01
      -6.45328641e-01 9.40682411e-01 -7.20646203e-01 -8.76002908e-02
      -5.28249204e-01 7.48336017e-01 -3.70485842e-01 6.63111508e-01
      7.19546899e-02 -1.52616248e-01 -1.36782736e-01 2.45090604e+00
      -3.98571968e-01 -5.22404075e-01 1.40504622e+00 -3.40502053e-01</_>
    <_>
      -3.92688245e-01 4.32534397e-01 -6.15728438e-01 -5.78266084e-01
      -6.82165444e-01 -9.89280760e-01 -6.34829819e-01 -4.32008207e-01
      -9.07093525e-01 -5.73991358e-01 -2.35688284e-01 -9.74540532e-01
      -2.70439059e-01 -6.17742717e-01 -6.60567224e-01 -1.01996553e+00
      -7.18683064e-01 -9.36884403e-01 -1.15083969e+00 -5.74440300e-01
      -1.32767868e+00 -6.18432283e-01 -4.96470481e-01 -2.43799433e-01
      -5.13652742e-01 -6.19539082e-01 -6.18072093e-01 -5.29344440e-01
      -5.02085268e-01 4.00566876e-01 3.21906805e-02 -4.54820126e-01
      -5.53781331e-01 -7.47982204e-01 9.04223502e-01 1.29949823e-01
      -1.09415615e+00 -4.19262081e-01 -7.10099280e-01 -8.86526585e-01
      -5.57164788e-01 -3.23672116e-01 -2.44219527e-01 -7.57984519e-01
      -6.45328641e-01 7.04007864e-01 -7.20646203e-01 -4.41081941e-01
      -5.28249204e-01 -8.50288212e-01 -8.32272708e-01 -6.61188066e-01
      -6.42147005e-01 -2.40564585e-01 -4.90491301e-01 -3.08295459e-01
      -7.13721931e-01 -1.44047499e-01 -6.90238178e-01 -5.25242507e-01</_>
    <_>
      -4.51380491e-01 -7.78034508e-01 -6.15728438e-01 1.25540674e+00
      -6.82165444e-01 -9.89280760e-01 1.10879695e+00 1.02264178e+00
      -9.07093525e-01 -4.00789261e-01 2.20450550e-01 -4.10640001e-01
      -4.39901918e-01 -4.25444365e-01 -8.66650760e-01 -1.31580389e+00
      1.51983058e+00 -4.41029727e-01 -5.38570285e-01 -5.74440300e-01
      -1.03073406e+00 -6.18432283e-01 -6.40175343e-01 -3.75489861e-01
      -5.13652742e-01 -3.99354458e-01 -6.18072093e-01 -5.29344440e-01
      -1.12287290e-02 1.36067235e+00 -1.29732847e-01 -3.92716169e-01
      -1.07076429e-02 -5.77386498e-01 4.98119175e-01 1.29949823e-01
      -1.09415615e+00 -2.17011645e-01 -8.11842859e-01 -1.18878520e+00
      -6.23238564e-01 4.36739922e-01 -2.44219527e-01 -7.57984519e-01
      -6.45328641e-01 6.25116348e-01 -7.20646203e-01 -5.58909178e-01
      -5.28249204e-01 -7.04958737e-01 -8.32272708e-01 -6.61188066e-01
      -5.23130059e-01 -1.52616248e-01 -5.61232984e-01 8.74219537e-01
      -5.03621936e-01 -5.22404075e-01 -7.39780590e-02 1.21349126e-01</_>
    <_>
      6.29822874e+00 -5.76273024e-01 -6.15728438e-01 3.29581760e-02
      1.38087952e+00 -9.89280760e-01 -5.00704646e-01 -4.92055751e-02
      -1.07098091e+00 -2.27587163e-01 -6.91827118e-01 6.07421637e+00
      3.28828073e+00 -3.61344904e-01 3.25501966e+00 2.53009486e+00
      1.11282814e+00 3.02752227e-01 2.21664190e+00 -5.74440300e-01
      1.34482265e+00 6.79851174e-01 -6.40175343e-01 1.86324728e+00
      -5.13652742e-01 -3.99354458e-01 -5.34558654e-01 1.13006152e-01
      3.50657654e+00 8.05316940e-02 -5.34541667e-01 3.76824880e+00
      -1.19322389e-01 -1.08917356e+00 3.34084916e+00 2.18903279e+00
      3.80328846e+00 -2.17011645e-01 1.73174655e+00 -1.18878520e+00
      1.03573203e-01 -8.93981159e-01 -4.48217273e-01 2.45378470e+00
      -6.45328641e-01 1.57181454e+00 -7.20646203e-01 6.21615553e+00
      -3.75093557e-02 6.03006542e-01 5.53087831e-01 6.63111508e-01
      1.85720897e+00 -2.40564585e-01 2.48066068e+00 -3.08295459e-01
      7.56977856e-01 -5.22404075e-01 2.95778006e-01 1.78401327e+00</_>
    <_>
      1.94234267e-01 -9.79795992e-01 -6.15728438e-01 7.96988487e-01
      1.28710473e+00 -9.89280760e-01 -9.03080106e-01 -5.08568764e-01
      -1.23486829e+00 -5.30690849e-01 6.76589370e-01 1.28106153e+00
      2.72340465e+00 -2.33146012e-01 1.19418442e+00 7.55064547e-01
      -2.09929943e-01 -5.64993382e-01 8.39035869e-01 -5.74440300e-01
      6.02461159e-01 -6.20250739e-02 6.53168261e-01 6.60410213e+00
      -5.13652742e-01 -3.99354458e-01 -6.18072093e-01 5.89416170e+00
      1.29772210e+00 4.00566876e-01 1.94114208e-01 1.04115464e-01
      -6.08088732e-01 -1.25976920e+00 6.26480007e+00 6.24077654e+00
      8.95430803e-01 -2.17011645e-01 1.52825940e+00 -1.18878520e+00
      3.74994092e-02 -1.08408415e+00 -2.44219527e-01 8.47900033e-01
      -6.45328641e-01 2.36072969e+00 -7.20646203e-01 1.48054138e-01
      -3.75093557e-02 -7.04958737e-01 -6.01379275e-01 -4.40471441e-01
      1.50015807e+00 -2.40564585e-01 -2.78266162e-01 1.66256285e+00
      1.59737778e+00 -1.44047499e-01 7.88786054e-01 1.13742173e+00</_>
    <_>
      3.70311022e-01 -9.79795992e-01 -6.15728438e-01 3.38570297e-01
      1.66220391e+00 -9.89280760e-01 -7.68954933e-01 -5.08568764e-01
      -1.23486829e+00 -4.87390310e-01 6.76589370e-01 1.70398700e+00
      3.96613216e+00 -1.04947120e-01 2.01851845e+00 1.63387850e-01
      9.53219235e-02 -9.36884403e-01 2.26766452e-01 -4.22119021e-01
      3.05516571e-01 3.08913052e-01 5.81315875e-01 7.06501865e+00
      -5.13652742e-01 4.10147868e-02 -2.84018397e-01 5.25181103e+00
      8.88674915e-01 1.36067235e+00 -2.91656375e-01 -4.54820126e-01
      -6.08088732e-01 -1.25976920e+00 5.04648733e+00 5.77582264e+00
      2.83250213e-01 1.87489256e-01 1.83349013e+00 -1.18878520e+00
      3.67868394e-01 -1.27418721e+00 9.79766846e-01 1.00848854e+00
      -6.45328641e-01 2.28183818e+00 -7.20646203e-01 -8.76002908e-02
      9.43970382e-01 -5.59629261e-01 -6.01379275e-01 4.42394942e-01
      1.14310730e+00 -2.40564585e-01 -2.07524449e-01 1.66256285e+00
      1.91252768e+00 -5.22404075e-01 1.03529012e+00 7.67940760e-01</_>
    <_>
      -5.10072768e-01 -3.74511540e-01 -6.15728438e-01 9.49794531e-01
      4.43131804e-01 -9.89280760e-01 -2.32454389e-01 3.33597064e-01
      -8.76565203e-02 7.25024343e-01 -2.35688284e-01 3.11373854e+00
      -4.96389538e-01 3.43748987e-01 -1.45358443e-01 4.59226191e-01
      1.51983058e+00 -3.17066073e-01 7.36991018e-02 -4.22119021e-01
      1.04787803e+00 -3.09317172e-01 -6.40175343e-01 -4.62638140e-02
      -5.13652742e-01 2.24286103e+00 -6.18072093e-01 -5.29344440e-01
      1.87038803e+00 -5.59538662e-01 -2.91656375e-01 -5.79028010e-01
      7.49595582e-01 -9.18577850e-01 1.96009457e+00 1.59123445e+00
      1.50761139e+00 -2.17011645e-01 -2.01381356e-01 -1.18878520e+00
      3.01794589e-01 -5.13775110e-01 2.40775084e+00 1.16907692e+00
      -6.45328641e-01 1.01957393e+00 -7.20646203e-01 -5.58909178e-01
      -5.28249204e-01 3.12347591e-01 4.01648903e+00 2.42884421e+00
      2.09524298e+00 -1.52616248e-01 -4.90491301e-01 2.84507775e+00
      -5.03621936e-01 -5.22404075e-01 1.40504622e+00 1.41453242e+00</_>
    <_>
      -4.51380491e-01 -3.74511540e-01 -6.15728438e-01 -7.31072128e-01
      -8.69715035e-01 -8.48152578e-01 3.57958972e-02 1.03915475e-01
      -1.23486829e+00 -1.84286639e-01 -8.36420134e-02 -6.92590296e-01
      -2.70439059e-01 -6.17742717e-01 -9.69692528e-01 1.63387850e-01
      6.04075015e-01 -5.64993382e-01 -9.97772336e-01 -4.22119021e-01
      -2.88372606e-01 -6.18432283e-01 -6.40175343e-01 -2.43799433e-01
      -5.13652742e-01 -6.19539082e-01 -6.18072093e-01 -5.29344440e-01
      -3.38466436e-01 -2.39503488e-01 -6.15503430e-01 -5.79028010e-01
      -3.36551875e-01 -2.36195102e-01 -3.95310253e-01 -3.35004389e-01
      -7.88065851e-01 -6.21512532e-01 -7.10099280e-01 -7.35397220e-01
      -6.89312339e-01 1.00704896e+00 -6.52215004e-01 -9.18572962e-01
      -6.45328641e-01 -4.79364753e-01 -7.20646203e-01 -5.58909178e-01
      -5.28249204e-01 -7.04958737e-01 1.01487470e+00 -6.61188066e-01
      -6.42147005e-01 2.32804455e-02 -5.61232984e-01 -3.08295459e-01
      -7.13721931e-01 -5.22404075e-01 6.65534079e-01 -4.32872266e-01</_>
    <_>
      -1.57919243e-01 -9.79795992e-01 -5.17082930e-01 -5.78266084e-01
      -7.75940239e-01 -9.89280760e-01 -5.00704646e-01 7.92960167e-01
      -9.07093525e-01 -2.27587163e-01 -9.95919704e-01 -8.33565414e-01
      -1.57463834e-01 -2.97245473e-01 -6.60567224e-01 -1.01996553e+00
      -6.16932392e-01 -9.36884403e-01 -1.15083969e+00 -5.74440300e-01
      -7.33789504e-01 -4.32963192e-01 -4.24618065e-01 -1.12109020e-01
      -5.13652742e-01 -6.19539082e-01 -6.18072093e-01 -8.50519776e-01
      -3.38466436e-01 7.20602095e-01 -3.72618139e-01 -2.68508255e-01
      -6.50150180e-02 -1.25976920e+00 -3.95310253e-01 -3.35004389e-01
      -4.81975526e-01 -6.21512532e-01 -6.08355701e-01 -1.03765583e+00
      -4.91090983e-01 -1.27418721e+00 -6.52215004e-01 -9.18572962e-01
      -6.45328641e-01 -5.58256269e-01 -7.20646203e-01 -2.86866836e-02
      -1.19299330e-01 -7.04958737e-01 -1.06316614e+00 -8.81904662e-01
      -1.66079208e-01 3.75073791e-01 -4.90491301e-01 -7.02467084e-01
      -8.34220275e-02 -3.33225787e-01 -8.13490152e-01 -7.09982991e-01</_>
    <_>
      -5.10072768e-01 -1.18155742e+00 7.47900754e-02 -1.19847879e-01
      -4.94615912e-01 -1.42511755e-01 -9.03080106e-01 -4.32008207e-01
      -4.15431321e-01 -3.57488751e-01 6.84042647e-02 -2.69664884e-01
      -3.83414298e-01 -2.97245473e-01 -2.48400196e-01 -1.32450506e-01
      -6.42869808e-03 -6.88957036e-01 1.75743997e+00 -5.74440300e-01
      7.50933468e-01 1.23443991e-01 1.50201321e-01 -1.12109020e-01
      -3.81792247e-01 -6.19539082e-01 -6.18072093e-01 -8.50519776e-01
      -6.65704131e-01 4.00566876e-01 -2.91656375e-01 -1.44300357e-01
      -6.08088732e-01 -5.77386498e-01 -5.57751954e-01 -3.35004389e-01
      -3.28930378e-01 -6.21512532e-01 -4.04868513e-01 -7.35397220e-01
      2.35720798e-01 -8.93981159e-01 -6.52215004e-01 8.47900033e-01
      -5.32316148e-01 -5.58256269e-01 -4.39493150e-01 -2.64341116e-01
      -5.28249204e-01 -7.04958737e-01 -8.32272708e-01 -6.61188066e-01
      -5.23130059e-01 -2.40564585e-01 4.29150969e-01 -3.08295459e-01
      -2.93522000e-01 -1.44047499e-01 2.95778006e-01 -7.09982991e-01</_>
    <_>
      -5.10072768e-01 -5.76273024e-01 -2.21146435e-01 -5.78266084e-01
      -2.57420596e-02 -9.89280760e-01 -9.83292460e-02 -4.32008207e-01
      4.04005677e-01 3.78620178e-01 2.20450550e-01 -2.69664884e-01
      -4.39901918e-01 1.24114120e+00 -1.45358443e-01 -7.24127233e-01
      1.62158120e+00 -3.17066073e-01 2.26766452e-01 -4.22119021e-01
      -2.88372606e-01 7.41674185e-01 -2.80913234e-01 -3.09644639e-01
      -4.47722495e-01 -6.19539082e-01 -6.18072093e-01 -8.50519776e-01
      -6.65704131e-01 -5.59538662e-01 -2.91656375e-01 9.73570824e-01
      -6.50150180e-02 -6.55994192e-02 -5.57751954e-01 -4.67848450e-01
      -3.28930378e-01 -6.21512532e-01 3.07336539e-01 1.07815456e+00
      5.66089809e-01 -1.33569092e-01 -6.52215004e-01 2.13260770e+00
      -6.45328641e-01 -5.58256269e-01 -7.20646203e-01 1.48054138e-01
      -5.28249204e-01 3.50959611e+00 -3.70485842e-01 -2.19754860e-01
      -2.85096169e-01 -2.40564585e-01 7.12117791e-01 -1.09663880e+00
      4.41827893e-01 -3.33225787e-01 5.42282045e-01 -8.02353203e-01</_>
    <_>
      -2.16611490e-01 -7.78034508e-01 -2.38554291e-02 -7.31072128e-01
      -1.19516835e-01 -9.89280760e-01 -6.34829819e-01 2.57036537e-01
      -1.23486829e+00 4.65221226e-01 3.72496814e-01 -9.74540532e-01
      -4.39901918e-01 9.84743476e-01 -6.60567224e-01 -1.32450506e-01
      1.97072536e-01 -9.36884403e-01 -5.38570285e-01 -5.74440300e-01
      -1.03073406e+00 1.42172742e+00 6.49646856e-03 -2.43799433e-01
      -3.15861970e-01 -3.99354458e-01 -6.18072093e-01 -8.50519776e-01
      -6.65704131e-01 -5.59538662e-01 -4.53579903e-01 1.04115464e-01
      4.78058696e-01 -1.25976920e+00 -5.57751954e-01 -3.35004389e-01
      -9.41110969e-01 -2.17011645e-01 -5.06612122e-01 -1.18878520e+00
      1.55719686e+00 -1.27418721e+00 -6.52215004e-01 -9.18572962e-01
      -6.45328641e-01 -5.58256269e-01 -7.20646203e-01 -8.76002908e-02
      -2.82879293e-01 -8.50288212e-01 -1.06316614e+00 -8.81904662e-01
      -8.80180955e-01 -2.40564585e-01 9.24342930e-01 -7.02467084e-01
      -3.98571968e-01 4.51307669e-02 -7.39780590e-02 -7.09982991e-01</_>
    <_>
      -3.92688245e-01 1.23958039e+00 -5.17082930e-01 -7.31072128e-01
      6.80327117e-02 -1.42511755e-01 4.38171327e-01 -3.55447680e-01
      7.31780469e-01 -5.73991358e-01 -5.39780855e-01 -4.10640001e-01
      -3.26926678e-01 -6.17742717e-01 2.22460198e+00 7.55064547e-01
      -6.16932392e-01 -1.93102404e-01 -6.91637635e-01 -4.22119021e-01
      8.57197214e-03 -6.80255294e-01 -2.80913234e-01 -1.12109020e-01
      -2.49931708e-01 -3.99354458e-01 4.67602402e-01 -5.29344440e-01
      -4.20275837e-01 -2.39503488e-01 1.13152444e-01 -5.16924083e-01
      -5.53781331e-01 4.19929314e+00 -3.95310253e-01 -2.68582344e-01
      1.35456622e+00 -1.47611871e-02 -9.96377766e-02 6.24766648e-01
      -5.57164788e-01 3.47838807e+00 -4.48217273e-01 -5.97396076e-01
      8.23834240e-01 -4.79364753e-01 1.10684884e+00 3.02269235e-02
      -3.75093557e-02 4.57677066e-01 -3.70485842e-01 -8.81904662e-01
      -4.04113114e-01 -2.40564585e-01 -5.61232984e-01 -3.08295459e-01
      2.31727928e-01 -3.33225787e-01 -5.66986144e-01 -3.40502053e-01</_>
    <_>
      4.29003268e-01 1.44134188e+00 -4.18437421e-01 -7.31072128e-01
      -3.07066381e-01 -1.38358842e-03 -6.34829819e-01 -5.08568764e-01
      1.38732994e+00 -5.73991358e-01 -8.43873382e-01 -9.74540532e-01
      8.59313250e-01 -6.17742717e-01 -2.48400196e-01 1.34674132e+00
      -6.16932392e-01 -6.88957036e-01 -5.38570285e-01 -4.22119021e-01
      -4.36844915e-01 6.16209693e-02 -4.96470481e-01 2.17117012e-01
      -2.49931708e-01 4.10147868e-02 -2.84018397e-01 1.07653213e+00
      -4.20275837e-01 -5.59538662e-01 -5.34541667e-01 -8.21963996e-02
      -5.53781331e-01 1.46976185e+00 3.35677475e-01 -2.02160329e-01
      -3.28930378e-01 -6.21512532e-01 -3.03124934e-01 -1.30879968e-01
      -5.57164788e-01 1.57735813e+00 -6.52215004e-01 -2.76219159e-01
      -8.02660063e-02 -1.63798720e-01 -1.58340052e-01 3.24794948e-01
      -1.19299330e-01 3.12347591e-01 -1.39592424e-01 -2.19754860e-01
      -7.61163950e-01 -2.40564585e-01 7.54424036e-02 -3.08295459e-01
      -8.34220275e-02 -3.33225787e-01 4.92739603e-02 -8.02353203e-01</_>
    <_>
      -1.57919243e-01 -5.76273024e-01 5.68017602e-01 3.29581760e-02
      -2.57420596e-02 1.55102623e+00 1.77942264e+00 1.48200488e+00
      4.04005677e-01 4.75197315e+00 6.76589370e-01 -9.74540532e-01
      -2.70439059e-01 2.39493132e+00 -5.57525456e-01 -7.24127233e-01
      2.53733683e+00 -4.41029727e-01 -7.93682486e-02 7.96450913e-01
      -1.17920637e+00 3.08913052e-01 3.23985577e+00 -3.75489861e-01
      1.99169719e+00 4.10147868e-02 5.51115811e-01 -2.08169147e-01
      -5.02085268e-01 7.20602095e-01 2.21815825e+00 2.28323370e-01
      5.80018091e+00 -2.36195102e-01 -4.76531118e-01 -6.00692511e-01
      -6.35020673e-01 7.94240594e-01 -4.04868513e-01 7.75895953e-01
      2.61437750e+00 -1.33569092e-01 -4.02217992e-02 3.66134673e-01
      1.27588439e+00 -4.00473237e-01 1.22813031e-01 8.91405270e-02
      1.92545009e+00 -4.14299786e-01 3.22194397e-01 2.21678331e-01
      -6.42147005e-01 -6.46679029e-02 7.54424036e-02 -7.02467084e-01
      -6.08671963e-01 4.23487306e-01 7.88786054e-01 -8.02353203e-01</_>
    <_>
      -5.10072768e-01 -7.78034508e-01 2.83686423e+00 -2.72653937e-01
      -4.94615912e-01 4.22000915e-01 -3.66579533e-01 -4.92055751e-02
      7.62308761e-02 2.93335128e+00 2.20450550e-01 -1.28689736e-01
      -4.96389538e-01 5.53580427e+00 -7.63608992e-01 -1.32450506e-01
      1.62158120e+00 -3.17066073e-01 3.13504601e+00 1.86269963e+00
      1.93871176e+00 6.79851174e-01 7.25020707e-01 -3.75489861e-01
      1.85983670e+00 -6.19539082e-01 5.00352904e-02 4.34181452e-01
      -5.83894670e-01 4.00566876e-01 -5.34541667e-01 -2.68508255e-01
      1.52214468e-01 1.04996271e-01 -4.76531118e-01 -4.67848450e-01
      -3.28930378e-01 1.87489256e-01 -4.04868513e-01 4.73637313e-01
      1.68934441e+00 -5.13775110e-01 -4.48217273e-01 1.49025393e+00
      2.58771569e-01 -3.21581751e-01 1.22813031e-01 -3.82168323e-01
      2.07860574e-01 -1.23640850e-01 9.13009942e-02 1.10454476e+00
      -5.23130059e-01 -2.40564585e-01 -6.60410225e-02 -7.02467084e-01
      -2.93522000e-01 -3.33225787e-01 1.28179419e+00 -6.17612720e-01</_>
    <_>
      -9.92269889e-02 2.85367227e+00 -3.19791943e-01 -5.78266084e-01
      -3.07066381e-01 -4.24768090e-01 -9.83292460e-02 -5.08568764e-01
      -7.43206084e-01 -5.30690849e-01 -6.91827118e-01 2.94235647e-01
      -1.00976214e-01 -5.53643227e-01 -2.48400196e-01 -4.28288877e-01
      -6.16932392e-01 -9.36884403e-01 -1.15083969e+00 3.48447189e-02
      1.79023945e+00 -3.09317172e-01 6.49646856e-03 8.54265988e-02
      2.77510375e-01 -1.79169834e-01 -3.34781334e-02 -8.50519776e-01
      -4.20275837e-01 -5.59538662e-01 2.75075972e-01 -2.68508255e-01
      -5.53781331e-01 4.46187645e-01 -3.14089388e-01 -4.67848450e-01
      8.95430803e-01 -4.19262081e-01 2.10579881e-03 -5.84267914e-01
      -5.57164788e-01 2.14766717e+00 -4.48217273e-01 1.49025393e+00
      -3.06291074e-01 -3.21581751e-01 -2.98916608e-01 -3.82168323e-01
      -1.19299330e-01 2.16886271e-02 -8.32272708e-01 -6.61188066e-01
      -6.42147005e-01 -2.40564585e-01 -3.49007875e-01 1.66256285e+00
      7.56977856e-01 -1.44047499e-01 -7.39780590e-02 -5.25242507e-01</_>
    <_>
      -4.51380491e-01 -1.72750056e-01 -3.19791943e-01 3.29581760e-02
      -1.19516835e-01 1.97441077e+00 -5.00704646e-01 -4.32008207e-01
      1.38732994e+00 -5.30690849e-01 1.13272822e+00 1.22853918e-02
      -4.39901918e-01 -5.53643227e-01 -4.23166789e-02 -1.32450506e-01
      -9.22184289e-01 1.78788573e-01 5.32901168e-01 -4.22119021e-01
      1.04787803e+00 -6.80255294e-01 2.22053736e-01 -3.75489861e-01
      4.75301176e-01 -1.79169834e-01 1.38625002e+00 1.13006152e-01
      -5.83894670e-01 -5.59538662e-01 4.36999500e-01 -5.79028010e-01
      -6.08088732e-01 1.98154891e+00 -5.57751954e-01 -2.02160329e-01
      2.83250213e-01 -2.17011645e-01 4.09080118e-01 2.43831849e+00
      -6.89312339e-01 1.95756412e+00 -4.02217992e-02 -2.76219159e-01
      2.97107244e+00 -4.79364753e-01 2.51261425e+00 -3.23254734e-01
      6.98600471e-01 2.16886271e-02 -8.32272708e-01 -8.81904662e-01
      -4.70622592e-02 -2.40564585e-01 -5.61232984e-01 -7.02467084e-01
      1.28222775e+00 -3.33225787e-01 -3.20482105e-01 -4.32872266e-01</_>
    <_>
      -2.75303751e-01 1.84486485e+00 2.24499130e+00 1.10260057e+00
      -4.00841147e-01 3.10343599e+00 1.37704730e+00 2.70697355e+00
      3.84564090e+00 -1.40986115e-01 -3.87734562e-01 -5.51615119e-01
      -2.70439059e-01 -2.33146012e-01 -2.48400196e-01 -7.24127233e-01
      8.07576239e-01 -6.91387504e-02 -9.97772336e-01 5.21376753e+00
      -1.03073406e+00 -3.09317172e-01 1.08428288e+00 1.95813905e-02
      2.45320916e+00 3.78415370e+00 2.47192454e+00 1.07653213e+00
      -5.83894670e-01 4.24098921e+00 5.98923028e-01 -1.44300357e-01
      4.35997285e-02 9.57974732e-01 9.20148939e-02 -2.02160329e-01
      -6.35020673e-01 5.85050201e+00 -2.01381356e-01 1.83380127e+00
      -4.91090983e-01 1.00704896e+00 3.42773962e+00 -1.15630701e-01
      2.40600967e+00 -8.49072188e-02 3.21549702e+00 -1.46513894e-01
      2.89650559e-01 7.48336017e-01 1.47666144e+00 2.20812774e+00
      -4.70622592e-02 2.57378244e+00 -6.60410225e-02 1.26839113e+00
      3.36777896e-01 5.53130054e+00 -5.66986144e-01 -1.55761570e-01</_>
    <_>
      -2.75303751e-01 1.03781891e+00 -6.15728438e-01 -8.83878171e-01
      2.55582273e-01 -2.83639938e-01 -9.83292460e-02 -3.55447680e-01
      4.04005677e-01 -5.73991358e-01 -6.91827118e-01 -8.33565414e-01
      -1.57463834e-01 -6.17742717e-01 -5.57525456e-01 4.59226191e-01
      -7.18683064e-01 -8.12920690e-01 -2.32435599e-01 -5.74440300e-01
      8.57197214e-03 -2.47494146e-01 -5.68322897e-01 -4.41335052e-01
      -1.18071191e-01 -1.79169834e-01 -2.00504974e-01 -8.50519776e-01
      -6.65704131e-01 -5.59538662e-01 -3.72618139e-01 -5.79028010e-01
      -6.08088732e-01 1.29916608e+00 -4.76531118e-01 -4.67848450e-01
      -1.09415615e+00 -2.17011645e-01 -8.11842859e-01 -4.33138609e-01
      -6.89312339e-01 2.46636927e-01 3.67773652e-01 -7.57984519e-01
      2.58771569e-01 -4.79364753e-01 -1.58340052e-01 -4.41081941e-01
      -3.64669263e-01 -7.04958737e-01 -8.32272708e-01 -8.81904662e-01
      -7.61163950e-01 -2.40564585e-01 -5.61232984e-01 -7.02467084e-01
      -6.08671963e-01 -3.33225787e-01 -1.05999422e+00 -6.17612720e-01</_>
    <_>
      -2.16611490e-01 -3.74511540e-01 1.35718155e+00 -2.72653937e-01
      6.30681336e-01 -4.24768090e-01 1.51117241e+00 1.40544438e+00
      -9.07093525e-01 5.18497849e+00 -3.87734562e-01 -5.51615119e-01
      1.24974251e-01 6.56139517e+00 -1.45358443e-01 -4.28288877e-01
      3.96184564e+00 -6.88957036e-01 1.91050732e+00 1.25341463e+00
      7.50933468e-01 8.03497255e-01 5.81315875e-01 -5.07180274e-01
      1.00274324e+00 4.81384039e-01 7.18142688e-01 -2.08169147e-01
      -6.65704131e-01 8.05316940e-02 -2.10694611e-01 1.66219413e-01
      1.94435775e+00 2.75591969e-01 -4.76531118e-01 -3.35004389e-01
      -4.81975526e-01 3.89739722e-01 1.03849381e-01 -4.33138609e-01
      3.14296794e+00 -3.23672116e-01 -4.48217273e-01 -2.76219159e-01
      1.84094703e+00 -4.79364753e-01 1.52857840e+00 8.91405270e-02
      3.71440530e-01 -2.68970311e-01 1.24576807e+00 8.83828104e-01
      -4.04113114e-01 -1.52616248e-01 1.46184117e-01 8.58762041e-02
      -3.98571968e-01 4.51307669e-02 3.25382638e+00 -6.17612720e-01</_>
    <_>
      2.52926528e-01 -9.79795992e-01 2.04770017e+00 2.63066125e+00
      4.00657320e+00 -5.65896273e-01 -5.00704646e-01 -1.25766098e-01
      -9.07093525e-01 2.02404022e+00 1.13272822e+00 2.97276330e+00
      6.84866309e-02 2.45903087e+00 5.83106375e+00 1.64257967e+00
      1.51983058e+00 1.17049789e+00 1.75743997e+00 1.40573597e+00
      3.72037935e+00 4.51287889e+00 1.15613520e+00 -1.77954227e-01
      9.36812997e-01 2.61199415e-01 3.84088993e-01 7.55356789e-01
      3.97818387e-01 1.04063725e+00 9.22770143e-01 3.14720917e+00
      1.12974715e+00 -1.08917356e+00 -7.04268217e-02 6.61326051e-01
      1.66065657e+00 2.61449456e+00 4.37707996e+00 -8.86526585e-01
      3.80370593e+00 -7.03878105e-01 1.59176004e+00 3.25672698e+00
      8.23834240e-01 -3.21581751e-01 1.22813031e-01 1.62089431e+00
      4.42806222e-02 1.18432438e+00 1.70755494e+00 9.61736776e-04
      4.11853123e+00 -2.40564585e-01 3.32956123e+00 4.80047852e-01
      7.58522654e+00 1.36937869e+00 1.40504622e+00 3.98459822e-01</_>
    <_>
      -5.10072768e-01 1.64310336e+00 4.02061033e+00 2.17224312e+00
      6.80327117e-02 1.26876986e+00 3.92542505e+00 2.09448910e+00
      -8.76565203e-02 -5.43850698e-02 2.50114465e+00 -2.69664884e-01
      -2.70439059e-01 2.79649556e-01 3.69850367e-01 1.05090296e+00
      8.07576239e-01 -6.88957036e-01 2.06357455e+00 3.08126974e+00
      6.02461159e-01 -6.20250739e-02 1.37169254e+00 -1.77954227e-01
      4.29925632e+00 3.78415370e+00 -2.00504974e-01 7.55356789e-01
      -5.83894670e-01 3.60091877e+00 2.13719654e+00 -2.06404299e-01
      9.66825068e-01 2.75591969e-01 -3.95310253e-01 -2.02160329e-01
      1.30205050e-01 7.87300682e+00 2.05592960e-01 9.27025259e-01
      6.98237360e-01 -1.33569092e-01 4.44772816e+00 -7.57984519e-01
      7.10821688e-01 7.28757977e-02 1.80973148e+00 -3.82168323e-01
      -2.01089308e-01 -2.68970311e-01 3.22194397e-01 2.64956093e+00
      7.86056399e-01 1.16660893e+00 1.46184117e-01 8.74219537e-01
      5.46877861e-01 4.20705271e+00 1.40504622e+00 -3.40502053e-01</_>
    <_>
      -9.92269889e-02 1.84486485e+00 1.15989053e+00 -4.25460011e-01
      -2.13291600e-01 1.69215441e+00 2.58417344e+00 1.02264178e+00
      1.05955529e+00 -5.43850698e-02 2.20450550e-01 -6.92590296e-01
      1.19990176e-02 -2.97245473e-01 -3.51441950e-01 1.64257967e+00
      3.75834441e+00 5.48249111e-02 -6.91637635e-01 3.39487225e-01
      8.57197214e-03 1.05078924e+00 2.22053736e-01 -3.75489861e-01
      5.41231453e-01 4.81384039e-01 -5.34558654e-01 4.34181452e-01
      -5.02085268e-01 8.05316940e-02 -2.10694611e-01 1.04115464e-01
      8.03902924e-01 1.04996271e-01 9.20148939e-02 -5.34270465e-01
      -4.81975526e-01 7.94240594e-01 -4.04868513e-01 6.24766648e-01
      1.69647008e-01 1.19715202e+00 -2.44219527e-01 1.49025393e+00
      -3.06291074e-01 -8.49072188e-02 4.03966099e-01 3.02269235e-02
      -3.64669263e-01 2.16886271e-02 1.47666144e+00 1.10454476e+00
      -5.23130059e-01 -2.40564585e-01 -1.36782736e-01 -1.09663880e+00
      -8.34220275e-02 -3.33225787e-01 9.12038088e-01 1.21349126e-01</_>
    <_>
      -2.75303751e-01 1.64310336e+00 3.33009171e+00 4.91376340e-01
      6.30681336e-01 5.78487110e+00 1.77942264e+00 1.78824699e+00
      2.20676684e+00 2.92019129e-01 -6.91827118e-01 -8.33565414e-01
      -3.83414298e-01 2.15550110e-01 6.07250817e-02 -1.01996553e+00
      1.72333181e+00 -5.64993382e-01 -3.85502934e-01 3.84287596e+00
      -8.82261813e-01 -1.23848096e-01 2.09021664e+00 -5.73025465e-01
      1.06867349e+00 2.68323016e+00 4.05867958e+00 7.55356789e-01
      -6.65704131e-01 3.60091877e+00 1.08469367e+00 6.00947082e-01
      4.23751324e-01 1.29916608e+00 -5.57751954e-01 -6.67114556e-01
      -6.35020673e-01 4.03024769e+00 3.07336539e-01 3.19396520e+00
      2.35720798e-01 2.14766717e+00 2.81574631e+00 -5.97396076e-01
      3.42312241e+00 -4.79364753e-01 3.77780318e+00 -2.64341116e-01
      1.68008006e+00 -7.04958737e-01 1.24576807e+00 1.76669455e+00
      7.19546899e-02 -6.46679029e-02 -2.07524449e-01 -3.08295459e-01
      2.31727928e-01 5.15294409e+00 1.52829814e+00 -5.25242507e-01</_>
    <_>
      -4.51380491e-01 2.90114302e-02 -6.15728438e-01 -8.83878171e-01
      -3.07066381e-01 2.80872732e-01 -2.32454389e-01 -5.08568764e-01
      -4.15431321e-01 -5.73991358e-01 -9.95919704e-01 1.22853918e-02
      -3.83414298e-01 -6.17742717e-01 2.66808599e-01 -7.24127233e-01
      -7.18683064e-01 -3.17066073e-01 2.26766452e-01 -5.74440300e-01
      6.02461159e-01 -6.80255294e-01 -4.96470481e-01 -4.41335052e-01
      -5.13652742e-01 -1.79169834e-01 -2.84018397e-01 -1.17169511e+00
      -6.65704131e-01 -8.79573882e-01 -6.15503430e-01 -5.16924083e-01
      -6.08088732e-01 1.04996271e-01 -5.57751954e-01 -7.33536541e-01
      -1.75885245e-01 -4.19262081e-01 -8.11842859e-01 -4.33138609e-01
      -6.89312339e-01 2.52787304e+00 1.63775936e-01 -1.15630701e-01
      8.23834240e-01 -5.58256269e-01 4.03966099e-01 1.48054138e-01
      -2.01089308e-01 4.57677066e-01 -3.70485842e-01 -2.19754860e-01
      -8.80180955e-01 -2.40564585e-01 -4.90491301e-01 -7.02467084e-01
      1.26677945e-01 -3.33225787e-01 -3.20482105e-01 3.98459822e-01</_>
    <_>
      -5.10072768e-01 -1.72750056e-01 1.75176370e+00 -7.31072128e-01
      -6.82165444e-01 1.55102623e+00 -5.00704646e-01 -4.32008207e-01
      -8.76565203e-02 2.02404022e+00 6.84042647e-02 -5.51615119e-01
      -3.83414298e-01 2.52313018e+00 -5.57525456e-01 7.55064547e-01
      1.01107752e+00 -6.88957036e-01 3.79833817e-01 7.96450913e-01
      1.49329495e+00 -5.56609273e-01 1.22798765e+00 -4.41335052e-01
      7.39022195e-01 9.21753287e-01 2.30489779e+00 -2.08169147e-01
      -6.65704131e-01 -2.39503488e-01 1.13152444e-01 -5.79028010e-01
      8.58210325e-01 -2.36195102e-01 -5.57751954e-01 -5.34270465e-01
      1.30205050e-01 1.87489256e-01 -5.06612122e-01 1.68267190e+00
      -2.92869568e-01 -7.03878105e-01 3.67773652e-01 8.47900033e-01
      1.16287184e+00 -4.00473237e-01 2.37203765e+00 -5.58909178e-01
      1.68008006e+00 6.03006542e-01 7.83981264e-01 2.42884421e+00
      -7.61163950e-01 -2.40564585e-01 -5.61232984e-01 -1.09663880e+00
      -6.08671963e-01 -3.33225787e-01 -7.39780590e-02 -8.02353203e-01</_>
    <_>
      8.98541272e-01 -1.72750056e-01 -6.15728438e-01 3.70030355e+00
      5.13187027e+00 -9.89280760e-01 -9.83292460e-02 -5.08568764e-01
      -9.07093525e-01 1.59103489e+00 3.26137590e+00 1.14008641e+00
      2.37949476e-01 5.08710814e+00 4.80064631e+00 2.53009486e+00
      3.14784050e+00 -9.36884403e-01 6.85968518e-01 1.87165976e-01
      -5.85317194e-01 5.56386995e+00 6.53168261e-01 6.12188220e-01
      -5.13652742e-01 2.24286103e+00 -4.51045245e-01 1.39770734e+00
      1.70676923e+00 7.20602095e-01 -4.87710834e-02 2.83668947e+00
      -6.50150180e-02 -7.47982204e-01 8.23002636e-01 2.18903279e+00
      -4.81975526e-01 9.96491075e-01 3.97010541e+00 -1.18878520e+00
      5.19125557e+00 5.65339141e-02 3.42773962e+00 -5.97396076e-01
      -6.45328641e-01 5.46224833e-01 -7.20646203e-01 5.60449362e-01
      -3.75093557e-02 -5.59629261e-01 1.93844831e+00 3.97386026e+00
      4.47558212e+00 -2.40564585e-01 1.34879315e+00 1.26839113e+00
      6.42967701e+00 -5.22404075e-01 3.37707853e+00 1.59927285e+00</_>
    <_>
      1.35542020e-01 -1.18155742e+00 -6.15728438e-01 1.85764238e-01
      5.36906600e-01 -9.89280760e-01 -9.03080106e-01 -5.08568764e-01
      -7.43206084e-01 -4.00789261e-01 1.13272822e+00 1.22853918e-02
      -1.57463834e-01 -4.89543796e-01 4.72892135e-01 1.63387850e-01
      -7.18683064e-01 1.78788573e-01 -6.91637635e-01 -5.74440300e-01
      7.50933468e-01 3.70736063e-01 -6.40175343e-01 2.82962203e-01
      -5.13652742e-01 -1.79169834e-01 -6.18072093e-01 1.07653213e+00
      3.97818387e-01 -2.39503488e-01 -6.15503430e-01 3.52531284e-01
      -6.08088732e-01 -1.08917356e+00 9.20148939e-02 3.29215914e-01
      1.30205050e-01 -4.19262081e-01 3.07336539e-01 -8.86526585e-01
      1.03573203e-01 -1.27418721e+00 3.67773652e-01 6.87311590e-01
      -6.45328641e-01 -4.00473237e-01 -7.20646203e-01 7.37190187e-01
      -5.28249204e-01 7.48336017e-01 1.01487470e+00 -6.61188066e-01
      1.14310730e+00 -2.40564585e-01 1.46184117e-01 2.05673456e+00
      8.62027884e-01 -5.22404075e-01 -5.66986144e-01 9.52681243e-01</_>
    <_>
      7.68497661e-02 -1.18155742e+00 1.85040915e+00 1.86663091e+00
      2.88127589e+00 -8.48152578e-01 -9.03080106e-01 -5.08568764e-01
      -1.23486829e+00 -2.70887703e-01 3.10932970e+00 4.38251448e+00
      -1.57463834e-01 2.79649556e-01 3.15197802e+00 -1.01996553e+00
      -9.22184289e-01 3.40184379e+00 -5.38570285e-01 3.39487225e-01
      1.19635034e+00 1.73084247e+00 1.37169254e+00 2.82962203e-01
      2.05762744e+00 4.10147868e-02 2.17062145e-01 1.13006152e-01
      8.06865513e-01 1.36067235e+00 8.41808379e-01 3.83035278e+00
      -6.08088732e-01 -1.25976920e+00 1.73235759e-01 1.96371853e-01
      2.42588234e+00 5.91990173e-01 2.24046445e+00 -1.18878520e+00
      1.02860641e+00 -1.27418721e+00 2.20375323e+00 2.13260770e+00
      1.38889694e+00 1.51767313e-01 -2.98916608e-01 1.91546237e+00
      7.80390441e-01 2.78294873e+00 -1.06316614e+00 2.21678331e-01
      6.67039454e-01 -2.40564585e-01 4.31994534e+00 8.58762041e-02
      1.49232781e+00 2.34309047e-01 -8.13490152e-01 6.75570548e-01</_>
    <_>
      -5.10072768e-01 -1.18155742e+00 -6.15728438e-01 -1.19847879e-01
      -8.69715035e-01 1.39744580e-01 -9.03080106e-01 -5.08568764e-01
      -9.07093525e-01 -5.73991358e-01 -2.35688284e-01 7.17161059e-01
      -4.96389538e-01 -6.17742717e-01 -5.57525456e-01 1.64257967e+00
      -9.22184289e-01 -3.17066073e-01 -7.93682486e-02 -5.74440300e-01
      -2.88372606e-01 -6.80255294e-01 -6.40175343e-01 -4.41335052e-01
      -5.13652742e-01 -6.19539082e-01 -6.18072093e-01 -5.29344440e-01
      1.52390122e-01 -2.39503488e-01 -6.15503430e-01 -5.79028010e-01
      -6.08088732e-01 -2.36195102e-01 -5.57751954e-01 -4.67848450e-01
      5.89340508e-01 -6.21512532e-01 -5.06612122e-01 -2.82009274e-01
      -6.89312339e-01 5.65339141e-02 -2.44219527e-01 -4.36807603e-01
      -6.45328641e-01 -5.58256269e-01 -7.20646203e-01 -5.58909178e-01
      -5.28249204e-01 -5.59629261e-01 -6.01379275e-01 -2.19754860e-01
      1.90971643e-01 -2.40564585e-01 -5.61232984e-01 1.26839113e+00
      -8.18771899e-01 -5.22404075e-01 -6.90238178e-01 1.21349126e-01</_>
    <_>
      7.68497661e-02 -3.74511540e-01 -6.15728438e-01 -8.83878171e-01
      -7.75940239e-01 -9.89280760e-01 1.69921041e-01 -2.78887153e-01
      -1.23486829e+00 -4.44089800e-01 -9.95919704e-01 -9.74540532e-01
      -4.44885977e-02 -3.61344904e-01 -7.63608992e-01 -1.31580389e+00
      -3.11680555e-01 -9.36884403e-01 -1.45697439e+00 -5.74440300e-01
      -1.32767868e+00 -4.32963192e-01 -6.40175343e-01 -5.07180274e-01
      -5.13652742e-01 -6.19539082e-01 -6.18072093e-01 -1.17169511e+00
      -6.65704131e-01 -8.79573882e-01 -6.15503430e-01 -2.68508255e-01
      -5.53781331e-01 -1.25976920e+00 -5.57751954e-01 -7.33536541e-01
      -1.09415615e+00 -6.21512532e-01 -8.11842859e-01 -1.18878520e+00
      -4.25017178e-01 -1.27418721e+00 -6.52215004e-01 -1.23974991e+00
      -6.45328641e-01 -5.58256269e-01 -7.20646203e-01 -4.41081941e-01
      -5.28249204e-01 -9.95617688e-01 -1.06316614e+00 -8.81904662e-01
      -8.80180955e-01 2.32804455e-02 -6.60410225e-02 -1.09663880e+00
      -6.08671963e-01 -5.22404075e-01 -8.13490152e-01 -8.02353203e-01</_>
    <_>
      6.05080009e-01 -1.72750056e-01 -6.15728438e-01 -8.83878171e-01
      -8.69715035e-01 -9.89280760e-01 -7.68954933e-01 -5.08568764e-01
      -1.07098091e+00 -5.73991358e-01 -9.95919704e-01 9.99111295e-01
      9.72288430e-01 -6.17742717e-01 -3.51441950e-01 -1.32450506e-01
      -6.16932392e-01 -6.88957036e-01 -1.15083969e+00 -5.74440300e-01
      -2.88372606e-01 -5.56609273e-01 -6.40175343e-01 5.46343029e-01
      -5.13652742e-01 -6.19539082e-01 -6.18072093e-01 4.34181452e-01
      -1.12287290e-02 -8.79573882e-01 -6.15503430e-01 -2.68508255e-01
      -5.53781331e-01 -1.08917356e+00 -5.57751954e-01 -2.02160329e-01
      -1.75885245e-01 -6.21512532e-01 8.16054404e-01 -1.18878520e+00
      -4.91090983e-01 -7.03878105e-01 -6.52215004e-01 2.05546215e-01
      -6.45328641e-01 -5.58256269e-01 -7.20646203e-01 -8.76002908e-02
      -5.28249204e-01 -7.04958737e-01 -8.32272708e-01 -8.81904662e-01
      -6.42147005e-01 -2.40564585e-01 -3.49007875e-01 8.58762041e-02
      -5.03621936e-01 -5.22404075e-01 -1.18324625e+00 3.06089610e-01</_>
    <_>
      -3.33995998e-01 4.32534397e-01 -6.15728438e-01 -5.78266084e-01
      -5.88390708e-01 -9.89280760e-01 -2.32454389e-01 -2.78887153e-01
      7.62308761e-02 -2.27587163e-01 -6.91827118e-01 -4.10640001e-01
      -1.00976214e-01 -2.97245473e-01 -4.54483718e-01 -7.24127233e-01
      1.11282814e+00 -4.41029727e-01 -1.15083969e+00 -5.74440300e-01
      -1.03073406e+00 -6.18432283e-01 -6.40175343e-01 8.54265988e-02
      -5.13652742e-01 -6.19539082e-01 -6.18072093e-01 -2.08169147e-01
      -3.38466436e-01 7.20602095e-01 1.13152444e-01 -5.79028010e-01
      9.79070961e-02 1.04996271e-01 -2.32868537e-01 6.35278001e-02
      -1.09415615e+00 -6.21512532e-01 -6.08355701e-01 2.02493574e-02
      2.35720798e-01 4.36739922e-01 -6.52215004e-01 -9.18572962e-01
      -6.45328641e-01 2.30658814e-01 -7.20646203e-01 -1.46513894e-01
      -5.28249204e-01 -5.59629261e-01 -1.39592424e-01 -8.81904662e-01
      -1.66079208e-01 -2.40564585e-01 -4.19749588e-01 8.58762041e-02
      -8.34220275e-02 -3.33225787e-01 -4.43734109e-01 -6.17612720e-01</_>
    <_>
      -3.33995998e-01 -7.78034508e-01 -6.15728438e-01 -5.78266084e-01
      -4.00841147e-01 -9.89280760e-01 1.69921041e-01 -1.25766098e-01
      7.62308761e-02 -2.70887703e-01 -5.39780855e-01 -5.51615119e-01
      -2.70439059e-01 -3.61344904e-01 -4.54483718e-01 -1.32450506e-01
      9.53219235e-02 -5.64993382e-01 -6.91637635e-01 -5.74440300e-01
      -1.32767868e+00 -3.71140182e-01 -6.40175343e-01 -1.77954227e-01
      -5.13652742e-01 -6.19539082e-01 -6.18072093e-01 -2.08169147e-01
      -2.56657004e-01 1.04063725e+00 -4.87710834e-02 -5.16924083e-01
      -1.73629761e-01 1.04996271e-01 7.41781771e-01 -1.35738298e-01
      -4.81975526e-01 -6.21512532e-01 2.10579881e-03 -1.30879968e-01
      -4.91090983e-01 -5.13775110e-01 -6.52215004e-01 -9.18572962e-01
      -6.45328641e-01 3.09550315e-01 -7.20646203e-01 -4.99995530e-01
      -5.28249204e-01 -4.14299786e-01 -1.39592424e-01 -6.61188066e-01
      -2.85096169e-01 -6.46679029e-02 -2.07524449e-01 8.58762041e-02
      -2.93522000e-01 -5.22404075e-01 2.95778006e-01 -5.25242507e-01</_>
    <_>
      -3.92688245e-01 -9.79795992e-01 -6.15728438e-01 -7.31072128e-01
      -5.88390708e-01 -9.89280760e-01 -5.00704646e-01 -5.08568764e-01
      -1.07098091e+00 -3.14188212e-01 -6.91827118e-01 -9.74540532e-01
      -3.26926678e-01 -4.89543796e-01 -8.66650760e-01 -1.31580389e+00
      -9.22184289e-01 -8.12920690e-01 -6.91637635e-01 -5.74440300e-01
      -8.82261813e-01 -5.56609273e-01 -6.40175343e-01 -3.09644639e-01
      -5.13652742e-01 -6.19539082e-01 -6.18072093e-01 -2.08169147e-01
      -1.74847573e-01 -2.39503488e-01 -4.87710834e-02 -2.68508255e-01
      -6.08088732e-01 -1.08917356e+00 3.35677475e-01 3.29215914e-01
      -1.09415615e+00 -6.21512532e-01 -3.03124934e-01 -8.86526585e-01
      -4.25017178e-01 -8.93981159e-01 -6.52215004e-01 -1.07916141e+00
      -6.45328641e-01 4.67333347e-01 -7.20646203e-01 -3.82168323e-01
      -5.28249204e-01 -9.95617688e-01 -6.01379275e-01 -6.61188066e-01
      -5.23130059e-01 -2.40564585e-01 -3.49007875e-01 4.80047852e-01
      -3.98571968e-01 -5.22404075e-01 -7.39780590e-02 -5.25242507e-01</_>
    <_>
      -3.33995998e-01 -1.18155742e+00 -6.15728438e-01 -5.78266084e-01
      -7.75940239e-01 -9.89280760e-01 -6.34829819e-01 -5.08568764e-01
      -1.07098091e+00 -4.00789261e-01 -5.39780855e-01 1.22853918e-02
      -2.70439059e-01 -5.53643227e-01 -3.51441950e-01 -7.24127233e-01
      -1.08179316e-01 -6.88957036e-01 -6.91637635e-01 -5.74440300e-01
      -4.36844915e-01 -3.09317172e-01 -6.40175343e-01 -4.62638140e-02
      -5.13652742e-01 -6.19539082e-01 -6.18072093e-01 -2.08169147e-01
      -9.30381566e-02 8.05316940e-02 -2.10694611e-01 -5.79028010e-01
      -2.27937132e-01 -9.18577850e-01 5.79340041e-01 1.29949823e-01
      -2.28400957e-02 -6.21512532e-01 2.05592960e-01 -1.18878520e+00
      -1.60721987e-01 -8.93981159e-01 -4.48217273e-01 -1.07916141e+00
      -6.45328641e-01 -2.42690235e-01 -7.20646203e-01 -4.41081941e-01
      -5.28249204e-01 -9.95617688e-01 -8.32272708e-01 -8.81904662e-01
      -1.66079208e-01 -2.40564585e-01 -2.07524449e-01 -3.08295459e-01
      2.31727928e-01 -5.22404075e-01 -5.66986144e-01 -1.55761570e-01</_>
    <_>
      -9.92269889e-02 3.05543375e+00 -6.15728438e-01 3.38570297e-01
      6.30681336e-01 -5.65896273e-01 1.64529753e+00 2.57036537e-01
      -9.07093525e-01 5.08521736e-01 -2.35688284e-01 5.08739042e+00
      -1.00976214e-01 2.15550110e-01 1.50330973e+00 1.05090296e+00
      2.53733683e+00 4.14562559e+00 5.32901168e-01 -5.74440300e-01
      1.19635034e+00 -2.02052586e-04 -6.40175343e-01 -3.09644639e-01
      -5.13652742e-01 5.10526133e+00 -6.18072093e-01 1.07653213e+00
      6.28809690e+00 -5.59538662e-01 -6.15503430e-01 -2.68508255e-01
      5.86673439e-01 -9.18577850e-01 2.52864051e+00 2.91967511e+00
      2.27283716e+00 -4.19262081e-01 3.07336539e-01 -1.03765583e+00
      3.67868394e-01 -1.33569092e-01 1.18376458e+00 1.16907692e+00
      -6.45328641e-01 7.28757977e-02 -7.20646203e-01 -2.64341116e-01
      -5.28249204e-01 2.49228978e+00 3.09291553e+00 5.73959303e+00
      2.09524298e+00 -2.40564585e-01 -3.49007875e-01 8.74219537e-01
      9.67077851e-01 -5.22404075e-01 2.39106226e+00 6.12541485e+00</_>
    <_>
      -1.57919243e-01 1.23958039e+00 -6.15728438e-01 4.91376340e-01
      1.61807492e-01 -8.48152578e-01 3.04046184e-01 2.57036537e-01
      -7.43206084e-01 -2.27587163e-01 -3.87734562e-01 -5.51615119e-01
      -2.70439059e-01 2.32517719e-02 -2.48400196e-01 -7.24127233e-01
      -1.08179316e-01 -1.93102404e-01 -1.30390704e+00 -5.74440300e-01
      -1.32767868e+00 6.16209693e-02 -6.40175343e-01 -1.77954227e-01
      -5.13652742e-01 2.61199415e-01 -6.18072093e-01 -8.50519776e-01
      5.61437249e-01 -5.59538662e-01 -2.10694611e-01 -2.06404299e-01
      -1.07076429e-02 -5.77386498e-01 9.20148939e-02 -2.89423228e-03
      -6.35020673e-01 -6.21512532e-01 -4.04868513e-01 -1.18878520e+00
      3.74994092e-02 6.26842916e-01 -2.44219527e-01 -1.07916141e+00
      -6.45328641e-01 8.61790895e-01 -7.20646203e-01 2.65881360e-01
      -5.28249204e-01 -7.04958737e-01 -3.70485842e-01 -6.61188066e-01
      -4.70622592e-02 -1.52616248e-01 7.54424036e-02 1.26839113e+00
      -1.88472003e-01 -5.22404075e-01 -8.13490152e-01 2.89788954e-02</_>
    <_>
      -9.92269889e-02 1.23958039e+00 -6.15728438e-01 4.91376340e-01
      1.61807492e-01 -9.89280760e-01 1.64529753e+00 1.55856550e+00
      -2.51543909e-01 8.54925931e-01 1.28477454e+00 1.84496212e+00
      1.81461871e-01 1.04884291e+00 -1.45358443e-01 1.34674132e+00
      2.33383560e+00 7.98606873e-01 -9.97772336e-01 -5.74440300e-01
      -5.85317194e-01 2.47090027e-01 -6.40175343e-01 4.80497837e-01
      -5.13652742e-01 4.00433826e+00 -6.18072093e-01 2.36123323e+00
      7.25056112e-01 -2.39503488e-01 3.21906805e-02 4.20115069e-02
      1.61851358e+00 -1.08917356e+00 1.06666517e+00 1.12628031e+00
      -6.35020673e-01 1.40099192e+00 9.17797983e-01 -7.35397220e-01
      4.33942199e-01 -7.03878105e-01 2.81574631e+00 2.05546215e-01
      -6.45328641e-01 3.09550315e-01 -7.20646203e-01 3.83708566e-01
      -5.28249204e-01 2.34696031e+00 2.16934180e+00 4.85672665e+00
      6.67039454e-01 1.11228786e-01 4.29150969e-01 2.05673456e+00
      5.46877861e-01 -5.22404075e-01 1.15854216e+00 2.80008578e+00</_>
    <_>
      4.29003268e-01 -1.18155742e+00 -6.15728438e-01 -7.31072128e-01
      -4.00841147e-01 -9.89280760e-01 3.57958972e-02 4.86718118e-01
      -1.07098091e+00 3.22159790e-02 -9.95919704e-01 -2.69664884e-01
      1.81461871e-01 -2.97245473e-01 -6.60567224e-01 -7.24127233e-01
      2.98823148e-01 -6.91387504e-02 7.36991018e-02 -5.74440300e-01
      -1.32767868e+00 -1.23848096e-01 -6.40175343e-01 -1.77954227e-01
      -5.13652742e-01 -6.19539082e-01 -6.18072093e-01 -2.08169147e-01
      -1.74847573e-01 -8.79573882e-01 -5.34541667e-01 -2.68508255e-01
      1.52214468e-01 -5.77386498e-01 9.20148939e-02 -2.68582344e-01
      -9.41110969e-01 -6.21512532e-01 -4.04868513e-01 -7.35397220e-01
      -2.92869568e-01 -3.23672116e-01 -6.52215004e-01 -1.15630701e-01
      -6.45328641e-01 -3.21581751e-01 -7.20646203e-01 8.91405270e-02
      -5.28249204e-01 3.12347591e-01 9.13009942e-02 -2.19754860e-01
      1.90971643e-01 -2.40564585e-01 1.46184117e-01 -1.09663880e+00
      -2.93522000e-01 -5.22404075e-01 -7.39780590e-02 -6.33913428e-02</_>
    <_>
      5.46387792e-01 -7.78034508e-01 -6.15728438e-01 -7.31072128e-01
      -6.82165444e-01 -7.07024455e-01 -3.66579533e-01 -1.25766098e-01
      -1.23486829e+00 -4.44089800e-01 -5.39780855e-01 -9.74540532e-01
      4.07412320e-01 2.32517719e-02 -5.57525456e-01 -7.24127233e-01
      -6.16932392e-01 -5.64993382e-01 -1.30390704e+00 -5.74440300e-01
      -8.82261813e-01 -2.47494146e-01 -6.40175343e-01 6.78033471e-01
      -5.13652742e-01 -6.19539082e-01 -6.18072093e-01 -2.08169147e-01
      -6.65704131e-01 -8.79573882e-01 -6.15503430e-01 -1.44300357e-01
      -5.53781331e-01 -1.08917356e+00 1.07940389e-02 -2.89423228e-03
      -1.09415615e+00 -4.19262081e-01 -6.08355701e-01 -1.18878520e+00
      -4.25017178e-01 -8.93981159e-01 -4.48217273e-01 -1.23974991e+00
      -6.45328641e-01 -5.58256269e-01 -7.20646203e-01 -2.05427513e-01
      -5.28249204e-01 -7.04958737e-01 -8.32272708e-01 -8.81904662e-01
      3.09988588e-01 -1.52616248e-01 -2.07524449e-01 -3.08295459e-01
      -7.13721931e-01 -5.22404075e-01 -1.05999422e+00 -5.25242507e-01</_>
    <_>
      -4.51380491e-01 -3.74511540e-01 1.35718155e+00 3.29581760e-02
      1.38087952e+00 1.39744580e-01 -6.34829819e-01 -4.92055751e-02
      2.40118265e-01 3.35319638e-01 -3.87734562e-01 1.53260529e-01
      -4.39901918e-01 2.26673245e+00 6.78975642e-01 1.63387850e-01
      7.05825627e-01 2.28617096e+00 2.36970925e+00 3.39487225e-01
      1.93871176e+00 8.65320265e-01 -2.09060803e-01 -5.73025465e-01
      -5.21409288e-02 9.21753287e-01 2.47192454e+00 1.71888268e+00
      -5.02085268e-01 -5.59538662e-01 -6.15503430e-01 -5.16924083e-01
      2.60829210e-01 -4.06790793e-01 -5.57751954e-01 -6.00692511e-01
      1.50761139e+00 1.87489256e-01 2.10579881e-03 1.71378672e-01
      1.68934441e+00 -8.93981159e-01 3.67773652e-01 2.93554997e+00
      2.85805988e+00 -4.00473237e-01 1.38800192e+00 -4.99995530e-01
      6.98600471e-01 1.47498333e+00 7.83981264e-01 9.61736776e-04
      1.90971643e-01 2.32804455e-02 -2.07524449e-01 -3.08295459e-01
      1.26677945e-01 -5.22404075e-01 1.15854216e+00 5.83200276e-01</_>
    <_>
      -4.51380491e-01 -5.76273024e-01 9.62599576e-01 -1.19847879e-01
      -3.07066381e-01 7.04257250e-01 -6.34829819e-01 -2.78887153e-01
      -7.43206084e-01 -1.40986115e-01 -9.95919704e-01 1.22853918e-02
      -4.96389538e-01 2.20263314e+00 2.66808599e-01 -1.32450506e-01
      1.97072536e-01 1.91427994e+00 5.32901168e-01 7.96450913e-01
      2.23565650e+00 1.85267016e-01 -2.80913234e-01 -5.73025465e-01
      -5.21409288e-02 4.81384039e-01 1.88733065e+00 -5.29344440e-01
      -6.65704131e-01 -8.79573882e-01 -6.15503430e-01 -5.79028010e-01
      -6.50150180e-02 -2.36195102e-01 -5.57751954e-01 -7.33536541e-01
      1.30205050e-01 1.87489256e-01 -3.03124934e-01 1.71378672e-01
      8.96458805e-01 -3.23672116e-01 1.99975538e+00 1.65084243e+00
      2.74504733e+00 -5.58256269e-01 1.95030808e+00 -4.99995530e-01
      6.98600471e-01 1.91097176e+00 -6.01379275e-01 8.83828104e-01
      -7.61163950e-01 -1.52616248e-01 -2.78266162e-01 8.74219537e-01
      5.46877861e-01 -3.33225787e-01 2.63756633e+00 1.21349126e-01</_>
    <_>
      -4.51380491e-01 -1.18155742e+00 1.06124508e+00 3.29581760e-02
      -2.13291600e-01 -8.48152578e-01 -7.68954933e-01 -4.32008207e-01
      -1.07098091e+00 -3.57488751e-01 6.76589370e-01 -4.10640001e-01
      -4.96389538e-01 -2.97245473e-01 -4.54483718e-01 -1.01996553e+00
      6.04075015e-01 -3.17066073e-01 -9.97772336e-01 3.48447189e-02
      -7.33789504e-01 3.70736063e-01 3.65758598e-01 -1.12109020e-01
      4.09370899e-01 -3.99354458e-01 5.00352904e-02 -5.29344440e-01
      1.52390122e-01 1.68070757e+00 4.36999500e-01 -2.68508255e-01
      -4.99473989e-01 -1.25976920e+00 -5.57751954e-01 -5.34270465e-01
      -3.28930378e-01 3.89739722e-01 -4.04868513e-01 -1.03765583e+00
      1.03573203e-01 -1.27418721e+00 -2.44219527e-01 -5.97396076e-01
      -6.45328641e-01 -5.58256269e-01 -7.20646203e-01 -4.99995530e-01
      2.07860574e-01 -4.14299786e-01 -6.01379275e-01 -4.40471441e-01
      -1.66079208e-01 -2.40564585e-01 -4.19749588e-01 8.58762041e-02
      -6.08671963e-01 8.01843882e-01 1.72525987e-01 1.21349126e-01</_>
    <_>
      -3.92688245e-01 -7.78034508e-01 3.03415513e+00 2.47785521e+00
      9.12005663e-01 7.04257250e-01 -5.00704646e-01 -1.25766098e-01
      7.31780469e-01 5.51822245e-01 1.13272822e+00 -5.51615119e-01
      -4.39901918e-01 2.33083200e+00 6.78975642e-01 -1.01996553e+00
      4.00573790e-01 6.74643219e-01 8.39035869e-01 4.45216084e+00
      1.04787803e+00 2.84365678e+00 4.67690420e+00 -4.41335052e-01
      3.31030250e+00 1.14193785e+00 9.57056522e+00 -1.17169511e+00
      -3.38466436e-01 7.20602095e-01 1.97527301e+00 9.73570824e-01
      6.40980840e-01 -5.77386498e-01 -5.57751954e-01 -7.33536541e-01
      -4.81975526e-01 2.41224432e+00 -5.06612122e-01 2.02493574e-02
      2.21793485e+00 -5.13775110e-01 2.61174870e+00 1.49025393e+00
      4.66626024e+00 -5.58256269e-01 1.38800192e+00 -4.41081941e-01
      3.47945952e+00 3.12347591e-01 -6.01379275e-01 9.61736776e-04
      4.29005563e-01 -1.52616248e-01 1.06582630e+00 -1.09663880e+00
      2.16279589e-02 4.51307669e-02 4.19030011e-01 -6.33913428e-02</_>
    <_>
      -4.51380491e-01 -1.72750056e-01 -5.17082930e-01 -7.31072128e-01
      1.61807492e-01 -9.89280760e-01 -3.66579533e-01 -2.02326626e-01
      -1.23486829e+00 -3.57488751e-01 -8.43873382e-01 2.94235647e-01
      -4.96389538e-01 -3.61344904e-01 -4.54483718e-01 -1.01996553e+00
      -3.11680555e-01 -4.41029727e-01 6.85968518e-01 -5.74440300e-01
      -1.39900327e-01 -1.23848096e-01 3.65758598e-01 -4.41335052e-01
      -3.15861970e-01 -6.19539082e-01 6.34629250e-01 4.34181452e-01
      -1.74847573e-01 -8.79573882e-01 -4.87710834e-02 -2.68508255e-01
      -4.99473989e-01 -1.08917356e+00 -5.57751954e-01 -4.01426405e-01
      4.36295360e-01 -6.21512532e-01 -4.04868513e-01 -1.18878520e+00
      -2.26795778e-01 -8.93981159e-01 -6.52215004e-01 2.05546215e-01
      2.58771569e-01 -5.58256269e-01 -5.80069661e-01 -3.82168323e-01
      1.43471014e+00 -4.14299786e-01 -8.32272708e-01 -8.81904662e-01
      -6.42147005e-01 -2.40564585e-01 -2.07524449e-01 -1.09663880e+00
      -3.98571968e-01 -3.33225787e-01 1.72525987e-01 9.52681243e-01</_>
    <_>
      -5.10072768e-01 -5.76273024e-01 -4.18437421e-01 -7.31072128e-01
      6.80327117e-02 -5.65896273e-01 4.38171327e-01 -2.02326626e-01
      -9.07093525e-01 -4.87390310e-01 -6.91827118e-01 -6.92590296e-01
      -4.96389538e-01 -4.89543796e-01 -6.60567224e-01 -1.01996553e+00
      -6.42869808e-03 6.74643219e-01 -1.15083969e+00 -5.74440300e-01
      3.05516571e-01 -5.56609273e-01 2.93906152e-01 -5.07180274e-01
      -5.13652742e-01 -6.19539082e-01 9.68682945e-01 -1.17169511e+00
      -3.38466436e-01 -2.39503488e-01 -2.91656375e-01 -5.16924083e-01
      -3.90859246e-01 -4.06790793e-01 -5.57751954e-01 -4.67848450e-01
      -1.75885245e-01 -4.19262081e-01 2.10579881e-03 -4.33138609e-01
      -6.89312339e-01 -5.13775110e-01 -4.48217273e-01 3.66134673e-01
      9.36846793e-01 -5.58256269e-01 -5.80069661e-01 -4.41081941e-01
      1.10755038e+00 4.57677066e-01 -1.06316614e+00 -6.61188066e-01
      -4.70622592e-02 -1.52616248e-01 -4.90491301e-01 -1.09663880e+00
      -3.98571968e-01 -3.33225787e-01 -3.20482105e-01 2.13719368e-01</_>
    <_>
      -3.92688245e-01 1.44134188e+00 -6.15728438e-01 -8.83878171e-01
      -3.07066381e-01 -9.89280760e-01 3.04046184e-01 2.73549519e-02
      -5.79318702e-01 -5.30690849e-01 -9.95919704e-01 1.22853918e-02
      -4.39901918e-01 -5.53643227e-01 -4.54483718e-01 -1.01996553e+00
      -6.16932392e-01 -4.41029727e-01 -6.91637635e-01 -4.22119021e-01
      -1.39900327e-01 -4.94786233e-01 -5.68322897e-01 -5.73025465e-01
      -5.13652742e-01 -6.19539082e-01 -2.84018397e-01 -8.50519776e-01
      -1.74847573e-01 -2.39503488e-01 -4.53579903e-01 -3.92716169e-01
      -4.99473989e-01 -7.47982204e-01 -5.57751954e-01 -7.33536541e-01
      -3.28930378e-01 -6.21512532e-01 -4.04868513e-01 -1.03765583e+00
      -6.23238564e-01 -1.33569092e-01 -6.52215004e-01 4.49577570e-02
      -5.32316148e-01 -5.58256269e-01 -7.20646203e-01 -3.23254734e-01
      -3.64669263e-01 -4.14299786e-01 -1.39592424e-01 -8.81904662e-01
      -8.80180955e-01 -2.40564585e-01 -4.90491301e-01 -1.09663880e+00
      2.16279589e-02 4.23487306e-01 -3.20482105e-01 4.90830064e-01</_>
    <_>
      -5.10072768e-01 -7.78034508e-01 2.63957310e+00 -4.25460011e-01
      -6.82165444e-01 1.39744580e-01 -9.83292460e-02 4.10157591e-01
      2.40118265e-01 2.24054289e+00 -2.35688284e-01 5.76185942e-01
      -4.96389538e-01 6.64246202e-01 -8.66650760e-01 -4.28288877e-01
      9.09326851e-01 1.78788573e-01 5.32901168e-01 9.48772192e-01
      3.57190728e+00 -4.32963192e-01 1.37169254e+00 -5.73025465e-01
      2.11580127e-01 1.36212254e+00 1.55327690e+00 -2.08169147e-01
      3.16008955e-01 -2.39503488e-01 -3.72618139e-01 -5.79028010e-01
      9.66825068e-01 4.46187645e-01 -4.76531118e-01 -5.34270465e-01
      5.89340508e-01 -4.19262081e-01 -6.08355701e-01 -1.30879968e-01
      -2.85743885e-02 6.26842916e-01 5.71771383e-01 2.77496171e+00
      1.38889694e+00 -5.58256269e-01 9.66272295e-01 -5.58909178e-01
      1.35292017e+00 2.49228978e+00 -6.01379275e-01 4.42394942e-01
      -8.80180955e-01 -2.40564585e-01 -5.61232984e-01 4.80047852e-01
      -6.08671963e-01 -3.33225787e-01 1.15854216e+00 2.89788954e-02</_>
    <_>
      1.01592577e+00 -1.18155742e+00 -6.15728438e-01 2.93627334e+00
      2.59995151e+00 -9.89280760e-01 1.69921041e-01 1.03915475e-01
      -1.23486829e+00 1.46113336e+00 4.02160740e+00 4.94641495e+00
      2.04555321e+00 1.56163847e+00 6.78975642e-01 4.59226191e-01
      8.07576239e-01 1.17049789e+00 -2.32435599e-01 -5.74440300e-01
      -1.39900327e-01 9.88966286e-01 -1.37208372e-01 3.50937748e+00
      -5.13652742e-01 9.21753287e-01 -6.18072093e-01 1.39770734e+00
      5.38819361e+00 8.05316940e-02 1.13152444e-01 9.73570824e-01
      4.23751324e-01 -1.25976920e+00 4.31549931e+00 5.31086826e+00
      4.36295360e-01 9.96491075e-01 3.46138763e+00 -1.18878520e+00
      2.15186095e+00 -1.08408415e+00 9.79766846e-01 5.26723146e-01
      -6.45328641e-01 3.85966825e+00 -7.20646203e-01 9.72844720e-01
      -4.46459234e-01 7.48336017e-01 -1.39592424e-01 9.61736776e-04
      4.47558212e+00 -2.40564585e-01 9.95084643e-01 4.02759266e+00
      1.07212782e+00 4.23487306e-01 7.88786054e-01 4.18563938e+00</_>
    <_>
      8.39848995e-01 -5.76273024e-01 -6.15728438e-01 3.70030355e+00
      1.38087952e+00 -4.24768090e-01 7.06421614e-01 3.62569976e+00
      -5.79318702e-01 5.08521736e-01 3.56546855e+00 1.98593724e+00
      4.07412320e-01 1.88213575e+00 7.82017410e-01 7.55064547e-01
      6.04075015e-01 1.29446161e+00 2.26766452e-01 -2.69797772e-01
      1.57044262e-01 2.84365678e+00 -2.80913234e-01 4.14652616e-01
      -5.13652742e-01 2.61199415e-01 -6.18072093e-01 1.39770734e+00
      3.58838606e+00 7.20602095e-01 1.13152444e-01 2.02933812e+00
      8.58210325e-01 -7.47982204e-01 3.66573262e+00 3.05251932e+00
      2.57892728e+00 5.91990173e-01 1.73174655e+00 -8.86526585e-01
      2.28400850e+00 -7.03878105e-01 5.71771383e-01 -5.97396076e-01
      -6.45328641e-01 4.09634256e+00 -7.20646203e-01 1.32632637e+00
      -3.64669263e-01 6.03006542e-01 9.13009942e-02 2.21678331e-01
      3.40442944e+00 -6.46679029e-02 2.55140233e+00 4.80047852e-01
      2.85797763e+00 -5.22404075e-01 7.88786054e-01 2.24586439e+00</_>
    <_>
      1.35542020e-01 8.36057365e-01 3.82331920e+00 3.38570297e-01
      -4.00841147e-01 1.40989804e+00 1.69921041e-01 -4.32008207e-01
      7.62308761e-02 -4.44089800e-01 -8.36420134e-02 -5.51615119e-01
      -2.13951454e-01 -5.53643227e-01 -3.51441950e-01 -1.01996553e+00
      -6.16932392e-01 -3.17066073e-01 -3.85502934e-01 5.36608887e+00
      -1.17920637e+00 -4.32963192e-01 2.73688865e+00 -3.09644639e-01
      2.45320916e+00 2.02267647e+00 5.39489460e+00 -2.08169147e-01
      -1.12287290e-02 4.24098921e+00 1.40854073e+00 1.04115464e-01
      -4.99473989e-01 -2.36195102e-01 -3.95310253e-01 -4.67848450e-01
      -7.88065851e-01 4.03024769e+00 2.05592960e-01 1.53154266e+00
      -6.89312339e-01 8.16945970e-01 1.38776231e+00 -7.57984519e-01
      4.44023514e+00 -1.63798720e-01 2.51261425e+00 -2.86866836e-02
      4.46093941e+00 -5.59629261e-01 -3.70485842e-01 2.21678331e-01
      1.90971643e-01 -2.40564585e-01 -4.90491301e-01 -7.02467084e-01
      3.36777896e-01 5.72047901e+00 -4.43734109e-01 -6.33913428e-02</_>
    <_>
      1.42677152e+00 2.90114302e-02 -6.15728438e-01 6.29800653e+00
      3.35014987e+00 -9.89280760e-01 4.38171327e-01 -4.32008207e-01
      -1.07098091e+00 1.41783285e+00 3.71751475e+00 -1.28689736e-01
      9.72288430e-01 8.56544554e-01 4.07935381e+00 2.53009486e+00
      1.72333181e+00 -4.41029727e-01 -7.93682486e-02 3.48447189e-02
      -5.85317194e-01 3.21459508e+00 1.08428288e+00 1.46817601e+00
      -5.13652742e-01 3.56396890e+00 -4.51045245e-01 2.68240881e+00
      7.25056112e-01 -5.59538662e-01 -2.91656375e-01 1.40829849e+00
      4.78058696e-01 -7.47982204e-01 9.04223502e-01 9.93436217e-01
      8.95430803e-01 1.60324240e+00 2.13872099e+00 -1.03765583e+00
      2.61437750e+00 -7.03878105e-01 4.24373055e+00 -1.15630701e-01
      -6.45328641e-01 7.04007864e-01 -7.20646203e-01 1.09067190e+00
      4.53230500e-01 -2.68970311e-01 2.40023518e+00 1.54597795e+00
      3.40442944e+00 -2.40564585e-01 7.82859504e-01 1.26839113e+00
      4.11857748e+00 -5.22404075e-01 2.14455819e+00 -3.40502053e-01</_>
    <_>
      3.53969264e+00 -3.74511540e-01 -6.15728438e-01 1.25540674e+00
      3.63147402e+00 -9.89280760e-01 1.10879695e+00 -1.25766098e-01
      -4.15431321e-01 2.45704532e+00 2.80523705e+00 2.94235647e-01
      2.10204077e+00 2.84362745e+00 2.63676906e+00 1.34674132e+00
      3.75834441e+00 -6.91387504e-02 -7.93682486e-02 -4.22119021e-01
      -7.33789504e-01 3.27641797e+00 7.83488899e-02 2.06078291e+00
      -5.13652742e-01 1.36212254e+00 -6.18072093e-01 1.39770734e+00
      1.70676923e+00 -5.59538662e-01 3.56037736e-01 2.09144211e+00
      1.29266930e+00 -5.77386498e-01 2.20375705e+00 2.25545502e+00
      2.83250213e-01 1.40099192e+00 2.13872099e+00 -2.82009274e-01
      2.81259894e+00 -5.13775110e-01 2.81574631e+00 -1.15630701e-01
      -6.45328641e-01 3.30742764e+00 -7.20646203e-01 2.68133926e+00
      -3.64669263e-01 1.67018101e-01 2.16934180e+00 2.21678331e-01
      2.09524298e+00 -2.40564585e-01 2.19769382e+00 8.74219537e-01
      4.01352739e+00 -5.22404075e-01 2.63756633e+00 1.04505146e+00</_>
    <_>
      1.35542020e-01 2.30772913e-01 -6.15728438e-01 -4.25460011e-01
      2.55582273e-01 -2.83639938e-01 2.85242391e+00 3.93194199e+00
      -8.76565203e-02 2.92019129e-01 -5.39780855e-01 1.14008641e+00
      -1.00976214e-01 2.79649556e-01 1.63766846e-01 -1.32450506e-01
      1.31632936e+00 1.91427994e+00 -2.32435599e-01 -5.74440300e-01
      -4.36844915e-01 1.05078924e+00 -6.40175343e-01 -1.12109020e-01
      -5.13652742e-01 -1.79169834e-01 -6.18072093e-01 1.13006152e-01
      1.95219743e+00 -8.79573882e-01 -6.15503430e-01 -8.21963996e-02
      8.03902924e-01 -7.47982204e-01 7.41781771e-01 1.32554638e+00
      4.36295360e-01 -6.21512532e-01 -3.03124934e-01 -5.84267914e-01
      2.21793485e+00 -1.08408415e+00 -2.44219527e-01 1.16907692e+00
      -6.45328641e-01 3.09550315e-01 -7.20646203e-01 -1.46513894e-01
      -5.28249204e-01 1.03899491e+00 1.93844831e+00 4.42394942e-01
      4.29005563e-01 1.14565659e+01 9.24342930e-01 -7.02467084e-01
      -2.93522000e-01 -5.22404075e-01 6.65534079e-01 1.78401327e+00</_>
    <_>
      -2.16611490e-01 -5.76273024e-01 2.72081077e-01 1.56101882e+00
      1.61807492e-01 1.39744580e-01 -3.66579533e-01 1.86480761e+00
      2.04287958e+00 5.95122814e-01 6.76589370e-01 1.42203677e+00
      -3.26926678e-01 -4.08476740e-02 1.63766846e-01 -1.01996553e+00
      2.02858377e+00 1.04653430e+00 1.45130527e+00 1.71037841e+00
      4.53988850e-01 -1.85671121e-01 5.81315875e-01 -2.43799433e-01
      2.77510375e-01 -1.79169834e-01 3.84088993e-01 1.13006152e-01
      -3.38466436e-01 -5.59538662e-01 3.56037736e-01 -3.92716169e-01
      2.21589470e+00 4.46187645e-01 -3.95310253e-01 -4.67848450e-01
      2.83250213e-01 7.94240594e-01 3.07336539e-01 4.73637313e-01
      -2.85743885e-02 -5.13775110e-01 -2.44219527e-01 2.05546215e-01
      5.97809196e-01 -8.49072188e-02 -2.98916608e-01 -3.23254734e-01
      -1.19299330e-01 6.03006542e-01 -1.39592424e-01 6.63111508e-01
      3.09988588e-01 -2.40564585e-01 -2.78266162e-01 -7.02467084e-01
      -3.98571968e-01 6.12665594e-01 1.89805424e+00 -5.25242507e-01</_>
    <_>
      -5.10072768e-01 4.32534397e-01 2.24499130e+00 3.29581760e-02
      -8.69715035e-01 2.25666714e+00 7.06421614e-01 4.10157591e-01
      1.22344267e+00 3.22159790e-02 -5.39780855e-01 -5.51615119e-01
      -4.96389538e-01 -4.89543796e-01 -7.63608992e-01 1.63387850e-01
      8.07576239e-01 1.29446161e+00 9.92103219e-01 7.96450913e-01
      1.04787803e+00 -6.80255294e-01 1.58724976e+00 -3.75489861e-01
      6.07161701e-01 1.58230710e+00 8.01656127e-01 -5.29344440e-01
      -6.65704131e-01 -2.39503488e-01 5.98923028e-01 -5.79028010e-01
      -1.07076429e-02 -2.36195102e-01 -5.57751954e-01 -4.67848450e-01
      7.42385626e-01 -6.21512532e-01 -5.06612122e-01 1.68267190e+00
      -6.89312339e-01 1.19715202e+00 7.75769114e-01 1.00848854e+00
      1.95395958e+00 -5.58256269e-01 2.51261425e+00 -5.58909178e-01
      1.59829009e+00 2.34696031e+00 -3.70485842e-01 2.20812774e+00
      -4.70622592e-02 -2.40564585e-01 -5.61232984e-01 -7.02467084e-01
      -8.18771899e-01 -1.44047499e-01 7.88786054e-01 -1.55761570e-01</_>
    <_>
      -5.10072768e-01 -1.72750056e-01 9.62599576e-01 -7.31072128e-01
      -8.69715035e-01 -5.65896273e-01 -5.00704646e-01 -3.55447680e-01
      7.62308761e-02 -5.73991358e-01 1.58886707e+00 -4.10640001e-01
      -4.96389538e-01 -6.17742717e-01 -9.69692528e-01 -1.31580389e+00
      -9.22184289e-01 -4.41029727e-01 -1.45697439e+00 6.44129694e-01
      -1.17920637e+00 -6.80255294e-01 1.44354498e+00 -5.73025465e-01
      1.92576694e+00 -6.19539082e-01 5.51115811e-01 -1.17169511e+00
      -5.02085268e-01 8.05316940e-02 1.94114208e-01 -5.79028010e-01
      -6.08088732e-01 4.46187645e-01 -3.14089388e-01 -4.67848450e-01
      -6.35020673e-01 -4.19262081e-01 -5.06612122e-01 3.22508007e-01
      -6.89312339e-01 -3.23672116e-01 -2.44219527e-01 -9.18572962e-01
      8.23834240e-01 -3.21581751e-01 6.85119212e-01 -5.58909178e-01
      1.10755038e+00 -8.50288212e-01 -1.06316614e+00 -8.81904662e-01
      -7.61163950e-01 -2.40564585e-01 -5.61232984e-01 8.58762041e-02
      -7.13721931e-01 4.51307669e-02 -1.18324625e+00 -4.32872266e-01</_>
    <_>
      -5.10072768e-01 -1.18155742e+00 1.94905472e+00 -1.19847879e-01
      -8.69715035e-01 2.82117987e+00 -5.00704646e-01 -4.92055751e-02
      2.20676684e+00 -1.40986115e-01 -6.91827118e-01 1.56301188e+00
      -4.96389538e-01 2.32517719e-02 -9.69692528e-01 1.63387850e-01
      2.98823148e-01 3.02995276e+00 -7.93682486e-02 1.40573597e+00
      -7.33789504e-01 -6.18432283e-01 7.25020707e-01 -5.73025465e-01
      -5.21409288e-02 7.01568663e-01 1.88733065e+00 7.55356789e-01
      -1.12287290e-02 1.04063725e+00 -3.72618139e-01 -5.79028010e-01
      -2.82244503e-01 1.64035761e+00 -5.57751954e-01 -6.67114556e-01
      5.89340508e-01 7.94240594e-01 -9.96377766e-02 3.34509444e+00
      -2.92869568e-01 1.95756412e+00 9.79766846e-01 1.81143093e+00
      5.79638577e+00 -5.58256269e-01 2.79376721e+00 -5.58909178e-01
      7.80390441e-01 3.50959611e+00 -1.06316614e+00 -6.61188066e-01
      -4.04113114e-01 -2.40564585e-01 -5.61232984e-01 8.74219537e-01
      -6.08671963e-01 4.23487306e-01 5.42282045e-01 1.59927285e+00</_>
    <_>
      -5.10072768e-01 1.64310336e+00 -2.21146435e-01 -4.25460011e-01
      -4.94615912e-01 1.55102623e+00 -7.68954933e-01 -4.32008207e-01
      5.67893088e-01 -5.73991358e-01 -5.39780855e-01 1.53260529e-01
      -4.96389538e-01 -6.17742717e-01 -2.48400196e-01 -1.32450506e-01
      -9.22184289e-01 -5.64993382e-01 6.85968518e-01 3.39487225e-01
      -5.85317194e-01 -6.80255294e-01 1.50201321e-01 -3.75489861e-01
      -3.81792247e-01 -6.19539082e-01 8.01656127e-01 1.13006152e-01
      -5.83894670e-01 -5.59538662e-01 -2.91656375e-01 -5.79028010e-01
      -6.08088732e-01 2.75591969e-01 -4.76531118e-01 -5.34270465e-01
      5.89340508e-01 -4.19262081e-01 7.14310825e-01 3.22508007e-01
      -6.89312339e-01 1.76746106e+00 -6.52215004e-01 -4.36807603e-01
      1.27588439e+00 -5.58256269e-01 8.25695753e-01 -5.58909178e-01
      4.53230500e-01 8.93665493e-01 -6.01379275e-01 2.21678331e-01
      5.48022509e-01 -2.40564585e-01 -5.61232984e-01 -7.02467084e-01
      -8.34220275e-02 2.34309047e-01 4.92739603e-02 -7.09982991e-01</_>
    <_>
      -3.33995998e-01 -7.78034508e-01 7.47900754e-02 -8.83878171e-01
      9.12005663e-01 4.22000915e-01 1.69921041e-01 -1.25766098e-01
      7.31780469e-01 1.50443387e+00 -8.36420134e-02 -2.69664884e-01
      1.19990176e-02 2.01033449e+00 3.69850367e-01 -1.31580389e+00
      1.11282814e+00 4.26715910e-01 2.52277660e+00 4.91808474e-01
      2.38412881e+00 9.27143276e-01 -4.96470481e-01 1.95813905e-02
      -1.18071191e-01 2.24286103e+00 -3.34781334e-02 4.34181452e-01
      -3.38466436e-01 -5.59538662e-01 -4.53579903e-01 -1.44300357e-01
      3.15136582e-01 -5.77386498e-01 -5.57751954e-01 -3.35004389e-01
      1.20152104e+00 -4.19262081e-01 -4.04868513e-01 3.22508007e-01
      1.62327063e+00 -8.93981159e-01 -4.48217273e-01 6.87311590e-01
      4.84796643e-01 -5.58256269e-01 1.24742532e+00 -2.64341116e-01
      -4.46459234e-01 2.63761926e+00 7.83981264e-01 4.42394942e-01
      -5.23130059e-01 -2.40564585e-01 -3.49007875e-01 8.74219537e-01
      -3.98571968e-01 -5.22404075e-01 3.50033045e+00 2.89788954e-02</_>
    <_>
      -3.92688245e-01 -7.78034508e-01 2.72081077e-01 -1.19847879e-01
      -1.19516835e-01 3.24456429e+00 -2.32454389e-01 -5.08568764e-01
      1.87899220e+00 -5.73991358e-01 2.20450550e-01 1.28106153e+00
      -2.70439059e-01 -6.17742717e-01 1.09114265e+00 -1.01996553e+00
      -6.16932392e-01 3.52580738e+00 1.14517057e+00 3.39487225e-01
      3.42343497e+00 -6.18432283e-01 1.01243043e+00 -3.09644639e-01
      9.36812997e-01 7.01568663e-01 3.97516632e+00 7.55356789e-01
      -4.20275837e-01 -5.59538662e-01 1.16565537e+00 -5.16924083e-01
      -6.08088732e-01 -2.36195102e-01 -4.76531118e-01 6.35278001e-02
      2.88501763e+00 -1.47611871e-02 2.44395161e+00 3.79848242e+00
      -6.89312339e-01 -5.13775110e-01 -4.02217992e-02 2.29319620e+00
      6.02241087e+00 -4.00473237e-01 3.49664998e+00 -4.41081941e-01
      2.82513976e+00 1.32965386e+00 -1.06316614e+00 -4.40471441e-01
      3.09988588e-01 -2.40564585e-01 -5.61232984e-01 8.58762041e-02
      3.36777896e-01 -1.44047499e-01 -3.20482105e-01 7.67940760e-01</_>
    <_>
      -9.92269889e-02 -1.18155742e+00 4.69372064e-01 3.29581760e-02
      -3.07066381e-01 5.63129067e-01 3.57958972e-02 -2.78887153e-01
      2.40118265e-01 8.11625421e-01 5.24543107e-01 -6.92590296e-01
      -2.13951454e-01 1.11294234e+00 -6.60567224e-01 4.59226191e-01
      -2.09929943e-01 1.17049789e+00 -7.93682486e-02 1.87165976e-01
      6.02461159e-01 -5.56609273e-01 1.22798765e+00 1.51271805e-01
      2.11580127e-01 1.14193785e+00 1.38625002e+00 -2.08169147e-01
      -5.83894670e-01 8.05316940e-02 1.94114208e-01 -5.79028010e-01
      2.60829210e-01 -6.55994192e-02 -5.57751954e-01 -3.35004389e-01
      -7.88065851e-01 -4.19262081e-01 -7.10099280e-01 1.38041329e+00
      -1.60721987e-01 -1.33569092e-01 1.63775936e-01 2.05546215e-01
      1.72793448e+00 1.51767313e-01 2.37203765e+00 -2.05427513e-01
      1.35292017e+00 1.47498333e+00 9.13009942e-02 1.32526135e+00
      -8.80180955e-01 -2.40564585e-01 -5.61232984e-01 -7.02467084e-01
      -6.08671963e-01 4.51307669e-02 9.12038088e-01 -5.25242507e-01</_>
    <_>
      1.66154051e+00 -3.74511540e-01 -6.15728438e-01 -8.83878171e-01
      1.61807492e-01 -9.89280760e-01 8.40546787e-01 2.24761009e+00
      -5.79318702e-01 -9.76855904e-02 -9.95919704e-01 -6.92590296e-01
      1.31121409e+00 3.43748987e-01 -2.48400196e-01 1.05090296e+00
      2.33383560e+00 -9.36884403e-01 3.79833817e-01 -5.74440300e-01
      -7.33789504e-01 1.23443991e-01 -6.40175343e-01 1.27064037e+00
      -5.13652742e-01 -3.99354458e-01 -6.18072093e-01 -1.17169511e+00
      -6.65704131e-01 -8.79573882e-01 -6.15503430e-01 -1.44300357e-01
      1.34697664e+00 -2.36195102e-01 1.07940389e-02 -1.35738298e-01
      -9.41110969e-01 -6.21512532e-01 -9.96377766e-02 -1.18878520e+00
      5.66089809e-01 6.26842916e-01 -6.52215004e-01 -7.57984519e-01
      -6.45328641e-01 -4.79364753e-01 -7.20646203e-01 3.83708566e-01
      -5.28249204e-01 -7.04958737e-01 3.22194397e-01 -8.81904662e-01
      -6.42147005e-01 1.51840234e+00 4.29150969e-01 -7.02467084e-01
      -1.88472003e-01 -5.22404075e-01 1.28179419e+00 -2.48131812e-01</_>
    <_>
      -3.92688245e-01 3.66071820e+00 -6.15728438e-01 -2.72653937e-01
      -4.94615912e-01 -2.83639938e-01 3.38892436e+00 1.09920228e+00
      3.51786613e+00 -5.73991358e-01 -9.95919704e-01 1.14008641e+00
      -4.96389538e-01 -6.17742717e-01 -6.60567224e-01 1.05090296e+00
      -3.11680555e-01 4.26715910e-01 2.26766452e-01 -5.74440300e-01
      -1.39900327e-01 -5.56609273e-01 -6.40175343e-01 -5.07180274e-01
      -5.13652742e-01 -6.19539082e-01 -6.18072093e-01 -8.50519776e-01
      1.62495971e+00 -8.79573882e-01 -1.29732847e-01 -5.79028010e-01
      -4.45166618e-01 4.54048443e+00 9.04223502e-01 3.95637959e-01
      2.83250213e-01 -1.47611871e-02 -2.01381356e-01 3.04283595e+00
      -6.89312339e-01 4.42890310e+00 -4.48217273e-01 2.05546215e-01
      -6.45328641e-01 -6.01570914e-03 -7.20646203e-01 -8.76002908e-02
      -5.28249204e-01 3.07360768e+00 -1.39592424e-01 -6.61188066e-01
      -7.61163950e-01 3.75073791e-01 -5.61232984e-01 -1.09663880e+00
      -8.34220275e-02 -5.22404075e-01 -4.43734109e-01 1.87638354e+00</_>
    <_>
      -5.10072768e-01 6.34295881e-01 -6.15728438e-01 1.85764238e-01
      -7.75940239e-01 8.45385432e-01 8.40546787e-01 4.86718118e-01
      7.31780469e-01 -4.87390310e-01 -8.43873382e-01 -1.28689736e-01
      -4.39901918e-01 -5.53643227e-01 -9.69692528e-01 -1.01996553e+00
      -7.18683064e-01 1.78788573e-01 -6.91637635e-01 -5.74440300e-01
      -5.85317194e-01 -4.94786233e-01 -6.40175343e-01 -4.41335052e-01
      -5.13652742e-01 -3.99354458e-01 -6.18072093e-01 3.32475948e+00
      2.19762564e+00 -5.59538662e-01 -4.53579903e-01 -5.79028010e-01
      -4.45166618e-01 -2.36195102e-01 -1.51647672e-01 4.62059975e-01
      -7.88065851e-01 -4.19262081e-01 -5.06612122e-01 6.24766648e-01
      -4.91090983e-01 5.65339141e-02 -6.52215004e-01 -9.18572962e-01
      -6.45328641e-01 3.09550315e-01 -7.20646203e-01 -5.58909178e-01
      -5.28249204e-01 1.67018101e-01 -1.06316614e+00 -8.81904662e-01
      -2.85096169e-01 6.38918817e-01 -4.90491301e-01 -7.02467084e-01
      -7.13721931e-01 -5.22404075e-01 -5.66986144e-01 1.69164300e+00</_>
    <_>
      -5.10072768e-01 3.66071820e+00 -6.15728438e-01 1.85764238e-01
      -6.82165444e-01 1.39744580e-01 8.40546787e-01 2.24761009e+00
      4.04005677e-01 -1.84286639e-01 2.20450550e-01 -1.28689736e-01
      -4.39901918e-01 -4.25444365e-01 -6.60567224e-01 -4.28288877e-01
      6.04075015e-01 5.50679564e-01 -6.91637635e-01 -5.74440300e-01
      -2.88372606e-01 -3.71140182e-01 -6.40175343e-01 -5.07180274e-01
      -5.13652742e-01 -3.99354458e-01 -6.18072093e-01 4.34181452e-01
      8.88674915e-01 -8.79573882e-01 -5.34541667e-01 -3.92716169e-01
      4.35997285e-02 4.46187645e-01 1.06666517e+00 -2.89423228e-03
      -4.81975526e-01 -6.21512532e-01 -2.01381356e-01 4.73637313e-01
      -4.91090983e-01 2.71797609e+00 -6.52215004e-01 -2.76219159e-01
      -6.45328641e-01 3.09550315e-01 -7.20646203e-01 -3.23254734e-01
      -5.28249204e-01 1.03899491e+00 -1.06316614e+00 2.21678331e-01
      -5.23130059e-01 3.75073791e-01 -2.78266162e-01 1.26839113e+00
      -3.98571968e-01 -5.22404075e-01 -1.97230071e-01 1.04505146e+00</_>
    <_>
      -3.33995998e-01 1.03781891e+00 -6.15728438e-01 7.96988487e-01
      9.12005663e-01 -8.48152578e-01 4.19367504e+00 1.94136810e+00
      -1.23486829e+00 1.18817031e-01 2.20450550e-01 1.42203677e+00
      -4.39901918e-01 8.73512179e-02 2.66808599e-01 -1.31580389e+00
      1.31632936e+00 3.64977121e+00 2.26766452e-01 -5.74440300e-01
      8.57197214e-03 4.32559103e-01 -6.40175343e-01 -2.43799433e-01
      -5.13652742e-01 3.34378409e+00 -6.18072093e-01 -8.50519776e-01
      6.61533499e+00 -2.39503488e-01 4.36999500e-01 -3.92716169e-01
      1.45559144e+00 -1.08917356e+00 4.55916214e+00 2.78683114e+00
      2.11979198e+00 -2.17011645e-01 -9.96377766e-02 -1.18878520e+00
      3.74994092e-02 -5.13775110e-01 5.71771383e-01 1.16907692e+00
      -6.45328641e-01 3.30742764e+00 -7.20646203e-01 -4.41081941e-01
      -5.28249204e-01 7.48336017e-01 2.63112855e+00 3.53242707e+00
      1.14310730e+00 1.25455725e+00 -4.90491301e-01 2.05673456e+00
      -8.34220275e-02 -5.22404075e-01 2.63756633e+00 5.10934162e+00</_>
    <_>
      6.70907450e+00 -5.76273024e-01 -6.15728438e-01 4.91376340e-01
      1.47465432e+00 -9.89280760e-01 -5.00704646e-01 -5.08568764e-01
      -7.43206084e-01 7.55165070e-02 1.89295959e+00 1.28106153e+00
      6.95997572e+00 5.36047339e-01 2.43068552e+00 1.34674132e+00
      1.21457875e+00 -9.36884403e-01 5.32901168e-01 -5.74440300e-01
      -7.33789504e-01 1.97813463e+00 4.37611014e-01 5.28719807e+00
      -5.13652742e-01 -6.19539082e-01 -6.18072093e-01 7.55356789e-01
      -2.56657004e-01 -8.79573882e-01 4.36999500e-01 2.02933812e+00
      -3.90859246e-01 -9.18577850e-01 3.34084916e+00 3.84958363e+00
      3.19110775e+00 -6.21512532e-01 1.22302866e+00 -1.03765583e+00
      1.02860641e+00 -7.03878105e-01 -2.44219527e-01 -9.18572962e-01
      -6.45328641e-01 1.88738060e+00 -7.20646203e-01 3.50612974e+00
      -2.01089308e-01 -2.68970311e-01 1.93844831e+00 -2.19754860e-01
      1.61917508e+00 -2.40564585e-01 1.56101835e+00 8.74219537e-01
      3.17312741e+00 -3.33225787e-01 5.42282045e-01 -3.40502053e-01</_>
    <_>
      3.70311022e-01 -7.78034508e-01 -6.15728438e-01 -5.78266084e-01
      2.55582273e-01 -9.89280760e-01 -7.68954933e-01 -5.08568764e-01
      -9.07093525e-01 -5.73991358e-01 3.72496814e-01 -2.69664884e-01
      2.37949476e-01 -6.17742717e-01 -1.45358443e-01 5.19263983e+00
      9.53219235e-02 -8.12920690e-01 -3.85502934e-01 -5.74440300e-01
      -2.88372606e-01 -4.32963192e-01 -5.68322897e-01 3.48807424e-01
      -5.13652742e-01 -6.19539082e-01 -6.18072093e-01 1.71888268e+00
      8.88674915e-01 -2.39503488e-01 -3.72618139e-01 -8.21963996e-02
      -6.08088732e-01 4.46187645e-01 4.16898340e-01 9.27014172e-01
      -3.28930378e-01 -6.21512532e-01 6.12567246e-01 -1.18878520e+00
      -6.89312339e-01 -5.13775110e-01 -6.52215004e-01 -1.07916141e+00
      -6.45328641e-01 3.09550315e-01 -7.20646203e-01 2.06967741e-01
      -5.28249204e-01 3.12347591e-01 9.13009942e-02 -8.81904662e-01
      3.09988588e-01 -2.40564585e-01 -2.78266162e-01 8.58762041e-02
      -3.98571968e-01 -5.22404075e-01 -7.39780590e-02 -2.48131812e-01</_>
    <_>
      3.48100019e+00 -5.76273024e-01 -6.15728438e-01 -2.72653937e-01
      1.56842911e+00 -9.89280760e-01 -6.34829819e-01 -5.08568764e-01
      -1.23486829e+00 -5.43850698e-02 -3.87734562e-01 1.98593724e+00
      7.24241400e+00 2.32517719e-02 2.94589448e+00 7.55064547e-01
      9.09326851e-01 -6.88957036e-01 -3.85502934e-01 -5.74440300e-01
      7.50933468e-01 2.03995752e+00 -6.40175343e-01 1.02914333e+01
      -5.13652742e-01 4.10147868e-02 -6.18072093e-01 3.32475948e+00
      2.19762564e+00 -2.39503488e-01 1.94114208e-01 1.59461045e+00
      4.35997285e-02 -1.25976920e+00 5.20892906e+00 5.70940065e+00
      1.20152104e+00 -6.21512532e-01 3.25790048e+00 -1.18878520e+00
      4.33942199e-01 -8.93981159e-01 -4.48217273e-01 8.47900033e-01
      -6.45328641e-01 1.33513999e+00 -7.20646203e-01 1.09067190e+00
      -5.28249204e-01 -7.04958737e-01 9.13009942e-02 2.21678331e-01
      3.04737854e+00 -2.40564585e-01 2.55140233e+00 8.74219537e-01
      1.80747771e+00 -5.22404075e-01 1.72525987e-01 1.96875370e+00</_>
    <_>
      4.12661505e+00 -5.76273024e-01 -6.15728438e-01 -2.72653937e-01
      1.84975338e+00 -9.89280760e-01 -9.83292460e-02 -4.32008207e-01
      -8.76565203e-02 -4.44089800e-01 -3.87734562e-01 -2.69664884e-01
      9.10650539e+00 2.15550110e-01 1.70939326e+00 -7.24127233e-01
      -3.11680555e-01 1.78788573e-01 -1.30390704e+00 -4.22119021e-01
      -4.36844915e-01 2.22542667e+00 -4.24618065e-01 8.05269623e+00
      -5.13652742e-01 -3.99354458e-01 -6.18072093e-01 4.34181452e-01
      3.16008955e-01 -5.59538662e-01 -2.91656375e-01 3.89245677e+00
      -1.19322389e-01 -1.25976920e+00 4.55916214e+00 3.25178528e+00
      -1.75885245e-01 -4.19262081e-01 1.93523371e+00 -2.82009274e-01
      1.22682786e+00 -5.13775110e-01 -2.44219527e-01 -4.36807603e-01
      -6.45328641e-01 2.75518727e+00 -7.20646203e-01 3.62395692e+00
      -5.28249204e-01 1.32965386e+00 9.13009942e-02 -6.61188066e-01
      1.26212418e+00 -2.40564585e-01 3.89549494e+00 8.74219537e-01
      1.49232781e+00 -5.22404075e-01 -7.39780590e-02 1.04505146e+00</_>
    <_>
      5.94607496e+00 -7.78034508e-01 -6.15728438e-01 3.29581760e-02
      7.24456131e-01 -7.07024455e-01 -7.68954933e-01 -5.08568764e-01
      -7.43206084e-01 2.05418080e-01 -2.35688284e-01 -1.28689736e-01
      8.71109200e+00 8.56544554e-01 1.29722619e+00 2.23425627e+00
      1.97072536e-01 1.04653430e+00 -2.32435599e-01 -5.74440300e-01
      -5.85317194e-01 2.16360354e+00 -5.68322897e-01 8.77699375e+00
      -5.13652742e-01 -3.99354458e-01 -6.18072093e-01 4.34181452e-01
      1.37953150e+00 -5.59538662e-01 -2.91656375e-01 2.89879346e+00
      -4.99473989e-01 -1.25976920e+00 3.90939522e+00 4.58022594e+00
      -3.28930378e-01 -6.21512532e-01 1.32477224e+00 -2.82009274e-01
      1.82149196e+00 5.65339141e-02 -2.44219527e-01 -9.18572962e-01
      -6.45328641e-01 3.78077674e+00 -7.20646203e-01 3.50612974e+00
      -5.28249204e-01 -1.23640850e-01 -3.70485842e-01 -4.40471441e-01
      1.73819208e+00 -2.40564585e-01 5.02736235e+00 1.66256285e+00
      1.38727784e+00 -5.22404075e-01 -1.97230071e-01 1.13742173e+00</_>
    <_>
      3.77446175e+00 -5.76273024e-01 -6.15728438e-01 1.85764238e-01
      4.43131804e-01 -9.89280760e-01 -7.68954933e-01 -2.78887153e-01
      -5.79318702e-01 -2.27587163e-01 -8.36420134e-02 1.22853918e-02
      6.56456232e+00 1.30524063e+00 1.40026796e+00 1.63387850e-01
      -5.15181780e-01 1.04653430e+00 -6.91637635e-01 -5.74440300e-01
      -4.36844915e-01 2.16360354e+00 -6.40175343e-01 6.20903063e+00
      -5.13652742e-01 -1.79169834e-01 -6.18072093e-01 1.39770734e+00
      5.61437249e-01 4.00566876e-01 1.94114208e-01 4.94822359e+00
      -5.53781331e-01 -1.08917356e+00 5.12770796e+00 3.65031767e+00
      -3.28930378e-01 -4.19262081e-01 2.13872099e+00 -8.86526585e-01
      1.42504919e+00 -3.23672116e-01 -2.44219527e-01 -1.15630701e-01
      -6.45328641e-01 3.14964461e+00 -7.20646203e-01 3.85961127e+00
      -5.28249204e-01 -5.59629261e-01 7.83981264e-01 -8.81904662e-01
      1.38114119e+00 -2.40564585e-01 5.38107109e+00 2.05673456e+00
      1.49232781e+00 -5.22404075e-01 2.95778006e-01 1.32216215e+00</_>
    <_>
      1.35542020e-01 -7.78034508e-01 -6.15728438e-01 7.96988487e-01
      -2.13291600e-01 -5.65896273e-01 -9.03080106e-01 -4.32008207e-01
      -4.15431321e-01 -5.73991358e-01 1.13272822e+00 2.94235647e-01
      5.76875150e-01 -4.08476740e-02 1.81243503e+00 1.93841803e+00
      -6.16932392e-01 -5.64993382e-01 -8.44704986e-01 -5.74440300e-01
      -5.85317194e-01 -2.47494146e-01 -6.40175343e-01 3.48807424e-01
      -5.13652742e-01 -6.19539082e-01 -6.18072093e-01 1.07653213e+00
      3.97818387e-01 -5.59538662e-01 -3.72618139e-01 -4.54820126e-01
      -2.82244503e-01 -1.08917356e+00 2.54456609e-01 6.35278001e-02
      1.35456622e+00 -6.21512532e-01 1.22302866e+00 -1.03765583e+00
      -1.60721987e-01 -8.93981159e-01 -6.52215004e-01 -9.18572962e-01
      -6.45328641e-01 -8.49072188e-02 -7.20646203e-01 1.48054138e-01
      -5.28249204e-01 -7.04958737e-01 -8.32272708e-01 -8.81904662e-01
      5.48022509e-01 -2.40564585e-01 -2.07524449e-01 8.58762041e-02
      1.38727784e+00 -5.22404075e-01 -3.20482105e-01 3.06089610e-01</_>
    <_>
      1.81575119e-02 -5.76273024e-01 -6.15728438e-01 -2.72653937e-01
      -2.57420596e-02 -9.89280760e-01 -5.00704646e-01 -5.08568764e-01
      -9.07093525e-01 -5.73991358e-01 -2.35688284e-01 -2.69664884e-01
      2.37949476e-01 -6.17742717e-01 -3.51441950e-01 2.53009486e+00
      4.00573790e-01 -5.64993382e-01 -3.85502934e-01 -5.74440300e-01
      1.57044262e-01 -4.32963192e-01 -6.40175343e-01 1.95813905e-02
      -5.13652742e-01 -3.99354458e-01 -6.18072093e-01 3.96710992e+00
      4.79627818e-01 7.20602095e-01 -6.15503430e-01 -1.44300357e-01
      -6.08088732e-01 -2.36195102e-01 9.85444307e-01 1.19270229e+00
      -1.75885245e-01 -4.19262081e-01 -2.01381356e-01 -1.03765583e+00
      -5.57164788e-01 -7.03878105e-01 -4.48217273e-01 -5.97396076e-01
      -6.45328641e-01 5.46224833e-01 -7.20646203e-01 -2.05427513e-01
      -5.28249204e-01 -2.68970311e-01 7.83981264e-01 -8.81904662e-01
      -2.85096169e-01 -2.40564585e-01 -4.90491301e-01 1.26839113e+00
      -3.98571968e-01 -5.22404075e-01 1.15854216e+00 -1.55761570e-01</_>
    <_>
      5.46387792e-01 -9.79795992e-01 1.25853610e+00 2.01943707e+00
      3.25637507e+00 -1.42511755e-01 -9.03080106e-01 -5.08568764e-01
      -7.43206084e-01 -5.43850698e-02 2.65319085e+00 9.99111295e-01
      -1.57463834e-01 2.32517719e-02 2.32764387e+00 -1.31580389e+00
      -1.08179316e-01 4.39355278e+00 -6.91637635e-01 -2.69797772e-01
      3.05516571e-01 2.72001076e+00 1.29984009e+00 2.82962203e-01
      3.63995385e+00 4.81384039e-01 1.13570976e+00 2.04005790e+00
      -1.12287290e-02 1.04063725e+00 4.32316399e+00 3.02300143e+00
      -4.99473989e-01 -5.77386498e-01 7.41781771e-01 1.32554638e+00
      2.42588234e+00 5.91990173e-01 1.83349013e+00 -4.33138609e-01
      1.16075408e+00 -1.08408415e+00 1.38776231e+00 -5.97396076e-01
      1.38889694e+00 3.54410219e+00 2.23146105e+00 1.91546237e+00
      9.43970382e-01 3.65492558e+00 -8.32272708e-01 8.83828104e-01
      1.38114119e+00 -2.40564585e-01 3.04659438e+00 1.26839113e+00
      3.38322735e+00 -1.44047499e-01 -1.97230071e-01 6.75570548e-01</_>
    <_>
      1.48546374e+00 -1.18155742e+00 1.94905472e+00 3.24188542e+00
      9.12005663e-01 8.45385432e-01 -7.68954933e-01 -5.08568764e-01
      -1.07098091e+00 1.18817031e-01 1.74091327e+00 1.28106153e+00
      6.33362770e-01 4.71947879e-01 1.50330973e+00 -7.24127233e-01
      -2.09929943e-01 3.77373481e+00 1.60437262e+00 -2.69797772e-01
      -5.85317194e-01 2.10178065e+00 1.80280709e+00 4.14652616e-01
      4.16739607e+00 1.58230710e+00 3.00575554e-01 -5.29344440e-01
      4.79627818e-01 -5.59538662e-01 2.54200530e+00 1.96723413e+00
      -1.73629761e-01 -1.25976920e+00 1.71643198e+00 7.94170141e-01
      -2.28400957e-02 -1.47611871e-02 2.74918246e+00 -1.30879968e-01
      1.35897541e+00 -1.08408415e+00 3.42773962e+00 8.47900033e-01
      4.84796643e-01 3.54410219e+00 1.95030808e+00 2.74025297e+00
      1.27113032e+00 4.52690268e+00 -3.70485842e-01 2.21678331e-01
      2.33327699e+00 -2.40564585e-01 1.70250177e+00 2.45090604e+00
      1.59737778e+00 -1.44047499e-01 5.42282045e-01 1.21349126e-01</_>
    <_>
      2.52926528e-01 -9.79795992e-01 -6.15728438e-01 3.38570297e-01
      1.19333005e+00 -7.07024455e-01 -5.00704646e-01 5.99907637e+00
      -1.23486829e+00 2.32714391e+00 8.28635633e-01 -2.69664884e-01
      1.24974251e-01 1.49753904e+00 6.07250817e-02 -1.01996553e+00
      1.11282814e+00 3.02752227e-01 -2.32435599e-01 -1.17476530e-01
      -4.36844915e-01 6.18028164e-01 -4.96470481e-01 -4.62638140e-02
      -5.13652742e-01 1.80249178e+00 -6.18072093e-01 -8.50519776e-01
      3.97818387e-01 -2.39503488e-01 3.56037736e-01 2.90427327e-01
      4.27957487e+00 -1.25976920e+00 1.31032765e+00 8.60592186e-01
      -4.81975526e-01 1.60324240e+00 3.07336539e-01 -1.18878520e+00
      1.42504919e+00 -8.93981159e-01 1.59176004e+00 -5.97396076e-01
      -6.45328641e-01 1.96627212e+00 -7.20646203e-01 3.24794948e-01
      -5.28249204e-01 -9.95617688e-01 1.01487470e+00 1.10454476e+00
      5.48022509e-01 -2.40564585e-01 3.58409256e-01 -3.08295459e-01
      -3.98571968e-01 4.51307669e-02 -7.39780590e-02 3.98459822e-01</_>
    <_>
      -2.75303751e-01 -1.72750056e-01 -6.15728438e-01 1.85764238e-01
      6.80327117e-02 -8.48152578e-01 9.74671900e-01 1.48200488e+00
      -1.07098091e+00 -5.43850698e-02 6.76589370e-01 -2.69664884e-01
      6.84866309e-02 -2.33146012e-01 -4.23166789e-02 -4.28288877e-01
      -1.08179316e-01 -4.41029727e-01 -6.91637635e-01 -5.74440300e-01
      -7.33789504e-01 -5.56609273e-01 -4.96470481e-01 1.27064037e+00
      -5.13652742e-01 7.01568663e-01 -6.18072093e-01 7.55356789e-01
      1.52390122e-01 8.05316940e-02 1.13152444e-01 -3.92716169e-01
      -1.19322389e-01 -9.18577850e-01 1.22910690e+00 1.65765655e+00
      -7.88065851e-01 -2.17011645e-01 2.10579881e-03 -1.18878520e+00
      -4.25017178e-01 -7.03878105e-01 -2.44219527e-01 -7.57984519e-01
      -6.45328641e-01 9.40682411e-01 -7.20646203e-01 -4.41081941e-01
