<?xml version="1.0"?>
<opencv_storage>
<opencv_ml_svm>
  <format>3</format>
  <svmType>C_SVC</svmType>
  <kernel>
    <type>RBF</type>
    <gamma>2.0000000000000000e-002</gamma></kernel>
  <C>1.</C>
  <term_criteria><epsilon>1.1920928955078125e-007</epsilon>
    <iterations>1000</iterations></term_criteria>
  <var_count>50</var_count>
  <class_count>2</class_count>
  <class_labels type_id="opencv-matrix">
    <rows>2</rows>
    <cols>1</cols>
    <dt>i</dt>
    <data>
      0 1</data></class_labels>
  <sv_total>408</sv_total>
  <support_vectors>
    <_>
      -3.24325949e-001 7.20355570e-001 -6.45736992e-001 -6.99618220e-001
      -6.41385555e-001 -2.01497823e-001 -6.03699386e-001
      -3.39457154e-001 -4.38639313e-001 2.96395034e-001 3.13255048e+000
      -6.48543656e-001 2.29788423e+000 -6.08357191e-001 -3.21753889e-001
      -4.23913032e-001 1.18549660e-001 1.33338892e+000 1.57998133e+000
      -5.45099318e-001 -5.75173736e-001 -5.08962810e-001
      -1.53126106e-001 -7.71009982e-001 -6.75031304e-001
      -6.32072985e-001 4.15204465e-001 -6.11218452e-001 3.96893546e-003
      -2.88885951e-001 -2.70801067e-001 4.33474511e-001 3.97576543e-004
      2.72628754e-001 -2.93293506e-001 -2.97587097e-001 -3.29617381e-001
      -6.19157493e-001 -1.99469417e-001 1.18655361e-001 3.00515103e+000
      -2.19926149e-001 -5.72228074e-001 -2.49820113e-001
      -6.53409600e-001 -1.68479830e-001 -6.44575775e-001
      -7.39854038e-001 -7.50420928e-001 -6.45369470e-001</_>
    <_>
      -7.12167025e-001 7.20355570e-001 -6.45736992e-001 -6.99618220e-001
      2.86238119e-002 -2.01497823e-001 -6.03699386e-001 -6.32941365e-001
      -4.38639313e-001 -2.56584018e-001 -3.20826858e-001
      -1.35636525e-002 -1.23764649e-001 -6.08357191e-001
      -6.96169212e-002 -4.23913032e-001 -2.91989386e-001
      -5.36017716e-001 -7.58538961e-001 9.79296342e-002 -5.75173736e-001
      -5.08962810e-001 -1.53126106e-001 2.60266840e-001 -6.75031304e-001
      -6.32072985e-001 -6.02872074e-001 -1.83196217e-001
      -5.24106622e-001 -5.40022016e-001 -2.70801067e-001
      -5.93860090e-001 -5.02143502e-001 -1.44565850e-001
      -2.93293506e-001 -2.97587097e-001 2.64728427e-001 -6.19157493e-001
      -5.89762509e-001 -3.89752656e-001 -4.34193939e-001
      -5.36900699e-001 -5.72228074e-001 -2.49820113e-001
      -6.53409600e-001 -1.68479830e-001 -6.44575775e-001
      -4.15140301e-001 -7.50420928e-001 -6.45369470e-001</_>
    <_>
      -7.12167025e-001 -6.14731550e-001 -6.45736992e-001
      -6.99618220e-001 -6.41385555e-001 -2.01497823e-001
      -6.03699386e-001 -6.32941365e-001 -4.38639313e-001
      -5.33073545e-001 -3.20826858e-001 -6.48543656e-001
      -6.08094394e-001 -6.08357191e-001 -5.73890865e-001
      -4.23913032e-001 -2.91989386e-001 -5.36017716e-001
      -7.58538961e-001 -5.45099318e-001 -5.75173736e-001
      -5.08962810e-001 -5.18317461e-001 1.29154372e+000 -6.75031304e-001
      -6.32072985e-001 -6.02872074e-001 -6.11218452e-001
      -5.24106622e-001 -5.40022016e-001 -2.70801067e-001
      -5.93860090e-001 -5.02143502e-001 -5.61760485e-001
      -2.93293506e-001 -2.97587097e-001 -6.26790285e-001
      -3.72119904e-001 -5.89762509e-001 -3.89752656e-001
      -4.34193939e-001 -5.36900699e-001 -5.72228074e-001
      -2.49820113e-001 -6.53409600e-001 -1.68479830e-001
      -6.44575775e-001 -4.15140301e-001 -7.50420928e-001
      -6.45369470e-001</_>
    <_>
      -3.24325949e-001 -6.14731550e-001 -6.45736992e-001
      -6.99618220e-001 -6.41385555e-001 -2.01497823e-001
      -6.03699386e-001 -6.32941365e-001 -4.38639313e-001
      -5.33073545e-001 -3.20826858e-001 -6.48543656e-001
      -6.08094394e-001 -6.08357191e-001 -5.73890865e-001
      -4.23913032e-001 -2.91989386e-001 -5.36017716e-001
      -7.58538961e-001 -5.45099318e-001 -5.75173736e-001
      -5.08962810e-001 -5.18317461e-001 2.60266840e-001 -6.75031304e-001
      -6.32072985e-001 -6.02872074e-001 -6.11218452e-001
      -5.24106622e-001 -3.77498902e-002 -2.70801067e-001
      -5.93860090e-001 -5.02143502e-001 -1.44565850e-001
      -2.93293506e-001 -2.97587097e-001 -6.26790285e-001
      -6.19157493e-001 -5.89762509e-001 -3.89752656e-001
      -4.34193939e-001 -5.36900699e-001 -5.72228074e-001
      -2.49820113e-001 -6.53409600e-001 -1.68479830e-001
      -6.44575775e-001 -4.15140301e-001 -7.50420928e-001
      -6.45369470e-001</_>
    <_>
      6.35150969e-002 -6.14731550e-001 -6.45736992e-001 5.68220377e-001
      2.86238119e-002 -2.01497823e-001 -6.03699386e-001 -3.39457154e-001
      -1.82310104e-001 -5.33073545e-001 -3.20826858e-001
      -6.48543656e-001 8.44894886e-001 -6.08357191e-001 -5.73890865e-001
      8.22919130e-001 -2.91989386e-001 -5.36017716e-001 4.10721153e-001
      -5.45099318e-001 -5.75173736e-001 -5.08962810e-001
      -5.18317461e-001 -7.71009982e-001 -6.75031304e-001
      -4.10329908e-001 9.24242735e-001 -1.83196217e-001 -5.24106622e-001
      -5.40022016e-001 -2.70801067e-001 1.46080911e+000 -5.02143502e-001
      1.94140720e+000 -2.93293506e-001 -2.97587097e-001 -3.24444808e-002
      -6.19157493e-001 -5.89762509e-001 -3.89752656e-001
      -4.34193939e-001 4.14022952e-001 -5.72228074e-001 -2.49820113e-001
      -6.53409600e-001 -1.68479830e-001 1.67422425e-002 -7.39854038e-001
      -7.50420928e-001 -3.05474907e-001</_>
    <_>
      -7.12167025e-001 -6.14731550e-001 -6.45736992e-001
      -6.99618220e-001 1.36864257e+000 -2.01497823e-001 -3.13335627e-001
      -6.32941365e-001 -4.38639313e-001 -5.33073545e-001
      -3.20826858e-001 -6.48543656e-001 -6.08094394e-001
      -6.08357191e-001 1.82520047e-001 -1.12205014e-001 -2.91989386e-001
      -5.36017716e-001 -1.73908919e-001 -5.45099318e-001
      -5.75173736e-001 -5.08962810e-001 -5.18317461e-001
      -7.71009982e-001 -6.75031304e-001 -6.32072985e-001
      -6.02872074e-001 -1.83196217e-001 -5.24106622e-001 2.13386178e-001
      -2.70801067e-001 -2.51415223e-001 3.97576543e-004 -1.44565850e-001
      -2.93293506e-001 -2.97587097e-001 -6.26790285e-001
      -1.25082314e-001 5.81116736e-001 -3.89752656e-001 -4.34193939e-001
      -5.36900699e-001 -3.36856693e-001 -2.49820113e-001
      -6.53409600e-001 -1.68479830e-001 1.67422425e-002 -4.15140301e-001
      1.75892305e+000 -6.45369470e-001</_>
    <_>
      -7.12167025e-001 3.39052987e+000 -6.45736992e-001 -6.99618220e-001
      -6.41385555e-001 -2.01497823e-001 -3.13335627e-001
      -6.32941365e-001 -4.38639313e-001 -5.33073545e-001 2.14587116e+000
      1.57388628e+000 1.32922459e+000 -6.08357191e-001 -5.73890865e-001
      -1.12205014e-001 9.39627826e-001 5.32214582e-001 -7.58538961e-001
      9.79296342e-002 -5.75173736e-001 4.00336146e-001 -1.53126106e-001
      2.60266840e-001 -3.73746157e-001 -6.32072985e-001 9.24242735e-001
      6.72848284e-001 3.96893546e-003 -5.40022016e-001 5.64058840e-001
      9.10296440e-002 5.02938628e-001 1.52421260e+000 -8.56001955e-003
      1.42354548e-001 -6.26790285e-001 -6.19157493e-001 -1.99469417e-001
      -3.89752656e-001 3.49648595e+000 -5.36900699e-001 -5.72228074e-001
      1.66766465e-001 -6.53409600e-001 -1.68479830e-001 1.67422425e-002
      -7.39854038e-001 -7.50420928e-001 -6.45369470e-001</_>
    <_>
      -7.12167025e-001 -6.14731550e-001 -6.45736992e-001 5.68220377e-001
      2.86238119e-002 -2.01497823e-001 -2.29718294e-002 2.47511193e-001
      -4.38639313e-001 -5.33073545e-001 -3.20826858e-001
      -6.48543656e-001 3.60565096e-001 -6.08357191e-001 -5.73890865e-001
      1.99503019e-001 -2.91989386e-001 -5.36017716e-001 -1.73908919e-001
      -5.45099318e-001 -5.75173736e-001 -5.08962810e-001
      -5.18317461e-001 2.60266840e-001 -3.73746157e-001 -6.32072985e-001
      -6.02872074e-001 1.52889276e+000 -5.24106622e-001 -5.40022016e-001
      -2.70801067e-001 -5.93860090e-001 5.02938628e-001 -1.44565850e-001
      -2.93293506e-001 -2.97587097e-001 -3.29617381e-001
      -6.19157493e-001 -5.89762509e-001 -3.89752656e-001
      -4.34193939e-001 -2.19926149e-001 -5.72228074e-001
      -2.49820113e-001 -6.53409600e-001 -1.68479830e-001 1.67422425e-002
      -7.39854038e-001 -7.50420928e-001 -6.45369470e-001</_>
    <_>
      -7.12167025e-001 -6.14731550e-001 -6.45736992e-001 5.68220377e-001
      2.86238119e-002 -2.01497823e-001 -2.29718294e-002 -4.59729880e-002
      -4.38639313e-001 1.99055057e-002 -3.20826858e-001 6.21416390e-001
      -1.23764649e-001 -6.08357191e-001 -5.73890865e-001
      -4.23913032e-001 -2.91989386e-001 -5.36017716e-001 4.10721153e-001
      9.79296342e-002 -5.75173736e-001 -5.43133430e-002 1.30763924e+000
      -7.71009982e-001 -6.75031304e-001 -6.32072985e-001
      -6.02872074e-001 6.72848284e-001 -5.24106622e-001 -5.40022016e-001
      -2.70801067e-001 -5.93860090e-001 3.97576543e-004 -5.61760485e-001
      -2.93293506e-001 -2.97587097e-001 8.59074235e-001 -6.19157493e-001
      -5.89762509e-001 -3.89752656e-001 -4.34193939e-001
      -2.19926149e-001 -3.36856693e-001 -2.49820113e-001
      -6.53409600e-001 -1.68479830e-001 3.47401232e-001 -7.39854038e-001
      8.60271007e-002 7.14208901e-001</_>
    <_>
      6.35150969e-002 -6.14731550e-001 -4.28543925e-001 -6.99618220e-001
      -6.41385555e-001 -2.01497823e-001 -6.03699386e-001
      -6.32941365e-001 -4.38639313e-001 -5.33073545e-001
      -3.20826858e-001 -6.48543656e-001 -6.08094394e-001
      -6.08357191e-001 -5.73890865e-001 -4.23913032e-001
      -2.91989386e-001 -5.36017716e-001 -1.73908919e-001
      -5.45099318e-001 -5.75173736e-001 -5.08962810e-001
      -5.18317461e-001 2.60266840e-001 -6.75031304e-001 -6.32072985e-001
      -6.02872074e-001 -6.11218452e-001 -5.24106622e-001
      -5.40022016e-001 -2.70801067e-001 -2.51415223e-001
      -5.02143502e-001 -5.61760485e-001 -2.93293506e-001
      -2.97587097e-001 -6.26790285e-001 -6.19157493e-001
      -5.89762509e-001 -3.89752656e-001 -4.34193939e-001
      -5.36900699e-001 -5.72228074e-001 -2.49820113e-001
      -4.11703497e-001 -1.68479830e-001 -6.44575775e-001
      -9.04266015e-002 -7.50420928e-001 -6.45369470e-001</_>
    <_>
      -7.12167025e-001 -6.14731550e-001 -6.45736992e-001
      -6.99618220e-001 -6.41385555e-001 -2.01497823e-001
      -6.03699386e-001 -6.32941365e-001 -1.82310104e-001
      -5.33073545e-001 1.72512725e-001 -6.48543656e-001 8.44894886e-001
      -6.08357191e-001 -5.73890865e-001 5.11211038e-001 1.18549660e-001
      -2.68959641e-001 -1.73908919e-001 -5.45099318e-001
      -5.75173736e-001 2.67358351e+000 1.30763924e+000 1.29154372e+000
      -6.75031304e-001 -6.32072985e-001 -9.38338116e-002 1.52889276e+000
      -5.24106622e-001 -5.40022016e-001 -2.70801067e-001
      -2.51415223e-001 -5.02143502e-001 -5.61760485e-001
      -2.93293506e-001 -2.97587097e-001 -6.26790285e-001
      -6.19157493e-001 -5.89762509e-001 -3.89752656e-001 5.48475981e-001
      -5.36900699e-001 -5.72228074e-001 -2.49820113e-001
      -4.11703497e-001 -1.68479830e-001 -6.44575775e-001
      -7.39854038e-001 -7.50420928e-001 -6.45369470e-001</_>
    <_>
      -7.12167025e-001 -1.69702515e-001 -6.45736992e-001 1.83605909e+000
      6.98633194e-001 -2.01497823e-001 5.57755768e-001 -3.39457154e-001
      -4.38639313e-001 -5.33073545e-001 -3.20826858e-001
      -1.35636525e-002 -6.08094394e-001 -6.08357191e-001
      -3.21753889e-001 -4.23913032e-001 -2.91989386e-001
      -5.36017716e-001 4.10721153e-001 7.40958631e-001 -5.75173736e-001
      -5.08962810e-001 9.42447841e-001 -7.71009982e-001 -6.75031304e-001
      -6.32072985e-001 -6.02872074e-001 -6.11218452e-001
      -5.24106622e-001 -5.40022016e-001 -2.70801067e-001
      -5.93860090e-001 -5.02143502e-001 -5.61760485e-001
      -2.93293506e-001 -2.97587097e-001 2.64728427e-001 -6.19157493e-001
      -1.99469417e-001 -3.89752656e-001 -4.34193939e-001 9.70483944e-002
      -5.72228074e-001 -2.49820113e-001 -6.53409600e-001
      -1.68479830e-001 -6.44575775e-001 -7.39854038e-001
      -7.50420928e-001 1.05410349e+000</_>
    <_>
      -7.12167025e-001 -6.14731550e-001 -6.45736992e-001
      -6.99618220e-001 -6.41385555e-001 -2.01497823e-001
      -6.03699386e-001 -6.32941365e-001 -4.38639313e-001
      -5.33073545e-001 -3.20826858e-001 -6.48543656e-001
      -6.08094394e-001 -6.08357191e-001 -5.73890865e-001
      -4.23913032e-001 -2.91989386e-001 -5.36017716e-001
      -7.58538961e-001 -5.45099318e-001 -5.75173736e-001
      -5.08962810e-001 -5.18317461e-001 -7.71009982e-001
      -6.75031304e-001 -6.32072985e-001 -6.02872074e-001
      -6.11218452e-001 -5.24106622e-001 -5.40022016e-001
      -2.70801067e-001 -2.51415223e-001 -5.02143502e-001
      -1.44565850e-001 -2.93293506e-001 -2.97587097e-001
      -6.26790285e-001 -6.19157493e-001 -5.89762509e-001
      -3.89752656e-001 -4.34193939e-001 -5.36900699e-001
      -1.01485305e-001 -2.49820113e-001 -6.53409600e-001
      -1.68479830e-001 -6.44575775e-001 -7.39854038e-001
      -7.50420928e-001 -6.45369470e-001</_>
    <_>
      -7.12167025e-001 -6.14731550e-001 -6.45736992e-001
      -6.56989142e-002 2.86238119e-002 -2.01497823e-001 -6.03699386e-001
      -6.32941365e-001 -4.38639313e-001 2.96395034e-001 -3.20826858e-001
      -6.48543656e-001 -6.08094394e-001 -6.08357191e-001
      -3.21753889e-001 -4.23913032e-001 -2.91989386e-001
      -5.36017716e-001 -1.73908919e-001 -5.45099318e-001
      -5.75173736e-001 -5.08962810e-001 -5.18317461e-001 1.29154372e+000
      -6.75031304e-001 -6.32072985e-001 -6.02872074e-001 2.44826019e-001
      -5.24106622e-001 -5.40022016e-001 -2.70801067e-001 9.10296440e-002
      -5.02143502e-001 -5.61760485e-001 -2.93293506e-001
      -2.97587097e-001 -3.29617381e-001 -6.19157493e-001
      -5.89762509e-001 -3.89752656e-001 -4.34193939e-001
      -5.36900699e-001 -5.72228074e-001 -2.49820113e-001
      -1.69997424e-001 -1.68479830e-001 -6.44575775e-001
      -7.39854038e-001 -7.50420928e-001 -6.45369470e-001</_>
    <_>
      -7.12167025e-001 -6.14731550e-001 -6.45736992e-001
      -6.99618220e-001 -6.41385555e-001 -2.01497823e-001
      -6.03699386e-001 -6.32941365e-001 -4.38639313e-001
      -5.33073545e-001 -3.20826858e-001 -6.48543656e-001
      -6.08094394e-001 -6.08357191e-001 -5.73890865e-001
      -4.23913032e-001 -2.91989386e-001 -5.36017716e-001
      -7.58538961e-001 -5.45099318e-001 -5.75173736e-001
      -5.08962810e-001 -5.18317461e-001 -7.71009982e-001
      -6.75031304e-001 -4.10329908e-001 -6.02872074e-001
      -6.11218452e-001 -5.24106622e-001 -5.40022016e-001
      -2.70801067e-001 -2.51415223e-001 -5.02143502e-001
      -5.61760485e-001 -2.93293506e-001 -2.97587097e-001
      -6.26790285e-001 -6.19157493e-001 -5.89762509e-001
      -3.89752656e-001 -4.34193939e-001 -5.36900699e-001
      -5.72228074e-001 -2.49820113e-001 -4.11703497e-001
      -1.68479830e-001 -6.44575775e-001 -4.15140301e-001
      -7.50420928e-001 -6.45369470e-001</_>
    <_>
      -7.12167025e-001 1.61041367e+000 -6.45736992e-001 -6.56989142e-002
      2.86238119e-002 -2.01497823e-001 -6.03699386e-001 -6.32941365e-001
      -4.38639313e-001 2.96395034e-001 -3.20826858e-001 3.03926349e-001
      -6.08094394e-001 -6.08357191e-001 -6.96169212e-002
      -4.23913032e-001 -2.91989386e-001 -5.36017716e-001
      -7.58538961e-001 -5.45099318e-001 -5.75173736e-001
      -5.08962810e-001 -5.18317461e-001 2.60266840e-001 -6.75031304e-001
      -6.32072985e-001 4.15204465e-001 -6.11218452e-001 -5.24106622e-001
      -2.88885951e-001 -2.70801067e-001 -5.93860090e-001
      -5.02143502e-001 -5.61760485e-001 -2.93293506e-001
      -2.97587097e-001 8.59074235e-001 -6.19157493e-001 -5.89762509e-001
      -3.89752656e-001 -4.34193939e-001 -5.36900699e-001
      -5.72228074e-001 -2.49820113e-001 -6.53409600e-001
      -1.68479830e-001 -6.44575775e-001 -4.15140301e-001
      -7.50420928e-001 -6.45369470e-001</_>
    <_>
      -7.12167025e-001 -1.69702515e-001 -6.45736992e-001
      -6.56989142e-002 -6.41385555e-001 -2.01497823e-001
      -6.03699386e-001 -6.32941365e-001 -4.38639313e-001
      -5.33073545e-001 3.13255048e+000 1.89137638e+000 -6.08094394e-001
      -6.08357191e-001 -5.73890865e-001 -4.23913032e-001 9.39627826e-001
      -1.90155255e-003 -1.73908919e-001 -2.23584861e-001
      -5.75173736e-001 -5.08962810e-001 2.12065235e-001 2.60266840e-001
      -6.75031304e-001 3.31562199e-002 -9.38338116e-002 -1.83196217e-001
      -5.24106622e-001 -5.40022016e-001 2.23377872e+000 4.33474511e-001
      5.02938628e-001 6.89823329e-001 -2.93293506e-001 1.42354548e-001
      -6.26790285e-001 -1.25082314e-001 -5.89762509e-001 1.18655361e-001
      2.51381612e+000 -5.36900699e-001 -5.72228074e-001 -2.49820113e-001
      -6.53409600e-001 -1.68479830e-001 -6.44575775e-001
      -7.39854038e-001 -7.50420928e-001 -6.45369470e-001</_>
    <_>
      -7.12167025e-001 -6.14731550e-001 -6.45736992e-001
      -6.99618220e-001 -6.41385555e-001 -2.01497823e-001
      -6.03699386e-001 -3.39457154e-001 -4.38639313e-001
      -5.33073545e-001 -3.20826858e-001 -6.48543656e-001
      -1.23764649e-001 -6.08357191e-001 -5.73890865e-001
      -4.23913032e-001 1.18549660e-001 -5.36017716e-001 -7.58538961e-001
      -5.45099318e-001 -5.75173736e-001 -5.08962810e-001
      -5.18317461e-001 -7.71009982e-001 -6.75031304e-001
      -6.32072985e-001 4.15204465e-001 -1.83196217e-001 -5.24106622e-001
      -5.40022016e-001 -2.70801067e-001 -5.93860090e-001 5.02938628e-001
      -5.61760485e-001 -2.93293506e-001 -2.97587097e-001
      -6.26790285e-001 -6.19157493e-001 -5.89762509e-001
      -3.89752656e-001 -4.34193939e-001 9.70483944e-002 -5.72228074e-001
      -2.49820113e-001 -6.53409600e-001 -1.68479830e-001
      -6.44575775e-001 -4.15140301e-001 -7.50420928e-001
      -6.45369470e-001</_>
    <_>
      -3.24325949e-001 -6.14731550e-001 2.23035261e-001 -6.99618220e-001
      -6.41385555e-001 -2.01497823e-001 -6.03699386e-001
      -6.32941365e-001 -4.38639313e-001 -5.33073545e-001
      -3.20826858e-001 -6.48543656e-001 -1.23764649e-001
      -1.46239713e-001 -5.73890865e-001 -1.12205014e-001
      -2.91989386e-001 -5.36017716e-001 -1.73908919e-001
      -5.45099318e-001 -5.75173736e-001 -5.08962810e-001
      -5.18317461e-001 -7.71009982e-001 -3.73746157e-001
      -4.10329908e-001 -6.02872074e-001 -6.11218452e-001
      -5.24106622e-001 -5.40022016e-001 -2.70801067e-001
      -2.51415223e-001 -5.02143502e-001 -1.44565850e-001
      -2.93293506e-001 -2.97587097e-001 -6.26790285e-001
      -1.25082314e-001 -5.89762509e-001 1.18655361e-001 -4.34193939e-001
      -5.36900699e-001 -3.36856693e-001 -2.49820113e-001 5.55120826e-001
      -1.68479830e-001 -6.44575775e-001 -4.15140301e-001 9.22475040e-001
      -6.45369470e-001</_>
    <_>
      -7.12167025e-001 7.20355570e-001 -6.45736992e-001 -6.99618220e-001
      2.86238119e-002 -2.01497823e-001 -6.03699386e-001 -6.32941365e-001
      -4.38639313e-001 1.99055057e-002 -3.20826858e-001 -3.31053674e-001
      -6.08094394e-001 -6.08357191e-001 -5.73890865e-001
      -4.23913032e-001 -2.91989386e-001 -5.36017716e-001
      -7.58538961e-001 9.79296342e-002 -5.75173736e-001 -5.08962810e-001
      -5.18317461e-001 1.29154372e+000 -6.75031304e-001 -6.32072985e-001
      4.15204465e-001 -6.11218452e-001 -5.24106622e-001 -5.40022016e-001
      -2.70801067e-001 -5.93860090e-001 -5.02143502e-001
      -5.61760485e-001 -2.93293506e-001 -2.97587097e-001 5.61901331e-001
      -6.19157493e-001 -5.89762509e-001 -3.89752656e-001
      -4.34193939e-001 -5.36900699e-001 -5.72228074e-001
      -2.49820113e-001 -6.53409600e-001 -1.68479830e-001
      -6.44575775e-001 -4.15140301e-001 -7.50420928e-001
      -6.45369470e-001</_>
    <_>
      -3.24325949e-001 -6.14731550e-001 -6.45736992e-001
      -6.56989142e-002 -6.41385555e-001 -2.01497823e-001
      -3.13335627e-001 -6.32941365e-001 -4.38639313e-001 8.49374115e-001
      -3.20826858e-001 -6.48543656e-001 -1.23764649e-001
      -6.08357191e-001 -3.21753889e-001 1.99503019e-001 -2.91989386e-001
      -5.36017716e-001 -1.73908919e-001 -5.45099318e-001
      -5.75173736e-001 8.54985595e-001 -5.18317461e-001 2.60266840e-001
      -7.24610090e-002 -6.32072985e-001 -6.02872074e-001 2.44826019e-001
      -5.24106622e-001 -2.88885951e-001 -2.70801067e-001
      -2.51415223e-001 -5.02143502e-001 -1.44565850e-001
      -2.93293506e-001 -2.97587097e-001 -3.29617381e-001
      -6.19157493e-001 -5.89762509e-001 -3.89752656e-001 2.51381612e+000
      -5.36900699e-001 -3.36856693e-001 -2.49820113e-001
      -6.53409600e-001 -1.68479830e-001 -3.13916773e-001
      -4.15140301e-001 -7.50420928e-001 -6.45369470e-001</_>
    <_>
      -7.12167025e-001 -6.14731550e-001 -6.45736992e-001
      -6.99618220e-001 -6.41385555e-001 -2.01497823e-001
      -2.29718294e-002 -6.32941365e-001 -4.38639313e-001
      -2.56584018e-001 -3.20826858e-001 -6.48543656e-001
      -6.08094394e-001 -6.08357191e-001 -3.21753889e-001
      -4.23913032e-001 -2.91989386e-001 -5.36017716e-001
      -1.73908919e-001 -5.45099318e-001 -5.75173736e-001
      -5.08962810e-001 -5.18317461e-001 -7.71009982e-001
      -6.75031304e-001 -6.32072985e-001 -6.02872074e-001
      -6.11218452e-001 -5.24106622e-001 -5.40022016e-001
      -2.70801067e-001 -5.93860090e-001 -5.02143502e-001
      -1.44565850e-001 -2.93293506e-001 -2.97587097e-001
      -6.26790285e-001 -6.19157493e-001 -5.89762509e-001
      -3.89752656e-001 -4.34193939e-001 -2.19926149e-001
      -5.72228074e-001 -2.49820113e-001 -6.53409600e-001
      -1.68479830e-001 1.67422425e-002 -7.39854038e-001 8.60271007e-002
      -6.45369470e-001</_>
    <_>
      -7.12167025e-001 2.75326550e-001 -6.45736992e-001 -6.99618220e-001
      -6.41385555e-001 -2.01497823e-001 -6.03699386e-001
      -6.32941365e-001 -4.38639313e-001 -5.33073545e-001 1.72512725e-001
      6.21416390e-001 1.32922459e+000 -6.08357191e-001 -5.73890865e-001
      -4.23913032e-001 1.18549660e-001 2.65156507e-001 4.10721153e-001
      -5.45099318e-001 -5.75173736e-001 1.30963504e+000 2.12065235e-001
      2.60266840e-001 -6.75031304e-001 -6.32072985e-001 -9.38338116e-002
      6.72848284e-001 3.96893546e-003 -5.40022016e-001 1.39891875e+000
      -5.93860090e-001 -5.02143502e-001 -5.61760485e-001
      -2.93293506e-001 1.42354548e-001 -6.26790285e-001 -6.19157493e-001
      -5.89762509e-001 -3.89752656e-001 3.00515103e+000 -5.36900699e-001
      -5.72228074e-001 1.66766465e-001 -6.53409600e-001 -1.68479830e-001
      -6.44575775e-001 -7.39854038e-001 -7.50420928e-001
      -6.45369470e-001</_>
    <_>
      -7.12167025e-001 -6.14731550e-001 -6.45736992e-001
      -6.56989142e-002 6.98633194e-001 -2.01497823e-001 -3.13335627e-001
      -3.39457154e-001 -4.38639313e-001 -5.33073545e-001
      -3.20826858e-001 3.03926349e-001 -6.08094394e-001 -6.08357191e-001
      -6.96169212e-002 -4.23913032e-001 -2.91989386e-001
      -5.36017716e-001 2.16461134e+000 9.79296342e-002 -5.75173736e-001
      4.00336146e-001 -5.18317461e-001 2.60266840e-001 5.30109286e-001
      -6.32072985e-001 4.15204465e-001 -6.11218452e-001 -5.24106622e-001
      -5.40022016e-001 -2.70801067e-001 -5.93860090e-001 5.02938628e-001
      -5.61760485e-001 -2.93293506e-001 -2.97587097e-001
      -3.29617381e-001 -6.19157493e-001 -5.89762509e-001
      -3.89752656e-001 -4.34193939e-001 -5.36900699e-001
      -5.72228074e-001 -2.49820113e-001 -6.53409600e-001
      -1.68479830e-001 1.00871921e+000 -7.39854038e-001 -7.50420928e-001
      3.44196931e-002</_>
    <_>
      -7.12167025e-001 7.20355570e-001 -2.11350873e-001 -6.99618220e-001
      2.86238119e-002 -2.01497823e-001 -3.13335627e-001 -6.32941365e-001
      5.86677551e-001 -5.33073545e-001 -3.20826858e-001 -3.31053674e-001
      -6.08094394e-001 -3.77298445e-001 -5.73890865e-001 5.11211038e-001
      9.39627826e-001 -2.68959641e-001 4.10721153e-001 4.19444114e-001
      -2.97791213e-001 -5.08962810e-001 -5.18317461e-001 2.60266840e-001
      -3.73746157e-001 -6.32072985e-001 -9.38338116e-002
      -6.11218452e-001 -2.60068864e-001 -5.40022016e-001
      -2.70801067e-001 -5.93860090e-001 -5.02143502e-001
      -5.61760485e-001 -2.93293506e-001 -2.97587097e-001
      -6.26790285e-001 -6.19157493e-001 -5.89762509e-001 6.27063334e-001
      -4.34193939e-001 -5.36900699e-001 -5.72228074e-001
      -2.49820113e-001 5.55120826e-001 -1.68479830e-001 -6.44575775e-001
      -7.39854038e-001 -7.50420928e-001 -6.45369470e-001</_>
    <_>
      6.35150969e-002 -6.14731550e-001 -6.45736992e-001 -6.99618220e-001
      -6.41385555e-001 -2.01497823e-001 -6.03699386e-001
      -6.32941365e-001 -4.38639313e-001 -5.33073545e-001
      -3.20826858e-001 -6.48543656e-001 -6.08094394e-001
      -6.08357191e-001 -5.73890865e-001 -4.23913032e-001
      -2.91989386e-001 -5.36017716e-001 -7.58538961e-001
      -5.45099318e-001 -5.75173736e-001 -5.08962810e-001
      -5.18317461e-001 2.60266840e-001 -3.73746157e-001 -4.10329908e-001
      -6.02872074e-001 -6.11218452e-001 -5.24106622e-001
      -5.40022016e-001 -2.70801067e-001 9.10296440e-002 -5.02143502e-001
      -5.61760485e-001 -2.93293506e-001 -2.97587097e-001
      -6.26790285e-001 -6.19157493e-001 -5.89762509e-001
      -3.89752656e-001 -4.34193939e-001 -5.36900699e-001
      -5.72228074e-001 -2.49820113e-001 -4.11703497e-001
      -1.68479830e-001 -6.44575775e-001 -4.15140301e-001
      -7.50420928e-001 -6.45369470e-001</_>
    <_>
      -7.12167025e-001 -6.14731550e-001 -6.45736992e-001 5.68220377e-001
      -6.41385555e-001 -2.01497823e-001 -6.03699386e-001
      -3.39457154e-001 7.40191042e-002 -5.33073545e-001 -3.20826858e-001
      -6.48543656e-001 -1.23764649e-001 -6.08357191e-001
      -3.21753889e-001 -1.12205014e-001 9.39627826e-001 -5.36017716e-001
      -7.58538961e-001 -5.45099318e-001 -5.75173736e-001
      -5.08962810e-001 -5.18317461e-001 -7.71009982e-001
      -3.73746157e-001 -6.32072985e-001 -9.38338116e-002
      -1.83196217e-001 -5.24106622e-001 -5.40022016e-001
      -2.70801067e-001 -5.93860090e-001 3.97576543e-004 -1.44565850e-001
      -8.56001955e-003 -2.97587097e-001 2.64728427e-001 -6.19157493e-001
      -5.89762509e-001 1.18655361e-001 -4.34193939e-001 9.70483944e-002
      -3.36856693e-001 -2.49820113e-001 -6.53409600e-001
      -1.68479830e-001 -3.13916773e-001 -4.15140301e-001
      -7.50420928e-001 -3.05474907e-001</_>
    <_>
      -7.12167025e-001 -6.14731550e-001 -6.45736992e-001 5.68220377e-001
      2.86238119e-002 -2.01497823e-001 -6.03699386e-001 -6.32941365e-001
      -4.38639313e-001 -5.33073545e-001 -3.20826858e-001
      -3.31053674e-001 -6.08094394e-001 -6.08357191e-001
      -5.73890865e-001 -4.23913032e-001 -2.91989386e-001
      -5.36017716e-001 -7.58538961e-001 -2.23584861e-001
      -5.75173736e-001 -5.08962810e-001 -5.18317461e-001 3.35409737e+000
      -6.75031304e-001 -6.32072985e-001 -6.02872074e-001
      -6.11218452e-001 -5.24106622e-001 -5.40022016e-001
      -2.70801067e-001 -5.93860090e-001 -5.02143502e-001
      -5.61760485e-001 -2.93293506e-001 -2.97587097e-001
      -3.29617381e-001 -6.19157493e-001 -5.89762509e-001
      -3.89752656e-001 -4.34193939e-001 -2.19926149e-001
      -5.72228074e-001 -2.49820113e-001 -6.53409600e-001
      -1.68479830e-001 -6.44575775e-001 -4.15140301e-001
      -7.50420928e-001 -6.45369470e-001</_>
    <_>
      -7.12167025e-001 -6.14731550e-001 -6.45736992e-001
      -6.99618220e-001 -6.41385555e-001 -2.01497823e-001
      -6.03699386e-001 -6.32941365e-001 -4.38639313e-001
      -5.33073545e-001 -3.20826858e-001 -6.48543656e-001
      -1.23764649e-001 -6.08357191e-001 -5.73890865e-001
      -4.23913032e-001 -2.91989386e-001 -5.36017716e-001
      -7.58538961e-001 -5.45099318e-001 -2.97791213e-001
      -5.08962810e-001 -5.18317461e-001 -7.71009982e-001
      -6.75031304e-001 -6.32072985e-001 -6.02872074e-001
      -6.11218452e-001 -5.24106622e-001 -5.40022016e-001
      -2.70801067e-001 -5.93860090e-001 -5.02143502e-001
      -1.44565850e-001 -2.93293506e-001 -2.97587097e-001
      -6.26790285e-001 -6.19157493e-001 -5.89762509e-001
      -3.89752656e-001 -4.34193939e-001 -5.36900699e-001
      -5.72228074e-001 -2.49820113e-001 -6.53409600e-001
      -1.68479830e-001 -6.44575775e-001 -9.04266015e-002
      -7.50420928e-001 -6.45369470e-001</_>
    <_>
      -3.24325949e-001 -6.14731550e-001 -6.45736992e-001
      -6.99618220e-001 -6.41385555e-001 -2.01497823e-001
      -6.03699386e-001 -6.32941365e-001 -4.38639313e-001
      -5.33073545e-001 -3.20826858e-001 -6.48543656e-001
      -6.08094394e-001 -6.08357191e-001 -5.73890865e-001
      -1.12205014e-001 -2.91989386e-001 -5.36017716e-001
      -1.73908919e-001 -5.45099318e-001 -5.75173736e-001
      -5.08962810e-001 -5.18317461e-001 -7.71009982e-001
      -3.73746157e-001 -4.10329908e-001 -6.02872074e-001
      -6.11218452e-001 -5.24106622e-001 -5.40022016e-001
      -2.70801067e-001 -5.93860090e-001 -5.02143502e-001
      -5.61760485e-001 -2.93293506e-001 -2.97587097e-001
      -6.26790285e-001 -6.19157493e-001 -5.89762509e-001
      -3.89752656e-001 -4.34193939e-001 -5.36900699e-001
      -5.72228074e-001 -2.49820113e-001 -4.11703497e-001
      -1.68479830e-001 -6.44575775e-001 2.34287113e-001 -7.50420928e-001
      -6.45369470e-001</_>
    <_>
      -7.12167025e-001 2.75326550e-001 -6.45736992e-001 -6.99618220e-001
      2.86238119e-002 -2.01497823e-001 -6.03699386e-001 -6.32941365e-001
      -4.38639313e-001 2.96395034e-001 -3.20826858e-001 -1.35636525e-002
      -6.08094394e-001 -6.08357191e-001 -6.96169212e-002
      -4.23913032e-001 -2.91989386e-001 -5.36017716e-001
      -7.58538961e-001 -2.23584861e-001 -5.75173736e-001
      -5.43133430e-002 -5.18317461e-001 -7.71009982e-001
      -6.75031304e-001 -6.32072985e-001 -6.02872074e-001
      -6.11218452e-001 -5.24106622e-001 -5.40022016e-001
      -2.70801067e-001 -5.93860090e-001 -5.02143502e-001
      -5.61760485e-001 -2.93293506e-001 -2.97587097e-001 2.64728427e-001
      -6.19157493e-001 -5.89762509e-001 -3.89752656e-001
      -4.34193939e-001 9.70483944e-002 -5.72228074e-001 -2.49820113e-001
      -6.53409600e-001 -1.68479830e-001 -6.44575775e-001
      -7.39854038e-001 8.60271007e-002 -6.45369470e-001</_>
    <_>
      -7.12167025e-001 1.61041367e+000 -2.11350873e-001 -6.99618220e-001
      2.86238119e-002 -2.01497823e-001 -6.03699386e-001 -3.39457154e-001
      -4.38639313e-001 -5.33073545e-001 1.15919197e+000 -6.48543656e-001
      3.75087333e+000 -6.08357191e-001 -5.73890865e-001 -1.12205014e-001
      -2.91989386e-001 -5.36017716e-001 9.95351255e-001 9.79296342e-002
      8.11738908e-001 -5.43133430e-002 2.12065235e-001 2.60266840e-001
      -3.73746157e-001 -6.32072985e-001 -9.38338116e-002 1.52889276e+000
      -5.24106622e-001 -5.40022016e-001 -2.70801067e-001 9.10296440e-002
      -5.02143502e-001 1.94140720e+000 -2.93293506e-001 -2.97587097e-001
      -6.26790285e-001 -6.19157493e-001 -5.89762509e-001 6.27063334e-001
      1.53114593e+000 -5.36900699e-001 -5.72228074e-001 -2.49820113e-001
      5.55120826e-001 -1.68479830e-001 -6.44575775e-001 -4.15140301e-001
      8.60271007e-002 3.44196931e-002</_>
    <_>
      -7.12167025e-001 -6.14731550e-001 -6.45736992e-001
      -6.56989142e-002 -6.41385555e-001 -2.01497823e-001 8.48119557e-001
      -6.32941365e-001 -4.38639313e-001 -2.56584018e-001
      -3.20826858e-001 -1.35636525e-002 -1.23764649e-001
      -6.08357191e-001 1.82520047e-001 -4.23913032e-001 -2.91989386e-001
      -5.36017716e-001 -7.58538961e-001 -2.23584861e-001
      -5.75173736e-001 8.54985595e-001 9.42447841e-001 -7.71009982e-001
      -7.24610090e-002 -6.32072985e-001 -9.38338116e-002
      -6.11218452e-001 -5.24106622e-001 -5.40022016e-001
      -2.70801067e-001 -5.93860090e-001 -5.02143502e-001
      -1.44565850e-001 -2.93293506e-001 -2.97587097e-001
      -3.24444808e-002 -6.19157493e-001 1.90823674e-001 -3.89752656e-001
      -4.34193939e-001 -5.36900699e-001 -5.72228074e-001
      -2.49820113e-001 -6.53409600e-001 -1.68479830e-001
      -3.13916773e-001 -7.39854038e-001 9.22475040e-001 3.44196931e-002</_>
    <_>
      -7.12167025e-001 2.75326550e-001 -6.45736992e-001 -6.56989142e-002
      -6.41385555e-001 -2.01497823e-001 -3.13335627e-001
      -6.32941365e-001 -4.38639313e-001 2.96395034e-001 -3.20826858e-001
      -3.31053674e-001 -6.08094394e-001 -6.08357191e-001 4.34657037e-001
      -4.23913032e-001 -2.91989386e-001 -2.68959641e-001
      -1.73908919e-001 -5.45099318e-001 -5.75173736e-001
      -5.08962810e-001 -5.18317461e-001 2.60266840e-001 -6.75031304e-001
      -6.32072985e-001 -6.02872074e-001 -6.11218452e-001
      -5.24106622e-001 -3.77498902e-002 -2.70801067e-001
      -5.93860090e-001 -5.02143502e-001 -5.61760485e-001
      -2.93293506e-001 -2.97587097e-001 -3.29617381e-001 1.21955276e-001
      -5.89762509e-001 -3.89752656e-001 -4.34193939e-001
      -2.19926149e-001 -3.36856693e-001 -2.49820113e-001
      -6.53409600e-001 -1.68479830e-001 -6.44575775e-001
      -4.15140301e-001 8.60271007e-002 -6.45369470e-001</_>
    <_>
      -3.24325949e-001 1.61041367e+000 -6.45736992e-001 -6.56989142e-002
      2.86238119e-002 -2.01497823e-001 -6.03699386e-001 -6.32941365e-001
      -4.38639313e-001 -5.33073545e-001 1.72512725e-001 -1.35636525e-002
      3.60565096e-001 -6.08357191e-001 -3.21753889e-001 -4.23913032e-001
      -2.91989386e-001 -2.68959641e-001 4.10721153e-001 9.79296342e-002
      -5.75173736e-001 4.00336146e-001 -5.18317461e-001 1.29154372e+000
      -7.24610090e-002 -6.32072985e-001 4.15204465e-001 -1.83196217e-001
      -5.24106622e-001 -5.40022016e-001 -2.70801067e-001 9.10296440e-002
      5.02938628e-001 6.89823329e-001 -2.93293506e-001 -2.97587097e-001
      -6.26790285e-001 -6.19157493e-001 -5.89762509e-001 1.13547134e+000
      -4.34193939e-001 -5.36900699e-001 -5.72228074e-001
      -2.49820113e-001 -6.53409600e-001 -1.68479830e-001
      -3.13916773e-001 -7.39854038e-001 -7.50420928e-001
      -6.45369470e-001</_>
    <_>
      -7.12167025e-001 -6.14731550e-001 -6.45736992e-001
      -6.99618220e-001 2.86238119e-002 -2.01497823e-001 -3.13335627e-001
      -6.32941365e-001 -4.38639313e-001 -5.33073545e-001
      -3.20826858e-001 -6.48543656e-001 -6.08094394e-001
      -6.08357191e-001 -5.73890865e-001 -4.23913032e-001
      -2.91989386e-001 -5.36017716e-001 -7.58538961e-001
      -5.45099318e-001 -5.75173736e-001 -5.08962810e-001
      -5.18317461e-001 -7.71009982e-001 -6.75031304e-001
      -6.32072985e-001 -9.38338116e-002 -6.11218452e-001
      -5.24106622e-001 -5.40022016e-001 -2.70801067e-001
      -5.93860090e-001 3.97576543e-004 -5.61760485e-001 -2.93293506e-001
      -2.97587097e-001 -3.24444808e-002 -6.19157493e-001
      -1.99469417e-001 -3.89752656e-001 -4.34193939e-001
      -2.19926149e-001 -5.72228074e-001 -2.49820113e-001
      -6.53409600e-001 -1.68479830e-001 -6.44575775e-001
      -7.39854038e-001 -7.50420928e-001 -6.45369470e-001</_>
    <_>
      -7.12167025e-001 -1.69702515e-001 -6.45736992e-001
      -6.99618220e-001 -6.41385555e-001 -2.01497823e-001
      -6.03699386e-001 -6.32941365e-001 -4.38639313e-001
      -2.56584018e-001 -3.20826858e-001 -3.31053674e-001
      -6.08094394e-001 -6.08357191e-001 -6.96169212e-002
      -4.23913032e-001 -2.91989386e-001 -2.68959641e-001 9.95351255e-001
      -5.45099318e-001 -2.97791213e-001 -5.08962810e-001
      -5.18317461e-001 -7.71009982e-001 -6.75031304e-001
      -4.10329908e-001 -9.38338116e-002 -6.11218452e-001
      -2.60068864e-001 -3.77498902e-002 -2.70801067e-001
      -5.93860090e-001 3.97576543e-004 -5.61760485e-001 -2.93293506e-001
      -2.97587097e-001 -6.26790285e-001 -3.72119904e-001
      -5.89762509e-001 -3.89752656e-001 -4.34193939e-001
      -5.36900699e-001 -3.36856693e-001 -2.49820113e-001
      -6.53409600e-001 -1.68479830e-001 -6.44575775e-001
      -4.15140301e-001 8.60271007e-002 -6.45369470e-001</_>
    <_>
      -7.12167025e-001 7.20355570e-001 -4.28543925e-001 -6.99618220e-001
      2.86238119e-002 -2.01497823e-001 -6.03699386e-001 -3.39457154e-001
      -4.38639313e-001 2.96395034e-001 -3.20826858e-001 3.03926349e-001
      -6.08094394e-001 -6.08357191e-001 4.34657037e-001 -4.23913032e-001
      -2.91989386e-001 -2.68959641e-001 4.10721153e-001 -5.45099318e-001
      -5.75173736e-001 -5.43133430e-002 -5.18317461e-001 2.60266840e-001
      -6.75031304e-001 -6.32072985e-001 -6.02872074e-001
      -6.11218452e-001 -5.24106622e-001 2.13386178e-001 -2.70801067e-001
      -5.93860090e-001 3.97576543e-004 -5.61760485e-001 -2.93293506e-001
      1.42354548e-001 -6.26790285e-001 -3.72119904e-001 -5.89762509e-001
      -3.89752656e-001 -4.34193939e-001 -5.36900699e-001
      -5.72228074e-001 -2.49820113e-001 -6.53409600e-001
      -1.68479830e-001 -6.44575775e-001 -7.39854038e-001 8.60271007e-002
      -6.45369470e-001</_>
    <_>
      -7.12167025e-001 -6.14731550e-001 -6.45736992e-001
      -6.56989142e-002 1.36864257e+000 -2.01497823e-001 -3.13335627e-001
      -4.59729880e-002 -4.38639313e-001 -2.56584018e-001
      -3.20826858e-001 9.38906372e-001 -6.08094394e-001 -1.46239713e-001
      -5.73890865e-001 -4.23913032e-001 -2.91989386e-001
      -5.36017716e-001 -1.73908919e-001 -5.45099318e-001
      -5.75173736e-001 -5.08962810e-001 2.12065235e-001 -7.71009982e-001
      -3.73746157e-001 -6.32072985e-001 -9.38338116e-002
      -6.11218452e-001 -5.24106622e-001 -5.40022016e-001
      -2.70801067e-001 -5.93860090e-001 -5.02143502e-001
      -5.61760485e-001 -2.93293506e-001 -2.97587097e-001 5.61901331e-001
      -6.19157493e-001 1.90823674e-001 -3.89752656e-001 -4.34193939e-001
      9.70483944e-002 1.33886084e-001 -2.49820113e-001 -6.53409600e-001
      -1.68479830e-001 -6.44575775e-001 -7.39854038e-001
      -7.50420928e-001 7.14208901e-001</_>
    <_>
      -7.12167025e-001 -6.14731550e-001 -6.45736992e-001
      -6.56989142e-002 2.86238119e-002 -2.01497823e-001 -6.03699386e-001
      -6.32941365e-001 7.40191042e-002 -5.33073545e-001 -3.20826858e-001
      -6.48543656e-001 3.60565096e-001 -3.77298445e-001 -5.73890865e-001
      -4.23913032e-001 -2.91989386e-001 -5.36017716e-001 4.10721153e-001
      -5.45099318e-001 -5.75173736e-001 -5.08962810e-001
      -5.18317461e-001 -7.71009982e-001 -6.75031304e-001
      -4.10329908e-001 -9.38338116e-002 -6.11218452e-001
      -5.24106622e-001 -5.40022016e-001 -2.70801067e-001 9.10296440e-002
      -5.02143502e-001 -1.44565850e-001 -8.56001955e-003 1.42354548e-001
      -6.26790285e-001 -6.19157493e-001 -5.89762509e-001
      -3.89752656e-001 -4.34193939e-001 -5.36900699e-001
      -5.72228074e-001 9.99939620e-001 -1.69997424e-001 -1.68479830e-001
      -6.44575775e-001 5.59000790e-001 -7.50420928e-001 -6.45369470e-001</_>
    <_>
      -3.24325949e-001 -6.14731550e-001 -6.45736992e-001
      -6.99618220e-001 2.86238119e-002 -2.01497823e-001 -6.03699386e-001
      -6.32941365e-001 7.40191042e-002 -5.33073545e-001 -3.20826858e-001
      -6.48543656e-001 1.81355441e+000 -6.08357191e-001 -5.73890865e-001
      -4.23913032e-001 1.18549660e-001 -5.36017716e-001 -7.58538961e-001
      -5.45099318e-001 -5.75173736e-001 -5.08962810e-001
      -5.18317461e-001 -7.71009982e-001 -7.24610090e-002
      -6.32072985e-001 -9.38338116e-002 1.95691502e+000 -5.24106622e-001
      -5.40022016e-001 -2.70801067e-001 1.11836433e+000 3.97576543e-004
      2.77579641e+000 -2.93293506e-001 -2.97587097e-001 -3.29617381e-001
      -6.19157493e-001 1.90823674e-001 1.18655361e-001 -4.34193939e-001
      4.14022952e-001 -5.72228074e-001 -2.49820113e-001 -6.53409600e-001
      -1.68479830e-001 -6.44575775e-001 -7.39854038e-001
      -7.50420928e-001 -3.05474907e-001</_>
    <_>
      -7.12167025e-001 2.75326550e-001 -6.45736992e-001 -6.99618220e-001
      -6.41385555e-001 -2.01497823e-001 -6.03699386e-001
      -6.32941365e-001 -4.38639313e-001 -5.33073545e-001 3.13255048e+000
      1.57388628e+000 3.60565096e-001 -6.08357191e-001 -5.73890865e-001
      -4.23913032e-001 1.18549660e-001 -1.90155255e-003 4.10721153e-001
      -5.45099318e-001 -5.75173736e-001 -5.08962810e-001
      -5.18317461e-001 1.29154372e+000 -7.24610090e-002 -6.32072985e-001
      4.15204465e-001 2.44826019e-001 3.96893546e-003 -5.40022016e-001
      -2.70801067e-001 -5.93860090e-001 5.02938628e-001 -1.44565850e-001
      -2.93293506e-001 1.42354548e-001 -6.26790285e-001 -6.19157493e-001
      -5.89762509e-001 -3.89752656e-001 5.48475981e-001 -5.36900699e-001
      -5.72228074e-001 -2.49820113e-001 -6.53409600e-001
      -1.68479830e-001 -6.44575775e-001 -7.39854038e-001
      -7.50420928e-001 -6.45369470e-001</_>
    <_>
      -7.12167025e-001 -6.14731550e-001 -6.45736992e-001 5.68220377e-001
      2.86238119e-002 -2.01497823e-001 -2.29718294e-002 8.34479570e-001
      -4.38639313e-001 -5.33073545e-001 -3.20826858e-001
      -6.48543656e-001 1.32922459e+000 -6.08357191e-001 -3.21753889e-001
      -4.23913032e-001 -2.91989386e-001 -5.36017716e-001
      -7.58538961e-001 -5.45099318e-001 -5.75173736e-001
      -5.08962810e-001 -5.18317461e-001 2.60266840e-001 -7.24610090e-002
      -6.32072985e-001 -6.02872074e-001 -1.83196217e-001
      -5.24106622e-001 -5.40022016e-001 -2.70801067e-001 9.10296440e-002
      5.02938628e-001 -1.44565850e-001 -2.93293506e-001 -2.97587097e-001
      -6.26790285e-001 -6.19157493e-001 -1.99469417e-001
      -3.89752656e-001 -4.34193939e-001 9.70483944e-002 -5.72228074e-001
      -2.49820113e-001 -6.53409600e-001 -1.68479830e-001 1.67422425e-002
      -4.15140301e-001 9.22475040e-001 7.14208901e-001</_>
    <_>
      -7.12167025e-001 1.16538465e+000 -6.45736992e-001 -6.99618220e-001
      -6.41385555e-001 -2.01497823e-001 -6.03699386e-001
      -6.32941365e-001 -4.38639313e-001 -5.33073545e-001
      -3.20826858e-001 -3.31053674e-001 -1.23764649e-001
      -6.08357191e-001 -5.73890865e-001 -4.23913032e-001 1.18549660e-001
      7.99272656e-001 -1.73908919e-001 -5.45099318e-001 -5.75173736e-001
      4.00336146e-001 -5.18317461e-001 1.29154372e+000 -6.75031304e-001
      -6.32072985e-001 -9.38338116e-002 2.44826019e-001 3.96893546e-003
      -5.40022016e-001 9.81488824e-001 -5.93860090e-001 -5.02143502e-001
      -5.61760485e-001 -2.93293506e-001 5.82296193e-001 -6.26790285e-001
      -6.19157493e-001 -5.89762509e-001 -3.89752656e-001 1.03981102e+000
      -5.36900699e-001 -5.72228074e-001 -2.49820113e-001
      -6.53409600e-001 -1.68479830e-001 -6.44575775e-001
      -7.39854038e-001 -7.50420928e-001 -6.45369470e-001</_>
    <_>
      -7.12167025e-001 1.16538465e+000 -6.45736992e-001 -6.99618220e-001
      2.86238119e-002 -2.01497823e-001 -6.03699386e-001 -6.32941365e-001
      -4.38639313e-001 1.99055057e-002 -3.20826858e-001 -6.48543656e-001
      -6.08094394e-001 -6.08357191e-001 1.82520047e-001 -4.23913032e-001
      -2.91989386e-001 -2.68959641e-001 -1.73908919e-001
      -5.45099318e-001 -5.75173736e-001 -5.08962810e-001
      -1.53126106e-001 -7.71009982e-001 -6.75031304e-001
      -6.32072985e-001 -6.02872074e-001 -6.11218452e-001
      -5.24106622e-001 -2.88885951e-001 -2.70801067e-001
      -5.93860090e-001 -5.02143502e-001 -5.61760485e-001
      -2.93293506e-001 -2.97587097e-001 1.45342004e+000 -6.19157493e-001
      -5.89762509e-001 -3.89752656e-001 -4.34193939e-001
      -5.36900699e-001 -5.72228074e-001 -2.49820113e-001
      -6.53409600e-001 -1.68479830e-001 -6.44575775e-001
      -7.39854038e-001 8.60271007e-002 -6.45369470e-001</_>
    <_>
      -3.24325949e-001 -1.69702515e-001 -6.45736992e-001
      -6.99618220e-001 -6.41385555e-001 -2.01497823e-001
      -6.03699386e-001 -6.32941365e-001 -4.38639313e-001
      -5.33073545e-001 -3.20826858e-001 -1.35636525e-002
      -6.08094394e-001 -3.77298445e-001 -6.96169212e-002
      -1.12205014e-001 -2.91989386e-001 -5.36017716e-001 4.10721153e-001
      -5.45099318e-001 -5.75173736e-001 -5.08962810e-001
      -5.18317461e-001 1.29154372e+000 -6.75031304e-001 -6.32072985e-001
      9.24242735e-001 -1.83196217e-001 -5.24106622e-001 -5.40022016e-001
      -2.70801067e-001 -2.51415223e-001 -5.02143502e-001
      -1.44565850e-001 -2.93293506e-001 -2.97587097e-001
      -6.26790285e-001 -6.19157493e-001 -5.89762509e-001
      -3.89752656e-001 -4.34193939e-001 -5.36900699e-001
      -3.36856693e-001 -2.49820113e-001 -6.53409600e-001
      -1.68479830e-001 -6.44575775e-001 -7.39854038e-001 8.60271007e-002
      -6.45369470e-001</_>
    <_>
      -7.12167025e-001 -6.14731550e-001 -4.28543925e-001
      -6.99618220e-001 2.86238119e-002 -2.01497823e-001 -6.03699386e-001
      -6.32941365e-001 -4.38639313e-001 -5.33073545e-001
      -3.20826858e-001 -6.48543656e-001 -1.23764649e-001
      -6.08357191e-001 -5.73890865e-001 -4.23913032e-001
      -2.91989386e-001 -5.36017716e-001 -7.58538961e-001
      -5.45099318e-001 -5.75173736e-001 -5.08962810e-001
      -5.18317461e-001 2.60266840e-001 -6.75031304e-001 -6.32072985e-001
      -6.02872074e-001 -6.11218452e-001 -5.24106622e-001
      -2.88885951e-001 -2.70801067e-001 -5.93860090e-001
      -5.02143502e-001 -5.61760485e-001 -2.93293506e-001
      -2.97587097e-001 -6.26790285e-001 -6.19157493e-001
      -5.89762509e-001 -3.89752656e-001 -4.34193939e-001
      -5.36900699e-001 -5.72228074e-001 -2.49820113e-001
      -6.53409600e-001 -1.68479830e-001 -6.44575775e-001
      -4.15140301e-001 -7.50420928e-001 -6.45369470e-001</_>
    <_>
      -3.24325949e-001 -6.14731550e-001 -4.28543925e-001
      -6.99618220e-001 -6.41385555e-001 -2.01497823e-001
      -6.03699386e-001 -6.32941365e-001 -4.38639313e-001
      -5.33073545e-001 -3.20826858e-001 -3.31053674e-001
      -1.23764649e-001 -1.46239713e-001 -5.73890865e-001
      -4.23913032e-001 -2.91989386e-001 -5.36017716e-001
      -1.73908919e-001 -5.45099318e-001 -5.75173736e-001
      -5.08962810e-001 -5.18317461e-001 1.29154372e+000 -3.73746157e-001
      2.54899293e-001 -6.02872074e-001 -6.11218452e-001 -5.24106622e-001
      -5.40022016e-001 -2.70801067e-001 -5.93860090e-001
      -5.02143502e-001 -1.44565850e-001 -2.93293506e-001
      -2.97587097e-001 -3.24444808e-002 -1.25082314e-001
      -5.89762509e-001 1.18655361e-001 -4.34193939e-001 -5.36900699e-001
      -3.36856693e-001 -2.49820113e-001 -1.69997424e-001
      -1.68479830e-001 -6.44575775e-001 2.34287113e-001 8.60271007e-002
      -6.45369470e-001</_>
    <_>
      -7.12167025e-001 -6.14731550e-001 -6.45736992e-001 5.68220377e-001
      -6.41385555e-001 -2.01497823e-001 -3.13335627e-001 5.40995359e-001
      -4.38639313e-001 1.40235317e+000 -3.20826858e-001 -6.48543656e-001
      -1.23764649e-001 -6.08357191e-001 -5.73890865e-001
      -1.12205014e-001 -2.91989386e-001 -5.36017716e-001
      -1.73908919e-001 -5.45099318e-001 -5.75173736e-001
      -5.08962810e-001 -5.18317461e-001 -7.71009982e-001
      -6.75031304e-001 -6.32072985e-001 -6.02872074e-001
      -6.11218452e-001 -5.24106622e-001 -5.40022016e-001
      -2.70801067e-001 -5.93860090e-001 -5.02143502e-001
      -1.44565850e-001 -2.93293506e-001 1.42354548e-001 -3.29617381e-001
      -6.19157493e-001 -5.89762509e-001 -3.89752656e-001
      -4.34193939e-001 -2.19926149e-001 -5.72228074e-001
      -2.49820113e-001 -6.53409600e-001 -1.68479830e-001
      -6.44575775e-001 -7.39854038e-001 8.60271007e-002 3.74314278e-001</_>
    <_>
      -7.12167025e-001 -6.14731550e-001 -6.45736992e-001
      -6.56989142e-002 -6.41385555e-001 -2.01497823e-001
      -6.03699386e-001 -6.32941365e-001 -4.38639313e-001
      -5.33073545e-001 -3.20826858e-001 -6.48543656e-001
      -6.08094394e-001 -6.08357191e-001 -5.73890865e-001
      -1.12205014e-001 -2.91989386e-001 -5.36017716e-001
      -7.58538961e-001 -5.45099318e-001 -5.75173736e-001
      -5.08962810e-001 -5.18317461e-001 -7.71009982e-001
      -6.75031304e-001 -6.32072985e-001 -6.02872074e-001
      -6.11218452e-001 -2.60068864e-001 -5.40022016e-001
      -2.70801067e-001 4.33474511e-001 -5.02143502e-001 -5.61760485e-001
      -2.93293506e-001 -2.97587097e-001 -3.29617381e-001
      -6.19157493e-001 -5.89762509e-001 -3.89752656e-001
      -4.34193939e-001 4.14022952e-001 -5.72228074e-001 -2.49820113e-001
      -6.53409600e-001 -1.68479830e-001 -6.44575775e-001
      -7.39854038e-001 -7.50420928e-001 -6.45369470e-001</_>
    <_>
      -7.12167025e-001 2.75326550e-001 -6.45736992e-001 -6.56989142e-002
      2.86238119e-002 -2.01497823e-001 -6.03699386e-001 -6.32941365e-001
      -4.38639313e-001 1.99055057e-002 -3.20826858e-001 3.03926349e-001
      -6.08094394e-001 -6.08357191e-001 -6.96169212e-002
      -4.23913032e-001 -2.91989386e-001 7.99272656e-001 1.57998133e+000
      -5.45099318e-001 -5.75173736e-001 -5.08962810e-001
      -5.18317461e-001 -7.71009982e-001 -6.75031304e-001
      -6.32072985e-001 -6.02872074e-001 -6.11218452e-001
      -5.24106622e-001 -5.40022016e-001 -2.70801067e-001
      -5.93860090e-001 -5.02143502e-001 -5.61760485e-001
      -2.93293506e-001 -2.97587097e-001 2.64728427e-001 -3.72119904e-001
      -5.89762509e-001 -3.89752656e-001 -4.34193939e-001 9.70483944e-002
      -3.36856693e-001 -2.49820113e-001 -6.53409600e-001
      -1.68479830e-001 -6.44575775e-001 -7.39854038e-001
      -7.50420928e-001 -6.45369470e-001</_>
    <_>
      -7.12167025e-001 -6.14731550e-001 -6.45736992e-001 5.68220377e-001
      -6.41385555e-001 -2.01497823e-001 -6.03699386e-001
      -6.32941365e-001 -4.38639313e-001 -5.33073545e-001
      -3.20826858e-001 -3.31053674e-001 -6.08094394e-001
      -6.08357191e-001 -5.73890865e-001 -4.23913032e-001 1.18549660e-001
      -5.36017716e-001 -1.73908919e-001 -5.45099318e-001
      -5.75173736e-001 -5.08962810e-001 -5.18317461e-001
      -7.71009982e-001 -6.75031304e-001 -6.32072985e-001
      -9.38338116e-002 2.44826019e-001 -5.24106622e-001 -5.40022016e-001
      -2.70801067e-001 -2.51415223e-001 -5.02143502e-001
      -5.61760485e-001 -2.93293506e-001 -2.97587097e-001
      -3.24444808e-002 -6.19157493e-001 5.81116736e-001 1.18655361e-001
      -4.34193939e-001 9.70483944e-002 -5.72228074e-001 -2.49820113e-001
      -6.53409600e-001 -1.68479830e-001 -6.44575775e-001
      -7.39854038e-001 -7.50420928e-001 3.44196931e-002</_>
    <_>
      -7.12167025e-001 -6.14731550e-001 -6.45736992e-001
      -6.99618220e-001 -6.41385555e-001 -2.01497823e-001
      -6.03699386e-001 -3.39457154e-001 -4.38639313e-001
      -5.33073545e-001 6.09258795e+000 -3.31053674e-001 2.78221393e+000
      -6.08357191e-001 -5.73890865e-001 -4.23913032e-001
      -2.91989386e-001 -5.36017716e-001 -7.58538961e-001
      -5.45099318e-001 -5.75173736e-001 2.67358351e+000 -5.18317461e-001
      1.29154372e+000 -6.75031304e-001 -6.32072985e-001 -6.02872074e-001
      2.81295943e+000 -5.24106622e-001 -5.40022016e-001 -2.70801067e-001
      -5.93860090e-001 -5.02143502e-001 2.72628754e-001 -2.93293506e-001
      5.82296193e-001 -6.26790285e-001 -6.19157493e-001 5.81116736e-001
      2.15228748e+000 5.95316076e+000 -5.36900699e-001 -5.72228074e-001
      -2.49820113e-001 -6.53409600e-001 -1.68479830e-001
      -6.44575775e-001 -7.39854038e-001 -7.50420928e-001
      -6.45369470e-001</_>
    <_>
      6.35150969e-002 -6.14731550e-001 -6.45736992e-001 1.20213974e+000
      1.36864257e+000 -2.01497823e-001 -3.13335627e-001 -4.59729880e-002
      -4.38639313e-001 -5.33073545e-001 -3.20826858e-001
      -6.48543656e-001 -1.23764649e-001 -6.08357191e-001
      -3.21753889e-001 -1.12205014e-001 -2.91989386e-001
      -5.36017716e-001 -1.73908919e-001 -5.45099318e-001
      -5.75173736e-001 -5.08962810e-001 -5.18317461e-001
      -7.71009982e-001 -7.24610090e-002 -6.32072985e-001
      -6.02872074e-001 -6.11218452e-001 -5.24106622e-001
      -5.40022016e-001 -2.70801067e-001 -2.51415223e-001
      -5.02143502e-001 -1.44565850e-001 -2.93293506e-001
      -2.97587097e-001 -6.26790285e-001 -6.19157493e-001 1.90823674e-001
      -3.89752656e-001 -4.34193939e-001 9.70483944e-002 -3.36856693e-001
      -2.49820113e-001 -6.53409600e-001 -1.68479830e-001 1.67422425e-002
      -7.39854038e-001 9.22475040e-001 -3.05474907e-001</_>
    <_>
      6.35150969e-002 -6.14731550e-001 -6.45736992e-001 5.68220377e-001
      2.03865194e+000 -2.01497823e-001 -6.03699386e-001 -4.59729880e-002
      -4.38639313e-001 -5.33073545e-001 -3.20826858e-001 3.03926349e-001
      8.44894886e-001 -6.08357191e-001 -5.73890865e-001 -4.23913032e-001
      -2.91989386e-001 -1.90155255e-003 -7.58538961e-001
      -5.45099318e-001 -5.75173736e-001 8.54985595e-001 1.30763924e+000
      2.60266840e-001 2.28824139e-001 -6.32072985e-001 4.15204465e-001
      2.44826019e-001 -5.24106622e-001 -5.40022016e-001 -2.70801067e-001
      -5.93860090e-001 5.02938628e-001 -1.44565850e-001 -2.93293506e-001
      1.42354548e-001 -6.26790285e-001 -6.19157493e-001 1.90823674e-001
      6.27063334e-001 5.71410209e-002 -2.19926149e-001 -5.72228074e-001
      -2.49820113e-001 -6.53409600e-001 -1.68479830e-001
      -6.44575775e-001 -9.04266015e-002 8.60271007e-002 3.44196931e-002</_>
    <_>
      -7.12167025e-001 2.05544281e+000 -6.45736992e-001 -6.99618220e-001
      -6.41385555e-001 -2.01497823e-001 -6.03699386e-001
      -6.32941365e-001 -4.38639313e-001 2.96395034e-001 -3.20826858e-001
      -6.48543656e-001 -6.08094394e-001 -6.08357191e-001
      -3.21753889e-001 5.11211038e-001 -2.91989386e-001 -5.36017716e-001
      -7.58538961e-001 -5.45099318e-001 -5.75173736e-001
      -5.43133430e-002 -5.18317461e-001 2.60266840e-001 -6.75031304e-001
      -6.32072985e-001 -9.38338116e-002 -6.11218452e-001
      -5.24106622e-001 -2.88885951e-001 -2.70801067e-001
      -5.93860090e-001 -5.02143502e-001 -5.61760485e-001
      -2.93293506e-001 -2.97587097e-001 -6.26790285e-001
      -6.19157493e-001 -5.89762509e-001 -3.89752656e-001
      -4.34193939e-001 -5.36900699e-001 -5.72228074e-001
      -2.49820113e-001 -6.53409600e-001 -1.68479830e-001
      -6.44575775e-001 -7.39854038e-001 8.60271007e-002 -6.45369470e-001</_>
    <_>
      -3.24325949e-001 -6.14731550e-001 -6.45736992e-001
      -6.99618220e-001 -6.41385555e-001 -2.01497823e-001
      -6.03699386e-001 -4.59729880e-002 -4.38639313e-001
      -5.33073545e-001 -3.20826858e-001 -6.48543656e-001
      -1.23764649e-001 -6.08357191e-001 -5.73890865e-001
      -1.12205014e-001 -2.91989386e-001 -5.36017716e-001
      -1.73908919e-001 -5.45099318e-001 -5.75173736e-001
      -5.08962810e-001 -5.18317461e-001 -7.71009982e-001
      -3.73746157e-001 -6.32072985e-001 -6.02872074e-001
      -6.11218452e-001 -5.24106622e-001 -5.40022016e-001
      -2.70801067e-001 4.33474511e-001 -5.02143502e-001 2.72628754e-001
      -2.93293506e-001 -2.97587097e-001 -3.29617381e-001
      -6.19157493e-001 1.90823674e-001 -3.89752656e-001 -4.34193939e-001
      9.70483944e-002 -5.72228074e-001 -2.49820113e-001 -4.11703497e-001
      -1.68479830e-001 -6.44575775e-001 -7.39854038e-001 9.22475040e-001
      -3.05474907e-001</_>
    <_>
      -7.12167025e-001 -6.14731550e-001 -6.45736992e-001
      -6.99618220e-001 -6.41385555e-001 -2.01497823e-001
      -6.03699386e-001 -6.32941365e-001 -4.38639313e-001
      -5.33073545e-001 -3.20826858e-001 -6.48543656e-001
      -6.08094394e-001 -6.08357191e-001 -5.73890865e-001
      -4.23913032e-001 -2.91989386e-001 -5.36017716e-001
      -7.58538961e-001 -5.45099318e-001 -5.75173736e-001
      -5.08962810e-001 -5.18317461e-001 -7.71009982e-001
      -6.75031304e-001 -6.32072985e-001 -6.02872074e-001
      -6.11218452e-001 -5.24106622e-001 -5.40022016e-001
      -2.70801067e-001 -2.51415223e-001 -5.02143502e-001
      -5.61760485e-001 -2.93293506e-001 -2.97587097e-001
      -6.26790285e-001 -6.19157493e-001 -5.89762509e-001
      -3.89752656e-001 -4.34193939e-001 -5.36900699e-001
      -5.72228074e-001 -2.49820113e-001 -4.11703497e-001
      -1.68479830e-001 -6.44575775e-001 -4.15140301e-001
      -7.50420928e-001 -6.45369470e-001</_>
    <_>
      -7.12167025e-001 -6.14731550e-001 -4.28543925e-001
      -6.99618220e-001 -6.41385555e-001 -2.01497823e-001
      -6.03699386e-001 -6.32941365e-001 -4.38639313e-001
      -5.33073545e-001 -3.20826858e-001 -6.48543656e-001
      -6.08094394e-001 -6.08357191e-001 -5.73890865e-001
      -4.23913032e-001 -2.91989386e-001 -5.36017716e-001
      -7.58538961e-001 -5.45099318e-001 -5.75173736e-001
      -5.08962810e-001 -5.18317461e-001 -7.71009982e-001
      -6.75031304e-001 -6.32072985e-001 -6.02872074e-001
      -6.11218452e-001 -2.60068864e-001 -5.40022016e-001
      -2.70801067e-001 -5.93860090e-001 -5.02143502e-001
      -5.61760485e-001 -2.93293506e-001 -2.97587097e-001
      -6.26790285e-001 -3.72119904e-001 -5.89762509e-001
      -3.89752656e-001 -4.34193939e-001 -5.36900699e-001
      -5.72228074e-001 -2.49820113e-001 -4.11703497e-001
      -1.68479830e-001 -6.44575775e-001 5.59000790e-001 -7.50420928e-001
      -6.45369470e-001</_>
    <_>
      -7.12167025e-001 -6.14731550e-001 -6.45736992e-001
      -6.56989142e-002 -6.41385555e-001 -2.01497823e-001 1.13848329e+000
      -6.32941365e-001 -4.38639313e-001 -5.33073545e-001
      -3.20826858e-001 -6.48543656e-001 -6.08094394e-001
      -6.08357191e-001 -6.96169212e-002 -4.23913032e-001
      -2.91989386e-001 -5.36017716e-001 -7.58538961e-001 4.19444114e-001
      -5.75173736e-001 -5.43133430e-002 5.77256560e-001 -7.71009982e-001
      -7.24610090e-002 -1.88586846e-001 -9.38338116e-002
      -6.11218452e-001 -5.24106622e-001 -2.88885951e-001
      -2.70801067e-001 -5.93860090e-001 -5.02143502e-001
      -5.61760485e-001 -2.93293506e-001 -2.97587097e-001
      -3.24444808e-002 -3.72119904e-001 5.81116736e-001 -3.89752656e-001
      -4.34193939e-001 -5.36900699e-001 -5.72228074e-001
      -2.49820113e-001 -6.53409600e-001 -1.68479830e-001
      -6.44575775e-001 -7.39854038e-001 8.60271007e-002 3.74314278e-001</_>
    <_>
      -7.12167025e-001 7.20355570e-001 -6.45736992e-001 -6.99618220e-001
      2.86238119e-002 -2.01497823e-001 -6.03699386e-001 -6.32941365e-001
      -4.38639313e-001 -2.56584018e-001 -3.20826858e-001 6.21416390e-001
      -6.08094394e-001 -6.08357191e-001 -3.21753889e-001 1.99503019e-001
      -2.91989386e-001 -2.68959641e-001 -7.58538961e-001
      -5.45099318e-001 -5.75173736e-001 4.00336146e-001 -5.18317461e-001
      -7.71009982e-001 -6.75031304e-001 -6.32072985e-001
      -6.02872074e-001 -6.11218452e-001 -2.60068864e-001
      -5.40022016e-001 -2.70801067e-001 -5.93860090e-001
      -5.02143502e-001 -1.44565850e-001 -2.93293506e-001
      -2.97587097e-001 2.64728427e-001 -6.19157493e-001 -5.89762509e-001
      -3.89752656e-001 -4.34193939e-001 9.70483944e-002 -5.72228074e-001
      -2.49820113e-001 -6.53409600e-001 -1.68479830e-001
      -6.44575775e-001 -7.39854038e-001 8.60271007e-002 -6.45369470e-001</_>
    <_>
      -7.12167025e-001 -1.69702515e-001 -6.45736992e-001
      -6.99618220e-001 -6.41385555e-001 -2.01497823e-001
      -6.03699386e-001 -3.39457154e-001 -4.38639313e-001
      -5.33073545e-001 2.14587116e+000 6.21416390e-001 -1.23764649e-001
      -6.08357191e-001 -5.73890865e-001 -1.12205014e-001 1.18549660e-001
      -1.90155255e-003 4.10721153e-001 1.06247306e+000 -5.75173736e-001
      -5.08962810e-001 -5.18317461e-001 -7.71009982e-001
      -6.75031304e-001 -6.32072985e-001 -9.38338116e-002
      -6.11218452e-001 -2.60068864e-001 -5.40022016e-001 2.23377872e+000
      1.11836433e+000 5.02938628e-001 -1.44565850e-001 -8.56001955e-003
      1.42354548e-001 -6.26790285e-001 -6.19157493e-001 -5.89762509e-001
      1.18655361e-001 -4.34193939e-001 -5.36900699e-001 -5.72228074e-001
      9.99939620e-001 -6.53409600e-001 -1.68479830e-001 -6.44575775e-001
      -7.39854038e-001 -7.50420928e-001 -6.45369470e-001</_>
    <_>
      -7.12167025e-001 -6.14731550e-001 -6.45736992e-001
      -6.99618220e-001 -6.41385555e-001 -2.01497823e-001
      -6.03699386e-001 -6.32941365e-001 -4.38639313e-001
      -5.33073545e-001 -3.20826858e-001 -6.48543656e-001
      -6.08094394e-001 -6.08357191e-001 -3.21753889e-001
      -4.23913032e-001 -2.91989386e-001 -5.36017716e-001
      -7.58538961e-001 -5.45099318e-001 -5.75173736e-001
      -5.08962810e-001 -5.18317461e-001 2.60266840e-001 -6.75031304e-001
      -6.32072985e-001 -6.02872074e-001 -6.11218452e-001
      -5.24106622e-001 -2.88885951e-001 -2.70801067e-001
      -2.51415223e-001 -5.02143502e-001 -1.44565850e-001
      -2.93293506e-001 -2.97587097e-001 -6.26790285e-001
      -6.19157493e-001 -5.89762509e-001 -3.89752656e-001 5.71410209e-002
      -5.36900699e-001 -3.36856693e-001 -2.49820113e-001
      -6.53409600e-001 -1.68479830e-001 -6.44575775e-001
      -7.39854038e-001 -7.50420928e-001 -6.45369470e-001</_>
    <_>
      -7.12167025e-001 -6.14731550e-001 -4.28543925e-001
      -6.99618220e-001 2.86238119e-002 -2.01497823e-001 -2.29718294e-002
      -3.39457154e-001 -4.38639313e-001 -5.33073545e-001
      -3.20826858e-001 -6.48543656e-001 -6.08094394e-001
      -6.08357191e-001 -5.73890865e-001 1.99503019e-001 -2.91989386e-001
      -5.36017716e-001 4.10721153e-001 -5.45099318e-001 -2.97791213e-001
      -5.08962810e-001 -5.18317461e-001 -7.71009982e-001
      -6.75031304e-001 -6.32072985e-001 4.15204465e-001 -6.11218452e-001
      -5.24106622e-001 -5.40022016e-001 -2.70801067e-001
      -2.51415223e-001 3.97576543e-004 -5.61760485e-001 -8.56001955e-003
      -2.97587097e-001 5.61901331e-001 -6.19157493e-001 -1.99469417e-001
      6.27063334e-001 -4.34193939e-001 -2.19926149e-001 -5.72228074e-001
      -2.49820113e-001 -4.11703497e-001 -1.68479830e-001
      -6.44575775e-001 -7.39854038e-001 -7.50420928e-001
      -3.05474907e-001</_>
    <_>
      -7.12167025e-001 1.61041367e+000 -6.45736992e-001 -6.99618220e-001
      2.86238119e-002 -2.01497823e-001 -6.03699386e-001 -6.32941365e-001
      -4.38639313e-001 1.99055057e-002 -3.20826858e-001 -3.31053674e-001
      -6.08094394e-001 -6.08357191e-001 -3.21753889e-001
      -4.23913032e-001 -2.91989386e-001 -2.68959641e-001
      -1.73908919e-001 -5.45099318e-001 -5.75173736e-001
      -5.08962810e-001 -5.18317461e-001 2.60266840e-001 -6.75031304e-001
      -6.32072985e-001 -6.02872074e-001 -6.11218452e-001
      -2.60068864e-001 -5.40022016e-001 -2.70801067e-001
      -5.93860090e-001 -5.02143502e-001 2.72628754e-001 -2.93293506e-001
      -2.97587097e-001 -3.29617381e-001 -6.19157493e-001
      -5.89762509e-001 -3.89752656e-001 -4.34193939e-001 9.70483944e-002
      -5.72228074e-001 -2.49820113e-001 -6.53409600e-001
      -1.68479830e-001 -6.44575775e-001 -4.15140301e-001 8.60271007e-002
      -6.45369470e-001</_>
    <_>
      -7.12167025e-001 1.16538465e+000 -6.45736992e-001 -6.99618220e-001
      2.86238119e-002 -2.01497823e-001 -6.03699386e-001 -6.32941365e-001
      -4.38639313e-001 -2.56584018e-001 -3.20826858e-001
      -3.31053674e-001 -6.08094394e-001 -6.08357191e-001
      -6.96169212e-002 -4.23913032e-001 -2.91989386e-001
      -2.68959641e-001 -7.58538961e-001 -2.23584861e-001
      -5.75173736e-001 -5.08962810e-001 -1.53126106e-001 2.60266840e-001
      -6.75031304e-001 -6.32072985e-001 -6.02872074e-001
      -6.11218452e-001 -5.24106622e-001 -5.40022016e-001
      -2.70801067e-001 -2.51415223e-001 -5.02143502e-001
      -1.44565850e-001 -2.93293506e-001 -2.97587097e-001 5.61901331e-001
      -6.19157493e-001 -5.89762509e-001 -3.89752656e-001
      -4.34193939e-001 -5.36900699e-001 -5.72228074e-001
      -2.49820113e-001 -6.53409600e-001 -1.68479830e-001
      -6.44575775e-001 -7.39854038e-001 -7.50420928e-001
      -6.45369470e-001</_>
    <_>
      -7.12167025e-001 -6.14731550e-001 -4.28543925e-001
      -6.99618220e-001 -6.41385555e-001 -2.01497823e-001
      -6.03699386e-001 -6.32941365e-001 -4.38639313e-001
      -5.33073545e-001 -3.20826858e-001 -6.48543656e-001
      -6.08094394e-001 -6.08357191e-001 -6.96169212e-002
      -4.23913032e-001 -2.91989386e-001 -5.36017716e-001
      -7.58538961e-001 -5.45099318e-001 -5.75173736e-001
      -5.08962810e-001 -5.18317461e-001 -7.71009982e-001
      -6.75031304e-001 -6.32072985e-001 -6.02872074e-001
      -6.11218452e-001 -5.24106622e-001 -2.88885951e-001
      -2.70801067e-001 -5.93860090e-001 -5.02143502e-001
      -5.61760485e-001 -2.93293506e-001 -2.97587097e-001
      -3.29617381e-001 -6.19157493e-001 -5.89762509e-001
      -3.89752656e-001 -4.34193939e-001 -5.36900699e-001
      -5.72228074e-001 -2.49820113e-001 -6.53409600e-001
      -1.68479830e-001 -6.44575775e-001 -7.39854038e-001 9.22475040e-001
      -6.45369470e-001</_>
    <_>
      -3.24325949e-001 2.05544281e+000 -6.45736992e-001 -6.99618220e-001
      2.86238119e-002 -2.01497823e-001 -6.03699386e-001 -6.32941365e-001
      -4.38639313e-001 -5.33073545e-001 -3.20826858e-001
      -6.48543656e-001 -6.08094394e-001 -6.08357191e-001
      -3.21753889e-001 -4.23913032e-001 -2.91989386e-001
      -2.68959641e-001 -7.58538961e-001 -5.45099318e-001
      -5.75173736e-001 -5.43133430e-002 -1.53126106e-001
      -7.71009982e-001 -6.75031304e-001 -6.32072985e-001
      -9.38338116e-002 -6.11218452e-001 5.32044530e-001 -5.40022016e-001
      -2.70801067e-001 -5.93860090e-001 -5.02143502e-001
      -5.61760485e-001 -2.93293506e-001 -2.97587097e-001
      -3.24444808e-002 -6.19157493e-001 -5.89762509e-001
      -3.89752656e-001 -4.34193939e-001 4.14022952e-001 -5.72228074e-001
      -2.49820113e-001 -6.53409600e-001 -1.68479830e-001
      -6.44575775e-001 -7.39854038e-001 9.22475040e-001 -6.45369470e-001</_>
    <_>
      8.39197218e-001 -6.14731550e-001 -6.45736992e-001 5.68220377e-001
      2.86238119e-002 -2.01497823e-001 -3.13335627e-001 -3.39457154e-001
      -4.38639313e-001 -2.56584018e-001 -3.20826858e-001
      -6.48543656e-001 -6.08094394e-001 -6.08357191e-001 1.82520047e-001
      -4.23913032e-001 -2.91989386e-001 -5.36017716e-001 4.10721153e-001
      -5.45099318e-001 -5.75173736e-001 4.00336146e-001 -5.18317461e-001
      2.60266840e-001 -6.75031304e-001 -6.32072985e-001 -9.38338116e-002
      -1.83196217e-001 -5.24106622e-001 -2.88885951e-001
      -2.70801067e-001 -5.93860090e-001 5.02938628e-001 -5.61760485e-001
      -2.93293506e-001 -2.97587097e-001 -3.29617381e-001
      -6.19157493e-001 -1.99469417e-001 -3.89752656e-001
      -4.34193939e-001 -5.36900699e-001 -3.36856693e-001
      -2.49820113e-001 -6.53409600e-001 -1.68479830e-001
      -6.44575775e-001 -4.15140301e-001 8.60271007e-002 1.05410349e+000</_>
    <_>
      6.35150969e-002 -6.14731550e-001 -6.45736992e-001 -6.99618220e-001
      2.86238119e-002 -2.01497823e-001 -3.13335627e-001 8.34479570e-001
      -4.38639313e-001 1.99055057e-002 -3.20826858e-001 -6.48543656e-001
      -1.23764649e-001 -6.08357191e-001 -5.73890865e-001
      -4.23913032e-001 -2.91989386e-001 -5.36017716e-001
      -7.58538961e-001 -5.45099318e-001 -5.75173736e-001
      -5.08962810e-001 -5.18317461e-001 -7.71009982e-001
      -6.75031304e-001 -6.32072985e-001 -9.38338116e-002
      -6.11218452e-001 -5.24106622e-001 -5.40022016e-001
      -2.70801067e-001 9.10296440e-002 -5.02143502e-001 6.89823329e-001
      -2.93293506e-001 -2.97587097e-001 -3.24444808e-002
      -6.19157493e-001 5.81116736e-001 -3.89752656e-001 -4.34193939e-001
      -5.36900699e-001 -5.72228074e-001 1.66766465e-001 -6.53409600e-001
      -1.68479830e-001 -6.44575775e-001 -7.39854038e-001 8.60271007e-002
      -3.05474907e-001</_>
    <_>
      -3.24325949e-001 -6.14731550e-001 -6.45736992e-001
      -6.99618220e-001 -6.41385555e-001 6.13435172e-002 -6.03699386e-001
      -6.32941365e-001 -4.38639313e-001 -5.33073545e-001
      -3.20826858e-001 -3.31053674e-001 -6.08094394e-001
      -6.08357191e-001 -5.73890865e-001 -4.23913032e-001 1.18549660e-001
      -2.68959641e-001 -1.73908919e-001 -5.45099318e-001
      -5.75173736e-001 -5.08962810e-001 -5.18317461e-001 1.29154372e+000
      -6.75031304e-001 -6.32072985e-001 4.15204465e-001 -6.11218452e-001
      -5.24106622e-001 -5.40022016e-001 1.46628886e-001 -5.93860090e-001
      5.02938628e-001 -5.61760485e-001 -2.93293506e-001 1.02223778e+000
      -6.26790285e-001 -6.19157493e-001 -5.89762509e-001
      -3.89752656e-001 -4.34193939e-001 -5.36900699e-001
      -5.72228074e-001 1.66766465e-001 -6.53409600e-001 -1.68479830e-001
      -6.44575775e-001 -7.39854038e-001 -7.50420928e-001
      -6.45369470e-001</_>
    <_>
      -7.12167025e-001 -6.14731550e-001 -6.45736992e-001
      -6.99618220e-001 -6.41385555e-001 -2.01497823e-001
      -6.03699386e-001 -6.32941365e-001 -4.38639313e-001
      -5.33073545e-001 -3.20826858e-001 -6.48543656e-001
      -6.08094394e-001 -6.08357191e-001 -5.73890865e-001
      -4.23913032e-001 -2.91989386e-001 -5.36017716e-001
      -7.58538961e-001 -5.45099318e-001 -5.75173736e-001
      -5.08962810e-001 -5.18317461e-001 2.60266840e-001 -3.73746157e-001
      -6.32072985e-001 -6.02872074e-001 -6.11218452e-001
      -5.24106622e-001 -5.40022016e-001 -2.70801067e-001
      -2.51415223e-001 -5.02143502e-001 -5.61760485e-001
      -2.93293506e-001 -2.97587097e-001 -6.26790285e-001
      -6.19157493e-001 -5.89762509e-001 -3.89752656e-001
      -4.34193939e-001 -5.36900699e-001 -5.72228074e-001
      -2.49820113e-001 -4.11703497e-001 -1.68479830e-001
      -6.44575775e-001 5.59000790e-001 -7.50420928e-001 -6.45369470e-001</_>
    <_>
      6.35150969e-002 -6.14731550e-001 -6.45736992e-001 -6.99618220e-001
      -6.41385555e-001 -2.01497823e-001 -6.03699386e-001
      -6.32941365e-001 -4.38639313e-001 -5.33073545e-001
      -3.20826858e-001 -6.48543656e-001 -6.08094394e-001
      -6.08357191e-001 -5.73890865e-001 -1.12205014e-001
      -2.91989386e-001 -5.36017716e-001 -7.58538961e-001
      -5.45099318e-001 -5.75173736e-001 -5.08962810e-001
      -5.18317461e-001 2.60266840e-001 -3.73746157e-001 -6.32072985e-001
      -6.02872074e-001 -6.11218452e-001 -5.24106622e-001
      -5.40022016e-001 -2.70801067e-001 -5.93860090e-001
      -5.02143502e-001 -5.61760485e-001 -2.93293506e-001
      -2.97587097e-001 -6.26790285e-001 -6.19157493e-001
      -5.89762509e-001 -3.89752656e-001 -4.34193939e-001
      -5.36900699e-001 -5.72228074e-001 -2.49820113e-001
      -6.53409600e-001 -1.68479830e-001 1.67422425e-002 -4.15140301e-001
      8.60271007e-002 -6.45369470e-001</_>
    <_>
      -7.12167025e-001 -1.69702515e-001 -6.45736992e-001
      -6.99618220e-001 6.98633194e-001 -2.01497823e-001 -6.03699386e-001
      -3.39457154e-001 -1.82310104e-001 -5.33073545e-001 1.15919197e+000
      6.21416390e-001 5.20386267e+000 -6.08357191e-001 -5.73890865e-001
      5.11211038e-001 -2.91989386e-001 5.32214582e-001 4.10721153e-001
      -2.23584861e-001 -2.04086900e-002 -5.43133430e-002 2.12065235e-001
      -7.71009982e-001 -6.75031304e-001 -6.32072985e-001
      -9.38338116e-002 -1.83196217e-001 -5.24106622e-001
      -5.40022016e-001 -2.70801067e-001 2.83058834e+000 3.97576543e-004
      3.19299102e+000 -2.93293506e-001 -2.97587097e-001 -6.26790285e-001
      -6.19157493e-001 5.81116736e-001 3.67751145e+000 1.53114593e+000
      -5.36900699e-001 -5.72228074e-001 -2.49820113e-001
      -1.69997424e-001 -1.68479830e-001 1.67422425e-002 -4.15140301e-001
      -7.50420928e-001 -6.45369470e-001</_>
    <_>
      -3.24325949e-001 -6.14731550e-001 -6.45736992e-001
      -6.99618220e-001 -6.41385555e-001 -2.01497823e-001
      -6.03699386e-001 -6.32941365e-001 -4.38639313e-001
      -5.33073545e-001 -3.20826858e-001 -6.48543656e-001
      -6.08094394e-001 -6.08357191e-001 -5.73890865e-001 1.99503019e-001
      -2.91989386e-001 -5.36017716e-001 -1.73908919e-001
      -5.45099318e-001 -5.75173736e-001 -5.08962810e-001
      -5.18317461e-001 -7.71009982e-001 -3.73746157e-001
      -4.10329908e-001 -6.02872074e-001 -6.11218452e-001
      -5.24106622e-001 -5.40022016e-001 -2.70801067e-001
      -5.93860090e-001 -5.02143502e-001 -5.61760485e-001
      -2.93293506e-001 -2.97587097e-001 -6.26790285e-001
      -6.19157493e-001 -5.89762509e-001 -3.89752656e-001
      -4.34193939e-001 -5.36900699e-001 -5.72228074e-001
      -2.49820113e-001 -4.11703497e-001 -1.68479830e-001
      -6.44575775e-001 2.34287113e-001 -7.50420928e-001 -6.45369470e-001</_>
    <_>
      -7.12167025e-001 -6.14731550e-001 -6.45736992e-001
      -6.99618220e-001 -6.41385555e-001 -2.01497823e-001
      -3.13335627e-001 -3.39457154e-001 -4.38639313e-001
      -2.56584018e-001 -3.20826858e-001 -6.48543656e-001 3.60565096e-001
      -6.08357191e-001 -3.21753889e-001 -1.12205014e-001 1.18549660e-001
      -5.36017716e-001 -7.58538961e-001 -5.45099318e-001
      -5.75173736e-001 -5.08962810e-001 -5.18317461e-001
      -7.71009982e-001 -3.73746157e-001 -6.32072985e-001
      -9.38338116e-002 -6.11218452e-001 -5.24106622e-001
      -5.40022016e-001 -2.70801067e-001 -5.93860090e-001
      -5.02143502e-001 -5.61760485e-001 -2.93293506e-001
      -2.97587097e-001 -3.29617381e-001 -6.19157493e-001 1.90823674e-001
      -3.89752656e-001 -4.34193939e-001 -2.19926149e-001
      -5.72228074e-001 -2.49820113e-001 -6.53409600e-001
      -1.68479830e-001 -6.44575775e-001 -7.39854038e-001 8.60271007e-002
      3.44196931e-002</_>
    <_>
      4.51356143e-001 -6.14731550e-001 -2.11350873e-001 -6.99618220e-001
      -6.41385555e-001 -2.01497823e-001 -6.03699386e-001
      -6.32941365e-001 -4.38639313e-001 -5.33073545e-001
      -3.20826858e-001 -6.48543656e-001 -6.08094394e-001
      -1.46239713e-001 -5.73890865e-001 -1.12205014e-001
      -2.91989386e-001 -5.36017716e-001 4.10721153e-001 -5.45099318e-001
      -2.04086900e-002 -5.08962810e-001 -5.18317461e-001
      -7.71009982e-001 -3.73746157e-001 3.31562199e-002 -6.02872074e-001
      -6.11218452e-001 -5.24106622e-001 -5.40022016e-001
      -2.70801067e-001 -5.93860090e-001 -5.02143502e-001
      -1.44565850e-001 -2.93293506e-001 -2.97587097e-001
      -6.26790285e-001 -6.19157493e-001 -5.89762509e-001 1.18655361e-001
      -4.34193939e-001 -5.36900699e-001 -5.72228074e-001
      -2.49820113e-001 -1.69997424e-001 -1.68479830e-001
      -6.44575775e-001 2.34287113e-001 8.60271007e-002 -6.45369470e-001</_>
    <_>
      -7.12167025e-001 -6.14731550e-001 -6.45736992e-001
      -6.99618220e-001 -6.41385555e-001 -2.01497823e-001
      -6.03699386e-001 -3.39457154e-001 -4.38639313e-001
      -5.33073545e-001 -3.20826858e-001 -6.48543656e-001
      -6.08094394e-001 -6.08357191e-001 -5.73890865e-001
      -1.12205014e-001 -2.91989386e-001 -5.36017716e-001
      -7.58538961e-001 -5.45099318e-001 -5.75173736e-001
      -5.08962810e-001 -5.18317461e-001 -7.71009982e-001
      -6.75031304e-001 -6.32072985e-001 -9.38338116e-002
      -6.11218452e-001 -5.24106622e-001 -5.40022016e-001
      -2.70801067e-001 -5.93860090e-001 3.97576543e-004 -5.61760485e-001
      -2.93293506e-001 -2.97587097e-001 -6.26790285e-001
      -6.19157493e-001 -5.89762509e-001 1.18655361e-001 -4.34193939e-001
      -2.19926149e-001 -5.72228074e-001 -2.49820113e-001
      -6.53409600e-001 -1.68479830e-001 -6.44575775e-001
      -7.39854038e-001 -7.50420928e-001 -6.45369470e-001</_>
    <_>
      8.39197218e-001 -6.14731550e-001 -6.45736992e-001 -6.99618220e-001
      -6.41385555e-001 -2.01497823e-001 -6.03699386e-001
      -6.32941365e-001 -4.38639313e-001 -5.33073545e-001
      -3.20826858e-001 -6.48543656e-001 -6.08094394e-001
      -6.08357191e-001 -5.73890865e-001 -1.12205014e-001
      -2.91989386e-001 -5.36017716e-001 -1.73908919e-001
      -5.45099318e-001 -5.75173736e-001 -5.08962810e-001
      -5.18317461e-001 -7.71009982e-001 -7.24610090e-002
      -6.32072985e-001 -6.02872074e-001 -6.11218452e-001
      -5.24106622e-001 -5.40022016e-001 -2.70801067e-001
      -2.51415223e-001 -5.02143502e-001 -5.61760485e-001
      -2.93293506e-001 -2.97587097e-001 -6.26790285e-001
      -3.72119904e-001 -5.89762509e-001 -3.89752656e-001
      -4.34193939e-001 -5.36900699e-001 -5.72228074e-001
      -2.49820113e-001 -6.53409600e-001 -1.68479830e-001
      -6.44575775e-001 -4.15140301e-001 -7.50420928e-001
      -6.45369470e-001</_>
    <_>
      -3.24325949e-001 -6.14731550e-001 -6.45736992e-001
      -6.99618220e-001 6.98633194e-001 -2.01497823e-001 -6.03699386e-001
      -4.59729880e-002 -1.82310104e-001 -5.33073545e-001
      -3.20826858e-001 -6.48543656e-001 -1.23764649e-001
      -6.08357191e-001 -5.73890865e-001 1.99503019e-001 -2.91989386e-001
      -5.36017716e-001 -1.73908919e-001 -5.45099318e-001
      -2.97791213e-001 -5.08962810e-001 -5.18317461e-001
      -7.71009982e-001 -7.24610090e-002 -4.10329908e-001 4.15204465e-001
      -6.11218452e-001 -5.24106622e-001 -5.40022016e-001
      -2.70801067e-001 -5.93860090e-001 -5.02143502e-001
      -5.61760485e-001 -2.93293506e-001 -2.97587097e-001
      -6.26790285e-001 -6.19157493e-001 -1.99469417e-001
      -3.89752656e-001 -4.34193939e-001 9.70483944e-002 -5.72228074e-001
      -2.49820113e-001 -4.11703497e-001 -1.68479830e-001
      -3.13916773e-001 -4.15140301e-001 8.60271007e-002 -3.05474907e-001</_>
    <_>
      -7.12167025e-001 1.16538465e+000 -6.45736992e-001 -6.99618220e-001
      2.86238119e-002 -2.01497823e-001 -6.03699386e-001 -6.32941365e-001
      -4.38639313e-001 2.96395034e-001 -3.20826858e-001 -3.31053674e-001
      -6.08094394e-001 -6.08357191e-001 -3.21753889e-001
      -4.23913032e-001 -2.91989386e-001 -2.68959641e-001 9.95351255e-001
      -5.45099318e-001 -5.75173736e-001 -5.08962810e-001
      -5.18317461e-001 -7.71009982e-001 -6.75031304e-001
      -6.32072985e-001 -6.02872074e-001 -6.11218452e-001
      -2.60068864e-001 -5.40022016e-001 -2.70801067e-001
      -2.51415223e-001 -5.02143502e-001 -5.61760485e-001
      -2.93293506e-001 -2.97587097e-001 -3.24444808e-002
      -6.19157493e-001 -1.99469417e-001 -3.89752656e-001
      -4.34193939e-001 9.70483944e-002 -5.72228074e-001 -2.49820113e-001
      -6.53409600e-001 -1.68479830e-001 -3.13916773e-001
      -7.39854038e-001 9.22475040e-001 -6.45369470e-001</_>
    <_>
      -7.12167025e-001 -6.14731550e-001 -6.45736992e-001
      -6.99618220e-001 -6.41385555e-001 -2.01497823e-001
      -6.03699386e-001 -6.32941365e-001 -4.38639313e-001
      -5.33073545e-001 -3.20826858e-001 -6.48543656e-001
      -6.08094394e-001 -6.08357191e-001 -5.73890865e-001
      -4.23913032e-001 -2.91989386e-001 -5.36017716e-001
      -7.58538961e-001 -5.45099318e-001 -5.75173736e-001
      -5.08962810e-001 -5.18317461e-001 2.60266840e-001 -6.75031304e-001
      -6.32072985e-001 -6.02872074e-001 -6.11218452e-001
      -5.24106622e-001 -5.40022016e-001 -2.70801067e-001
      -5.93860090e-001 -5.02143502e-001 -5.61760485e-001
      -2.93293506e-001 -2.97587097e-001 -6.26790285e-001
      -3.72119904e-001 -5.89762509e-001 -3.89752656e-001
      -4.34193939e-001 -5.36900699e-001 -5.72228074e-001
      -2.49820113e-001 -4.11703497e-001 -1.68479830e-001
      -6.44575775e-001 -4.15140301e-001 -7.50420928e-001
      -6.45369470e-001</_>
    <_>
      4.51356143e-001 -6.14731550e-001 -6.45736992e-001 -6.99618220e-001
      -6.41385555e-001 -2.01497823e-001 -6.03699386e-001
      -6.32941365e-001 -4.38639313e-001 -5.33073545e-001
      -3.20826858e-001 -6.48543656e-001 -6.08094394e-001
      -6.08357191e-001 -5.73890865e-001 -4.23913032e-001
      -2.91989386e-001 -5.36017716e-001 -1.73908919e-001
      -5.45099318e-001 -5.75173736e-001 -5.08962810e-001
      -5.18317461e-001 -7.71009982e-001 -6.75031304e-001
      -4.10329908e-001 -6.02872074e-001 -6.11218452e-001
      -5.24106622e-001 -5.40022016e-001 -2.70801067e-001
      -5.93860090e-001 -5.02143502e-001 -5.61760485e-001
      -2.93293506e-001 -2.97587097e-001 -6.26790285e-001
      -6.19157493e-001 -5.89762509e-001 -3.89752656e-001
      -4.34193939e-001 -5.36900699e-001 -5.72228074e-001
      -2.49820113e-001 -4.11703497e-001 -1.68479830e-001
      -3.13916773e-001 -7.39854038e-001 -7.50420928e-001
      -6.45369470e-001</_>
    <_>
      8.39197218e-001 -6.14731550e-001 -2.11350873e-001 -6.99618220e-001
      -6.41385555e-001 -2.01497823e-001 -6.03699386e-001
      -6.32941365e-001 -4.38639313e-001 -5.33073545e-001
      -3.20826858e-001 -6.48543656e-001 3.60565096e-001 3.15877736e-001
      -5.73890865e-001 -1.12205014e-001 -2.91989386e-001
      -5.36017716e-001 -1.73908919e-001 -5.45099318e-001
      -5.75173736e-001 -5.08962810e-001 -5.18317461e-001
      -7.71009982e-001 -7.24610090e-002 -4.10329908e-001
      -6.02872074e-001 -6.11218452e-001 -5.24106622e-001
      -5.40022016e-001 -2.70801067e-001 -5.93860090e-001
      -5.02143502e-001 -1.44565850e-001 -2.93293506e-001
      -2.97587097e-001 -6.26790285e-001 -3.72119904e-001
      -5.89762509e-001 -3.89752656e-001 -4.34193939e-001
      -5.36900699e-001 -5.72228074e-001 -2.49820113e-001 7.96826959e-001
      -1.68479830e-001 -6.44575775e-001 -9.04266015e-002
      -7.50420928e-001 -6.45369470e-001</_>
    <_>
      6.35150969e-002 -6.14731550e-001 -2.11350873e-001 -6.56989142e-002
      2.86238119e-002 -2.01497823e-001 -6.03699386e-001 -6.32941365e-001
      -4.38639313e-001 -5.33073545e-001 -3.20826858e-001
      -6.48543656e-001 -1.23764649e-001 -6.08357191e-001
      -5.73890865e-001 -4.23913032e-001 -2.91989386e-001
      -5.36017716e-001 -1.73908919e-001 -5.45099318e-001
      -5.75173736e-001 -5.08962810e-001 -5.18317461e-001 2.60266840e-001
      -7.24610090e-002 2.54899293e-001 -6.02872074e-001 -6.11218452e-001
      -5.24106622e-001 -5.40022016e-001 -2.70801067e-001
      -2.51415223e-001 -5.02143502e-001 2.72628754e-001 -2.93293506e-001
      -2.97587097e-001 -6.26790285e-001 -6.19157493e-001
      -5.89762509e-001 1.18655361e-001 -4.34193939e-001 -5.36900699e-001
      -5.72228074e-001 -2.49820113e-001 -1.69997424e-001
      -1.68479830e-001 -6.44575775e-001 -4.15140301e-001 8.60271007e-002
      -3.05474907e-001</_>
    <_>
      1.22703826e+000 -6.14731550e-001 -6.45736992e-001 -6.56989142e-002
      -6.41385555e-001 -2.01497823e-001 -6.03699386e-001
      -6.32941365e-001 -4.38639313e-001 -5.33073545e-001 1.72512725e-001
      -6.48543656e-001 -6.08094394e-001 -6.08357191e-001
      -5.73890865e-001 -4.23913032e-001 1.18549660e-001 -5.36017716e-001
      -7.58538961e-001 -5.45099318e-001 -5.75173736e-001 1.30963504e+000
      2.12065235e-001 2.60266840e-001 -7.24610090e-002 -4.10329908e-001
      -6.02872074e-001 -1.83196217e-001 -5.24106622e-001
      -5.40022016e-001 -2.70801067e-001 -5.93860090e-001
      -5.02143502e-001 -5.61760485e-001 -2.93293506e-001
      -2.97587097e-001 -3.29617381e-001 -6.19157493e-001
      -5.89762509e-001 -3.89752656e-001 1.03981102e+000 -5.36900699e-001
      -5.72228074e-001 -2.49820113e-001 -6.53409600e-001
      -1.68479830e-001 -6.44575775e-001 -4.15140301e-001 9.22475040e-001
      -6.45369470e-001</_>
    <_>
      -7.12167025e-001 -6.14731550e-001 -4.28543925e-001
      -6.99618220e-001 -6.41385555e-001 -2.01497823e-001
      -6.03699386e-001 -6.32941365e-001 -4.38639313e-001
      -5.33073545e-001 -3.20826858e-001 -6.48543656e-001
      -6.08094394e-001 -6.08357191e-001 -5.73890865e-001
      -4.23913032e-001 -2.91989386e-001 -5.36017716e-001
      -7.58538961e-001 -5.45099318e-001 -5.75173736e-001
      -5.08962810e-001 -5.18317461e-001 -7.71009982e-001
      -6.75031304e-001 -6.32072985e-001 -6.02872074e-001
      -6.11218452e-001 -5.24106622e-001 -5.40022016e-001
      -2.70801067e-001 -2.51415223e-001 -5.02143502e-001
      -5.61760485e-001 -2.93293506e-001 -2.97587097e-001
      -6.26790285e-001 -3.72119904e-001 -5.89762509e-001
      -3.89752656e-001 -4.34193939e-001 -5.36900699e-001
      -5.72228074e-001 -2.49820113e-001 -6.53409600e-001
      -1.68479830e-001 -6.44575775e-001 -7.39854038e-001
      -7.50420928e-001 -6.45369470e-001</_>
    <_>
      -7.12167025e-001 -6.14731550e-001 -6.45736992e-001 5.68220377e-001
      2.86238119e-002 -2.01497823e-001 -6.03699386e-001 -6.32941365e-001
      -4.38639313e-001 -2.56584018e-001 -3.20826858e-001
      -3.31053674e-001 -1.23764649e-001 -6.08357191e-001
      -5.73890865e-001 -4.23913032e-001 -2.91989386e-001
      -1.90155255e-003 -7.58538961e-001 -5.45099318e-001
      -5.75173736e-001 -5.08962810e-001 -5.18317461e-001 1.29154372e+000
      -6.75031304e-001 -6.32072985e-001 -9.38338116e-002
      -6.11218452e-001 -5.24106622e-001 -5.40022016e-001
      -2.70801067e-001 -2.51415223e-001 -5.02143502e-001
      -5.61760485e-001 -2.93293506e-001 -2.97587097e-001
      -3.24444808e-002 -3.72119904e-001 -5.89762509e-001
      -3.89752656e-001 -4.34193939e-001 -5.36900699e-001
      -5.72228074e-001 -2.49820113e-001 -6.53409600e-001
      -1.68479830e-001 -6.44575775e-001 -7.39854038e-001 8.60271007e-002
      -6.45369470e-001</_>
    <_>
      -7.12167025e-001 7.20355570e-001 -6.45736992e-001 -6.99618220e-001
      6.98633194e-001 -2.01497823e-001 -6.03699386e-001 -4.59729880e-002
      -4.38639313e-001 -5.33073545e-001 -3.20826858e-001
      -6.48543656e-001 3.60565096e-001 -6.08357191e-001 -5.73890865e-001
      -1.12205014e-001 1.18549660e-001 -2.68959641e-001 -1.73908919e-001
      9.79296342e-002 -5.75173736e-001 -5.08962810e-001 1.30763924e+000
      2.32282043e+000 -6.75031304e-001 -6.32072985e-001 -9.38338116e-002
      2.44826019e-001 -5.24106622e-001 -5.40022016e-001 1.46628886e-001
      -5.93860090e-001 3.97576543e-004 -1.44565850e-001 -2.93293506e-001
      -2.97587097e-001 -6.26790285e-001 -6.19157493e-001 1.36170292e+000
      -3.89752656e-001 -4.34193939e-001 -5.36900699e-001
      -5.72228074e-001 -2.49820113e-001 -6.53409600e-001
      -1.68479830e-001 -6.44575775e-001 -7.39854038e-001
      -7.50420928e-001 3.74314278e-001</_>
    <_>
      -3.24325949e-001 -6.14731550e-001 -6.45736992e-001
      -6.99618220e-001 -6.41385555e-001 -2.01497823e-001
      -6.03699386e-001 -6.32941365e-001 -4.38639313e-001
      -5.33073545e-001 -3.20826858e-001 -6.48543656e-001
      -6.08094394e-001 -6.08357191e-001 -5.73890865e-001
      -1.12205014e-001 -2.91989386e-001 -5.36017716e-001
      -7.58538961e-001 -5.45099318e-001 -5.75173736e-001
      -5.08962810e-001 -5.18317461e-001 -7.71009982e-001
      -3.73746157e-001 -6.32072985e-001 -6.02872074e-001
      -6.11218452e-001 -5.24106622e-001 -5.40022016e-001
      -2.70801067e-001 -2.51415223e-001 -5.02143502e-001
      -5.61760485e-001 -2.93293506e-001 -2.97587097e-001
      -6.26790285e-001 -6.19157493e-001 -5.89762509e-001
      -3.89752656e-001 -4.34193939e-001 -5.36900699e-001
      -5.72228074e-001 -2.49820113e-001 -6.53409600e-001
      -1.68479830e-001 -6.44575775e-001 -4.15140301e-001
      -7.50420928e-001 -6.45369470e-001</_>
    <_>
      4.51356143e-001 -6.14731550e-001 -2.11350873e-001 5.68220377e-001
      2.86238119e-002 -2.01497823e-001 -6.03699386e-001 2.47511193e-001
      -1.82310104e-001 1.99055057e-002 -3.20826858e-001 -6.48543656e-001
      -1.23764649e-001 8.48190188e-002 -5.73890865e-001 -4.23913032e-001
      -2.91989386e-001 -5.36017716e-001 -1.73908919e-001
      -5.45099318e-001 -5.75173736e-001 -5.08962810e-001
      -5.18317461e-001 -7.71009982e-001 -7.24610090e-002
      -1.88586846e-001 4.15204465e-001 -6.11218452e-001 -2.60068864e-001
      -5.40022016e-001 -2.70801067e-001 7.75919437e-001 5.02938628e-001
      1.10701799e+000 -2.93293506e-001 -2.97587097e-001 -3.24444808e-002
      -3.72119904e-001 -1.99469417e-001 6.27063334e-001 -4.34193939e-001
      -2.19926149e-001 -1.01485305e-001 -2.49820113e-001
      -4.11703497e-001 -1.68479830e-001 -6.44575775e-001
      -7.39854038e-001 8.60271007e-002 -3.05474907e-001</_>
    <_>
      6.35150969e-002 2.05544281e+000 -6.45736992e-001 -6.99618220e-001
      2.86238119e-002 -2.01497823e-001 -2.29718294e-002 -6.32941365e-001
      -4.38639313e-001 -2.56584018e-001 -3.20826858e-001
      -3.31053674e-001 -1.23764649e-001 -6.08357191e-001
      -3.21753889e-001 -4.23913032e-001 -2.91989386e-001
      -5.36017716e-001 4.10721153e-001 -5.45099318e-001 -5.75173736e-001
      -5.08962810e-001 -5.18317461e-001 2.60266840e-001 -7.24610090e-002
      -6.32072985e-001 -9.38338116e-002 2.44826019e-001 -5.24106622e-001
      -2.88885951e-001 -2.70801067e-001 -5.93860090e-001
      -5.02143502e-001 -1.44565850e-001 -2.93293506e-001
      -2.97587097e-001 -3.29617381e-001 -6.19157493e-001 5.81116736e-001
      -3.89752656e-001 5.48475981e-001 -5.36900699e-001 -5.72228074e-001
      -2.49820113e-001 -6.53409600e-001 -1.68479830e-001
      -6.44575775e-001 -9.04266015e-002 -7.50420928e-001
      -3.05474907e-001</_>
    <_>
      -3.24325949e-001 -6.14731550e-001 -6.45736992e-001
      -6.56989142e-002 6.98633194e-001 -2.01497823e-001 -2.29718294e-002
      -4.59729880e-002 -4.38639313e-001 -5.33073545e-001
      -3.20826858e-001 -6.48543656e-001 -6.08094394e-001
      -6.08357191e-001 -6.96169212e-002 -4.23913032e-001
      -2.91989386e-001 -5.36017716e-001 -7.58538961e-001
      -5.45099318e-001 -5.75173736e-001 -5.08962810e-001
      -5.18317461e-001 2.60266840e-001 -3.73746157e-001 -6.32072985e-001
      -6.02872074e-001 -6.11218452e-001 -5.24106622e-001
      -5.40022016e-001 -2.70801067e-001 -2.51415223e-001
      -5.02143502e-001 -1.44565850e-001 -2.93293506e-001
      -2.97587097e-001 -6.26790285e-001 -6.19157493e-001 1.90823674e-001
      -3.89752656e-001 -4.34193939e-001 -5.36900699e-001
      -5.72228074e-001 -2.49820113e-001 -6.53409600e-001
      -1.68479830e-001 3.47401232e-001 -4.15140301e-001 8.60271007e-002
      -6.45369470e-001</_>
    <_>
      -3.24325949e-001 -1.69702515e-001 -6.45736992e-001
      -6.99618220e-001 -6.41385555e-001 -2.01497823e-001 2.67391950e-001
      -6.32941365e-001 -4.38639313e-001 -2.56584018e-001
      -3.20826858e-001 -3.31053674e-001 -1.23764649e-001
      -6.08357191e-001 -3.21753889e-001 -4.23913032e-001 1.18549660e-001
      -5.36017716e-001 -7.58538961e-001 9.79296342e-002 -5.75173736e-001
      1.30963504e+000 1.30763924e+000 2.60266840e-001 -3.73746157e-001
      -4.10329908e-001 -9.38338116e-002 -6.11218452e-001
      -5.24106622e-001 -5.40022016e-001 -2.70801067e-001
      -2.51415223e-001 5.02938628e-001 -5.61760485e-001 -2.93293506e-001
      -2.97587097e-001 -6.26790285e-001 -6.19157493e-001
      -5.89762509e-001 -3.89752656e-001 5.71410209e-002 -5.36900699e-001
      -5.72228074e-001 -2.49820113e-001 -6.53409600e-001
      -1.68479830e-001 -6.44575775e-001 -4.15140301e-001 8.60271007e-002
      -6.45369470e-001</_>
    <_>
      6.35150969e-002 -6.14731550e-001 -6.45736992e-001 -6.99618220e-001
      -6.41385555e-001 -2.01497823e-001 -6.03699386e-001
      -6.32941365e-001 -4.38639313e-001 -5.33073545e-001
      -3.20826858e-001 -6.48543656e-001 -6.08094394e-001
      -6.08357191e-001 -5.73890865e-001 -4.23913032e-001
      -2.91989386e-001 -5.36017716e-001 -7.58538961e-001
      -5.45099318e-001 -5.75173736e-001 -5.08962810e-001
      -5.18317461e-001 1.29154372e+000 -3.73746157e-001 -6.32072985e-001
      -6.02872074e-001 -6.11218452e-001 -5.24106622e-001
      -5.40022016e-001 -2.70801067e-001 -5.93860090e-001
      -5.02143502e-001 -5.61760485e-001 -2.93293506e-001
      -2.97587097e-001 -6.26790285e-001 -6.19157493e-001
      -5.89762509e-001 -3.89752656e-001 -4.34193939e-001
      -5.36900699e-001 -5.72228074e-001 -2.49820113e-001
      -4.11703497e-001 -1.68479830e-001 -6.44575775e-001 5.59000790e-001
      -7.50420928e-001 -6.45369470e-001</_>
    <_>
      -7.12167025e-001 -6.14731550e-001 -6.45736992e-001
      -6.99618220e-001 -6.41385555e-001 -2.01497823e-001
      -6.03699386e-001 -6.32941365e-001 -4.38639313e-001
      -5.33073545e-001 -3.20826858e-001 -6.48543656e-001
      -6.08094394e-001 -6.08357191e-001 -5.73890865e-001
      -4.23913032e-001 -2.91989386e-001 -5.36017716e-001
      -7.58538961e-001 -5.45099318e-001 -5.75173736e-001
      -5.08962810e-001 -5.18317461e-001 -7.71009982e-001
      -6.75031304e-001 -6.32072985e-001 -6.02872074e-001
      -6.11218452e-001 -5.24106622e-001 -5.40022016e-001
      -2.70801067e-001 9.10296440e-002 -5.02143502e-001 -1.44565850e-001
      -2.93293506e-001 -2.97587097e-001 -6.26790285e-001
      -6.19157493e-001 -5.89762509e-001 -3.89752656e-001
      -4.34193939e-001 -5.36900699e-001 -1.01485305e-001
      -2.49820113e-001 -6.53409600e-001 -1.68479830e-001
      -6.44575775e-001 -4.15140301e-001 -7.50420928e-001
      -6.45369470e-001</_>
    <_>
      -7.12167025e-001 -6.14731550e-001 -6.45736992e-001
      -6.99618220e-001 1.36864257e+000 -2.01497823e-001 5.57755768e-001
      -6.32941365e-001 -4.38639313e-001 -5.33073545e-001
      -3.20826858e-001 -6.48543656e-001 -6.08094394e-001
      -6.08357191e-001 1.82520047e-001 1.99503019e-001 -2.91989386e-001
      -5.36017716e-001 -1.73908919e-001 -5.45099318e-001
      -5.75173736e-001 -5.08962810e-001 -5.18317461e-001
      -7.71009982e-001 -7.24610090e-002 -6.32072985e-001
      -6.02872074e-001 -1.83196217e-001 -5.24106622e-001 2.13386178e-001
      -2.70801067e-001 -2.51415223e-001 -5.02143502e-001 2.72628754e-001
      -2.93293506e-001 -2.97587097e-001 -6.26790285e-001
      -1.25082314e-001 -5.89762509e-001 -3.89752656e-001
      -4.34193939e-001 -5.36900699e-001 -1.01485305e-001
      -2.49820113e-001 -6.53409600e-001 -1.68479830e-001
      -3.13916773e-001 -9.04266015e-002 1.75892305e+000 -6.45369470e-001</_>
    <_>
      -7.12167025e-001 -6.14731550e-001 -6.45736992e-001
      -6.99618220e-001 -6.41385555e-001 -2.01497823e-001
      -6.03699386e-001 -6.32941365e-001 -4.38639313e-001
      -5.33073545e-001 -3.20826858e-001 -6.48543656e-001
      -1.23764649e-001 -6.08357191e-001 -3.21753889e-001
      -4.23913032e-001 -2.91989386e-001 -5.36017716e-001
      -7.58538961e-001 -5.45099318e-001 -5.75173736e-001
      -5.08962810e-001 -5.18317461e-001 -7.71009982e-001
      -6.75031304e-001 -6.32072985e-001 -6.02872074e-001
      -6.11218452e-001 -5.24106622e-001 -2.88885951e-001
      -2.70801067e-001 -5.93860090e-001 -5.02143502e-001
      -1.44565850e-001 -2.93293506e-001 -2.97587097e-001
      -6.26790285e-001 -6.19157493e-001 -5.89762509e-001
      -3.89752656e-001 -4.34193939e-001 -5.36900699e-001
      -5.72228074e-001 -2.49820113e-001 -6.53409600e-001
      -1.68479830e-001 -6.44575775e-001 -4.15140301e-001
      -7.50420928e-001 -6.45369470e-001</_>
    <_>
      -7.12167025e-001 -6.14731550e-001 -6.45736992e-001
      -6.99618220e-001 -6.41385555e-001 -2.01497823e-001
      -6.03699386e-001 -6.32941365e-001 -4.38639313e-001
      -5.33073545e-001 -3.20826858e-001 -6.48543656e-001
      -6.08094394e-001 -6.08357191e-001 -5.73890865e-001
      -4.23913032e-001 -2.91989386e-001 -5.36017716e-001
      -7.58538961e-001 -5.45099318e-001 -5.75173736e-001
      -5.08962810e-001 -5.18317461e-001 2.60266840e-001 -6.75031304e-001
      -6.32072985e-001 -6.02872074e-001 -6.11218452e-001
      -5.24106622e-001 -3.77498902e-002 -2.70801067e-001
      -5.93860090e-001 -5.02143502e-001 2.72628754e-001 -2.93293506e-001
      -2.97587097e-001 -6.26790285e-001 -6.19157493e-001
      -5.89762509e-001 -3.89752656e-001 -4.34193939e-001
      -5.36900699e-001 -5.72228074e-001 -2.49820113e-001
      -6.53409600e-001 -1.68479830e-001 -6.44575775e-001
      -4.15140301e-001 -7.50420928e-001 -6.45369470e-001</_>
    <_>
      -7.12167025e-001 -1.69702515e-001 -6.45736992e-001
      -6.56989142e-002 -6.41385555e-001 -2.01497823e-001
      -2.29718294e-002 -3.39457154e-001 -4.38639313e-001 2.96395034e-001
      -3.20826858e-001 -6.48543656e-001 -6.08094394e-001
      -6.08357191e-001 1.82520047e-001 -4.23913032e-001 -2.91989386e-001
      -2.68959641e-001 -1.73908919e-001 -5.45099318e-001
      -5.75173736e-001 -5.08962810e-001 -5.18317461e-001
      -7.71009982e-001 -6.75031304e-001 -6.32072985e-001
      -6.02872074e-001 -6.11218452e-001 -2.60068864e-001
      -5.40022016e-001 -2.70801067e-001 9.10296440e-002 -5.02143502e-001
      -1.44565850e-001 -2.93293506e-001 -2.97587097e-001 5.61901331e-001
      -6.19157493e-001 -5.89762509e-001 -3.89752656e-001
      -4.34193939e-001 1.04797208e+000 -5.72228074e-001 -2.49820113e-001
      -6.53409600e-001 -1.68479830e-001 -3.13916773e-001
      -7.39854038e-001 -7.50420928e-001 -3.05474907e-001</_>
    <_>
      -3.24325949e-001 -6.14731550e-001 -6.45736992e-001
      -6.99618220e-001 -6.41385555e-001 -2.01497823e-001
      -6.03699386e-001 -6.32941365e-001 -4.38639313e-001
      -5.33073545e-001 -3.20826858e-001 -6.48543656e-001
      -6.08094394e-001 -6.08357191e-001 -5.73890865e-001
      -4.23913032e-001 -2.91989386e-001 -5.36017716e-001
      -7.58538961e-001 -5.45099318e-001 -5.75173736e-001
      -5.08962810e-001 -5.18317461e-001 2.60266840e-001 -3.73746157e-001
      -6.32072985e-001 -6.02872074e-001 -6.11218452e-001
      -5.24106622e-001 -5.40022016e-001 -2.70801067e-001
      -2.51415223e-001 -5.02143502e-001 -1.44565850e-001
      -2.93293506e-001 -2.97587097e-001 -6.26790285e-001
      -6.19157493e-001 -5.89762509e-001 -3.89752656e-001
      -4.34193939e-001 -5.36900699e-001 -5.72228074e-001
      -2.49820113e-001 -4.11703497e-001 -1.68479830e-001
      -6.44575775e-001 2.34287113e-001 -7.50420928e-001 -6.45369470e-001</_>
    <_>
      -7.12167025e-001 -6.14731550e-001 -6.45736992e-001
      -6.99618220e-001 -6.41385555e-001 -2.01497823e-001
      -6.03699386e-001 -6.32941365e-001 -4.38639313e-001
      -5.33073545e-001 -3.20826858e-001 -6.48543656e-001
      -6.08094394e-001 -6.08357191e-001 -5.73890865e-001
      -4.23913032e-001 1.18549660e-001 -5.36017716e-001 -7.58538961e-001
      -5.45099318e-001 -5.75173736e-001 -5.08962810e-001
      -5.18317461e-001 -7.71009982e-001 -7.24610090e-002
      -6.32072985e-001 -9.38338116e-002 -1.83196217e-001
      -5.24106622e-001 -5.40022016e-001 1.46628886e-001 -5.93860090e-001
      3.97576543e-004 -1.44565850e-001 -2.93293506e-001 -2.97587097e-001
      -6.26790285e-001 -6.19157493e-001 -5.89762509e-001 1.18655361e-001
      -4.34193939e-001 7.30997503e-001 -5.72228074e-001 -2.49820113e-001
      -6.53409600e-001 -1.68479830e-001 -6.44575775e-001
      -7.39854038e-001 -7.50420928e-001 -6.45369470e-001</_>
    <_>
      -7.12167025e-001 -6.14731550e-001 -6.45736992e-001
      -6.99618220e-001 -6.41385555e-001 -2.01497823e-001
      -6.03699386e-001 -6.32941365e-001 -4.38639313e-001
      -5.33073545e-001 1.72512725e-001 -6.48543656e-001 -6.08094394e-001
      -6.08357191e-001 9.38930988e-001 1.99503019e-001 9.39627826e-001
      -5.36017716e-001 -1.73908919e-001 -5.45099318e-001
      -5.75173736e-001 -5.08962810e-001 -5.18317461e-001 1.29154372e+000
      -6.75031304e-001 -6.32072985e-001 -9.38338116e-002
      -6.11218452e-001 -5.24106622e-001 -3.77498902e-002
      -2.70801067e-001 -2.51415223e-001 -5.02143502e-001
      -5.61760485e-001 -8.56001955e-003 1.42354548e-001 -6.26790285e-001
      -6.19157493e-001 -5.89762509e-001 6.27063334e-001 -4.34193939e-001
      -5.36900699e-001 -5.72228074e-001 5.83353043e-001 -6.53409600e-001
      -1.68479830e-001 -6.44575775e-001 -9.04266015e-002 8.60271007e-002
      -6.45369470e-001</_>
    <_>
      -3.24325949e-001 2.75326550e-001 -6.45736992e-001 -6.56989142e-002
      6.98633194e-001 -2.01497823e-001 -6.03699386e-001 -3.39457154e-001
      -4.38639313e-001 -5.33073545e-001 -3.20826858e-001
      -3.31053674e-001 -6.08094394e-001 -6.08357191e-001
      -5.73890865e-001 -4.23913032e-001 -2.91989386e-001
      -5.36017716e-001 -7.58538961e-001 9.79296342e-002 -5.75173736e-001
      -5.08962810e-001 2.12065235e-001 2.60266840e-001 -6.75031304e-001
      -6.32072985e-001 -9.38338116e-002 2.44826019e-001 -5.24106622e-001
      -5.40022016e-001 -2.70801067e-001 -5.93860090e-001
      -5.02143502e-001 2.72628754e-001 -2.93293506e-001 -2.97587097e-001
      -6.26790285e-001 -6.19157493e-001 -5.89762509e-001
      -3.89752656e-001 -4.34193939e-001 -5.36900699e-001
      -5.72228074e-001 -2.49820113e-001 -6.53409600e-001
      -1.68479830e-001 -3.13916773e-001 -7.39854038e-001 8.60271007e-002
      -6.45369470e-001</_>
    <_>
      -7.12167025e-001 -6.14731550e-001 -6.45736992e-001
      -6.99618220e-001 -6.41385555e-001 -2.01497823e-001
      -3.13335627e-001 -6.32941365e-001 -4.38639313e-001
      -5.33073545e-001 -3.20826858e-001 -6.48543656e-001
      -1.23764649e-001 -6.08357191e-001 -5.73890865e-001
      -4.23913032e-001 -2.91989386e-001 -5.36017716e-001
      -7.58538961e-001 -5.45099318e-001 -5.75173736e-001
      -5.08962810e-001 -5.18317461e-001 -7.71009982e-001
      -6.75031304e-001 -6.32072985e-001 -6.02872074e-001
      -6.11218452e-001 -5.24106622e-001 -5.40022016e-001
      -2.70801067e-001 -2.51415223e-001 -5.02143502e-001
      -1.44565850e-001 -2.93293506e-001 -2.97587097e-001
      -6.26790285e-001 -6.19157493e-001 -5.89762509e-001
      -3.89752656e-001 -4.34193939e-001 -5.36900699e-001
      -1.01485305e-001 -2.49820113e-001 -6.53409600e-001
